-2.16692903802
-2.1643899587
-2.16842676857
-2.17280904456
-2.17361326599
-2.16923933058
-2.16456600998
-2.16862523782
-2.17061477272
-2.16757262338
-2.17038375605
-2.16945068401
-2.16759647111
-2.17073772214
-2.16875337695
-2.16685340933
-2.17047713245
-2.17101732183
-2.16638965279
-2.16206469289
-2.16920599822
-2.14658371658
-2.16704058249
-2.16760796771
-2.17265189957
-2.16876179983
-2.16523053422
-2.16675713495
-2.16186803994
-2.1614310332
-2.1648356684
-2.15397309448
-2.17162929347
-2.16942985952
-2.17190663765
-2.16776990958
-2.17173457566
-2.17466364883
-2.16960672978
-2.16319923357
-2.17205660906
-2.16963377585
-2.16085756546
-2.16294290173
-2.17333709689
-2.17129803576
-2.16755055619
-2.17034642232
-2.16388807917
-2.16577336407
-2.16703167271
-2.16719129099
-2.1606963044
-2.17346728574
-2.17197436364
-2.16881255165
-2.16225383111
-2.17399551122
-2.16782441811
-2.17523749481
-2.17095956395
-2.17341347568
-2.16928179877
-2.17041639265
-2.16739904875
-2.16867240729
-2.16991838667
-2.16653887148
-2.17154885056
-2.17234481242
-2.17000918113
-2.16642928057
-2.17049722085
-2.17379024222
-2.1732356216
-2.17206130432
-2.16398543109
-2.16991450921
-2.16940633173
-2.17416411135
-2.16731120239
-2.17252312128
-2.17294325194
-2.1708276442
-2.17378318209
-2.16893291348
-2.17093179202
-2.1696434322
-2.1684532242
-2.16913561845
-2.16559132606
-2.16801169848
-2.17153503563
-2.16292207334
-2.16552398262
-2.16397660742
-2.17256288885
-2.16640902013
-2.16709839234
-2.16954112893
-2.16940970308
-2.16635065902
-2.17273729722
-2.16738562608
-2.17218523025
-2.16826277741
-2.16736247163
-2.17377416796
-2.1606767079
-2.16939843627
-2.17350186965
-2.15874331547
-2.17174721195
-2.17084477171
-2.16857446326
-2.16952485777
-2.16511639295
-2.17183730067
-2.15939870839
-2.16968793356
-2.16027915082
-2.17207043444
-2.16466564724
-2.16486731205
-2.17114465716
-2.17224825849
-2.16857892218
-2.16673110918
-2.17489803523
-2.16961038058
-2.17097242354
-2.17442101638
-2.16301965895
-2.16708543691
-2.16472506326
-2.16026755121
-2.17135616158
-2.16911584079
-2.17052541433
-2.16706909495
-2.15898438281
-2.17002575101
-2.1656970847
-2.17227556563
-2.16820420144
-2.17304858004
-2.17110047509
-2.17426166673
-2.16890334097
-2.16525516942
-2.17557772776
-2.16452200005
-2.17009421902
-2.17265095698
-2.1692255253
-2.16931001929
-2.16169715262
-2.16966929147
-2.1721272874
-2.17301645384
-2.17207860862
-2.16366768966
-2.16220621118
-2.17189641377
-2.16940220642
-2.17265088551
-2.16521246722
-2.16766602383
-2.17330962213
-2.16880374067
-2.17131218365
-2.16765101966
-2.16860334593
-2.1694641281
-2.17196595842
-2.17397511991
-2.1731419311
-2.17054693203
-2.16969707058
-2.17090681662
-2.17475009216
-2.17198194919
-2.16501820859
-2.16346014198
-2.16428539336
-2.16595960708
-2.16719363649
-2.1731899266
-2.1744726706
-2.16936613457
-2.16992676155
-2.17023945325
-2.17002394099
-2.17189255224
-2.16914623783
-2.16668890974
-2.1651640529
-2.1718122984
-2.17107792739
-2.17030181923
-2.16781228741
-2.17176650215
-2.17013350625
-2.17504418356
-2.17199707863
-2.16837485085
-2.16976601258
-2.16128799764
-2.1710089386
-2.17374231428
-2.17418394518
-2.15947965606
-2.17038279518
-2.17128808738
-2.17192845027
-2.16941672065
-2.16641905508
-2.17258505773
-2.17413771664
-2.17057598862
-2.16906498825
-2.1693472665
-2.16772941335
-2.16960430206
-2.1720278623
-2.16794960992
-2.1723410776
-2.17034501453
-2.17243784411
-2.16627730009
-2.16043861646
-2.16412071461
-2.16749091684
-2.16903974258
-2.16583027757
-2.1692787366
-2.17012633616
-2.17077229238
-2.16856952435
-2.17138197572
-2.17092254826
-2.16278084075
-2.16949083899
-2.16601136735
-2.16147670852
-2.15635935449
-2.17153207525
-2.17521758562
-2.16750473912
-2.16949019619
-0.0495453555297
0.0768538231168
0.000625336004331
0.000241215601784
-0.0351831540339
0.0374023002274
0.0838400076658
0.0893491762882
-0.0451355116781
0.0632193130142
-0.0306952296723
-0.0383371551878
-0.0575968860198
-0.0906269527732
0.0451251122431
0.0624085862426
-0.0727277359817
0.0718843396335
0.0461536091065
-0.00558649926408
-0.0340758248644
-0.0879215273334
0.0469169332872
0.0847504844085
0.0298912674688
-0.0148375940324
0.000159026277244
-0.0513461513109
-0.0763409923774
0.00810087998696
0.0108184707847
0.034452725978
-0.05332999854
-0.0689813453849
0.0435695666506
-0.0798564196185
-0.0347664437209
-0.017986045459
-0.0255515136019
0.0789797680024
-0.0180782643256
-0.0732180179665
-0.074134192026
0.0338160678497
0.0613413459588
-0.0782584784968
-0.0412639431227
-0.0866938550992
0.0483110350062
-0.0602161130242
-0.0145766845688
0.0119321795165
-0.0849575653352
-0.0685448806228
0.0377198735987
0.0624090580077
-0.0831521036085
0.062496865402
-0.0155671725955
-0.0376427834002
-0.0947247288474
-0.0286991614755
-0.0916140154924
-0.0155725981664
-0.0614815606009
0.0575006798115
0.0774596642461
0.0628528634062
0.0781798250054
0.0193195012999
0.0375714624054
-0.0808278240713
-0.014398740033
-0.0321286889474
-0.0269899461704
-0.0163424132063
0.0266838763394
0.0179431767109
0.08471571322
-0.0650189121319
0.0233345206809
0.0404948909777
0.092208108357
-0.0167018421698
0.0494939374378
-0.0800141166706
0.00793472064315
-0.0593956544764
-0.0658140370641
-0.00987149888062
-0.0937223357722
0.00197250458285
-0.0573323903506
-0.0386383186364
-0.073198636249
0.0766030814388
0.0284869303359
0.0327353259718
-0.0957594031544
-0.0409808329891
-0.0239157186186
-0.0878438580546
0.0810082132353
0.0422150152512
-0.0615611920634
0.0167973832444
-0.00727759781596
0.0391312335542
-0.0127349239018
-0.0107024626659
-0.075624022712
-0.0887776164199
-0.01742063328
-0.0169652407068
0.0758750411204
-0.024818043064
-0.0513085735743
-0.0419506820828
0.0702485369426
0.0314350884859
0.0635674513623
0.0611334740661
-0.0678218235263
0.0521996827747
0.0900926154762
-0.0906226826743
0.083053798929
-0.0360152910134
0.019496640951
-0.0886074835789
0.00124554520694
0.0350442673252
-0.0565323595096
-0.0886134522026
-0.0707726850643
-0.0503102189034
-0.0881592505728
0.0862850059747
0.0383794671383
-0.0899234141113
-0.0486858182311
0.0948382796271
0.0101373876819
-0.0503011144053
-0.0390198247959
0.00577228991063
-0.0443565337098
-0.043681718042
0.0321337902987
0.0160467101662
-0.0253572644667
-0.0734867522174
0.0945803865007
0.0817351902091
0.0268536260024
0.0138379374648
-0.093505976662
0.089344592103
-0.0126526505392
0.0438755188087
0.0215557172591
-0.0283866745709
-0.00301032972215
0.0337654191517
-0.0139243839632
-0.0665547416564
0.0622622610172
-0.0323394393651
0.0583926830207
-0.0913613646177
-0.0286920179586
0.0708100311562
0.000154309255729
0.0561821407547
-0.0672336780465
0.0710316167004
0.0331723118412
-0.0384279197143
-0.0398181464055
-0.034843522504
0.0868200353484
-0.0796873228033
0.0320188909748
-0.0241392256729
-0.0825476205795
0.0482717161442
0.00780561665991
0.0191227803378
-0.0409406827167
0.01932021819
0.0727264592917
0.0799745649108
-0.0264822845106
-0.0643294492404
-0.0434915970072
0.0556449642452
-0.0243852837223
-0.0599262374196
0.017741386212
-0.0723715224236
0.00920352835215
0.0655728594033
-0.0787554688699
0.0713112589563
-0.0285236561335
-0.0891343943535
-0.0643454507129
-0.0394405978068
0.0744485158842
0.0161941758402
-0.066612334776
-0.0894276271825
0.07095092399
0.0365887957725
0.0410916364281
0.0843089408038
-0.0702582831129
-0.0649397846154
0.0800391239483
-0.015178371437
-0.0307676451018
-0.0195773821092
0.0830798206944
0.0751628261588
-0.056905224199
-0.00862358437813
0.0227551164547
0.00291917735642
-0.0827712531049
0.0926005691515
0.071375639408
0.0146163776234
0.073142745583
0.0788729552265
0.0665248065176
-0.0435071840139
0.017875440117
-0.0589222704912
-0.0833404045938
-0.076284761233
0.00642701268488
-0.0630263976366
-0.0169590460902
0.0474145615037
0.0279672106675
0.0382193968264
-0.0215627057381
0.0449740782414
0.0349144929954
0.0333116065741
0.0725466764575
-0.0163805077727
-0.043785911247
-0.0598676344281
-0.0951965568026
0.0414910680066
-0.0700360140368
-0.0124924928977
-0.081874501936
-0.0239110527848
0.0665624262229
0.0419776193664
0.0247662781409
0.0889828103806
-0.047136255354
0.0608259521459
0.0341153364773
0.0646439762276
-0.0519296583509
-0.0337214786606
-0.0770324102349
-0.0646825593518
-0.0215123089887
0.042327850612
-0.0416017609617
0.0951265573064
0.017604339957
0.0741588254545
0.0215451287122
-0.0736735083059
0.00738456770391
-0.0134118347207
0.00778737675568
-0.0844715044759
0.0486285820331
0.0323632521185
0.00314040971445
-0.0871728419513
0.0742521716881
-0.00935362127681
-0.0938257414794
-0.071555008505
0.0183817553542
-0.0608746996377
0.033889182815
-0.0479091905916
0.0416923767577
-0.0421349357569
0.0581078648809
-0.0815157065324
-0.0504841881199
0.0854305948989
0.0830956414721
-0.0350058694532
-0.0647091682239
0.0674398621198
-0.0445061085394
0.0291572440929
0.0284558490215
-0.023332398059
-0.0496701822495
-0.0268050953092
0.0431591411558
0.0279346851463
0.0436467597603
0.0373116710303
0.00408707976474
-0.0582508298252
0.0842918031114
0.00396950830763
-0.0851170586213
-0.0923499526204
0.0138744432812
0.0801334721345
0.000540910311704
-0.0570212354169
-0.0618724508786
-0.0659938387488
0.00547998482842
0.094310933441
-0.00500926918278
-0.0816296999464
-0.0117483743194
-0.0718789922203
0.0565336609937
0.0754451722524
-0.0475260167269
-0.0415871958531
0.0869392779742
0.0722378661436
0.00679548596935
0.05274769316
-0.0637065590088
0.0919685356236
-0.0750814173433
-0.0549394084934
0.0525778153348
0.00838195446958
-0.0642029433701
-0.00634301902979
0.00944274177443
0.046934806672
-0.0844866643311
0.000254920948975
-0.017793422359
0.0156701024638
0.00390998975036
-0.0690449903869
-0.0403854653387
0.0484479788421
-0.0555802332563
-0.0806464884022
0.00576080935122
0.00487114397771
0.0920941120228
0.0832374048785
0.0369888774713
0.0739163469093
0.0270653940961
0.0184706423527
0.0349086646159
0.0404991469628
0.043841799061
-0.0427207501907
-0.0619352959023
0.0384264478423
0.028028112305
0.0139746203581
0.0716743641678
-0.0235440766246
0.0546966414797
-0.0526887829488
0.0353750780127
-0.000664939577118
-0.0442790256249
-0.0719035402356
0.0927361601904
-0.0227905839241
0.0734957884948
0.0643129487027
-0.0354615235882
0.0461557592561
0.0666040775303
-0.010938444296
-0.01548016577
-0.0134893106966
0.0673227238375
0.0265031312514
-0.0770582621167
-0.0788338422524
-0.0889086433291
0.0793716520385
0.0345856830156
0.0042822676903
-0.00219251961509
0.0384592847597
0.0899937020427
-0.0335892248084
-0.0305862741154
0.00247296047858
-0.0780856389817
0.088399509689
0.0433982156549
-0.0135878768985
-0.0133641110084
-0.00994955788036
-0.00553283930539
-0.0940168936603
-0.036006743941
0.0744866071803
-0.0772329079608
0.0853859131519
0.0369556170918
0.0896845759257
0.0758079039225
-0.0531830298979
-0.0354221467595
0.0386471476461
0.00195970289038
-0.0115078118211
-0.0946716370262
-0.0122391061313
-0.0136468505952
0.0162926666888
0.0866887237816
-0.00151853224323
-0.077412871033
-0.0916231198651
-0.056495524377
0.0620203668591
-0.0810806759254
0.0215292266197
-0.0128571233051
-0.025804595785
-0.0153261671574
-0.0699398975968
0.0248257388071
-0.049749334078
-0.0592625808766
-0.0195741874495
-0.0650714073953
-0.00490338004825
-0.0111191802732
-0.0014921519533
-0.0361281276768
-0.0451089485297
-0.0466201695781
-0.0553616902456
-0.0148683916581
-0.0394243042663
-0.00176604447516
0.000920476623687
-0.043367515399
-0.0235787126921
0.0748429166029
0.0844354636869
-0.0319323940299
0.0201386649498
0.0203611459511
0.0959625141832
-0.0142703150887
-0.0423687677257
0.0921546483545
0.091254977664
-0.0524814620474
-0.0544620558631
-0.0325428303305
-0.0670951264893
-0.03472804095
-0.0425090710975
0.047948819925
-0.0582308419758
0.076650280082
-0.0770930304812
-0.0785677580476
-0.0802265023077
0.044287994369
0.0821310679752
-0.0499825486474
0.0233602350006
0.0114319845577
-0.0902137146492
0.0902450977819
0.0646787308644
-0.0863732315413
0.0062384147241
-0.0672050955045
0.0811609776032
-0.0724225769442
0.0507201675154
-0.0872532571894
0.0596683756044
-0.0237224956463
0.0624936469624
-0.0877367587799
0.0837425990746
0.0576166217259
0.0617225901641
0.0572574531266
-0.0820085145134
-0.00320305691299
-0.0829929258646
-0.0187863710555
-0.0552648051492
-0.0951041827841
0.0142412239878
0.0788520410278
0.0139373547039
0.0429480154413
0.0397531586391
-0.0876540199721
0.0183165571681
0.00362071596513
-0.0648979841875
0.0769104954501
-0.0471746543881
0.0165445781418
0.0315934356265
0.0206237306105
-0.0622201571899
-0.0136764798797
-0.0644491089433
-0.0563867760415
-0.0677674270198
-0.0709178199491
0.0351241508143
-0.0188084469689
-0.0261931947492
-0.0630451894982
0.0338889071611
-0.0107757247929
-0.0294367214624
0.0107424015241
0.0577677845376
0.0895939566106
-0.0773143429738
0.0734118176622
0.0620269421385
0.0627100080992
-0.0832121272214
0.0262246142118
0.0651817550252
0.0352481138542
0.0207401658545
-0.0533191798246
-0.0134232373667
0.0358121970303
0.0196040402827
-0.0183985616185
0.0306020922606
-0.0465640784335
0.0780744202237
-0.0138306819781
0.0388174895202
0.0515028639925
-0.0457139571763
-0.0262992568004
-0.0731255679412
0.0346562886335
0.0671351447466
0.00596834725916
-0.0654739727575
0.00864994738326
0.0495681590389
0.079960219059
-0.0712678670571
-0.0667351570122
0.0755300411151
0.0259920767494
-0.0766869735629
-0.0370894387209
0.0389398377038
0.072407232913
-0.0284983346558
0.0329010361193
0.0414600451003
-0.0655300561716
-0.0794347556931
0.00813158132406
0.0266588961594
-0.0714058971257
-0.0929702674965
-0.0904897837188
0.0550038134516
-0.0725894939138
0.0541783960109
-0.0890317385954
0.0620457407307
-0.0679953874739
0.0211353051643
-0.0579703679375
-0.0204393485941
-0.00859346488831
0.0330088983635
-0.0299748846949
0.0280476209741
-0.0454197786112
0.0431490382555
0.0134797277707
0.0451728494831
-0.0308706458696
-0.051372559994
-0.0535298546677
-0.0410187100513
-0.081167924985
0.0402760024338
-0.0887338137932
0.0127759726024
0.0626608083581
-0.0047612634688
-0.035488473492
0.00648403370045
-0.041261101225
-0.0569099442384
-0.0525427446075
-0.0673657540465
0.0785821008039
-0.0133746493917
-0.0574567528045
-0.0907474293729
-0.0230845656327
0.0137672753944
-0.0520042215485
-0.0660655145252
-0.0849145483525
-0.0804755351953
0.09207021632
-0.0845580077095
0.0642255170497
0.0180887145443
-0.0643619075654
0.0615721322817
-0.0122280804409
0.0344926707062
-0.0609547777713
-0.0815322921073
-0.0594975102229
0.00340836384228
-0.0243257647535
0.00474837125312
0.0487099765388
0.0420518874622
0.0798040261755
0.0116508176431
-0.00692824051462
-0.0864578359807
-0.037912259347
-0.0098318286076
-0.0127373069715
0.00802607639805
-0.0916345406754
-0.014213570744
-0.0821691159254
-0.0363456058418
0.0302747331737
-0.0774115755243
0.0375867209541
0.0132821133959
-0.0306135107325
0.0394207174093
0.0706900054859
-0.0902255759888
0.0350298545824
-0.0542579615042
-0.0916648062101
-0.0248987890154
-0.0116472273201
0.021218952153
-0.0409848822136
0.0553217844775
-0.0944498446872
-0.0400244850554
0.051990365165
0.0430334277199
-0.0957852939751
-0.00648735223127
-0.00811273415952
0.00449231213921
0.0746406724028
0.0681336697753
0.0130965001152
-0.0244570923335
-0.0558799925082
0.00384799261059
0.0639040557259
0.0709192270979
-0.0165939805219
-0.0877889220805
0.011157115653
0.0660306759481
-0.0691756132063
0.0378433120093
-0.0212045215186
0.0281390259981
0.067095750631
-0.0941450646419
0.0624543839599
0.0623812170438
-0.00809546274456
0.0179618318788
0.0378026109501
0.012458792014
0.0486261515423
0.0931985734606
-0.0165554761978
-0.0745375406328
0.093604700452
-0.0415529874957
0.0352701646315
0.0630386726224
0.0788556811259
-0.0663459965545
0.0511006952243
-0.00767449937868
0.0103375632913
-0.0865262588253
-0.0667360095057
0.0154126312615
0.0671749344098
-0.00638332339252
-0.0547778955056
-0.06045629438
0.0172407652114
-0.087352802014
0.0272926524952
-0.00311964771123
-0.0371488660222
0.030214720499
0.0753850028212
0.0429936735423
0.0509821577903
-0.0710260744091
0.0761480736871
0.0372296871905
0.086586926372
-0.0372622461841
0.0688697822374
-0.0787566271504
0.0662516026979
0.002148807557
0.0276663926065
-0.0633827235483
0.089396395209
-0.0889454643315
0.0674616600774
-0.0898861243668
-0.0551740771644
0.0797541690678
-0.045063111611
0.0250509687032
0.0656249678583
0.0354048671861
0.0276043974876
0.0348013552386
0.0108239761203
0.0256545837398
-0.0535339954303
-0.0344494411687
0.0271849229791
-0.0526442436236
0.0114798050819
0.027436194043
0.0859872489624
0.000410336017638
-0.00679646279553
-0.074725983029
-0.0226229137595
-0.0377597655844
0.0240391689513
-0.0805405274413
0.0561019872104
0.0599758105065
-0.0902098408715
-0.0102627498011
0.0543511692601
0.0220681030642
-0.00925990267771
-0.0138400494063
-0.0716619653001
-0.0118256018147
-0.0280070430775
0.0776996498419
0.00233963095362
0.0699850262626
-0.0610176012273
0.0559290589183
0.068531978642
0.0793445456417
0.0946677347207
0.0145549818901
-0.0685216386279
-0.0184822038404
-0.0388188023456
-0.0167143422634
-0.053586176879
0.0652124460271
0.0520089078761
0.0558934283534
0.0606998165206
0.0440659000808
0.0672040506181
0.089461081072
-0.0128600380247
-0.0890467613039
0.0595612602155
0.0394067222772
0.0163846032465
0.0182917771075
-0.0524560052147
-0.0354324448005
0.0859106087849
-0.0516829549787
-0.0311701567683
-0.0793028498762
-0.0249986145518
-0.0569059736868
0.0226012868285
0.0192583062531
0.00888033891649
-0.0456095650893
0.0694263251849
-0.0873078557043
0.0229838286315
-0.0250519274081
0.0922132306725
-0.0814074941774
0.0282058705722
0.00238845276561
0.0308224641385
0.0771830883683
-0.00159927317232
-0.080903847458
0.0448825171507
-0.00364710925643
-0.0397419470052
-0.00602447589997
0.0113622528395
0.0442732492274
-0.0953032996281
-0.0192028989908
-0.0356237590669
0.0662704547721
-0.0209157503695
0.0711574477143
0.0903048040594
-0.0122006890564
0.0321068671414
-0.0925171096288
0.0768749132281
-0.0894977541047
-0.0342441237599
0.0959205015341
-0.0208187348658
0.0253445080908
-0.0290352972266
0.0280159418304
0.0345295102525
0.0437624920863
-0.0227638748582
-0.048446689813
-0.0817504734945
-0.069832646479
0.0181224558672
0.0809258152641
-0.0148402860454
-0.014857565054
0.0247379405864
-0.0276795475393
-0.0705555127563
-0.0315912448898
0.0821880379462
0.0902892840844
0.016654879425
-0.0117251797566
-0.0895968017057
0.0615670647676
-0.052079998853
0.0414024235377
-0.00298964190821
-0.00663056119336
-0.0397381259676
0.0233789449713
-0.0679074964539
0.0436672719828
0.0014980820867
-0.0342310135393
-0.0844285282679
-0.00720428079085
0.0468212894599
-0.0684061047875
-0.0485878030498
0.0511519802214
-0.0329308790271
-0.0160532423633
0.0742318943818
0.0390543644252
0.0761094459764
0.0562584471812
0.0742258845488
0.0027129233413
-0.00578681111432
-0.0231655276242
0.0172819320864
-0.0335749486786
0.062963597561
0.087681164535
-0.0201307586984
-0.0319324359155
0.0196814646112
0.0393476233346
0.0867621891921
-0.0565976884618
-0.0182584432029
0.078879663988
-0.00979710690436
0.0859101249297
-0.0077175602743
0.0303782785568
0.0772599281479
0.00988262998407
-0.0291083172064
-0.086404626446
-0.0171648695811
0.0780436393792
0.0671378257748
-0.0493876814059
-0.01864349494
-0.00698247737652
0.0203465030352
-0.0627953375165
-0.055458449848
-0.024478718536
0.0362905488677
0.0477466779469
-0.0410741964304
-0.0611859482955
0.00896500460053
-0.0676268933432
-0.0780129626607
0.020410136656
0.0176406553468
-0.0706591726004
-0.0805765025964
0.0091066201128
-0.0329351604077
0.00644024881678
-0.0571831169724
-0.0479836761782
-0.0020896696668
-0.0114081042981
0.0732620016864
0.0921248767972
0.0531863627796
-0.0145949206907
0.0191923309008
-0.0220165926565
0.00621738791348
-0.0471841669394
0.0188478802736
-0.0782389748603
-0.0673153528374
0.0492836211104
-0.0181854464064
0.00679458583282
0.0148829062759
0.0222503146627
0.0957078799806
-0.0272690257195
0.0831714832579
0.000683441136592
0.00576377114908
0.081360673706
-0.0112124843462
0.0900419282897
-0.0955325507204
0.0719125182629
0.00403003327972
-0.037350846417
-0.0478831939799
-0.0107516126437
0.0289966636019
-0.0568406446236
-0.090592701356
0.0233283052753
-0.0207634246684
-0.00176185780465
-0.0290905037603
0.0758390621587
0.0570851513692
0.0906201196533
-0.0570104065006
-0.0723223086465
0.0375585985763
0.025834919516
0.0591030315993
-0.00372394382686
0.06364244484
0.0426544982763
0.0841199641075
0.0565381950811
0.0509707348988
0.0128084502124
0.00125166262173
0.0420075115147
-0.0845116293018
-0.0294344027199
-0.0705655877551
0.0817012496162
-0.0433907569533
-0.0612479605387
-0.0154560601803
-0.048284111308
0.0799066289928
0.0340340999034
-0.016892807903
-0.0451725746308
-0.0202816893003
0.0275357650826
-0.0322823429259
0.0338737546949
-0.000114976411172
-0.029031337236
-0.0325394783416
0.00110589354981
0.0721053678883
0.053478306904
0.0906850678419
-0.086480793227
-0.0219063912186
-0.0181013107874
0.0385003384868
0.0208012207033
0.0383945103221
0.0124357772555
-0.085334365014
0.0498080148351
-0.0928731310646
-0.0673486387381
0.0708490581746
0.0748373580335
-0.0120651130604
-0.0462572996793
-0.0799542166359
-0.0156235859852
0.0173223845325
0.0238669555725
-0.0243503227641
0.0700484919168
0.0428594361071
0.0422138019471
-0.0359339659574
0.0753061823498
0.0566013543371
0.0200310459999
0.0779449637296
0.0915336455264
0.055136303546
0.0188882283866
-0.0169349281229
-0.0186963821858
0.0841857561171
-0.0307395876416
-0.0786085709598
0.0743836062443
-0.0698129961921
0.0501946820996
0.0187397346217
0.0420653464733
-0.0334227049073
-0.0237162842146
0.0685133347908
0.0635029260001
-0.0672352026374
-0.0610882714995
0.036465145221
0.0516386726591
0.0328354455072
0.0113086943364
-0.0518466041427
-0.0860815411365
-0.0295808288428
-0.0736317123173
0.0838103790103
-0.0301046046356
0.0647842632729
0.0437203990294
0.0412373350007
0.0150735493227
0.0162619503379
0.0807216889892
-0.0292694491526
-0.0622699164874
0.0264123410648
0.0030525611174
0.0853220133845
0.0791945084268
-0.0703619435036
-0.0395266180124
0.0531378648112
0.0679374394087
0.0436812268878
0.0773574805132
-0.0600657786609
-0.0198851690416
-0.0102704435033
0.00300925573343
0.0361094964034
0.0377258937232
-0.035076316602
-0.0440942450591
0.0684617582493
0.0587279279626
0.0711242454853
-0.09258491339
0.0488132635618
-0.0568314821433
-0.0250588233303
0.0598028842209
0.0434119834125
-0.0528893846965
0.00392897373859
0.0216639323601
0.0825836306543
0.0835761925355
0.0698391481967
-0.0272069650963
-0.0531747613421
0.086358216198
0.0185402864376
0.0822988309277
-0.034565029714
0.0221893038889
-0.0683583380603
0.0641417344118
0.0603903632839
0.0919823520498
0.0667941934861
0.0627194142061
-0.00955689331271
-0.0155056201724
0.0691065625749
-0.0456445968517
-0.0215184057269
0.0530647398179
-0.092583717685
0.0941529598399
0.0146183456343
0.0199037319611
-0.0144313057386
-0.0162161701666
-0.0879078689132
-0.0632867438495
-0.0687244067863
0.0641767623628
0.0375608989573
-0.00581176698256
-0.0850992769205
-0.0247228052289
-0.0621547183233
-0.0490249650601
0.0900570849198
-0.0404942325776
-0.0461161214434
0.0269427629246
0.0928927993108
0.0469207463254
0.0286314792327
0.00687091672051
0.0836034791127
0.015225947041
-0.0542497127352
0.0294800133352
-0.0822226990205
0.00679993016581
-0.00997939835766
0.0483173626415
0.0854747468869
0.0792975880559
-0.0516106122251
-0.0440046820011
-0.000482873108325
-0.0409673636899
-0.0796998126041
-0.0645689796668
-0.0771242955983
0.0779567875064
-0.0213334864376
0.000227039098173
-0.0856118664927
-0.0280932477303
-0.00952180615006
-0.0911193733442
-0.0811599150119
-0.0192114042016
-0.0137124330727
0.0912020231417
0.044236048483
0.0555622993904
-0.00184022184932
0.0851696753947
-0.0450457417341
0.0708768534437
-0.0286330978526
-0.0142692836552
-0.0547180820467
-0.0453568335653
-0.0954124325699
-0.0691184180785
0.0238279545641
0.0912054141771
-0.0716868324848
0.0473367428685
-0.0227531168238
0.0279167410981
-0.0498643617362
0.00444800183847
-0.069862365126
0.00397057895402
0.0730238717932
-0.0365521947579
-0.0804625925394
0.0682713200114
-0.0709798746137
-0.0547180591804
-0.0289127645101
-0.0281992086273
0.0670708846509
0.0172826248449
0.0161349288452
-0.0412734614696
-0.0576427404403
0.0732020666932
-0.0443610342943
0.0256620226187
0.00307124938611
-0.0538804705985
0.024193117338
0.0921597782814
-0.0310179642933
-0.0920156372645
0.0810894250206
-0.00719402630959
0.0695330382754
-0.0481629275121
0.0728217271732
0.0889515470636
0.0848190261182
0.011499258746
-0.0228477643205
-0.011124321079
0.0186683595593
-0.0687568874334
0.029562678268
-0.0627640970174
-0.0839172492416
0.0958466981904
-0.0173336147244
0.0939930341686
-0.039697229036
-0.03588956229
0.00353773988158
-0.0599993377088
0.0360284041592
0.0916389345999
-0.0302669048279
-0.00807453398794
-0.0690838773126
-0.0209910025613
0.0694051263461
0.0850082889294
-0.0780860493541
-0.0338601674531
-0.0132190380495
-0.0323775156637
-0.0452770834286
0.0766267546285
-0.0628280895575
0.0363168819553
0.0686285502432
0.0127903357801
-0.00682353826675
-0.0154173742326
-0.000881804509437
-0.0169709481315
0.0895057184254
-0.0473752446453
0.0555936191408
-0.0437715681399
-0.0269379307785
-0.0595349791534
0.00595920247034
-0.0807648189456
-0.0329105285465
-0.0394373193213
-0.00950208715495
0.064123058887
0.083851854689
0.084357857755
0.0359989472299
-0.0369585361697
0.0736127500066
0.0762245247624
0.0779892866075
0.0236195698943
-0.0417810783006
0.0298869012409
0.0320252922684
-0.00350318984051
0.0724181200924
-0.0111129443359
-0.0241926347386
0.0262462329743
0.0302938084612
0.0308038724727
0.0491517663692
-0.0485228863461
-0.0950218995733
0.0378761356809
-0.0385105514912
0.0636245684394
-0.0077382318769
0.0858444607549
0.0586213332481
-0.0943108080873
0.0424575500065
0.0663532838732
0.0611215504112
0.0140566259186
0.0388099811841
0.0434214873984
-0.0913704827709
0.0589120930269
-0.0149110808494
0.0838885681926
-0.01766154429
-0.0642017377643
-0.0268383976096
0.0674487299119
0.0786056697719
-0.0885236862044
-0.0831711259833
-0.00490332827574
-0.034209218042
-0.0421796346474
0.0261705277352
0.0871393286561
0.0800991212896
0.0579595544263
-0.0872841129482
-0.0805312227032
0.0627877217737
-0.0251764785469
0.0446607077659
-0.015541098816
-0.0885608307718
-0.0846976140995
-0.0522347935887
-0.00177907878511
0.00599923966561
-0.0359780515737
-0.0852752819204
0.0696132394066
0.0792723482577
-0.0489901992442
0.0891982646925
0.00915276916194
0.0564681249742
0.0504267699893
-0.00343796033945
-0.0403356790219
0.0952773299002
-0.0409941996074
0.00969772860159
-0.0428984863804
0.0494142491477
-0.028812638891
-0.0795861250941
-0.0105113564283
-0.0862043081273
-0.0574302124562
0.0104889732766
-0.0605466147721
0.007417616194
-0.0129466177567
0.0143428565916
-0.0352920492952
-0.0861776000385
0.0869934065619
0.0341671418047
-0.0236834332801
0.0607435401091
-0.0582725520494
0.00476369748555
-0.00983837110392
0.015551220516
0.0861175976336
0.0740285346402
0.0941843308764
-0.0426815908635
-0.0820970586141
0.0564963798236
0.0494293365679
0.0772259683387
0.0268581075735
0.0721183118563
0.00322380409392
0.0443590580112
-0.0387838624753
0.0367918923317
0.0683010804017
0.0892177315092
-0.0083123765228
0.0747559996784
0.00447460807749
-0.0276020360752
-0.0246780309258
-0.0175090412922
0.00594886042816
0.0211670061968
0.0577655701488
-0.0826943256623
0.0800231147248
-0.0809895407945
-0.0324484407197
-0.0252402330036
0.0547505613523
-0.00126675545479
0.0489967402088
0.0928564548209
-0.0316734026483
0.0529101755759
0.0708809686092
0.0627831982974
0.0126645435945
-0.042757213422
0.0931353348815
0.0577142249063
0.0463487299985
-0.0739771830341
-0.0298295757421
0.0693144591137
-0.027730462908
-0.0707203643425
-0.0459018612601
-0.0585988579623
0.0895521142515
0.0799969926646
0.0616677352074
-0.0600108783429
-0.0352342243035
-0.019432109958
-0.0219596185069
-0.0940282141057
0.0531354213079
-0.0169782911448
0.0256585567091
-0.0597778502749
-0.0885276103486
0.0808714288253
-0.0270013437099
0.0603048431778
0.00185026530713
-0.029759269222
0.0155929411541
-0.00219611058598
0.0829688767303
-0.0276358053852
0.00382788386529
0.0341412581678
0.0444222363973
0.0413966549921
0.0811162881024
0.0907612481501
0.0129662519682
-0.0104978107526
-0.0461709425839
-0.0899470400592
-0.0507071894495
0.0803978435118
-0.0405095037215
-0.0123573719015
0.035357237517
0.0488436693098
0.0144506683424
0.0386177183028
-0.0924517736571
0.068326623712
-0.0263306064128
-0.0206238186825
0.0630015340395
0.0159172723143
-0.0563563406625
0.00440712966302
0.0441226481341
-0.0589532160308
-0.0777084766762
0.00187079881781
0.0721630414906
-0.0925809812501
0.0882843373023
0.0396625147087
-0.000977414945118
-0.0593962602038
-0.0238028235292
0.00646412709798
0.0947324643324
0.0447627324761
0.0441172906969
0.0158191931618
-0.0683745968284
-0.0343341857895
-0.000692840217557
0.00859512277642
0.0871068803833
0.0664128101201
-0.0816057656696
0.0909108063125
0.0586625655997
0.0137851798245
-0.0168776180083
0.0161857957617
0.0632566036393
-0.0297042129643
-0.0085683718393
-0.0665397705852
-0.0151225408863
0.052594523417
-0.0728899749155
-0.013385039496
0.0565420787694
0.0295013688594
0.059187745514
-0.0790603890412
-0.0547487311263
0.0293389055566
0.0552499273425
-0.0246035660551
0.0648401864185
0.0579856974384
-0.0535743296945
0.0608911883356
-0.072031974282
0.0116120387911
0.0131838254236
-0.0160587721331
0.0478245408368
0.0785320684116
0.0209407236306
0.00560348764309
-0.0780634780985
-0.0801205862559
0.0774877517893
-0.0042252218243
-0.0914283380889
-0.0264971617747
0.0703320333225
-0.0720726603667
-0.0859286165704
-0.0193714267084
0.0799332368374
0.0214330760941
-0.0324812348834
-0.0865926559878
-0.0444706186865
-0.0474521564188
0.0800269019313
0.0074138871787
-0.083726906597
-0.0404939251523
-0.00570329061487
-0.0517726339722
-0.035858598781
0.0587811402784
-0.0743399831219
0.0526164640635
0.0350637859307
-0.0772038980464
-0.0286997195884
0.0570670890762
0.0115540126472
-0.0732795432916
-0.0419716811829
-0.0205005556897
-0.0154098490063
-0.0522653605559
0.0357935046545
0.0144479013981
0.06335938832
0.0573224769684
-0.0928272018071
-0.0497340000442
0.00884777937453
0.0403107526168
0.052136083107
0.00418631119236
-0.00133282853361
0.0891021775792
-0.0484368822617
-0.028910199024
0.090394486255
0.0647779441858
-0.0554722289602
0.0355353563163
-0.0916668443403
-0.0489965758926
-0.055642825731
0.0820996418663
0.0574152362348
-0.0451955016091
0.0103688897401
-0.0168593341095
-0.0210069383061
0.0429024267197
-0.0448732479637
-0.00286232270438
-0.0776857628187
0.0884625239006
-0.0848082986235
0.0459264167766
-0.0954777972811
0.00638586875505
-0.0383758050056
0.0512309676634
-0.0139936409027
-0.0155804597986
-0.00977710973783
-0.0700191970574
-0.0545457685084
-0.0209644356409
0.095578224694
-0.0669679250896
0.018752590838
0.0670479890009
-0.0935785401096
0.00757551151973
-0.0308037457852
0.0177192681722
-0.0690810453302
-0.00496572726138
-0.0153201288951
-0.0527337861044
0.0942370304686
0.0611333726419
0.0477598139278
-0.0633595078227
0.0383612828132
-0.0565889641854
-0.0927678928228
0.0927323973406
-0.0344342596392
-0.0675909103387
0.0253158725
-0.0343999273449
0.00203537071633
-0.0145879357317
-0.0623120366233
-0.0622612353766
0.0357747462864
-0.0633672177721
-0.054947195717
-0.0412806634
0.0743389467014
0.0398226276314
-0.0518212253526
-0.0928912045405
0.0222161383504
-0.0850846962249
0.0805363468587
-0.0909547899974
0.0353991691192
0.0299029000714
-0.0850775696627
-0.0306276785789
0.0878730672814
0.027181395022
0.035615245854
0.0038746474851
0.0903766601916
-0.0173367578697
0.0291333700432
-0.0353215563092
-0.0933686979695
0.0242805644261
0.0160893545481
-0.0801784282576
-0.0416424382653
0.0092399757588
0.090947195188
0.0758323995157
0.064324564817
-0.0107939452247
-0.0352172900707
-0.00735499925308
-0.0640970416512
0.0254831519002
-0.0544803460675
-0.00253819581024
-0.0462834104716
0.0553420436762
0.0287138115774
-0.0912511732702
0.0938777625528
-0.0528843597698
-0.0870718183651
-0.0408521128983
-0.00776513793254
0.00635627644245
-0.0346611113135
-0.0332269439927
0.00553805742815
-0.0594326801006
0.0793299916231
-0.0222626948793
0.0665802678758
-0.0904598850169
-0.0904257063219
-0.0831201137622
-0.0778204714393
0.0123145242669
0.025157225596
-0.0605078403201
-0.0216215625072
-0.0258213826474
-0.0195579703067
0.0825586378313
0.080860690052
0.0612787385115
-0.0747317578172
0.00239511045186
-0.0481925302568
0.0808926353473
-0.066916912952
-0.0538477696327
-0.0154971942619
0.0257378626259
0.0197789928202
-0.028708154547
0.0399487471782
-0.00958832159165
0.0932068728482
0.0482426097982
-0.0859302580499
0.0863954384156
-0.0577162683136
0.0855883224452
-0.0113420545836
-0.0171754593647
-0.0414008957808
-0.0194803444651
-0.0467610082692
-0.0879070237262
0.0167757806622
0.0601407340375
-0.0685526214491
0.0146514797784
-0.0153763891871
0.0863809153095
-0.0810792787499
-0.0671114083248
-0.0837281415952
-0.0476247482496
0.00993487616487
0.0290790291369
-0.0280324387729
-0.0819984361778
0.0186438747231
0.0756321219138
-0.013275017304
-0.0624916848349
0.0132846192976
-0.00906351801485
-0.0778875921809
0.0184072067671
0.045103322786
0.0193420172215
0.0159833039265
-0.00210712192716
-0.0876500637216
0.00768600940339
0.0219172387867
-0.0210948379093
0.0729783019062
0.00438309467442
-0.00448214967806
0.0267738555837
0.0689461722617
-0.0394576528271
0.0211425028738
0.00479926574823
0.00686881494415
0.0518848412751
0.0108052870935
-0.062874474418
0.0545517262387
-0.000307233934752
0.0726546982625
0.0858737308047
0.086968786845
0.0650219589909
-0.0301981499992
0.0197563522085
-0.0871939433573
0.0157405095903
0.0854122905656
0.00104793782631
-0.0206221193705
-0.00014617853522
0.0508588109388
0.0508136140216
0.0049134152364
0.0328777972797
-0.0107961521972
-0.0303023288434
0.0445614921717
-0.0075268139882
0.0239751341332
0.0486787846727
0.0264425173886
-0.00925443466363
0.0828724081719
0.0469838602868
-0.0173733706432
0.0146254199307
-0.0141399268661
-0.027188416371
0.000913064522177
0.0950444235822
-0.0384975446423
-0.0772491303592
0.0106089581172
-0.00510403213748
0.0250646504839
-0.0474901670274
0.012226613118
-0.044660187006
-0.0145842152145
-0.0398819439401
0.00725263911892
0.0283122196387
-0.0675432272699
-0.0594563783083
-0.0460739047316
-0.0822671485006
-0.0751951662693
-0.0908741362224
-0.0811188114537
-0.0868411728539
-0.0582792898062
-0.0178163560145
-0.0932839136858
-0.0594285765196
0.0379414346146
-0.0799435739191
-0.023014996598
-0.00385446279248
0.0473509193397
0.00759272745479
0.0105941581596
0.0478426969921
0.0825910865052
0.0405207741504
0.0441322425906
-0.0349217680772
-0.00771137985316
-0.0728568222254
-0.00930102785602
0.0139158967044
-0.0232564233163
-0.0542803782372
0.0251091881631
-0.0167160839354
0.00282686624659
-0.0871994202611
-0.0706851388138
-0.031186151816
-0.0446930209651
-0.00530617383572
-0.0665663466447
0.0764050344901
0.0729131700902
0.0616424105394
-0.0199823929864
0.031387649187
-0.018752269725
-0.0780258670091
-0.0677872524656
-0.0707860958218
0.0519278744337
-0.0238781708418
0.0620358504623
-0.0754485729975
-0.0444391733965
-0.0924106686368
-0.0354562469684
-0.0949803194866
-0.0640362962365
-0.0208488843555
-0.0614212107378
-0.00722990682065
-0.0805755476491
-0.0915078474352
0.0584472906408
-0.0352473071321
-0.08382747222
-0.0910696404616
-0.0180207832742
0.0151276255201
0.0841230402583
-0.00572459108885
-0.0652364340831
-0.0534678395
0.0430270150429
-0.0624734392884
0.0554527976742
0.0740786733937
-0.0310166297997
-0.025573874722
-0.0391565730963
0.0115575266054
-0.036905136817
-0.0533873505936
-0.00523365963093
-0.0191694509221
0.0184037453716
-0.0420767777335
0.058367155295
-0.023897819274
-0.03654785223
-0.0832582623483
0.012478317241
-0.0130740782639
-0.0245527330224
0.0957025064941
0.00207744668407
0.0804548711627
0.0158245054482
-0.0268492831881
0.0941347678005
0.00746816675516
0.0798359353596
-0.0460915165075
-0.0556009108618
-0.0125994515914
0.00844433936756
0.0446147802758
-0.0176673935868
0.0481532172102
-0.0137074118263
-0.0630363016266
0.0691303680446
-0.0033735905145
-0.0630272205421
-0.0139246307736
0.00808607570342
0.0923977685392
0.0265800112482
-0.0561956107045
0.0398126029607
-0.0298542230841
0.0695441469454
-0.0120920192679
0.0888828481672
0.0736004596441
-0.0338075713762
-0.0818586281415
0.012711127792
-0.00496113031837
0.00978300492138
-0.0439005401562
-0.0127077647728
0.0518787658148
0.0920920946739
-0.0134858175857
-0.0523560605025
0.0582720841771
0.0414397221224
-0.0463711693294
0.0713342649034
0.0447254889292
-0.00062722682287
0.041434102917
0.0091436136314
0.0169186800315
0.0824711833795
-0.0504361834512
-0.0691255092583
-0.0263584182058
0.0525343898327
0.0346111747134
-0.0215465109694
0.0826773289506
-0.0436134497915
-0.0866619957862
0.00713887999459
-0.0851211095666
-0.0960714817723
0.0814001913
0.0165264596855
-0.0561907360395
0.0768376522975
-0.0237874996693
-0.0368300244477
0.00762712744415
-0.0930941932961
-0.0918716239222
-0.0575161354847
0.0779780095097
0.055538328768
0.0359011075087
-0.0406470851658
0.0510634621007
0.0453352552413
0.0827592014749
0.012314406422
-0.0162808376174
0.00979401955985
0.0276029453028
0.0700376583801
0.0849658268355
-0.0222024035288
0.00622535985492
-0.0584973680266
-0.0558688106129
-0.00328011131564
-0.0952097942329
-0.0829879246207
0.00771899853297
-0.0404005716875
0.0862020777539
-0.064466936318
-0.0849886698165
0.0745068947372
0.0706976615429
-0.0677184569755
0.028519524066
0.000753737053677
0.00974959505644
-0.00313328708224
0.0844708658141
0.0498081149129
0.00487780452267
-0.0938655125195
-0.0748675854353
0.0798614109142
0.0909142808477
-0.0311024252825
-0.0651935129794
0.0595947570237
-0.00883543639684
-0.0891905540912
-0.00924992322445
0.0806056044474
-0.094529469919
0.0508464411447
0.0321484212729
-0.089134478249
0.0395336614116
0.0185397355492
0.0385724059485
0.000476137933381
0.000546827415886
-0.0322717560897
0.055263819642
0.08354226906
-0.0763992421761
0.0953422444
-0.054412429493
-0.0149646651542
0.0658087757862
-0.0524004976566
-0.0274597751986
0.0803597114333
-0.00151952619844
0.0836625021197
-0.00121650422656
-0.0138931371111
0.0225834561957
0.0870387735817
-0.0931087589846
0.0792464736906
0.0514795458066
0.0335543237267
-0.00383502795429
-0.00369363299378
0.0498260075948
0.0166850320601
-0.0309484961193
-0.0804144631614
-0.0481174792031
-0.0823714278872
0.0662300431186
0.0816371498326
0.0829428711349
-0.0304668246614
-0.0762754922272
0.059972515951
0.095071988994
0.0592106488283
0.0546580556364
0.0559330092789
-0.0102674298091
-0.0616339049627
0.0278898748034
-0.0960137107082
-0.0562270753653
0.066132071233
-0.0886342836795
0.0791502660526
-0.0194089110295
0.0317761642636
0.00126196109867
0.0591531311047
0.093577724854
-0.0818148951441
0.0390190608143
0.0677654966419
-0.0948015983707
0.0564648102152
-0.0396171217697
-0.0177722768963
0.0933770927858
0.056241181755
-0.023396640216
0.0152802568243
-0.0423217655775
0.0930641195055
-0.0957434367733
0.0372596171204
0.0622692933295
0.0425316522679
-0.00679327925651
0.0951348744684
-0.07811973176
-0.0892837223359
0.012098768034
0.0939346879986
-0.0567398589211
-0.0448847367761
0.0148303430009
0.0684375139462
-0.00351633936794
0.0796434937511
0.0112339224992
-0.0754150338695
-0.0574493059038
0.0497973123886
0.00100317052092
-0.0287988767133
0.0366643093591
-0.0344875534465
-0.0911155362185
-0.042388972079
-0.00369869338872
-0.0384521340963
0.0135143290209
-0.0850617424078
0.0437040136848
0.0195237090998
0.026244099691
0.0488306638481
-0.0695473727833
-0.0168845411596
0.00196310163521
-0.00480060310359
0.0177105742301
-0.0381985511667
-0.0436995589774
0.029911841716
0.0877154961253
-0.0275803884185
0.0154204880837
-0.0934398836011
0.0840524951064
-0.0395001547577
-0.0551492241997
0.0556735756054
0.0899563960435
0.0199581242232
-0.065603264823
0.0528813703015
-0.068264473913
-0.0663905102416
0.0910744844408
0.0618217420474
-0.0677233696399
0.0025265955945
0.0334935748673
0.0400652648938
-0.0846775117754
-0.0498506971403
-0.0536715777344
0.0636025246214
-0.000853077241777
-0.0613876392644
0.0804334289543
0.0197963407542
-0.00579402349604
-0.0907538776395
-0.0150455585773
-0.052794482153
-0.0850659616144
-0.0657829093597
-0.082999094668
-0.0831699998333
-0.0584136584543
-0.0105589604949
0.0723246518933
-0.0723568159296
-0.0712050619044
0.0193841235388
0.0316206238667
-0.0224703017662
0.0126219080488
0.0652886055958
-0.0235674300505
-0.092218503118
-0.0873028246003
-0.0393562491502
0.0459031758157
0.0390888965116
-0.0940860207176
0.0127285350098
-0.0184784706297
0.0944481192371
-0.0567277091577
-0.0112289159267
-0.0726176993137
0.0869176321803
0.0221485620417
0.0759064102122
0.0286855662029
-0.0149793352039
-0.0364026056739
-0.00829540144102
0.0155141089904
-0.0373329412462
-0.0462505517985
0.0162249553427
-0.0744977069452
-0.0101927147138
-0.090758833986
0.0907257326825
0.0498121281304
-0.0815532416799
-0.0651390812332
-0.00359652057965
-0.00190234225176
0.0113642834175
-0.0715215604777
-0.0201179381286
-0.0366204827961
-0.00990340361312
0.0358552013165
0.0494054354079
0.0250345197685
-0.0850689693362
0.0490611550344
0.0506759068823
-0.00992964731934
-0.0903359524126
0.0369426015149
-0.04977733531
0.00597957398895
0.020951146995
-0.01776151389
-0.0821037442205
0.0894674233369
-0.0488571636605
0.0682044988872
-0.0837189533605
-0.0380717553923
0.0245099784665
0.0138490601191
0.0599475031393
-0.0657815748867
0.0947763886027
-0.0278352206701
0.0925316195453
-0.0611357310844
-0.00737443228926
0.0929385311537
-0.0811320623758
-0.0721444556076
0.0940725611184
0.0843396909558
-0.0701063147908
0.0699630158118
-0.0918131278277
-0.018259479639
0.057698191252
-0.0265324876731
-0.00112354487124
-0.00268362855563
-0.0744752615779
-0.0303736406539
-0.00155553445169
0.0828620761667
-0.0815831081976
-0.0145842345297
-0.093284115131
-0.0610900375383
-0.0198601034873
0.0620834283799
-0.0472135308584
-0.0594027007223
-0.0127756731593
0.0248425799503
-0.0769869871673
-0.0732343593269
-0.0686807640074
-0.0577077092791
0.0632502926162
0.00298654420529
0.0472403844005
0.00463230920611
-0.0931922978553
-0.0616308282808
0.0237247463909
-0.00305985868635
0.073469679832
0.0519636742393
0.0661834674792
-0.0738171175643
0.0868325168859
0.0916674806701
-0.0685678582569
0.0760161801522
-0.0688901921844
0.0439943345353
-0.00881183788067
-0.0209817365323
-0.0570216809506
0.0937092134134
0.0682499122034
0.0651142804613
-0.0291661046804
-0.0627563242975
0.0808694367916
-0.0838442808407
0.0853432607531
-0.0361941563392
-0.0905491903829
-0.0495646120593
0.00826638920629
0.0954901712887
0.0186425406075
0.0577931419926
-0.0771683933666
-0.0659645384778
-0.0929584531381
-0.0941787762471
-0.0725061262243
0.0489463026798
-0.0706904610777
-0.025014162683
0.0428760397988
0.0786619934199
0.0444223444954
-0.0859703520699
0.0390388483618
-0.040652463099
-0.0636757030086
-0.0936399028875
0.0820874889071
0.0362998496851
0.0438483108908
-0.0299976572768
-0.0100649441792
-0.0146088091935
0.0615096749157
0.00012490464698
0.0912300880035
0.0945082423178
-0.06528775466
0.000621011807094
0.0186188275503
0.0668249832573
-0.0359431927703
0.0231794140258
0.0360975550468
-0.091333913871
0.0271873743528
-0.00375709695289
0.0693261904945
-0.0917230191575
-0.0667087890669
-0.0295549106719
-0.0478923705328
0.0224364616445
-0.0510042028243
0.0499292956265
-0.0253129320927
0.0156364293237
0.037216275751
0.0171496041486
-0.0600991825265
0.0563255756734
0.0413717696987
-0.0166824862973
0.0791818925161
0.0727055531711
-0.0464683139508
0.00518758615905
-0.0949018999198
0.0321683908334
0.0279136556933
-0.0697625843506
-0.0472355618626
0.0812728577929
0.0918002455961
-0.0135353127035
-0.0571553875126
-0.0659794021322
-0.0595399394707
-0.0901913060298
0.0813032125569
-0.067080565391
0.0354594148167
0.0857176228086
-0.0195796632278
-0.0254160401696
-0.0581285957661
-0.0283516235349
0.00570107103343
-0.0908807843476
-0.0870933416728
0.0754071822054
-0.0522572431198
-0.0689525081391
-0.0377911508335
-0.0899582317021
-0.0891521746623
0.0827042116243
0.021121313135
-0.042820221396
-0.0326215373501
-0.0618194667333
0.0457505149583
-0.00015941107758
0.0698645874296
-0.0346100846712
0.089628745928
0.0400430593649
-0.0703686313294
0.0756524963721
0.023654007541
-0.09456810246
0.0592075761524
-0.0524206583733
-0.00258668238376
-0.0365538071803
0.0558030060898
0.0195238127682
-0.0330654606464
-0.0141583954047
0.0164347715168
0.0274596687742
0.0159069707881
-0.0316518767616
0.0715924918338
-0.0711392818991
0.0042102690014
0.0350310636436
0.051053824246
-0.0880493065024
-0.0105393455296
-0.0366045182411
-0.0484391892947
0.0436996092075
-0.0453688162739
-0.0719502687994
-0.0619060788529
-0.014865816012
0.0207518519616
0.0665313360985
0.0101318693382
-0.0742412141372
-1.90680012965e-05
0.0834332322834
0.0527139162644
-0.0840149906014
0.0605323887239
-0.0643005545953
-0.0364219984771
-0.0364334901848
-0.0496758260416
0.00684016770426
-0.0298515103577
0.0344069303841
-0.0133893215969
0.0264050740382
-0.0445418847784
-0.0858699953362
0.0839546501084
-0.0304700240744
-0.0222733048375
0.0593418946851
0.0598216176915
0.0752223200156
0.0673316365152
-0.0467520389202
0.0765834522518
-0.0238577524463
0.00551882095443
-0.0187543076031
0.0372618926326
-0.0539666256785
-0.00574127040838
0.000848337373442
-0.0229013657611
-0.0447515954049
0.046389941707
0.0378788937857
-0.0561181069478
0.0260142303697
-0.0600105359987
-0.0121364087609
-0.0430376734201
-0.0721170641979
0.0402248789007
0.0937166033287
-0.0530144981481
-0.010858642494
0.0166848841963
0.0479158908202
-0.0723675969446
0.0197450718965
0.0222036435081
-0.0872618280052
-0.0806602703658
-0.0370530243914
0.00295270016761
-0.0107438207576
0.0152041881019
0.0840920385636
0.0237626563562
0.0301028210806
0.0147762047214
0.0453726467267
-0.0469301349517
0.0776018888122
-0.0647442710382
0.0206415135984
-0.0387950152831
0.0205188323929
-0.0802873351094
-0.0532186974419
-0.0360091529067
0.0913479045418
0.0735297315699
0.0919582779031
-0.0320740640372
0.0124932775212
-0.0555483912423
0.03063893419
-0.0827743921842
0.0392238108285
-0.00897257944771
0.00666702114346
0.0942626900896
-0.0118599660765
-0.0310960259689
-0.0859813757944
0.0813021599225
0.0886179444036
-0.0060112542775
0.0380176107479
0.0675950596783
0.0406554715364
0.0528862269933
0.0877845740865
0.0110666112069
-0.0945589688037
-0.0870607476895
0.0565617254298
0.0576417534788
0.00949257796073
-0.0886207326373
-0.0743017588351
0.0100995129834
0.0867758628711
-0.0193290201514
-0.0282718621418
-0.00393315986031
0.00243118767897
0.0682724377924
0.0078566913735
0.0413484713253
0.00351963466749
0.0238432998516
-0.0591923757706
-0.0541530478842
-0.0379152543954
-0.040496442352
-0.0791717501209
-0.0493022258346
0.0118392706713
0.0754187002539
0.0549613999539
0.0596359043383
-0.0308928222365
-0.0746704593802
-0.0187994769611
0.0722166119675
-0.0150042077412
-0.0644924679666
0.0485771888324
0.0467841259137
-0.035419908173
-0.0499129929562
0.0207481417535
0.000450852795051
-0.0229795175351
-0.0682101462575
-0.0640359225372
0.0573420255756
-0.0862534500661
0.042885809126
-0.0109075281349
-0.052310846001
-0.0402707446647
0.0179116724984
0.0594103540446
0.0429350418365
0.0391770243313
-0.0743254153246
0.0893048423604
-0.0618318135486
-0.0691508999141
-0.0491496860438
0.0147708801858
-0.0293399545674
0.0956016351379
-0.0675543348128
-0.0111997458805
-0.025737131727
-0.0124815319856
-0.0165233562662
0.0190743150116
-0.0544303813536
-0.0403454470331
-0.0213056791931
0.0406094170543
-0.0491331789367
-0.0632709241921
-0.0374302372895
0.0704671121971
-0.0561043256904
0.00785054712881
0.0946145148434
-0.0327634975494
0.00821269510676
0.00353118410046
0.0449052441299
0.0951087123433
-0.0381508818761
-0.0947877738691
-0.07078540858
0.0384397220812
0.00835236420897
0.0487068912811
-0.0915574674861
0.0656320786067
0.071836750361
-0.049570374918
-0.052200885018
-0.0924743892067
-0.0235336679129
-0.003993403063
-0.0828758188787
-0.00804176481896
0.0703293204681
-0.00805390055426
-0.00550358617653
0.0328638101775
0.0555949357384
-0.0404002361148
-0.0519757979965
-0.0471985280426
-0.0290331695403
0.0409923163483
-0.0438592204802
0.0497259627249
0.0698784481723
0.0143094339909
-0.0809023480715
-0.0107037721967
0.0214552766057
-0.0829990731373
0.0363166419138
-0.00904198346314
-0.000512384311967
0.0848924621242
-0.0187297856133
0.0335413985938
0.00716217364697
-0.0523640267413
0.00418644059581
0.0309671967898
-0.0642038106323
0.0635195438829
-0.0146548168918
0.0275287036879
0.00567465430117
-0.0231202912932
-0.0812334463526
0.0331092502887
-0.054015882102
0.045008466038
-0.0879682891907
-0.0230152222668
-0.0740905214278
-0.00147772642303
0.0699227911317
0.090374205655
0.0537280938193
-0.0660728729348
0.00208299932382
-0.00833631407281
-0.0401678591766
-0.0189442758545
-0.0557212354401
0.0649011484639
-0.0574526288316
-0.00423118502322
-0.045561637673
0.0494649187276
-0.0279464903285
-0.016493605843
-0.0587564312136
-0.0541991897108
0.0238330494633
-0.0170563023803
-0.0948562184
-0.0606731391501
0.0571988846438
0.0326366568804
-0.00165638822095
0.0888007839513
0.0183245607162
-0.00242681661282
-0.0121717026636
0.0242172725447
-0.0351004848751
-0.0231920726439
-0.062506860002
0.0314234211631
0.0335419469857
0.0893269601975
-0.0951863810288
-0.00187753007667
-0.0696592276784
-0.0630868734983
0.0913196550207
-0.0616943811951
-0.0125056958043
0.036703882738
0.0508177045731
0.0526623957575
-0.0315754509832
-0.0469860315304
-0.0125436163057
-0.0183009018082
-0.064075298023
0.0179222501226
0.010298096372
-0.0835158341536
-0.0577586096712
0.0722625860923
-0.00888644697375
0.00236634514398
-0.0224284048524
0.0324118554726
0.0317521987728
-0.0503086821786
-0.0331306092234
-0.0796437043266
-0.0248457391663
-0.078212711178
0.0139631248228
-0.056534699775
0.0290132106912
-0.0935556217366
-0.035632261078
0.0314791495909
0.0807478893069
-0.0284302113059
0.00519584588347
-0.037753679089
-0.04723266732
-0.0820976106521
0.0377317019695
0.0555512571414
0.00926250991741
0.0672807795504
0.0388278614266
0.0636280326992
-0.0462903527994
0.000761465627228
-0.0373392412909
0.00679908901233
-0.0840821132396
-0.0168274008899
-0.0354762189411
-0.00424967098423
-0.0777876640197
0.0224114493012
-0.0738182554957
-0.00406965621911
0.0506908370628
0.0743167430411
-0.0785087650541
-0.061883997544
0.0302940363742
0.0234541962593
-0.0602969694521
0.0116977479461
-0.0933610173895
0.0525649490315
0.0747067463496
-0.00873762024866
-0.0186909227229
-0.0484316725194
0.045899937896
0.0890430160007
-0.0538938291711
0.00995277877154
0.0399662651077
-0.0137825126034
0.00517914962183
-0.0472949865178
-0.0333982308829
-0.0269341770404
0.0668933794462
0.0450818757501
-0.0508971187404
0.00824150343171
-0.0172188044447
0.0588017053038
-0.0516269915759
0.0437866013108
0.0819964151801
-0.0673132942837
-0.00404627996651
0.0693575983051
-0.0460923831925
-0.0590272869076
-0.00622324875952
-0.0203255140889
0.0920287829321
-0.0375627815836
0.0415372553441
-0.010465880703
0.0509159532053
0.0925651530858
0.0599779703157
-0.0749562298921
-0.0522934624518
0.0488147662005
-0.0810556161508
0.0830574605082
-0.0941590735348
-0.0704101481858
-0.0627009616718
-0.0446418576851
-0.0908574844654
0.0437032602178
0.0750963900047
-0.095320031416
-0.0861579637379
0.091010371562
0.0486793142755
-0.0368300581846
-0.0536196769421
0.0218452417312
-0.0637587015351
-0.0518300828407
0.0152199372924
0.0433602087227
-0.0535853356131
-0.0953409927988
0.0256191830662
-0.0772427312013
0.0863230458446
-0.0688078576862
0.0472107646951
-0.0420308892906
-0.0595697861335
-0.0653170379736
0.0553200572361
-0.0333426749897
-0.0287200777081
-0.0486640853036
-0.0432645722215
0.00874973634668
0.0789615147496
-0.0798833506324
0.0392826307576
0.0239599125941
0.0677187167195
-0.0464978781104
-0.0793212964368
-0.0710249088403
-0.00934528178364
-0.0772104345725
-0.0742765938983
0.0619645251156
0.0385529562106
-0.0681911580361
0.0577871505586
-0.0204747027162
-0.0140597872523
0.0796153487531
0.0555096682354
0.041707631197
0.0713390137544
0.0537155209994
0.0607515975729
0.0097189920501
0.0342352715683
-0.0438004743269
-0.0443978506817
-0.0927980512921
0.0851323550384
-0.0761938414864
0.0426017473626
0.0138534156831
-0.0767128607406
0.0805923359424
-0.00797537130006
-0.0623773960563
0.0555844344592
0.019063881981
-0.0539266209137
-0.0156860217261
0.0894814047672
-0.0822583712091
-0.0714774236011
-0.0202152974666
0.014428434435
0.0320666367115
-0.0805568881226
0.0337560126259
0.0527016971776
-0.0820589958423
0.00405777382958
0.0813376780161
0.023877695612
0.0797753179554
-0.0296942631463
-0.0509409199879
-0.0395233903328
0.0875271802112
-0.00372827994697
-0.064038256441
0.0686639658033
-0.0247621081323
0.00228398706493
-0.0927876465673
-0.033316858522
0.0685250791421
0.011657513919
-0.028981063471
-0.0211210507396
-0.0761884623108
0.000848927890029
0.0954389016165
0.094790162125
-0.0113743394012
0.0351910059586
0.0189853133401
0.00586117197952
0.0640498311946
0.0810659552454
0.0359900973653
0.00235072876519
0.00316088924361
-0.052586014225
0.0445869430697
0.00712650971898
-0.0428461551048
-0.0736192604785
0.0552254374589
-0.0380717074922
-0.0349732822881
-0.0231918469827
-0.0247399791398
-0.00609951208808
-0.0926255146005
0.0331422653983
0.0177513220573
-0.0211226610259
0.0908612751442
0.0488612635629
0.0449663800146
0.0585504385167
-0.0922067024058
0.0523835191122
-0.0229965419253
-0.0167683282182
0.0908275810662
-0.0122221068936
0.072736418279
0.0409576347954
-0.044622836566
-0.00600346666091
-0.0547548208417
-0.0940757916896
0.0875331107628
0.08402695336
0.0913934053804
0.0826289661859
0.00376446776282
-0.0574281304448
-0.0955763946353
0.0290347855406
-0.0521982092086
0.0193677626843
-0.0505413030533
0.0423832969534
0.0153426876635
0.0320872064765
0.0633736423668
0.0502952451786
-0.0138231304271
-0.0598578699616
0.022100735662
-0.0626808867462
0.0105718028258
0.0710366005731
-0.0392379444723
-0.0134056499224
0.0106616381986
-0.0243318536336
0.00707798047661
0.0900902610123
0.0856162890042
-0.0612610416754
-0.0693633773721
-0.0951851822934
0.0783813143631
-0.0599117737702
-0.0193422593633
-0.000602760896672
0.0670323033864
0.0543447785139
-0.0875336973477
0.0192971521139
0.0275255485974
-0.0584206139645
0.0243571870397
0.00755897131436
0.0868978197621
-0.0532437189083
-0.0841140531016
-0.0355538670759
-0.0934236657208
-0.00770388199506
0.0783653573494
-0.0395826628119
0.0441290333737
0.00876564316317
-0.0255550619735
0.03156022167
-0.0404355864292
-0.0402558304302
0.0830475585304
0.0197825506129
0.0886627026519
-0.0141985211552
-0.0514854588136
0.0476929399359
-0.00480196281475
-0.00741011171894
-0.0703042633623
0.0161099816846
-0.0700902935075
-0.0473504036374
-0.00164657308764
0.0142894931589
-0.070624760654
0.0628923756409
-0.081528374466
0.0767009034399
0.0815719668379
0.0785875244322
-0.0473552046193
0.033177237031
-0.0319788899723
-0.0181958353259
-0.0180288087875
0.0193662656302
0.00375124955426
-0.0442865248072
0.0552463839054
-0.0571940198267
0.0936760518531
0.0647520498184
-0.0427698507334
0.0891202811277
-0.0502003396902
-0.0856370879602
-0.0263580203497
0.0142109028833
0.0726862838726
-0.0607771441904
0.0564608174703
-0.0300804180091
-0.0362995514845
0.0335011104643
-0.0697488254499
0.0175055848608
-0.0772371626674
0.0941402498754
0.0323463078439
0.0749740792309
0.0675404511998
0.0713638570972
-0.0877131034937
0.0593088698962
0.0199408720355
0.0513559368038
-0.0670470932313
0.0772349609066
0.0114844247257
0.0239178148199
0.0567008203619
-0.0414583246825
-0.0173746902155
0.052967713425
-0.0243329449764
0.0944227534743
-0.0508330354155
-0.0859659421818
-0.00917732213512
0.0387699397597
0.0168870359307
0.0268736053944
-0.0919446966814
-0.0295198746543
0.016057346643
-0.00728882478904
-0.0638232833776
0.0386098530904
-0.091559863668
-0.0122952624831
-0.085372385339
0.0321995735922
0.0203321490099
-0.081747930225
-0.0619630360348
0.0258800726464
-0.0704530671697
0.023348541848
0.0751129272869
0.0279178736513
-0.0325482537665
0.0749326194692
0.0468883991256
0.0188344135931
0.0285387293243
0.0865163372386
-0.002890005274
0.076803122218
-0.00109791225091
0.0165322596267
-0.00620605256159
-0.0587890071939
-0.077073983338
0.0946198852923
-0.0716926371386
0.0892077848787
-0.0400179592832
-0.0948135130763
0.0874098814716
0.0338769814937
-0.061846863072
-0.0430919885853
0.0152290198009
0.0180432172802
0.0192476457805
0.060114269107
0.071249412094
0.0434355698205
0.0867628096717
-0.0607786922792
-0.077805136522
0.0669200782662
0.0421614358891
0.0626238615998
0.0872245580314
-0.0286811579047
0.0793904751074
0.0614887419291
-0.0331992356094
-0.0547775313258
-0.049108147191
0.0920562627167
0.0270498639034
-0.0731127994694
-0.033012067235
0.0857383357795
-0.0683313732731
0.0272452787873
-0.0771833750702
-0.0461873680308
0.0243780179949
0.083024445588
-0.00154637018977
-0.0538994495204
-0.00724709973185
0.0295000274356
0.0942344174158
-0.0511379460684
0.0359608210019
-0.00407428882097
0.0304870480353
-0.0479786685599
-0.0193922746662
0.0593982850214
-0.0620183461048
0.0557883387034
0.0722645890179
0.0328649278805
-0.00369731799255
0.0808873911651
0.0324474694844
-0.0831177776484
-0.0921737092999
0.0701682597608
0.0331327242858
0.0501205607543
-0.0361334643606
-0.0462760084588
0.00144970133852
0.0843860740938
-0.0101665117456
0.0702098503166
0.0229748486767
0.0417879576607
-0.0181595042402
0.00185552156898
-0.0894241021998
-0.089613379796
0.0375514177537
0.0620416647912
-0.0158547602952
0.0847724276746
0.0311477115029
-0.0790677183213
-0.0259206788064
-0.00669919128657
0.0669487934098
0.0696854551859
0.0283691753021
0.0926047472712
0.0871245373442
0.0427992513194
0.0508132933223
0.0220868547265
0.0859007547537
0.0911787979972
-0.0174257187865
0.00167212340101
0.00851933212985
0.0913783227937
0.0313844759614
0.0867403683109
-0.0230537369349
-0.0489900774536
-0.0742358288664
0.0100465664607
-0.00545185152624
-0.0803698671251
0.00412152640154
-0.0461904191659
-9.9677628635e-05
-0.090811097119
0.0764545353252
-0.0111348066121
0.0841855912716
0.0513266413702
0.0284917275414
0.0935166657208
-0.039975279502
-0.0791440879215
-0.0667144717749
-0.0404445033458
-0.0583276008967
-0.000720500114736
0.0347878817901
-0.00595232716018
-0.0121630693423
0.091963421473
-0.00392158710284
0.0123879882181
0.0581372919893
0.0691171789437
-0.00991568175672
-0.00218593151361
-0.0529765226804
-0.0080198780002
-0.0253945597624
-0.0789992382259
-0.086492358508
0.0127577178146
0.0404589920303
-0.0138889272375
0.00538893737653
-0.0877123294438
0.047646771423
0.092515605024
0.0788061408974
0.0204692183952
-0.0570169096648
-0.00911034144776
0.0751050705595
0.0613271766125
0.0439698210176
-0.0820056759011
0.041697457271
0.0513129046869
-0.0822075561038
-0.00629263321362
-0.0302855064144
-0.0615114541342
0.0539449065554
0.0774539564062
-0.0265485215009
-0.0846133142009
-0.0638583172445
0.0147134324532
-0.00999177753539
0.0419294930926
-0.0419555135788
0.02138906691
-0.0299066012127
-0.0509272786354
0.0518630235673
0.0635252801332
0.0523423467469
-0.0340620690486
-0.048911100544
-0.0847346502631
0.032860061139
0.0343072480938
0.0330529832156
-0.054346188948
0.0900333153495
-0.0818118543624
0.0674626633422
-0.0566325472845
-0.092229412437
-0.0791579646683
0.0675625250591
0.0876866203235
-0.00895439463518
-0.0249247754376
-0.0473464575319
0.069003829983
-0.0309090292857
-0.0396670996457
-0.0503845112646
0.086306976802
-0.00952937871398
0.00658143247428
0.0363032404081
0.092196363973
-0.090168121087
0.000582902197415
0.00730969716771
0.0159072479571
0.0344076681712
-0.0957856335844
-0.0201872695105
0.0314614414043
-0.0177111756175
0.085360282177
-0.0288613278854
-0.0758855361284
-0.00542905637092
-0.0315639139465
0.0847969263203
0.0390137736392
0.0105133084154
0.0736519837188
-0.0356195157343
-0.0867984364787
0.0235296662618
0.0849309391051
0.0235341552264
0.03677063156
0.0430181682569
0.0628204766418
0.0676282210804
0.0590790476311
-0.0314035738723
-0.0193919459458
-0.0271608738678
-0.0548261005349
-0.0672339695675
0.0377899484174
0.0712942055255
-0.0290221350237
0.0779075650272
-0.0725193026777
-0.0683041952448
0.0522890361761
0.074488804604
-0.0602430493734
0.00616513377622
-0.0782900036483
-0.0903797151903
0.0172534300737
-0.0266122430464
0.0545005160682
-0.0498936376383
-0.0756312781075
-0.0436504701539
0.0670986260071
-0.0872449333318
0.0817918751699
-0.0481139979383
-0.0245239590831
0.00869381826028
0.0775695747229
-0.0558491748921
0.0157763586694
-0.0781326351253
-0.0855123624092
0.087557015594
0.0052124718633
-0.0220113227789
-0.00793855902082
0.0312428534132
0.0141464927461
0.014197762993
0.000434921485744
-0.00712324931417
0.0579271863635
0.0560279578083
0.0340576765627
-0.0764289628585
-0.012013153612
-0.0689435796244
-0.0436491181134
-0.0528087982207
0.0727609827648
-0.0145090820926
-0.0685182498651
0.0342738128265
0.0324697057469
-0.0740254848017
0.0296703712657
-0.0513913736289
-0.072268238893
0.0573291936519
-0.0524295644027
0.0719031605729
-0.0787489654109
-0.0363653932658
0.0775230959953
0.0658196631889
-0.0455417886577
-0.0105669761688
-0.0465277152438
-0.0907884142007
-0.0917520705391
-0.0887949573263
0.0518193655
0.053995019991
-0.0426029663588
-0.0564880776311
0.0366488921235
-0.0843423429329
0.0743309305773
0.00670777707102
0.0318173523786
0.0891388970775
-0.0947245910292
-0.00812391358678
0.0113533525607
0.0710150296308
0.0498120275276
0.0109254779664
0.0501825226901
0.0464444501039
0.0783595886047
-0.0645063401679
-0.0567966413253
-0.00289982226526
-0.0790050243931
-0.0784690711951
0.0384255214936
0.03255713738
-0.00335382931502
0.0726540861353
0.0314193008559
0.0947035862357
0.0242038230089
-0.0691628102152
0.0353755344796
-0.0448791822573
0.0250879233858
0.000273247789639
0.0867388024395
0.0558359276969
-0.046031264695
0.0914831732088
-0.00781537315221
0.0866898082292
-0.0825351752358
0.0797422284319
-0.0408350779693
-0.0723639434423
-0.0690662840485
0.0952631071004
0.0148973051171
-0.0115970139506
0.0721680695613
0.0685387026023
0.00771136411866
0.0709919602807
0.078483546412
0.0294332934656
0.0856356116262
0.0660787120307
-0.0799194220621
0.0357019886215
0.0342310589792
-0.0948416488391
-0.0830889926153
-0.0437510129417
-0.0878771653164
0.0674456307258
-0.077488513231
0.0732306981321
0.0758243309465
-0.0614525262508
0.0700773256601
0.0706897393409
-0.0267154384082
0.0579236682823
-0.0340273885051
0.0555015922221
0.0404343999036
-0.0426353536637
0.0756652412353
0.0223189227089
-0.0359582239567
-0.0773635795597
0.0717046130734
0.0658482851868
-0.020839025467
0.0421844886818
-0.00136808426897
-0.0470945743593
0.0715977158873
0.0496803797826
0.0071147885176
-0.0461957930036
0.0880321294491
-0.0391393826445
-0.0427938706754
-0.0600610256561
0.0561387893693
-0.0725343135698
-0.0527364695836
-0.0907972943636
-0.0882434668091
0.0611333394445
0.0158753167654
-0.0635507864073
0.083430625231
0.0238813291484
-0.0740985174828
-0.0755009270607
0.0194512354254
0.0572377916036
0.0603208865169
0.0485077469622
0.0711438797903
-0.0774092164018
0.0229713120856
-0.0702369277357
0.0346241913109
-0.0742702103672
0.0751932742733
0.0140071460016
0.0465970929164
0.0396229559717
-0.0128559551137
-0.0107860188085
0.0389824739097
0.0322990849163
-0.0493972103697
-0.0315340490831
-0.00171226545006
0.0372182593421
0.0305536679249
0.064878317148
-0.0802518838878
-0.0541174722648
0.0455993267748
0.063487257912
-0.0241537269036
-0.0268699838647
0.000583197428976
-0.0857026570118
0.00324629576139
-0.0659434113295
-0.0208649850282
0.0769579279287
-0.0177556613909
-0.084451647072
0.0102356587809
0.0860907459474
-0.0111361244728
-0.0238635962437
0.057813458103
-0.0030831562702
0.0735485843818
0.0490722606657
0.0647273384842
0.0193952106631
0.0284804222809
0.0612667237964
-0.0198356160735
0.0467239086166
-0.0504617654025
-0.095342784811
0.0177855963976
0.0539851053162
-0.0112136044779
0.0111316513886
-0.0660572871082
0.0667799410701
0.0622406034394
-0.0559262665622
0.0158869687662
-0.0313876125205
0.0572014817582
0.0584260644183
-0.089728304513
-0.0898853235971
0.0623650870722
-0.0428046784129
0.0246940905643
0.0849844620271
-0.0735703068079
-0.0272655145211
0.00651991779084
0.0103696609553
0.0768314155526
0.0392430749197
-0.0335397614957
0.0205371779325
-0.0857459271464
0.0771312021894
-0.0600841625801
-0.031221518165
-0.09375698424
-0.0356354535119
0.0245499216438
-0.0812612410896
0.0271879254809
-0.0238674598153
-0.0427559890642
0.0920875952696
-0.0922190415849
-0.0442576969669
-0.0094167623215
-0.0726630531453
-0.074402522718
0.0289552655714
0.00489107285158
-0.032805383402
-0.0634672531557
0.088398595332
-0.0308701961776
0.0425883498149
0.0610382345198
0.039327527392
0.0146186974562
0.0854256957438
0.0488305049793
-0.0345561899671
0.0875123982558
0.0321138490839
0.0537434184045
0.0742272678838
0.0577693268201
0.0658990663818
-0.0814126735338
-0.0641632488538
0.0942111975381
0.00730350250497
0.0687874129313
0.0130764197476
0.023118508178
-0.0806081133865
0.00192115508154
0.0172683209177
0.088650704497
0.0706004333408
-0.0695089488513
0.0445785446636
0.053868599269
-0.0523598576189
-0.0424898907005
0.0475036107538
-0.0765575982314
0.0270527123802
0.0948014062519
-0.0937936278486
0.0381258169269
-0.0211636690403
0.085326598617
0.0162957213722
0.0504012556785
0.0502232143713
-0.0859835359187
0.0111021686561
-0.0434421929466
0.0210236989917
0.0242401153088
0.0520146205782
-0.0667361522984
0.024119518571
-0.0279638963293
-0.0486524659333
0.0261069316764
0.00541743277229
-0.0909679468284
0.000872556964464
0.0416954421016
0.0209810057524
-0.0803679085181
-0.0891352935205
0.0665125412526
-0.0386722923999
0.0697753897705
0.0149360608372
-0.0333290821852
0.0408407159042
-0.0149553403501
0.0274840720285
0.00682604114911
0.0415352124841
0.0134205836497
-0.0202331000247
-0.0203458971466
-0.0361849649552
0.0201763777562
-0.0934343808682
-0.0262707116471
-0.0715257078061
-0.0106794670098
-0.0303854089794
-0.0653397525839
0.049948702649
-0.0263936373195
-0.0863077001731
0.017645999298
0.0618538119469
0.0183146722884
0.0533387875561
0.0532405193638
-0.0507183197611
0.093588385175
-0.0270746811216
0.0273951537327
0.0095786000193
-0.0321910329984
0.0244088663023
0.0187225439514
-0.0709230567422
0.0660092317915
-0.0769198277539
-0.0477464660484
-0.0405497879438
0.0941802380084
0.0869672809835
-0.0854163416649
0.089272979947
-0.0645640719751
-0.0812027005183
0.0741818515333
-0.0287022685367
-0.087739624352
0.0511434823258
-0.0287725111296
0.0846539169389
-0.0703120488995
0.0514052849521
0.076258610439
0.0579931601943
0.0205732246086
0.00730925844965
0.029435544695
-0.0213556610768
-0.0379487806425
0.0675303119357
0.00599102997019
0.013417804609
-0.0527910441554
-0.0592230873245
0.053864287575
0.0300754212549
0.0643889682816
-0.00167216902357
0.0624286337386
0.0359228703832
0.0453054825044
0.0532045341911
0.0122144565624
-0.0212355391055
-0.0756379293703
-0.0460943453396
0.0922328856272
-0.0792257224289
-0.0640478902805
-0.0204911071289
0.0101065174818
0.00728174399131
0.088733652478
0.0468516151689
0.0459026567045
-0.0237342125581
-9.42994541735e-05
-0.0916164688999
-0.0188829508994
-0.0669473687569
0.0355525338693
0.0181343824819
0.0704843533974
0.00089856669406
0.015793778313
0.0632441301587
0.0323307985541
-0.0529461669153
-0.0188162419652
0.0690608766795
0.0434720755401
-0.0342306101787
-0.00119781971928
-0.00354482754497
-0.0340316791848
0.0467666295993
0.0557401361044
-0.0708344464901
0.00151045978327
-0.0087533110882
-0.0024575944539
-0.0922059450571
0.012565136812
-0.0319441654005
-0.0533904725939
-0.0530527827005
0.0566013254086
-0.0498343935966
-0.0587185635385
0.0633930647563
-0.0213192328526
0.0189098062608
0.0489420430795
-0.0138068642362
-0.00666375070861
-0.0809259424521
-0.0728984191482
-0.0789136321277
-0.0631427786582
0.0891402481789
0.0637072726721
-0.0117281153985
0.0344910746088
-0.0692100837605
0.0765409857265
0.0845152742864
0.0806509542247
0.0162302038563
-0.00801958176385
-0.0570530068682
-0.0868768740847
0.0764518838772
-0.0614031341836
0.0297740770965
0.0570384696005
0.000196380524626
-0.0598363854582
-0.0366893018433
0.021851849416
-0.0129602655537
-0.051922079746
-0.0508032341398
-0.084535696004
-0.0353849213259
0.00077797695186
-0.090148350201
0.087157073572
0.0736718913697
0.00730113618991
-0.0286680079447
-0.00262601229222
-0.0631695506709
-0.0915219859472
0.0418514206521
-0.0443419932787
0.0344782936334
0.0823114679564
0.0589354452882
-0.0202030716831
-0.0260122250269
-0.0120898023205
0.0305039339509
0.00626726111419
0.0558635847605
-0.0473511891518
0.0795463005948
0.0747770677399
0.0323481529713
0.0922090130904
-0.0956550008958
0.021660194551
0.00647129839568
0.000495842863597
0.0867171906635
-0.00391456421233
0.044406382593
-0.0665604266046
-0.0521429943382
-0.0443996179824
0.084863320967
-0.00600635555882
0.0632807580354
0.0327910219975
-0.0187204802158
0.0789701290973
-0.0754066944736
0.0748984521906
-0.00881799449108
-0.0596316474963
-0.061750565644
-0.0357060704429
-0.0713133503178
-0.0797241287943
0.0491490179755
-0.0715729586423
-0.0746289029064
-0.026291992269
0.00767600546287
-0.0502215338976
0.00183475228798
-0.0306691707011
0.0246592965105
-0.0514220772743
-0.0529941554402
0.0158050042064
0.0804974043267
-0.0122293672679
-0.0536289807179
0.0478166341972
-0.0650818978864
-0.0543157685312
-0.0167110662072
0.0207786898814
-0.00603470586589
-0.0261467960728
-0.0826946228344
-0.0117353634914
0.094679055497
-0.063439950466
-0.00110790208156
0.0347868982255
-0.0840088763961
0.0818002914843
0.00378636698072
0.0820566879704
0.0346949796941
-0.0410433572507
0.0452820354482
0.0700955317218
-0.0317027301145
0.0688888039096
-0.0179662412974
-0.0649542202639
-0.00191470575047
-0.0389695110123
0.0492039932491
-0.0720058133864
0.0790727096713
0.0812189674051
0.0269759341306
0.0494245076488
0.0379729106989
-0.0660775476815
-0.0157713426967
0.0356704742858
0.0395103679875
0.014417256622
-0.0527891760738
0.0127318227833
-0.00476231511651
0.0506739029132
-0.0954699106647
-0.0198462752163
-0.0451613088682
0.012870561716
0.0649785663269
0.014142692765
-0.0290393600698
0.0861547110445
-0.0129474501761
-0.0554976584588
0.00728259101558
0.0757332826005
0.00135617862338
0.0370273838355
0.0881017465131
-0.0424273861594
-0.0550093721167
0.0496694563294
-0.0304517645555
0.0649349209931
0.0659792970742
-0.066087882155
0.0939239010941
0.0596397022843
-0.0363936363482
-0.0534409365571
-0.0247441854939
0.0566715549308
-0.0331711007226
0.049981193939
-0.0517460803057
0.0709076760483
-0.0766131663315
0.0161012061535
0.0924574797575
0.0850172722247
0.0192335295934
0.0195065552137
0.0649981985909
0.0201420960309
-0.0211278684378
-0.090918955729
0.0142997825934
-0.0173618933845
0.0730978691231
-0.0442851972277
-0.0770918761567
0.0651887041258
-0.0501571334558
-0.0457322801905
-0.0598501078452
-0.0653721701713
0.0201483742981
-0.0725999139717
-0.043565038974
-0.0382252792682
-0.070431155406
0.0598900911042
-0.0887996129619
0.0812815117935
0.051762691892
0.0300292727381
-0.044837056345
-0.0655482088734
-0.0177761866324
-0.0236199419466
-0.080412933589
-0.0873489539898
0.0153840705304
0.00209859926277
-0.0123187955913
0.0252368952835
-0.0408218525679
-0.0528952303325
0.0647529782241
0.0445093988499
0.0280792756931
-0.0143850908865
0.0375219170908
-0.0757929537407
0.0691447224915
-0.0865587770605
0.0530135778173
-0.0754346395887
-0.0734504141266
0.0707766006052
-0.0848797696437
0.0844390827272
0.0740564232528
0.0526597478864
0.0346563133005
0.00443101048658
0.0462755374538
0.083185806531
0.0857952764198
-0.0959624609883
-0.0363322529346
0.0383899625664
0.0543884951152
-0.0659784261779
0.009969131885
0.0592712294608
-0.0109591452994
0.0648700601645
-0.0839097126962
-0.0196420940105
-0.0835767886064
-0.0338574641784
-0.0652408277714
0.00245916166761
0.0748991280055
0.0126871788734
-0.0254687454405
-0.0421756358912
-0.0284518563832
-0.0184570785517
0.0681169291617
0.0759237754196
-0.0320565767541
-0.0909105933483
-0.0160727083477
0.0294325280325
-0.0645386674759
-0.00894978359132
-0.0308495386766
0.0760189108214
-0.076462263571
0.0461339464237
0.00399457133788
0.0443021997764
-0.0360505095387
-0.0167354150231
-0.0811085039325
-0.0529289005671
-0.00992304272253
-0.0895707699485
0.0906357524475
-0.0120126312182
-0.0879508234036
0.00442187687288
-0.070238800118
-0.0159540703717
0.0110672736736
-0.0683767481494
-0.0102688149433
-0.0416762820541
0.0194414434748
0.0401361949552
-0.0154538462607
-0.0675485955138
-0.0379687605209
-0.0490286856977
-0.0770484197792
-0.00957741116465
0.00460323951473
0.0348269241916
-0.0736405869456
0.0469487173142
-0.0726329597766
0.0943726148851
0.0761815025423
-0.024767315873
0.0747989221268
0.0726905384531
0.0936649395301
0.0236572764266
-0.0564791481935
-0.0487662867948
-0.0840250974843
-0.0565738949192
0.071103772131
0.0856073351578
0.0814342256448
-0.0841244794309
-0.0485571811175
0.0859677263997
0.0411557996073
0.0748765076216
-0.0702346959239
-0.078199751763
-0.0232239673634
-0.028725634005
0.0841012926115
0.0498327858798
0.00299573209613
0.037081838288
-0.0300433746394
-0.0911774217473
-0.00344423701206
0.0557007792355
0.023353310806
-0.0755643547505
0.0373397682265
-0.000412345563524
0.0193359978456
-0.0927498308811
0.00294981680832
0.0907474788202
0.0425435275513
0.0470446400206
0.0786807511616
-0.0701330177463
0.0482160968658
-0.0474403519171
0.0354242872887
-0.0487230711069
0.000208431349765
0.084017814025
0.0385247025505
-0.0701048493331
0.086272396643
0.0786485991036
0.0754681327895
0.0846580074771
0.034738931994
0.0816277536554
0.0570367540633
-0.0655560506326
0.0847403508722
0.0525264390324
-0.0122875148829
0.0300333180133
0.0903176176561
-0.0951601816591
0.0199754043478
0.0892499254886
0.0103554390372
-0.0150489015657
0.02039203881
-0.0944902834089
-0.0960017844983
0.0840240678876
-0.0439301638999
-0.0597030570325
-0.00177209624395
0.0781624056659
0.0872677274254
0.0126678819499
-0.0102463843685
-0.0045827713284
-0.0369860796862
0.034575727729
0.0691074945387
-0.041469411002
-0.00823522777031
-0.0677386711901
-0.015646276211
0.0300424582321
-0.0778090819188
0.0185159494708
-0.0199070191414
0.00387562338638
0.0882964783071
0.0494145301725
0.0448390749047
0.00661931189316
-0.0705382265719
0.0745791456329
-0.000332819158233
-0.0540752011884
0.0363822649946
0.0500058165354
0.070036821413
-0.0511010942341
0.0683212246629
0.0020491195698
-0.00707168111238
-0.00143992923671
-0.0372061606706
-0.0092553738786
-0.0382059746911
0.0904759723529
-0.0286225389031
0.0955346544304
0.0540773177483
0.00229241532086
0.0519600015005
-0.0541986243589
0.0480603211967
0.00588876785687
0.0502086720472
-0.0389627136331
0.0948108590652
0.0397006892766
0.0158721056903
-0.0315959244126
0.0754973450579
0.0181633158143
0.0419267582605
0.0204973186349
-0.091736913014
-0.0345330931559
0.0641530519933
0.0735332047154
0.021416107477
-0.0389877129965
0.0401004728207
0.038057703571
0.070382676098
-0.0774941000326
-0.0481585719696
-0.095164615359
-0.0065272174107
-0.000620767647218
-0.0847670622438
-0.0707321169377
-0.0398682477225
0.0508933453213
-0.053755340645
-0.0905796626023
-0.0610980292698
-0.0373282662618
0.0508657665548
-0.0260231683039
0.0742502008816
-0.0142516652787
0.0155503771434
0.00478539309313
0.0105390527674
-0.062871642139
-0.0224333023397
0.095752394296
-0.020162121451
0.0188043154222
-0.030822885907
0.0542898852125
0.0392123856971
-0.0419408774522
0.0547340554067
-0.0814270079224
0.0435004074807
0.0870386285453
0.0110941798074
-0.0902525709052
-0.0429223336621
-0.0129804792891
-0.000531567345338
-0.0913113620267
-0.00176803714808
0.0924585762599
-0.0172600998011
-0.0890571197837
-0.0477204530333
-0.0286768426673
-0.0936520013104
-0.048679320706
-0.0578004744456
0.00201955560781
-0.0728093207067
0.0518379786568
0.0387144657158
-0.038599728542
-0.0613685640384
0.0631193294406
-0.0368939530197
0.0432116560079
0.0954777106765
0.0689083009892
-0.0915335021069
0.02795327894
-0.0607094296781
0.0170253762687
0.0232652817526
0.0840863208895
0.0398701943714
-0.00241919131692
-0.076714135922
0.0605826802702
0.0941374161879
0.0503070896598
0.0640571394243
-0.0472353096421
0.0568920199397
-0.0945028181235
0.0518748629602
0.0332378012784
-0.000337003104612
-0.0163899700779
0.00676598282439
0.0661973652575
-0.0160311550703
0.0761917706833
0.0906026823693
0.0729573979567
0.0591276883622
0.0103085940711
0.0787245588778
-0.0603052672407
0.0738561193534
0.00480711358547
0.0602804737024
-0.0926383432757
0.0241326048778
0.0242883514856
0.0256202322604
0.0766116647073
0.0473881758208
0.0673448955342
-0.0685080872268
0.0358868243119
-0.0350414058318
-0.094429551052
-0.050035374836
-0.0439080564341
-0.0512513948629
-0.00600436423043
-0.0695807753781
0.0111314811113
-0.00695661774683
-0.0523641543246
-0.0434504483302
-0.0924676707229
0.0406300748263
0.0298697599648
0.0709322721078
-0.00752955132881
-0.0622746335897
-0.0796343530262
0.0259699613056
0.0700453264235
0.0780261614146
0.0523507842203
-0.0299935455422
0.0626651172831
0.0284048648842
0.0876835777396
0.0707599842365
0.0842300850656
-0.0361199177572
-0.0938044585034
-0.0960163405198
-0.00943786118899
-0.0920264939317
0.00159898762443
-0.0779985189763
-0.0248260508141
-0.0179223689337
0.041486529577
-0.0924450145886
-0.0536580500096
0.0564041445925
-0.0497585296947
0.0916138489682
0.0140923547241
0.0326877440084
0.0565424658222
-0.035182906407
-0.00512033539004
-0.0886402210303
-0.0531112484453
-0.0422660380274
-0.0026261323864
-0.0945898374689
0.077943004048
-0.0427499816082
-0.0243087470524
-0.0855424507814
0.00159303652825
0.0798024560021
-0.0333271731568
-0.0208901692549
0.0160222763926
0.0235112732326
0.0367022299132
-0.0527247119447
-0.0671878219661
0.0235479858648
0.00690671490965
-0.0548731517394
-0.0211257167696
-0.00865842000482
-0.0222803185516
0.0168322616287
0.0628947301467
0.0621907741791
-0.075981158888
0.0640096459395
0.0679972192575
0.0320915576529
0.0893573032878
0.0112419391497
-0.0403434708704
-0.0665783611398
0.0341093227064
-0.0156045119147
-0.00175634406427
0.078361093773
-0.0886781911812
0.0101080672502
-0.0753097963426
-0.0164917099659
0.00891739255026
0.0579408183391
0.0869946526111
-0.069338306484
-0.0139284559961
-0.0818841634081
-0.0439024907579
-0.0770879957498
-0.0609110947275
-0.0904894229069
0.018142632371
-0.0416336757534
0.069090515325
0.000761449941005
-0.0419419114806
0.0110342027315
0.0311396727564
0.0406978498906
0.0610497709262
-0.0690930329186
0.0499539076738
-0.031250875067
-0.0312758964293
-0.0846985826712
-0.00880581336758
-0.0763973077794
-0.0269882638332
0.0534892226263
0.0659217070597
-0.0017143291729
0.0302543811559
0.0687715128705
-0.0934793117115
0.0808503873731
-0.0397770916221
-0.0248517421163
0.0908059787968
0.0609326894245
0.0593872472358
-0.0304614786272
0.0741981949458
0.0270605750108
-0.0614347515283
0.0594828121246
0.0316095596506
-0.0168579286092
-0.0877209642728
0.0264646260781
-0.0420737354975
0.0879138492863
-0.0212772297701
0.00136755000796
0.00245390336009
-0.0415225277698
-0.0641300212808
-0.043106391184
0.0308913002304
0.0492154808621
-0.040979838722
-0.0879300489983
-0.0440536185808
-0.0918048117815
-0.0523251325278
0.0403101835442
0.0169394733076
-0.047476506289
-0.0674349149971
0.00877660001356
-0.0298496503888
0.0333553327001
-0.069057180415
0.0112755327231
-0.0128328018567
0.00780242136292
0.0112427366182
0.0760354116872
0.0224284081718
0.0362424486753
0.0710999605994
6.80434187672e-05
0.0581862808115
0.0848459871859
-0.0439695032996
0.0102769774901
-0.0560130677358
-0.0869142744821
-0.0625076148816
0.0503519285293
-0.0704270285159
-0.0514019225846
0.0875704860367
0.0232448323151
-0.0239288667492
-0.0943493012802
0.00256132154213
0.0356180794476
-0.0501269499068
0.00410514460812
0.0880816735768
-0.00387614957097
0.0383535150557
0.0386604187893
-0.0255364855466
-0.0367112538887
-0.0258488532145
-0.089148777462
0.0913845954688
-0.0464465066623
-0.00263730632372
0.0199159013777
0.0594004773389
-0.0195151773373
0.0872289587609
0.05577799594
-0.0293210875184
-0.00476264981664
-0.0104283994749
0.0810360153871
0.0193322464865
-0.0350278103986
-0.0410704678118
0.0804420847624
-0.0165855794171
0.0356079015148
-0.0333559210207
-0.0752262140514
0.0569929666371
-0.0470440981233
-0.00301191885483
-0.0747027975219
-0.090870088413
-0.0670582564648
0.0895510128767
0.0531872937458
0.0923930590402
-0.0600385367904
0.0198741221026
0.0658773712988
-0.0960008759878
0.0869060322832
0.0745660347328
-0.0386709467858
0.0741966305522
0.0380470560099
0.0170513226965
-0.0518841313571
0.0789672260425
0.0225940273987
-0.0737912799469
0.0284125059706
-0.0796327767993
-0.0645757587994
-0.0548710045849
0.0446173246888
-0.0452475292706
-0.0920256333282
0.0496923429966
-0.031378355652
-0.0419520373561
-0.077068218587
-0.092778740506
-0.0172765476124
0.0285519252689
-0.0101332636688
0.00250159004658
0.0600530371956
0.0442441730902
-0.0516702391487
0.0285989731403
0.0809245906837
-0.0664119814602
0.0491462979599
-0.0220549318043
0.0223820950058
0.0513344478595
0.0368845680319
-0.0586062609352
0.0366696756151
-0.0565326708173
0.042128281555
-0.0529378817005
0.0886915491834
-0.00914471446456
0.0381706320372
-0.0687829104572
-0.0433924019402
0.00958833937637
-0.0188532949066
-0.0894345777161
0.0190711953243
-0.057790099027
0.087659268211
-0.0856736185226
-0.0254222115827
0.0745267467931
0.0862477744635
0.0714585520689
-0.0390584335751
0.0094432019893
0.0548624612008
0.0704481029333
-0.00298390527421
-0.0853964394922
0.00723091812522
0.0587420100887
0.0276239395284
0.0313327888016
0.0571683804263
-0.0505928008208
-0.0132797988866
-0.00701614549754
0.0101448718634
-0.00704141201534
0.0674923224875
0.0688668624808
-0.0498588472199
-0.031202801996
-0.0558980253937
0.07513104056
0.0799270779655
0.0562255953405
0.0523745631506
-0.0655992295099
-0.0626803840198
0.090151324608
0.0681168296568
0.0449480939436
-0.00718670627145
-0.0704992808454
0.0847415760548
0.0922562705483
-0.00853447173586
0.050709411162
-0.0411910945099
-0.009528726968
-0.0729770734347
0.0024932506689
0.0863889745259
0.0758465414692
0.0512261321977
-0.0464767153167
0.0187363259366
-0.0159800644927
0.0214351759755
0.086617178007
-0.0601219427574
-0.0018337119667
-0.0437370168709
0.0771460675895
-0.0742285985881
0.0679918937072
0.0218207307814
-0.0867257687294
-0.081153000593
0.0149682548843
-0.0839226204077
-0.0708211777856
-0.0932131657221
0.0819737632787
0.0249928540374
-0.01581342242
-0.0779614595356
0.0445187917591
-0.0592711036898
0.0662133842819
-0.00859390261634
0.0389548549716
0.0944128675315
-0.00101159997733
0.0776850115603
-0.000747804321472
-0.0196329015763
0.018053020832
-0.0780437972241
-0.0813094229002
0.0857680238788
0.0938246395089
-0.0132357642297
0.0563380574846
-0.0091538031048
0.0689758098284
-0.0107897110365
-0.0588057765429
0.0899956488292
0.00745102641079
0.0079583996731
0.0492050893993
0.0505673625106
-0.00209813059832
-0.0907076455764
0.0414371282131
0.0853118353089
-0.091839619337
0.091045987827
0.0660767696539
-0.0406588458589
-0.0293859253187
0.0187989978952
0.0875187085649
-0.0722302237026
0.00451688383032
-0.0767260415419
-0.00687816685555
-0.0221187900351
-0.0665888561292
0.0207055103345
0.0907284114476
-0.0500222307436
-0.011236441271
0.0745931660767
0.0247299277055
0.0800887165106
0.0820880507249
-0.0398654627799
0.0180948510869
-0.0230346869746
0.0725438867413
-0.0610203096145
0.0161639178382
0.0477380993846
-0.0821211640989
-0.0709562418751
-0.0234105105827
-0.0247749207577
0.0941582143448
-0.0807514221923
-0.0187950716527
0.0859429546541
0.0315712199597
0.0918378535872
-0.0224481316482
-0.0810264992465
-0.0733432767449
-0.0142438770554
0.0289908420197
0.0902184113027
0.0477930009028
0.0918091154022
0.0899881622789
0.00565048436812
0.071458084736
-0.0719259032916
-0.084913991309
0.0726071313508
-0.0816602903625
0.0872112062809
-0.0920535978581
-0.0793190995531
0.0802075764528
0.0267538975888
0.073622517696
0.0283622451342
-0.0416616057946
-0.0711846442442
-0.0289897037002
-0.0699584457189
-0.0541193533603
0.054618735467
-0.0136444330533
-0.00507002583742
0.00611264310106
-0.0531615005886
0.00738422764571
0.0917794504739
-0.0493487354955
0.0137714828629
0.0503886655648
0.0471903075669
0.0779529847285
-0.0751965987136
-0.0251012648876
-0.00324538929329
0.0555207572173
0.08072463748
-0.0524194158933
-0.0346617476158
-0.0647486834238
0.0217074280024
0.0292341858224
-0.0508242504189
0.0827026388972
0.00502022169227
-0.0450198848147
-0.089331225176
0.0791760134068
-0.056501778438
0.0871436230521
0.000521317569434
-0.0621737218128
0.0572326123103
-0.0554309965807
0.0209881413215
0.0130353700936
0.0444393110645
-0.0145350985267
0.0883150015386
0.0356047664086
-0.0437856251536
0.0624408396568
0.00287862674808
-0.0680988927303
0.00187675639699
-0.0291439562234
0.0521466738645
-0.0373928141751
-0.025952374196
0.0713783680831
0.0119114674244
0.0122120496545
-0.0381583008825
-0.00639931809793
0.0789785952393
0.0942746134104
-0.0248631849696
0.0352361951038
0.0397495848962
0.0416669862009
-0.0656511905416
-0.0534179220526
0.0873485247638
-0.0696163682829
-0.0636416556172
-0.0622858469731
0.0569180276633
0.071740740476
-0.0729041579352
-0.0676097087935
-0.0933659149904
-0.0762013069994
-0.0886934204292
-0.0642220811202
0.0213700780077
-0.0347405091951
0.0280637879489
0.0939638352716
-0.0865759950632
0.0938717012795
0.00834209772922
0.0224042309814
0.0351070173472
0.0577311172103
-0.0189505673394
0.048612738026
-0.052709649283
0.0397942847053
0.0912747476616
-0.0523679514231
-0.0151228612379
0.00647841620138
-0.0883084762155
-0.0599130769041
-0.00965025411086
0.0179769534498
-0.0804089805979
-0.0430954435229
0.0578349807126
-0.0096104591889
0.0218491563235
-0.0740609656748
0.012898596479
-0.0335333434317
-0.0901296899321
-0.0809896117161
-0.0680330389779
0.0764951303722
-0.00839294995274
-0.0571666838028
-0.0814937987406
-0.0356398576501
-0.00359587830561
-0.0257214549822
0.0236456730846
-0.0267331198524
-0.0156210287043
-0.0569588863702
0.0649979733534
0.0252582157871
0.0896900024463
0.0673044105283
-0.08094686166
-0.00613070504568
-0.0677290436402
-0.0690231290862
-0.00923235838206
-0.0550221169036
-0.0252282729513
0.0526503389868
0.0758426207639
0.069794332331
-0.0778109671974
-0.0888753944237
0.0587842626299
-0.0318116669492
-0.0282166686303
0.0370557943629
-0.00632285678916
0.0318851628491
-0.0786811699802
-0.0180836101842
0.0871350534114
-0.045850092732
-0.0411233665724
-0.0736551482372
0.050113173114
-0.0534048444218
0.086453547972
0.0715913278674
0.0285454899276
0.0697506815703
-0.0745815238618
0.0211896857096
-0.0448700215438
0.0537694164482
-0.0286354783961
-0.0458602309611
0.0160175148177
-0.0760027170349
0.0764830984437
-0.0262905482145
0.0358398656178
-0.0258809392492
0.0530753712891
0.0917228368875
0.0940849629364
0.000741361677309
-0.0796026848865
0.0865826555614
-0.0490244055178
-0.0201251578157
-0.0167763029008
-0.0493241180487
-0.0191639200691
-0.0108555124413
0.0147226900482
0.0501968818114
0.0318556373875
0.0213846227057
-0.00155472755208
-0.00701176593462
-0.0301482614645
0.0491391609667
-0.0769824999856
0.0367083779938
0.0479317880157
-0.0120021483559
-0.0395399698938
0.00574322447599
-0.0787372879177
0.0224966339816
-0.00417813226644
0.0520880372285
-0.0408001627961
-0.0895757901067
0.0552575752664
-0.0290216786602
-0.057285119079
0.0674140193609
-0.0301428154566
0.0165189397938
-0.020694042662
0.0769093939673
0.0726108608951
-0.0151074830121
0.0782320356569
-0.0120406329949
0.0203591821592
0.0882823168873
-0.0723932612696
-0.0216537483224
-0.0922805894356
-0.0227433924847
0.092265339769
-0.0488482683362
0.0379220022499
-0.0549657779175
-0.0793483623548
0.015061050445
0.0655571970219
-0.0941492671593
-0.0249319009314
-0.0443448298627
0.0311974188095
-0.0617344956722
0.00914063909738
-0.0416962761184
0.0920110207406
0.0834625654392
0.0363951080907
0.030373333586
-0.095512183851
0.0618753886092
0.0775129750733
-0.0452423656747
0.0283745022476
-0.0355221764644
0.0209005068749
-0.00423109199792
-0.0687766250864
0.0819812976502
0.0311299485342
0.019951228106
-0.0405855344435
-0.0546488376399
-0.0606272297479
-0.0292825509957
-0.0883187510137
-0.0445932216288
0.067672950407
0.0211237381351
-0.0508254382809
0.0660429108684
-0.0855587125589
0.040709201932
0.0243497492986
0.0499472030879
0.0363357949407
-0.05765916627
-0.0223116220435
-0.0135955465218
0.0138266196475
-0.0369048054584
-0.0802832082372
0.0351355373341
0.0613734272278
-0.0185035196838
0.00958803914073
-0.064331358598
0.0545019160902
-0.0163813425763
-0.0867438976168
-0.0621006677551
-0.0385207964904
0.00610486048513
0.00926004976695
-0.0352672872109
-0.0317097886483
0.0740072735337
0.0256144009097
-0.0205535245466
0.0731557631092
0.0881385519038
0.0831100074164
-0.0299178433358
0.0642648326213
-0.0960405980433
-0.0527180677025
-0.0466776673716
0.0539836580601
-0.0138434381672
0.0802644117559
-0.0629609763609
0.0884752152103
-0.0361603948287
0.0882505595988
0.0438580056841
0.0185623575272
0.00202754220087
-0.0604705115316
-0.0710177194831
0.0655832655038
-0.0689451099441
-0.0186798330711
-0.0240507506222
-0.081740118578
-0.0480091180198
-0.00803743174828
0.0853548563742
-0.0753631404068
0.0284760093185
-0.0910140110706
-0.0219334311937
-0.0203753994756
-0.0384312621565
0.0580446792319
-0.00660941265284
-0.0763610302662
-0.0648560558856
-0.00141378282764
0.0854547687601
0.0434423444815
0.0942531849424
-0.0225133517939
-0.0839433563246
-0.0293016983987
-0.0293844539782
-0.0445336170528
0.0631872734019
0.084751820678
0.0611644118734
0.0600891733111
0.0365571287646
0.0107216015671
0.03400709051
0.069458655518
-0.0823866036822
0.00159639028638
-0.0157154713348
0.0407248516003
-0.0483146060462
-0.040553008495
-0.0315668554244
0.0439041675506
0.0825432478597
0.0717515892082
0.0416431092859
-0.0210302904437
0.00172576140381
0.0115136694814
-0.0321016617971
-0.0275104185825
0.0727171866487
0.0875222057433
0.0151777218836
0.00190667085587
0.041352581164
-0.0829476813351
-0.0915272491824
0.0361755002824
-0.0479928822283
-0.063013948415
-0.0903503207847
-0.0234232554278
-0.0189584765777
-0.0948902556959
-0.0841323834741
0.0800762555687
-0.0373235663284
0.0860059145421
0.0612189613327
0.0226001541027
0.00332069455505
0.0296048980827
0.0455359404282
0.0420870834321
-0.022375619095
-0.0259917021304
-0.0119954227031
0.0302465883258
0.0617426784497
-0.00985772453137
-0.0688277668195
-0.0819388833875
-0.00625906086283
-0.00363888573
-0.0103246388546
-0.00431893398326
-0.0704156687714
-0.00277835547657
-0.0331268753464
-0.0343380585549
0.0429009043885
-0.0895987213179
0.0885835269004
-0.0924972587158
0.0761434269346
0.0760654859162
0.0802161774318
0.055130080008
-0.0936481148721
-0.0336163799582
-0.0883908629318
-0.0460778325769
0.0675963250119
-0.0358324689108
-0.0140890734636
0.0533224165916
-0.0407948956381
0.024795859653
-0.0885512696427
0.0690975255747
0.0671514307037
-0.0838434124374
-0.0183174974644
-0.0469599963805
-0.0810179055928
0.0171432546895
0.0347791386662
-0.0536939470556
0.0110443708134
0.0459454803349
0.0448463496799
-0.034404309259
-0.0218612756085
0.0574251827218
-0.0681774471135
0.00312976714154
0.0641044802956
0.0253109667988
0.0705164506438
0.0697622441004
-0.065714117608
0.0157810426095
-0.027226355292
-0.00696183443069
-0.00384518814757
-0.0385116455536
0.00111417111482
0.0763723027077
-0.0699189123803
-0.0354283570499
-0.0184455963225
-0.0393695851981
0.0857541966026
0.0571497182514
0.0417471887741
0.0301072217972
0.0554648852305
0.0548239689821
-0.0181718189075
0.0505380355569
0.0584870684732
0.00437792289779
-0.061428918879
-0.0335837829541
0.0473842035592
-0.00704819429285
-0.0956202498462
-0.00340883683208
0.0285307885853
-0.0668885387557
0.0373464195904
-0.0738023485767
0.0873458001142
0.0324812859259
0.0218812843972
-0.0383533496373
-0.0135110578251
-0.0317714151267
0.0022535308233
-0.0462266492515
0.0468802541435
0.0564796814713
-0.0953202377738
0.0498798010285
-0.0816574221449
0.0166831977218
-0.0559540912011
0.0582639850791
0.0673745898309
0.0720095181982
-0.0890183219986
0.00456633404034
0.0714922743216
-0.0692633129145
-0.0815472544784
0.0501088649454
-0.0176880594161
0.0696181196211
-0.0051153574857
-0.0404876787148
0.00814718383198
-0.00933418839801
0.0520907132944
0.0835001184358
0.0530137659487
-0.0156989216375
0.00366251208295
-0.0868088997544
0.00167804754765
0.0410277254466
0.0723530546276
-0.00560733201879
-0.0813311812351
0.049965697887
-0.077569409821
-0.083764971051
-0.0739786249595
-0.0674327241797
0.0432673918826
0.0325513885298
0.0785462221383
0.0572498511655
-0.00274976280206
-0.00869376520118
0.0492932177189
0.0765261096518
0.0737191168983
-0.0287726788716
0.067223190574
-0.0607907049347
-0.0706168235573
-0.0555049273894
0.0595190768772
0.071779776155
0.0554378203596
-0.0589073859135
0.0266479641011
0.0478524770313
-0.0389041165733
-0.0198759370336
-0.0501220220037
-0.0281533054609
0.012635480615
-0.0325385662696
0.02750406908
-0.0708768169909
-0.0708743524461
-0.0838261560401
0.0389026016091
-0.00829013356191
0.00991128495844
-0.0295077254877
-0.0915588034904
0.00757748637435
-0.0747812028369
0.0326110802284
-0.0741083039027
-0.0242407913617
0.00368137604758
-0.0261370551799
-0.062511823432
-0.0762286653736
-0.0539761665191
0.0445510742233
0.0925468846769
-0.0287504622733
-0.0271333622553
-0.0835906177231
-0.0301051069553
-0.0151898853585
0.0781934824392
0.0245859974215
-0.0251961723839
0.0807397422394
0.00931773635674
0.0774898318792
0.0758661398012
-0.0904180493777
0.0840250584667
-0.0462481705351
-0.0437545708498
-0.0104938153599
-0.00252924687023
0.0271468515188
-0.0872596898938
-0.0699068674315
0.0875278618052
-0.0599625319419
-0.00604209602298
0.0475348694786
0.0903652642493
0.00220733086261
0.0145412719453
-0.087670093406
-0.0773008631516
0.0207762781919
-0.0435373319225
-0.0286167051661
0.0506176518393
0.0442562966786
-0.0150562151281
-0.0835276589968
0.0639541272593
0.0276796700058
0.0131051287656
0.0330854679589
0.0128393708066
-0.0397193767031
0.0713225703633
-0.00288204720239
0.044568225362
0.063101731579
-0.080867858854
-0.0156411815444
-0.00932494105186
-0.00533483776571
0.0380755120255
0.0170601339366
0.0768752875035
0.0911814007779
0.0397768958714
0.0371919793407
-0.0522577346347
-0.0730154074343
-0.0954064054241
-0.0391029333223
-0.0873974195452
-0.0706554326557
0.0341172639278
0.0477714656797
0.03450838085
0.0347634929123
0.0261270162597
-0.0300280601444
0.0853101779987
-0.0902821210971
-0.0680470676305
-0.0782575680403
-0.0928460929132
-0.0701615349548
-0.0489904215492
0.0630667884411
-0.00770214450714
0.0155977578038
0.0378939373638
-0.003575581755
-0.0323466927928
0.0120705420643
-0.0886498524833
-0.0509610610131
-0.0711713615021
0.0629671979816
0.0930259305175
-0.0282794367165
-0.0443330072173
-0.0771215132253
-0.0480624700654
-0.0148318242255
-0.0469215922452
0.0298234370691
-0.0376499011586
0.0333493896511
0.01980827091
0.000372643543779
0.0912132610223
-0.0370950744286
-0.00159283451782
0.0237859775312
0.0912699104781
-0.0741987594643
-0.0294119163504
-0.0185210891672
-0.0445366821881
0.00802276047997
-0.0398481443226
-0.0913562444405
0.0803263354222
-0.01472994355
-0.0291101961732
0.00945541187846
-0.043114307336
0.0931477364448
0.0818272256814
-0.070163169234
0.0195694603242
0.0810889719724
0.00382609672231
0.00889866892751
-0.0481636241549
0.0113664601817
0.0786180429239
0.0689365495057
0.0205292657898
-0.0492425370481
0.0353206104678
-0.0935669033254
-0.0951387164123
-0.0510573667421
-0.00243477503063
0.0881987149318
-0.0528264954911
-0.0839898734232
0.0644937492054
-0.0181416422728
0.0457514241241
0.0305218055359
0.0123967577947
-0.0675356425597
0.066976803484
-0.0268490082921
0.015027987085
-0.0183644419053
0.0210354122212
-0.028851757988
-0.0175631433116
0.0424590802749
-0.0159989333802
0.0488660726057
0.0568289329016
-0.0214492663323
0.0262031918008
-0.0627567283437
0.0623067981738
-0.0192704423987
-0.0739134227861
0.0679210487252
0.0105702583685
0.0498575790617
0.0948132245688
0.060094407938
0.0755245445117
0.0256126314165
-0.090596045948
0.0398871156272
0.0906053730454
0.0500609008417
0.0878494354667
0.0367952371226
0.002198605422
0.0050554817142
-0.0103367801039
-0.0583624235776
-0.0511861411788
-0.021613999961
0.0653546513862
-0.0947098840724
0.057490986865
0.0413643500008
0.0826680638522
0.0136879021899
0.0773387962791
0.0871194442059
-0.021086872155
-0.0689536604939
0.0634741931038
-0.0203352143549
-0.0260127538886
-0.0884719916077
-0.0359562572937
-0.0844492791695
-0.0949732528099
-0.0598797459755
0.0153880829208
0.0779084826995
-0.0452344826581
0.048264643424
0.0333954584166
0.091266235951
0.0689239081496
-0.037124649449
-0.051325019539
0.0879384807577
-0.056827258436
0.0156005397479
-0.0551232708846
0.0938260066364
-0.00183039708774
0.032557391551
-0.0212264515228
0.0756445335029
0.0748557016082
-0.0408322664048
0.0608605941217
0.0218858433329
-0.0298281148987
0.00831160476899
-0.0509972281751
0.0884164483233
0.0355752592684
0.0441948989427
0.00323283024813
0.0911064651361
-0.0588225997681
-0.0683195072928
0.0297987874063
0.0755389542856
0.0762159129055
0.0424667447738
0.0424679803721
0.0319177809895
0.00251426616152
-0.0641200218048
0.0177778443164
-0.0810225414323
0.0107386368661
-0.0773821995839
-0.0616914202027
-0.0190554704896
0.0397864306033
0.0398365876501
0.09381457271
0.0663835928987
0.0946184839498
-0.0932395708473
-0.0201913549358
0.0550357371881
0.0881160974344
0.0146334517805
0.00513769333843
-0.0197919192736
-0.0696924801095
0.076897395257
-0.0816123294083
-0.040928111251
-0.0718735122015
-0.0224196975867
0.00831921517574
-0.0282968892472
-0.0257541550503
0.082032110463
0.0316861713414
0.0635128953716
-0.0838490046462
-0.00837674344327
0.088475458734
0.0489834922316
-0.0473598082709
0.0779937144017
0.0661834116428
0.0684094535534
0.0671096528757
-0.0133972693238
0.0899977636248
0.0675301056104
-0.0193132844025
-0.0120379267291
0.0812500766964
0.054270888785
0.0432789006999
-0.0487798449973
0.0759721856586
-0.0328092684854
-0.0472940100624
-0.0399450644133
-0.0440508350988
0.0157525623561
0.0330464064164
-0.0232253998325
-0.0260380334279
-0.0785959956209
0.019596491986
0.0390465786802
0.0819831161333
-0.089047426087
0.0696210351388
-0.054300570019
0.0837827154701
-0.0628946406
-0.00444326557388
0.0651259501084
-0.0607122687114
0.0113790102417
-0.0137708675718
-0.0857295154888
0.0647212262924
-0.0262336802719
0.0316614652949
-0.0525366654895
0.0227944629767
0.0500791091883
0.0660021782382
0.0052655546704
-0.0279390907151
-0.0406505000835
-0.023454128192
0.0560755176244
0.0946999435797
0.0941290166121
-0.0867741817811
0.0168893056331
0.00891142833088
-0.0161715419534
-0.0925112850479
0.0864900466537
0.0843907048378
-0.0240392584149
0.0169358898966
0.0902371145908
-0.0819966241294
0.04297661184
0.0769711146746
-0.0885365920007
0.0219362271899
-0.0242697451661
-0.0508305740509
0.0714817983532
0.0880280413185
-0.074092170802
0.0744770009933
0.0832179055054
-0.0458926173561
0.0211789467148
0.0505404864454
-0.0166992970157
-0.0662465629799
0.053336652987
0.0822481621089
-0.0686735303002
-0.0199826510813
-0.0461745956324
0.0515593641718
-0.0894590072914
-0.0492091526521
-0.0291202356308
-0.0708180212307
0.00292193759087
-0.00644160421346
-0.0544461567969
-0.0911682241737
0.0224379782645
0.040065976616
-0.0454530737593
0.00363845812982
0.0312537339565
-0.0226930908035
0.0921765818728
0.0111343529197
0.0343251585886
-0.0941717558948
-0.0324018496371
-0.0354678318969
-0.0812224992227
0.0645207999553
-0.00785303061858
0.0014512070805
-0.0720917349953
0.063427337548
0.0108576125851
0.00195917408878
0.00110540195416
-0.0113924036535
-0.0943510149791
-0.0308277695994
-0.0431759495516
-0.0263783318694
-0.0383620660409
0.0668287494021
0.0374372751848
-0.022821027131
0.0911007439813
-0.040463224443
0.017359869957
-0.00626559036968
0.0699680479976
-0.0684224849353
0.00594840678889
0.0913039576093
0.0753754775482
0.0687885396486
-0.0400485980266
0.0144416042642
0.00762834109528
0.0190600865517
0.0215531406798
0.0731413662817
-0.0730861435037
0.0561236466242
0.0142594971016
-0.0348945801539
