0.00390135147477
-0.00431419800888
0.0118210155316
-0.00300545752674
0.003615393732
-0.000974096170897
-0.0193357533137
-0.00756361576853
0.00203131964358
-0.000372740840339
0.00338033363939
0.0154635236713
0.000466403534191
0.00485398383917
0.00228610389846
-0.0068757099652
0.0108614448327
0.00207714397732
-0.00410892965769
0.00416091463466
0.00606425152757
-0.00831058759375
0.00720283541661
0.00793228352668
0.00383704918896
2.58678695585e-05
-0.00664773148346
0.00750147918885
0.00705815350744
0.00887807707828
-0.00583642911375
-0.00055603428393
-0.000801682193896
-0.00168748662207
-0.00622691890432
-0.0127697864358
-0.00405960889569
-0.000901540960214
0.000241033023269
-0.00218547000779
0.00302397849052
-0.000557202542899
0.00865070613226
-0.0062281480726
0.0128117882067
-0.00824386257866
-0.00976945482169
-0.00744750504483
-0.00667996820155
-0.0125873839807
0.00223159481346
0.00751384549608
-0.00631764635168
0.00423366324757
-0.00411255397559
-0.00635784898544
0.00910614579781
-0.00392542762365
-0.00172471158514
0.00806495158963
-0.00415086081199
-0.00351685882934
6.90638804776e-05
0.00750811539869
-0.00173611283439
0.00493048627711
-0.00425124358067
-0.00618940564382
-0.00793758980878
-0.00626995273792
0.0035085180729
0.00723954337457
-0.0132172362174
0.00131636633294
-0.00960827088165
-0.00128989104516
0.00165378136898
-0.000846323915878
0.00288132490217
0.00023400420902
0.00558217863626
-0.00964168261636
-0.0118987976222
0.0135822598978
0.00375281389558
0.00149099818615
0.00677893020915
0.000413815948866
-0.0130165213035
-0.00357063507791
-0.0155321697923
-0.00937180841171
-0.0166447542763
-0.00986643266237
-0.0205299358134
-0.0134921908969
-0.000553806887557
0.00251611040609
0.00330458779157
0.00151503338082
-0.00996209831339
0.00612341125559
0.00434622174533
-0.00752422649147
0.00486881173997
-0.0117991021069
-0.00431099224762
-0.00694560976067
-0.0127461353105
-0.0211154052337
-0.0103901217867
-0.0175223252621
-0.0185528247181
-0.0116081803404
-0.0232992297775
-0.0194177507644
-0.0130551361231
0.00905740639903
0.000334773203446
-0.000834368767353
-0.00460155724633
0.00182532528315
-0.00152483701658
0.000258598227139
-0.00756286478249
-0.00587303452348
-0.0176284386344
-0.0153834363246
-0.0265577919734
-0.020539749086
-0.0127420191422
0.00080469930059
-0.01311977853
-0.0121066304108
-0.0142897434272
-0.00933824168604
-0.0113488184402
0.0100300502891
0.0114028311057
0.00977755602314
-0.00684490745972
0.00328884859714
0.0149591008398
-0.0148239876506
-0.0120892025885
-0.0172800821274
-0.0246801296571
-0.0227114532555
-0.0120161282002
-0.00539446540827
0.0152359486032
-0.0011220303248
0.00537071421779
0.0001080645635
-0.00907354931622
-0.00869812936506
-0.0123062535657
0.0130506298586
0.0100393267509
-0.00264244477457
0.00327919648532
0.00226671889563
-0.00740922206301
-0.00582431818774
-0.0110175328824
-0.0228717958247
-0.0220196662427
-0.0160625402668
-0.000263045667005
0.0105491955589
0.0124832374076
0.0247707623062
0.0211074544361
0.0130224845629
-0.00243445020103
-0.0183878546577
-0.0127872460345
0.00671501966977
0.0109852979457
0.00900448617851
0.00264330628001
0.00549137652437
-0.0078234778003
-0.0138673142238
-0.0201267514178
-0.0194767814693
-0.0064290857039
0.0123725171331
0.0122822738624
-0.00176180451635
0.034539982241
0.0298166708699
0.0309492021011
0.0168332509117
-0.00137704275955
-0.0238958986662
-0.0121753229642
-0.00160838199578
-0.00402426747899
0.0041604913788
0.0110228797636
0.00818718515522
0.000364449443841
-0.022083418686
-0.0315060559694
-0.0098938014055
0.00513993184485
0.0179443922226
0.018259874251
0.0188920956078
0.0234564583422
0.0283691168867
0.0257586459832
-0.00015604519667
-0.00227715128272
-0.0157599499433
-0.0103856389201
-0.00173862846102
0.00372419373899
0.000247644811298
0.0055566880645
0.00622463291949
0.00526940819063
-0.00786577677101
-0.0155751706386
-0.00190022123848
0.00163726591462
0.0104674689569
0.0030569123395
0.00319063131045
0.0158613875864
0.0175987610584
0.0137402057629
-0.00253203679217
-0.0258979347445
-0.0361456189647
-0.00066896883738
-0.00478525631763
-0.000199518326959
-0.00820200997898
0.00902060124051
-0.0102167492701
-0.000689133867085
-0.0212714171676
-0.0156009613409
-0.00142363059993
-0.00198011320245
0.00961722526131
-0.0063461985153
0.0195111146289
-0.00246557336653
0.0051393118701
-0.0188321284462
-0.0154083211341
-0.0251267280984
-0.015942423179
-0.0102680023468
-0.00079695065679
0.0103609044297
0.00605709640057
0.00268188783551
-0.000150068085177
0.00606734252357
0.00403834009866
-0.0137025590398
0.000130176661797
-0.00171101027778
0.00927524138758
0.0131851863675
-0.00564010885086
-0.0251936771761
-0.0233821928815
-0.026040898177
-0.0282804801962
-0.0150545982489
-0.0129482528852
-0.00487625270987
-0.00497658257244
0.00597121602642
-0.00100507244261
0.00138858024412
-0.00257072446712
0.00312731362003
-0.010266941133
0.00891475475358
0.00813775175709
-0.00292969737691
0.00103695611687
0.000950116625947
-0.00975319261759
-0.0172824761714
-0.0289687564854
-0.0416578444786
-0.0299704199261
-0.0175239806048
-0.000392793367319
-0.00502437488488
-0.00330476609599
-0.00292503646774
-7.84319769056e-05
-0.0120222456335
0.00258069156112
0.00482145946298
0.00818073823152
0.00480151929944
0.00593153659049
0.000412873570619
-0.0122427763173
-0.0130910623405
-0.0269601160008
-0.0141958958096
-0.0280200940305
-0.0263930742921
-0.0212898878654
-0.0027388876803
-0.00589691136754
0.00171668008514
0.00788439688778
-5.36535733223e-05
-0.00365498302912
-0.0113480206068
-0.00210690235646
0.00153787015787
0.00620639203753
-0.00201753348223
0.00287674655191
-0.00177503439994
-0.0129118080502
-0.015375604818
-0.0174468813372
-0.0160898822762
-0.00710137813807
-0.0117924148407
-0.0135051889017
0.0108419847735
-0.00538294778853
0.00412585906359
-0.00133327284688
-0.00742562237582
-0.000876266106212
0.00437667647952
-0.00206505014198
0.00176558189658
-0.0020250407552
-0.00209150307314
-0.00772735079555
0.00359495909921
-0.00864223232053
-0.00690320002796
-0.00714239868139
-0.00723116326999
-0.00375645494149
-0.00093671016437
-0.00195850481063
-0.00317370700953
0.00700538822687
0.00575984690559
-0.00685082019733
-0.00582966928522
-0.00397607599141
-0.0043052839722
0.00319936303428
0.00199674712457
0.00537739163948
0.00689040671314
-0.00175631691164
-0.00802719782703
0.00313311478125
0.00932800629888
0.00257695043096
-0.00471604632704
-0.00839664927921
0.0123694484704
-0.00466478912573
-0.00735564062152
0.00286519354117
-0.00233269700081
-0.00125620746717
0.00271943110624
0.000430741392112
0.00169971242799
-0.0140788144172
-0.00054005630369
0.00387192241683
0.00461828941853
-0.00116719753854
0.00202240914115
0.000276724522793
-0.0167817665613
0.00498472046911
0.00946871422676
0.00869766594841
-0.0013505191218
-0.00030096069185
-0.0012873117712
0.0102286027893
0.00534642353797
0.000398884088401
0.00767778692613
-0.0041905930607
0.0533759624041
-0.0982832249227
0.0650683543193
0.0757816048093
-0.0793099627313
-0.0743797641157
-0.0711716581895
-0.0816494103373
-0.00403333517134
-0.0537079574253
-4.44891894505e-05
0.0509315134252
-0.0915446415038
0.0468042824717
0.0220715541714
-0.0373747980176
-0.0333556791145
-0.0310786467321
-0.0167112174797
0.0638994135451
0.0958325377188
0.0877663122657
-0.0299938947446
0.020895686093
0.00175837283905
0.0644018339744
0.0686435787596
0.0771356984249
0.0375457404406
0.0372298873272
0.0880465729282
-0.0697120413778
-0.0789965047513
0.0811079861139
-0.0848860252735
0.0273286239685
-0.0510239200728
-0.0554820479889
0.0546045283527
-0.0042108334789
-0.0404879560581
-0.0401779934934
-0.0493210977179
-0.0858969990692
0.0781900156379
-0.0934597985922
0.0113808591695
0.0710603464469
-0.0452375313277
0.0467403789637
-0.0640116763819
-0.0189692961274
0.0632279455878
0.0671224058011
-0.0911634911128
-0.0530471941281
-0.0026964659709
0.00491157961031
-0.0123629040454
-0.0144073793316
-0.0135441496037
-0.0804743169774
-0.00956626562048
-0.0820588582026
0.0326381565881
0.0171635425343
0.0712549141751
-0.0350216671209
0.00646403425419
-0.0823758627907
-0.0268172135412
-0.00437691106008
-0.0489618748942
-0.0839355009869
-0.0712758383664
0.0213749690348
-0.00329191391934
0.00331424024201
-0.0791339087883
0.0612549481548
-0.0710388138727
-0.082333659211
0.043301223221
-0.00382514294876
0.0644577292298
0.0481663653683
-0.0428911622937
-0.00536394286951
0.0405688803913
-0.0276056578764
0.0335679617175
-0.0249637993675
-0.0883038204304
0.0636730421314
0.00643237562447
0.0980131325695
0.0961749290439
-0.0510020916072
-0.0844187268848
0.00487333535178
0.0673300864487
0.0322048344295
-0.0564246935187
0.0394960151358
-0.0414852741413
-0.0410512201191
0.0950441816497
0.0896510785567
-0.0387457033702
0.0714773497212
0.100148409937
0.00150793077364
0.0897584221682
0.0221186177671
0.0625699183655
-0.0108733123446
-0.0398666751193
-0.0149400367102
0.0740343500028
0.0877656775705
0.0218870157824
-0.0650147176585
0.0878265296013
0.100565379511
-0.0913507420109
-0.0136379224021
0.0305890004791
-0.0308121941488
0.0869256608349
-0.00839909828563
-0.0299361771215
0.0877871465489
-0.0554504874483
0.0928233968505
-0.0047621211292
-0.0402002635655
0.0814099929994
0.0467564282366
-0.0539095412421
0.0188310853057
-0.0200595872814
0.0519180373346
-0.0678110272902
0.0834205067417
-0.0511328030745
-0.0239823461066
-0.014747050502
-0.0353156672043
0.0691694100608
0.0863942492113
0.030532490873
0.0316747066997
-0.030249777653
0.0161843140025
0.118258098861
0.00970742882491
0.0182848893648
0.0217358330334
-0.0785816804115
0.0759863624403
0.091896616352
-0.0126588863922
-0.0605860428666
0.100471658476
0.0963392684604
0.086341824885
0.106811118447
0.0852487775776
-0.0271261898435
-0.039710962101
0.0447656283759
0.0326213761419
0.0097090554711
0.0627490060784
-0.0131109694558
0.0998035492069
-0.026748864487
-0.00785015105819
0.0236974836737
-0.0576813936455
-0.0310505723279
-0.0257788833386
-0.0715602773943
0.036008683458
0.0993305314965
0.097459211286
0.0946393460027
-0.000994003061927
-0.0078024324855
-0.0216505367197
0.0972189334369
0.103712456021
0.00672605151546
0.0547628956672
0.0379259422646
0.0928537378659
0.0371174164218
-0.00833520056247
0.0732829004922
0.0262861141397
0.040949610416
-0.00385240569802
0.0743142941312
0.0607235844502
0.0890324803995
-0.0581961419307
-0.0750779967436
-0.0605634566729
0.0470854181107
0.0395182070092
0.072512401446
0.0259668637131
0.0494921351311
0.0612529378284
0.103462489939
0.0661747502564
-0.0607743248275
0.0465352680973
-0.0372060932367
0.0801345983325
-0.0855306565223
0.0477245187987
-0.0560213691924
-0.0791277622345
-0.00632763558208
-0.063888671913
0.093448546435
-0.0595312486081
-0.0404886357948
0.0768428612326
0.10004320645
0.0289340379195
-0.0477215094746
0.0660577664601
-0.0523076998113
0.0220605669074
-0.0462184008773
0.0378448260949
0.0199558316994
0.0688551956387
-0.0686359911467
0.0130016501493
0.0955307939045
-0.0395036686893
-0.0445484421572
0.0689379155477
0.107594134442
-0.000972551366651
0.117049637833
0.0462930918824
0.0636153875172
0.0546621019298
0.0159443799841
0.00687408868975
-0.0501411742205
0.0809504141196
0.00914376475806
-0.0815903613265
-0.0780573837246
0.0622959681554
-0.0464128097502
-0.0103179120548
-0.00309635695327
0.0666686850639
0.0131576412078
0.0866721736255
0.0924130265264
0.0278774928569
-0.034643600824
0.112545106287
0.103187221779
-0.0835102694543
0.0295781268799
-0.0444628342547
-0.0263083374202
-0.0930044252271
0.0147183238678
-0.0908743385258
-0.0177198375903
-0.094653287381
0.0548411820863
-0.0289208685636
0.0900874184971
0.0613334442995
0.0886437049666
0.0955267718556
0.0518933418997
0.0838552544242
0.0079784011151
0.0715640304656
-0.00838502577257
-0.0283936747553
-0.0624008488395
-0.0900031800251
0.0514651854043
-0.0617197739214
-0.0234993788793
-0.0835125872942
0.0680733317807
0.0519420454936
-0.0183801559487
-0.0115271542558
-0.0786794668389
-0.0413378574549
-0.0821317636808
0.00555546394102
0.017987032402
0.0301267216115
-0.0355889085477
-0.0611137480965
0.0873884175913
0.0738724274136
-0.0306705807353
0.00839458534157
-0.0142735986165
-0.0569286035335
-0.0106980185635
0.0130946461413
0.0337080444107
0.0610847178263
-0.0358920898349
0.026773366926
-0.0398277511767
0.0845020517764
-0.0574741261696
0.0533874821211
-0.0593018696
-0.0820870824929
-0.0102155489451
0.00906683001102
-0.0320458529837
0.0591633672004
0.0359627368959
0.0557000013134
-0.0411375626287
0.0353810845444
-0.056028010665
0.0416370498137
0.0335226477374
0.0598779073903
0.0702255709339
-0.00771132630788
-0.0253651255212
-0.00732594888074
-0.0170860287022
-0.0931165067639
-0.00247732278713
0.0548561135675
-0.0543224918005
-0.087762931979
0.0668593294268
0.0168845666239
-0.0629967870266
-0.059786398581
0.0466734932493
0.0487901190792
-0.0292467090627
-0.0384691932677
-0.035799757194
0.0284840347033
0.040492067147
-0.0145789638619
0.0854578787528
0.0518700437322
0.0410254879323
0.0623899397656
0.0302857719278
0.0809228555034
0.00941843930341
0.076274265122
0.0223308681295
0.0535944994047
-0.0703764429891
0.0265650868284
-0.0370043163525
-0.0629533067301
-0.0731241850774
-0.0390359060217
-0.0773007244895
0.0185579755707
-0.0756414172217
0.0541755646142
-0.0383219137113
0.0345528050398
0.014787306774
-0.000955152553063
0.0881606549022
-0.0760113377106
0.0315613243449
-0.0280225375361
-0.0765447225086
0.0913655240938
-0.0685944170364
-0.0355801247086
0.0261951279078
0.00143287291166
0.0139665251858
-0.0883745116743
0.078130737593
-0.0376053338909
-0.0248808094386
-0.00677511999235
-0.0334008758307
0.00182369872795
-0.0624777498265
-0.0708565320618
-0.00802242402631
0.0326369640794
-0.0374024829292
-0.0432479078363
-0.0487092883999
0.0525607307678
-0.0331693489491
-0.0188870365142
0.0833748417171
0.0359277890417
0.0505744127986
-0.0404567196951
0.0586430225655
0.0886324515967
-0.0890492567011
0.0468415580544
0.073295345648
0.0523096023657
-0.0715349096339
0.00327190868408
0.0303775067871
-0.0850860213138
0.0495735827895
-0.00235220336259
0.0754451033792
0.0787276901167
0.0322687887587
0.0815346691306
0.0142656034632
-0.027306281255
-0.0731022353982
-0.0406103997842
0.0163287571221
0.0704807446843
0.057533437082
-0.0572817745789
-0.0744497607297
0.0523358285334
0.0393316272662
-0.00792492443957
0.0622838455757
0.0751675380778
-0.0741935420236
-0.0293215871151
0.00308099824101
0.0643669909496
0.0865585828608
0.0697274615892
0.0626960383335
0.068032000593
0.0421160844514
0.0801726765907
0.0247811121645
0.0267707090609
-0.0913921601882
0.0250331831723
0.011290300778
0.0825547533976
-0.0483938097465
-0.0364472630851
0.0384433074378
-0.089882280645
-0.0895087698138
-0.0633893578458
-0.0221321996616
0.0481197742455
-0.055861208352
0.000899076863852
0.0821887926466
0.00718956776291
0.00169384388556
-0.0134131925397
-0.00363276748846
0.0509881946019
0.0692821116541
-0.0886344958244
-0.0316652603135
-0.0356946047877
0.0904047941968
-0.0504917703027
0.037782076121
-0.0415715934392
0.0526102834828
-0.0898540715406
-0.0163286493977
0.0652275001087
0.0304681232546
0.0171607494714
-0.0204551450524
-0.0217708019693
0.023814455922
0.059920071844
-0.0120910935983
-0.013013120812
0.019372279922
0.0713721881489
-0.0883033001097
-0.0730547658541
-0.0186768432903
0.0663709112668
-0.0406063325049
-0.0895446246457
-0.0443444770479
-0.0186612474221
-0.00893872783808
-0.0763081527757
-0.0927918325621
-0.0662087952078
-0.0532850042421
0.0490350336816
0.0630845428331
-0.0445576952377
-0.0877834184694
-0.00260460295553
0.0874871728172
-0.0479664386063
0.0216143431463
-0.0248118027115
-0.057810164389
-0.0751521230229
-0.0637933916649
-0.0556454856548
-0.00268895298941
0.0324594070062
0.00302768667541
-0.0100855340202
0.0143378045952
-0.0999116620524
-0.108192898922
-0.0144458065024
-0.0224515763488
0.0361932166306
0.0116940690463
0.00700162133272
-0.0909656820552
-0.0339889638013
0.065949766899
0.0566023991914
-0.080028289104
-0.0419973206814
-0.0306573357436
0.0407374102499
0.0839385868319
0.0482634797321
-0.0768607116935
0.00869551954418
-0.0250533484928
-0.0442254858097
-0.0470652295953
0.0225447879447
-0.070507734511
-0.00434586317636
0.0926165075394
0.0819803332552
-0.00159545575581
0.0552686676789
-0.0931209279589
-0.0215318928233
0.000735417775258
-0.0643038537669
-0.0262022637649
-0.0715394567281
-0.0431703525034
8.20921189805e-05
0.0424173527624
0.0349131932612
-0.107776832578
-0.0278471022669
-0.0522352969459
-0.104813071606
-0.0121639873593
-0.0140237773355
-0.0489241278135
0.0773535980236
0.0113369181818
0.0322193122358
-0.0567667373538
-0.0844192356228
-0.05346234676
-0.0603239469938
-0.000739453066172
-0.0332244346992
0.0244238575277
-0.0987417971593
-0.0297654268853
-0.0587311311459
0.0440882109058
-0.113757291907
-0.025420908158
-0.0265826879484
-0.0561995157536
0.0852225033375
0.00922009101014
-0.0910177381905
-0.0690816820993
-0.00766808190654
-0.0239396685068
-0.0466086962276
-0.0819752541063
-0.0907620298424
0.0411594025499
-0.0630200169346
0.0373343179518
0.0393933411109
0.0532568889805
-0.0527675644746
-0.0180949671447
-0.0682400818512
-0.0614303499391
-0.0797215213568
0.0358121044006
0.0833811726292
0.0518312667035
0.0167475311735
0.0617965374072
0.0701588563645
0.00937999704723
0.0701657815862
-0.052944298009
-0.0867534790476
-0.0618521529013
0.113497664598
0.038601813657
-0.0546745624957
-0.0262310291647
-0.110742256132
-0.0244095685016
0.077773444036
-0.0403535869264
0.0788573587564
0.0236159775854
0.0954214880385
0.0362688843251
-0.0189940262117
0.0572685553114
0.0103367703288
-0.0819541857914
-0.108086222031
-0.0403664531614
0.000503923454094
-0.00219731875569
-0.0787487974119
-0.0979874029207
-0.0538933711541
0.0721264983785
-0.072442156746
-0.0196467265529
0.0510312373214
-0.0427699180955
0.0377969155732
0.0620971085445
-0.0649839528497
-0.0700761563596
0.0225371506319
-0.0890895468461
-0.0608121789516
0.0074557901715
-0.0741428258677
0.0450355957688
0.0219837702708
0.0231744204501
-0.0671744289077
-0.0585611973892
-0.0505848861187
-0.0967822726402
0.0398637676248
-0.0316099959077
-0.0569977425185
-0.0528680825086
0.0356274121366
0.0687601036155
-0.0828145386709
-0.0532036219408
0.055600549785
0.0135051723449
-0.0435650542492
-0.0499754860772
0.0379014273347
-0.10571791451
-0.00999146058929
-0.103568824541
-0.0936252830361
-0.0885821684331
-0.0196898338886
-0.101542929374
-0.0615937668263
-0.0567230244839
-0.0412082981035
0.00754027298422
0.0281363601054
0.0840955889767
0.044851119069
-0.0517069213356
0.0405079389395
-0.0635030009651
0.0611444413093
-0.00235258307784
0.048616585936
-0.0644399185382
-0.060551765894
0.0327828062784
0.0286682374402
0.0433297201002
0.0227604943973
-0.0169231108655
-0.016778287698
0.0750984403192
0.0380615871346
-0.0122531976972
0.0145633304188
-0.0673639265469
0.068681906193
0.0711902837697
0.0543245439003
0.0657167624376
-0.0187686416071
0.0806404690258
-0.0165398046902
0.00298085097843
0.00287196224371
-0.0970835505624
-0.104290109059
-0.0658759500029
-0.0289884643722
0.0783700083533
0.0418491525832
0.036715991224
0.062991785111
-0.0810322070552
0.0909347869052
0.036859329385
-0.014729157821
-0.0392943448363
-0.087534882011
-0.0153365616476
0.0357349371341
-0.0231183465233
-0.0222258872723
0.0559948445148
0.0857058507563
-0.0866577420693
-0.0323790214444
-0.062930627507
-0.0693752355096
-0.0731361240214
-0.0202045385485
-0.00683469622466
-0.0793280532466
-0.0102212740052
-0.0153956769024
-0.0833378810605
0.0679530281527
-0.0443377380663
-0.0851855211801
0.0809082797254
0.0773747745473
0.0920981230437
-0.0374541322073
0.0129479365787
-0.0274992471642
-0.0370838964094
0.0482759008466
-0.0211312567549
-0.0154635261835
-0.0348369112599
0.000887234891121
0.0407986634024
0.0587783448457
0.0654433424842
0.0782011663842
-0.0407046064925
0.08795563718
0.0258717206644
0.0794841487318
0.0153328073993
0.0825542614944
-0.0528142531194
-0.0887834335777
-0.0824045319273
-0.0671853458909
0.0670716391379
0.0764044835949
-0.00609953889053
0.0350254326557
0.0356922884063
-0.00241834576474
0.0471160769814
0.0475477006147
-0.0570470810958
0.099147026753
0.0623552945084
0.0385273703812
0.0315617922523
-0.0281359030213
0.0253663306186
0.0531295362209
0.00836952844259
0.0783493668957
-0.0479525156415
0.0908040206648
-0.0297696752768
-0.0330881310065
-0.0874197213955
0.0172429484646
0.0181045838138
0.0114974602631
-0.0116567153835
7.03828470628e-05
-0.018805596156
-0.0778663334748
-0.0316182506842
0.0499154717185
-0.0129631343729
-0.00334239331848
0.0937929543344
-0.0914866822738
-0.0487091298821
0.0284741566677
0.0225423530845
-0.0883451836375
0.0631941363334
-0.0257082961799
-0.0125621379915
0.0295837690853
0.0184559533266
-0.00299374481959
-0.0194327316445
-0.0821670090206
0.033915964589
0.0760333755557
-0.000742246605922
0.0564710632588
-0.0705573898698
-0.0342134587544
0.0357395092831
0.0648061996832
0.0195186553248
-0.0347648027036
-0.0268227548807
0.0532641854948
-0.060567178919
0.0551510477508
0.0767117529437
0.0392628327751
-0.0444515923907
0.0904077941447
-0.0692610351314
0.0593556066487
-0.0421727489534
-0.0565424498674
-0.0754075393987
0.096702866938
-0.0332071725903
0.0248822472224
0.0627632366673
-0.0416637564473
0.0294406210392
-0.007008726403
-0.0518326351639
0.0163869100046
-0.0982171997841
-0.0861403514007
0.0863974797392
0.0215798477454
-0.036678754478
0.0830966793333
-0.00342287400675
0.0431463449524
0.0502911703983
0.0545686635252
-0.0819060467872
0.0339066720814
0.046013851472
0.0513524587719
0.0395187835835
0.0508665525146
-0.0630970483284
-0.0645200064289
-0.0439154499873
0.0948729494495
0.0322210261203
0.00691065582579
-0.013072557772
-0.0515373499889
0.00880754013239
0.103780352805
-0.0673891139806
0.041507658097
-0.0282256941806
-0.0641784830509
0.0624026195631
0.00853551423772
0.00278606707155
-0.0269082427614
-0.00781727008991
-0.0913302393868
0.044148788418
0.08835163389
0.0896374231098
0.0674945397374
-0.00284486038282
0.00371181974172
0.0788586080884
0.00483197162944
0.0960097262056
0.0950294471281
0.0202418130974
-0.0455696288417
-0.00271939074855
0.015935492673
-0.0586650327222
-0.0472367652865
0.0430625798997
-0.0831513610741
0.0646362982674
-0.0322321029709
-0.0273604381677
0.033114924005
0.0887014276505
-0.0620570638862
-0.0369608165665
-0.0320245412397
0.0970418546057
-0.00615298807684
-0.0271275992858
0.0150932574852
0.0022655418082
0.0961268133251
0.0125015384032
0.0387120217954
-0.0247761412821
0.0694616531681
0.0524594651942
0.0752074268641
-0.00716495328439
-0.00341290865258
0.103194685984
0.0520174830977
-0.0375662061089
-0.051198897487
-0.0982990846382
-0.0560274359142
0.019201338297
0.00972827596124
-0.0408718954821
0.0704400943361
0.0501273354153
0.128213933854
0.0353724188684
0.0259805728916
-0.0576312832223
0.0249850438527
-0.0711377004842
-0.052066446002
-0.0080148423406
0.0377940045792
0.00282515605013
-0.0244233341467
0.0210422678098
-0.0632129307298
-0.0767652559927
-0.100356595094
-0.063099560773
-0.0871783391843
0.0579629947148
-0.0261575408257
-0.0592462566861
0.028687782194
0.10483880015
-0.00666215894149
0.0604218857912
0.0707350964831
0.0254546155982
-0.0914460726002
0.0340079731046
0.0887891537734
0.0982037183694
0.0991820350124
-0.0144475374127
-0.0958992072815
-0.0454800500894
0.03716127719
0.0843383439041
-0.0174354948696
0.0612697406495
0.0851511906162
0.062791479109
0.0296070729788
0.0141018105151
-0.0510406697087
-0.0416752741326
-0.0434149485942
0.0763120584421
-0.029091923371
-0.0278904008774
-0.0872487598274
0.0196741018771
0.108748817525
-0.0369930644319
-0.0529070229789
-0.0976428259497
0.0162710919851
0.0382679207852
0.0241431228535
0.0590329483732
-0.0940256273267
0.049077760413
0.021981608917
0.0536740841787
0.0260311678235
-0.075341774062
-0.0612181756279
0.0574969170577
0.0522303125195
0.060393065261
0.039903239205
-0.0669749400862
-0.0707181972185
0.0588273620263
0.0837961965287
0.0497565443775
0.0199741452595
0.0143417796701
-0.0432308339433
0.0365701375786
0.0788492450095
-0.110376195019
0.0162339844499
-0.0495221018964
0.0387866859879
-0.0263379680949
-0.0444131071102
0.0792941461012
-0.0625862503932
-0.0355631463738
0.0312180750248
-0.0376327525822
-0.0732031161377
-0.0628938699742
-0.000929795286498
-0.0721030651073
-0.0442047032746
0.015638767008
0.0178988384421
-0.0104925342797
-0.0392228998654
-0.00599622321182
0.0794915063222
-0.0933081404043
-0.0957164950021
-0.0519442195523
-0.0351202710229
-0.000296158035184
0.0086827965157
0.0505609376006
0.0679997323351
0.0613090580294
0.100199865185
-0.00461326049584
0.010704474195
0.0381538545266
-0.0954658932064
-0.0182888881405
-0.07319038799
0.00672735893225
0.107288105656
0.10871336853
-0.032689807068
0.086512997906
-0.0430348585731
0.0475644400603
-0.0900483003458
0.0296823402486
0.0810830682372
-0.0260363552621
-0.0344092614616
0.019347737196
0.0025507914511
-0.0615872311911
-0.0818646615009
-0.0961444212141
0.0274808911528
0.061315232822
-0.0380753987166
-0.064341354789
0.0814890989983
0.0703129152538
0.0268728282935
0.0428622312606
-0.0422895800497
-0.000401016804127
-0.0421563695877
0.0366504224689
-0.0652431157008
0.0176808036341
-0.0845378781599
-0.00879110206716
0.0622794300635
-0.0588098576016
-0.00462810900323
-0.030813838643
0.0544345444882
-0.053253042219
-0.00279310550463
-0.0433856783297
0.0297583012074
0.0239065613631
0.0998740955225
0.103612352136
0.018324949486
0.0670230814767
-0.0767484096952
-0.0536347403826
0.046515609036
0.0160611680858
0.0185689343035
0.0598968098655
-0.0254621402505
0.0630755667185
-0.00416184714807
0.0632151268238
0.0413859469386
0.0774403041248
-0.00727625220161
0.00556957270875
-0.0739303499945
0.0764017707094
-0.061831063675
-0.0111932465415
-0.0868082541141
0.0779057484254
-0.0928956694377
-0.0591660086225
-0.0206540054681
-0.0352571758302
0.0866558598773
-0.0325577178701
0.0679335981654
-0.0536032238288
0.0544075724635
0.0364743469619
-0.0965500649138
-0.0856384145592
0.0543184758741
0.0737904044128
-0.0367933516273
0.0936496572185
0.0263516234371
0.00888055320306
0.0502855241847
-0.0720926114916
-0.0755556757685
0.0493943758277
-0.0305161142957
0.0617980699109
0.0384668193354
-0.015938809475
-0.0433459056632
-0.0250376108927
-0.062922302995
0.00434392583156
-0.00293205666384
-0.0888475897015
0.0614301121162
-0.0424686704806
0.0692487472438
-0.0665331014599
-0.0757796504884
0.00652909527629
-0.0531074957885
0.081193028438
0.0416428771904
-0.0738368340623
0.0248268325579
0.0494721270468
-0.062358623282
0.0289510243376
-0.0667538946423
0.000778056323598
-0.082173500741
-0.00212949407992
0.0365789840848
-0.0312997567276
0.0814909077099
-0.0321953539175
0.0231948462632
-0.0610548344788
0.0259762723694
-0.0375446384756
-0.0102848522632
0.00201900731288
0.046445820578
0.00609917001944
-0.0742644746994
-0.0639779787798
-0.0280157423591
0.0389929708318
-0.0909316366768
0.00166765193823
0.00777547102582
-0.0868474103048
0.026744094935
0.0107416361947
-0.0706803496353
0.0115724303704
-0.0732701716428
0.0737414439828
-0.0929777311806
-0.0371862424068
-0.0718072836913
0.0880748990508
0.0761556243363
-0.0190335991206
0.0204064691736
0.046526581907
0.0343810963404
0.0354349464162
-0.0113298198359
0.00299083707019
-0.040616014506
-0.0955491109816
0.0233158145416
0.0569603725197
-0.0735011605803
-0.0105314705355
0.044278916803
0.0932611483871
0.065858597199
0.0686963327475
0.0646705988224
-0.0481266013434
0.0727824494672
0.0267843441091
0.00656960153968
-0.0513301589376
-0.0233870974767
-0.0403545514525
-0.0292232235356
-0.0845538821949
-0.005592220092
-0.0102584455247
0.0777682969272
0.0489858331412
0.0601880938653
-0.0755259283077
0.00980015002429
0.0025962153062
-0.0369538569802
0.0651891174897
0.0867424675028
0.0311839879458
0.0879883580901
0.0642783776734
-0.00615501615405
-0.0923521571548
0.0854543657306
-0.0181685593188
-0.0717931872201
0.0150097135165
-0.0129824863455
-0.0081782717686
0.0464813917722
-0.043767289268
0.092174558381
0.00720123156269
-0.0281084892249
0.0796095586698
-0.00868546241034
0.0524402911446
0.0254997265916
0.0724296477663
-0.0863217209844
0.0131772856609
0.0185465555547
0.0232633656477
-0.0340004412216
-0.0352822860796
0.0148203474692
-0.0544113219078
0.0543751907975
-0.0347966389926
0.0817490551392
-0.0658320579554
0.020537309856
-0.0160601142067
0.0990453635574
0.0454421562939
-0.0832931457607
0.00452842395124
-0.0869710006297
0.00740586884314
0.0280467134913
0.0045008850754
-0.0273599337656
0.0147534845626
-0.0298674299294
0.00351538635317
0.0170478730182
0.0362747319448
0.0400181952659
0.051539861041
0.0290156042368
0.0494253931315
-0.0160946383528
0.0394732235661
-0.0957340510554
0.0763922169301
0.0885832893017
0.0623271696308
0.0202079747441
-0.04393291343
0.100886664756
-0.0253338354836
-0.0633668786859
0.0645607523655
0.0228166243492
0.073689367017
-0.00795735974852
0.0319252915462
-0.0250780084854
0.0876663227966
0.056240207352
-0.0773292668066
-0.0949509141164
0.0763650846596
-0.0561430743167
-0.017345448948
-0.0201939324447
-0.0683215316301
-0.0680357443102
0.0459351313972
0.076355395431
0.0778366025779
0.0220675830846
-0.0284338720716
0.0551654843535
-0.0776342060578
0.0949755721425
0.0358260675678
-0.00593951543225
-0.0247574815813
-0.0661769248069
-0.0390577081946
0.0653547762844
0.0732710831974
-0.00467607802859
0.0849184052485
0.0750580850462
-0.0159149671791
0.00805660544744
0.0422919108277
-0.0603530040135
0.0372145959916
-0.0232314604764
-0.0668924908173
0.0385339612781
0.0537371562245
-0.0203026026398
0.118232708477
0.0759662274023
-0.0292877930453
-0.0777617102904
0.0103815942416
0.0363817298388
-0.0748000564988
-0.012474642244
-0.0461568139545
-0.0346265837813
-0.000693319156272
-0.0464106700134
-0.0802010989969
0.0796511522474
-0.0526617284855
-0.018585838564
-0.0742432974889
-0.00911786194316
0.0792304965566
0.0611253464783
0.0532461463931
-0.0322485493244
-0.0965614370783
0.0165811893996
-0.0465205033678
0.089718590645
-0.0752123867623
-0.098886088569
-0.0161391435392
0.0587396785806
-0.0477064486421
-0.0337572071348
-0.0786597566327
-0.00904001567277
0.00318455397127
0.0479771050227
-0.0264084734624
-0.073885423394
-0.0606406569682
0.0850128607758
-0.0639748491759
-0.0329640734569
0.0744487307677
0.0227116233343
0.0156674924283
0.0718284256577
-0.0851281174741
0.0342969068601
0.0637024751032
-0.0114643405486
-0.0204829836768
-0.0963684423668
0.0753955346924
0.0463452646164
-0.0304771951758
-0.0805422686046
-0.044279236222
-0.082398280345
-0.0833696765284
-0.0309267951133
0.0268195670055
-0.00820465205252
0.0702056472941
-0.0480902046381
0.109456699035
-0.00883106327445
-0.033003019627
-0.00217054611073
0.0125973302968
0.0674398399257
0.0254206710268
-0.0600427780598
-0.0718666680368
0.0840036425399
0.0224117859217
0.0719966887518
0.00282980656265
0.0643380927885
0.0753273006127
-0.0160399204375
0.049924660043
-0.0355488482237
0.0265172276697
0.0707710084208
-0.0175439407203
-0.00556332650736
0.0502242818214
-0.0137032678978
-0.0532415519976
-0.0335813707034
-0.051744245393
0.0197126304116
0.0631943709182
0.030359150211
-0.0147865929416
-0.0434815602459
-0.0367525821615
0.0858571929237
0.0627832057438
-0.0249971612147
-0.0346145988678
0.0654305634433
0.0900262491886
-0.0276739901279
-0.0702574203202
-0.0981441915757
0.0506550633808
-0.0451571778677
-0.0281929548059
0.0182995070526
-0.0475209616401
0.00661918799878
0.0404872103353
0.0061807115967
-0.0895714425906
-0.0554652163739
-0.0216082417188
-0.0692767182251
0.0347859542132
0.0304303155116
-0.0032030385846
0.0536132917332
-0.0199931671146
-0.0105544972866
0.0908411526302
-0.070041301953
0.0768137267167
-0.0700517405163
0.0963678161291
-0.00684268101236
-0.0087138932625
0.100496240753
0.0441573491184
-0.0564354826511
-0.0783370258701
-0.0412429280065
-0.0326976152263
-0.0152614518273
-0.0412065051655
-0.0524474951327
0.00829515180904
0.00512535426811
-0.0311561936461
0.0804244275172
0.0710178832056
0.021383764649
-0.0368744556952
0.0438602894897
-0.0713083280041
0.0877370956392
0.0868214499472
0.0192173764325
0.0781455764955
0.0491123961997
-0.010008271572
-0.00436987485402
-0.0462217535738
0.032931159053
-0.00156037188727
0.0317160996683
-0.0313835710239
0.0594910930759
0.00629104762529
-0.00523942861605
-0.018435094054
-0.0541453629363
-0.0708243565689
-0.0838331216969
0.016280445208
-0.0753833079918
0.0388693780882
-0.0107636649489
-0.0258246132386
-0.00510826705571
-0.0999945315215
-0.0237248521896
-0.0684802375938
-0.0523142631022
0.0342104362021
-0.0531116756878
0.0818092706406
-0.0634670232762
0.0484252325324
0.00465315002038
0.0168062224609
-0.0936208903144
0.0263459559042
-0.0177814809566
0.0564970515185
0.0525213960778
-0.0416405119854
-0.00804540875043
0.0290795819671
0.0589991874538
0.0105362049347
0.0670024306575
0.0777585651092
-0.0258120743244
-0.0537804560982
-0.0842537102554
0.042597008081
-0.0363388571045
-0.079034538298
-0.0342570155123
-0.0320644986309
-0.0390874499534
0.019719803284
0.0372482431484
-0.0474591842088
0.028543138731
0.0452855078095
0.0791866109178
-0.0905507209769
-0.065544034664
0.0220204474251
-0.0437906008941
0.0334194192852
-0.0959066350297
-0.0757561183735
-0.0755127565574
0.0934335289223
0.0866557346984
0.0849916388584
-0.0532552305466
-0.0527310300284
0.0996972574344
0.01595474162
-0.0119804029015
-0.0825615357624
0.076082892989
-0.060946186612
-0.0187951787834
-0.00931360593048
0.0930646732185
0.0842216278469
0.0509568153961
-0.0356705111554
-0.0648308478906
0.0116438493964
0.0897449966807
-0.086167112107
0.0675602343613
-0.0426323224082
-0.0940862178704
0.044937936761
-0.0538432305402
-0.00622842923043
0.0347646195814
-0.0501650744175
-0.0131679178775
-0.0742030697297
0.0460017714878
-0.0744018659731
-0.0605011529559
-0.00691299661454
0.0202273947454
0.0768450073204
0.00660754751725
0.0987274899429
0.0416666510588
0.0896798157518
0.0100775555209
0.0774136200914
-0.0795961544934
0.0771621172136
0.0331875738726
-0.054704203434
0.0463911260303
-0.03486388743
0.0591328707875
0.00316317546597
-0.0325527009484
-0.00904559572711
-0.0806594811692
0.0508626677866
0.0481798630809
0.0519965326579
-0.0253057965963
-0.0558231610377
-0.0892355679206
-0.0599180639564
-0.0420744402456
-0.0230033249815
0.0374180913596
-0.0574714117407
0.0572316309442
0.0133642160503
-0.0714958455275
0.0642868607923
-0.0599504232355
-0.0713390630727
-0.087154811963
-0.0705685588023
0.0315113004853
-0.0472770728519
-0.0771921698237
-0.0316993318245
-0.0438530955204
0.0696748797581
-0.0295388975956
-0.0484199189222
0.0373924976176
0.00839009119776
0.0892113298843
-0.00641317338963
0.0268170623008
-0.0509812225898
-0.0335415786966
0.0421503939861
-0.00351648671623
0.0631065093267
0.0464440217306
-0.072740663748
0.00266202054623
0.0374203039799
-0.00994993342813
0.0213978117786
0.0884773601021
-0.081687676357
0.0262214641817
0.0634913629123
-0.0344023354813
0.0259825269894
0.00323761247243
-0.00413625668549
-0.0144416201626
-0.058268071628
-0.000464791893315
-0.0240051322296
0.0479772691313
0.0839187847995
-0.0606049009921
-0.0181705824029
0.00806526585467
-0.00194471547949
0.0428445371519
-0.0697781711395
0.0250282287874
-0.0663917892238
-0.0250406001372
0.0341664555894
0.00688379583714
-0.0562453597122
0.0744984593637
0.036650844834
0.0325224488812
0.0241203116775
0.0679237114703
-0.0162627005758
0.0736130884181
-0.0483373434166
-0.050700649798
-0.0589460634976
0.0254600360424
0.00818424283851
0.0414460893372
-0.0483262143871
-0.0497290140554
0.0145578444866
-0.0723286768491
0.0254356062641
-0.0289528791772
-0.0316875939624
0.0102401392085
-0.0365439486323
-0.0203851613625
0.0556020178558
-0.0123758331833
0.086537596161
-0.0598533251446
0.0360617117529
-0.0445156936655
-0.0869126720387
0.0345467152293
0.0656756426186
-0.026430453385
-0.0760265831028
0.0451585612954
-0.0812833711417
-0.0474177780781
0.0117267376875
-0.0443891079287
0.0610656401321
-0.0681599284878
-0.00482361821461
0.0294808325308
-0.0683962320384
-0.0282237451229
0.0932872300491
0.0514418708871
-0.00333583965885
0.0547095558343
-0.0208679595017
-0.106122164653
0.0562900580255
0.0230742867197
0.060645835551
0.00225280789882
0.0284314611449
-0.0301376441557
-0.0458841126019
0.098100434171
-0.0747698522783
0.0209592360517
-0.102373380886
0.0442111694116
-0.0972012047247
-0.0909633878396
-0.0313586430754
0.0715252000764
0.0709610983766
-0.112714434613
0.037186460613
0.0305123308534
-0.045730954281
0.0489072748184
0.0591688271702
-0.0815510249628
0.0826436697691
-0.0731064227694
-0.0337361309394
0.0860776665433
0.0258351030086
-0.0822301787949
0.00112705915993
-0.0878912726096
0.0201765568691
0.0693162614607
0.0327783111624
-0.0838897987049
-0.0767543246526
0.0070129931527
0.0320154128119
0.038652968671
0.0887051413112
0.0209677609491
0.0225525589955
0.00197939647227
0.0902791621349
-0.00422729880272
0.0413208029005
-0.0383734478483
-0.0720769828304
0.0698181896092
-0.0884953998552
-0.0934811858042
0.00754398365458
-0.0809476226997
-0.0127861069881
-0.0616079851821
-0.00420150307891
0.0540956370449
0.0452318434386
-0.0528521285819
0.00597505087749
-0.0788023192396
-0.0659314401917
-0.0736336171205
0.0837885075109
-0.00557136658604
-0.0636175201611
0.0457456461307
0.00738363073735
-0.0808813878385
0.0501569619265
-0.106106043811
0.0642594512723
0.063521549836
0.0935987289874
-0.0618641973421
-0.0757771707061
0.0664289653849
-0.00415853109862
0.0285967633721
0.0120274595486
0.0225592417297
-0.0341447745064
-0.0158050262733
0.0869346109194
-0.00685468632424
0.00257691399857
-0.121448038322
0.0450044465118
-0.0139227172933
-0.0393900113155
-0.0609202687862
0.0610623483506
0.0725886686603
-0.00215643101357
-0.0493656622913
-0.0188848408429
0.0782816598652
-0.059933422375
-0.0662667099304
0.0303569225717
-0.0599273886054
0.0481861671242
-0.0647643105768
-0.0086315412997
-0.0478784658235
0.045596983986
0.0361773368919
-0.0989207715737
-0.0666880180153
0.0276845148964
-0.00185731444063
0.0611632695603
-0.073933011735
0.0136517268332
0.000711423714108
0.0779232573676
-0.0406787243321
0.0327027399385
-0.00218787803896
-0.0221243451656
-0.0307275383822
-0.0209122243934
0.0169418390222
-0.00684547420775
0.0507008081753
0.0636392697803
-0.0236234480298
0.0582892792965
0.0776892902003
-0.036751149363
0.104297754024
0.0837729756526
0.0236122873915
-0.026993881977
0.0185961491003
0.0338067070521
-0.065128157821
0.0502192452727
0.0383250700802
-0.0162473269551
-0.0354095735613
-0.0733827107172
-0.041208284337
-0.0386026550369
-0.0872122788108
0.0566673230627
-0.047683203356
-0.0546518434582
-0.0163679018111
-0.0781851745089
0.00198583413332
0.0631475877286
0.0418596146498
0.0691652386057
0.0826352789427
0.0534251162457
0.0843467702775
-0.0879039892904
0.0736360109608
0.0293825429359
-0.0138763191194
-0.0242423272763
-0.0478186656527
0.0549422520184
0.0625237666751
0.0762909007329
0.0533034019753
-0.0512551450118
0.0224150111427
0.0261395464529
0.0809191497227
-0.0658427838069
0.0678064888199
0.098246126862
0.0366270345859
0.0170901020179
-0.00362243225511
0.0177902476233
0.0215538275813
-0.0899536729704
-0.0853796853885
-0.0872256730933
-0.074796901009
-0.0465536802439
0.05523166433
0.0370270055715
-0.0709639700144
-0.075093448641
-0.0153824823578
-0.0748836528072
0.0741481412213
0.00409385027718
0.0824635522253
0.0454063448963
-0.0487526082844
0.031842586413
-0.0518666284052
0.0371474268241
0.0509145246168
0.0157328153486
-0.010510942046
0.0895251697271
-0.0188717459109
-0.0773074308377
0.0501908964078
-0.0486793239623
-0.0650764839192
-0.0314132684035
-0.0575713431547
-0.0559216442694
0.0791305870536
0.0419010051808
-0.0484266349059
-0.0235065563793
-0.0790383413695
-0.0972284270008
0.082136033728
-0.0931990407221
0.0485910560843
0.0623746778568
-0.0648609323389
0.0493352649705
0.0315895785548
0.0428549642633
0.0388836583417
-0.0634115448401
0.0727322908955
-0.0352843370419
0.0685707617605
0.0283260756898
0.0753968393072
0.00993967379143
0.0134308065248
0.0596309997931
-0.0652371148261
-0.0935986909209
0.0116093072414
0.00425318194157
0.0884249788905
-0.0596541180523
-0.0369674855487
-0.0296785439666
-0.0226603776284
0.011070605351
-0.0135250436921
0.0413343103444
0.0658496676563
-0.0941264171948
0.0712338935665
-0.0101247427854
0.059131620047
-0.0273847398394
0.0152567722304
-0.0827892256071
-0.0651174786408
0.0499532617336
-0.064952111607
-0.00552098790765
-0.0146766996319
-0.087928807726
0.0584314360821
0.0938034315666
-0.0438732386834
-0.0409919180568
-0.0188083229249
0.0651150482951
0.0688071736204
-0.0976440249978
0.0467878985836
-0.0358309299594
-0.0174828152532
-0.0509805877683
0.0716760682322
-0.0714353467928
-0.0295901415808
-0.0646975192789
0.051351187384
0.0017445767775
0.0191380237435
-0.040621317194
-0.00767434914963
-0.0725683665182
-0.0712240338263
0.0694869875715
-0.088233138308
0.0702063047572
0.000666355988532
0.0274728471374
0.0739693607938
-0.0370045832123
-0.0928592711762
-0.0761889575121
-0.0266521569243
0.0744201381666
-0.0345060471438
-0.0615582354609
-0.0202047067312
-0.0372376427066
-0.0805863223342
0.0579338456298
0.00645116147445
0.0801096863291
0.0226734252914
0.0609873460844
-0.0822090553623
-0.0145209437571
0.091042547506
-0.0116651171934
0.0635089097125
0.018934118153
-0.0776845736779
0.0821192004986
0.0748058051386
0.0333796723221
0.00567400090763
0.0247969944154
0.0207232041195
-0.0142698138687
0.0121783104911
0.0261420103951
0.0257871535601
-0.0693588750701
0.0483886684024
0.0508372195011
-0.0174135481466
-0.0497675979624
-0.0854639804988
0.0575820496178
-0.0017590593453
0.0916091564085
0.0925185469509
-0.0556326166705
-0.00744806519505
0.0573528239936
0.0357224633742
0.0616842519267
0.0327772805185
-0.0477643476891
0.0627277354628
-0.0425986976789
0.025218265978
-0.0166959445505
0.0930005494306
-0.0571499043572
-0.0273425650213
-0.0660909937999
-0.0231772759508
-0.00782754037015
0.0596510619143
0.0288999974721
-0.000971141693851
0.106244549699
-0.00995932134871
0.0061880973135
0.0165706712783
0.102630770113
0.115414576619
-0.00459103664302
-0.0174857750796
-0.0350155613791
0.0891022655166
-0.0353047408784
-0.0607588772988
-0.0678183751284
-0.0448536568835
-0.0257036915888
0.033703372085
0.0545175396283
0.0067677275005
-0.0287912359795
0.0652863903744
0.0658632427786
0.0232576350017
0.0800000639353
-0.0256074681535
-0.0682474159798
0.126807039577
-0.00542682525349
-0.0472375810523
-0.0463217609443
-0.0548129502461
0.00560987084559
0.0291684423455
-0.0497314986281
0.0545560110283
-0.0928047792579
0.0533457017751
0.120024129859
-0.046616307305
0.0741336294641
0.0251188732941
0.0174440479143
0.0673287318422
-0.00476094183502
-0.0272311587506
0.0748473564808
-0.0594503758472
0.0407856166743
-0.0469711293207
-0.0508297700148
-0.0583548322244
-0.0701612452515
0.00347411782039
0.0674666089043
0.000432089849349
-0.0502284241328
0.0430487199517
0.107267024704
-0.0214280804735
0.0582997784503
-0.00557262216872
0.0134964135587
-0.078110847479
0.081148457268
-0.0416975303149
-0.0295051437049
0.0356548953809
0.0616815379296
0.0727209243381
0.0221644420375
0.082147130994
0.0903421405482
0.0670542867606
-0.0668208320209
-0.0152103787259
0.10622702753
-0.0604412629386
0.114521164744
0.112202323283
0.0217056034199
0.0231034181025
0.077529068598
-0.00888469751277
-0.0617869855952
0.00750531315993
0.0594490038801
0.0414325419859
0.0293218070448
-0.0493183849269
-0.063657858239
-0.0131519087225
0.0697988920106
-0.0677375304644
-0.0471869753649
0.00399608082075
0.108761785716
0.125966657421
0.0869027136471
0.0382037941778
0.0259201980793
0.0303163757716
0.0714931723438
0.0183230628607
-0.00110788279111
0.0146435075408
-0.052564581892
0.0876539648278
-0.0318862761718
0.0174262473636
0.0796298901735
-0.0558307136855
-0.036655972508
-0.0516160026565
0.0814490036859
0.0507682898551
-0.0200365475114
-0.0331139866849
-0.052602059147
0.0758652158488
-0.0228274903465
-0.0252563236815
-0.0317919818625
-0.0553362046609
-0.0989993939931
0.0469900799558
0.0322112719006
0.106427332792
0.0698476461957
-0.0594541734609
0.0277331442136
0.047931616771
0.0209162232703
0.0706980005752
0.00932027385266
-0.0818086269092
-0.000132379633527
0.094608709371
0.0621632604126
0.0663787983169
-0.0793396974896
-0.0217468278793
0.0542629956942
0.0517236990028
0.0482279195999
0.116494622776
0.11007616917
0.1031058288
0.0446672144218
0.0529866351414
0.0869001965364
0.0610506504936
-0.00301008215294
-0.0424943501841
-0.0567899225054
0.0507973159798
-0.0662118476689
-0.00648980587026
-0.0831911428904
0.0120673655704
-0.0232325421715
-0.0506640726033
0.0464131754096
-0.0715048043993
-0.0557591164272
-0.0371284341923
0.0253748644425
0.0906542461628
-0.000444170421414
0.0589858271103
-0.091432019768
0.0901678212717
0.0235411316462
0.0151001144519
0.0883513674473
-0.0177152527308
0.0483335944846
0.0143265116945
-0.035364208022
-0.0498390418323
0.0473611220288
-0.0120608359447
-0.0702762647208
-0.0528976665146
0.00481605871487
-0.075155819766
0.0543999723671
0.0423422926189
-0.0614017480509
0.0397158206887
-0.0833080142994
0.00315440046447
-0.0372823188923
-0.065334933148
0.0227108001103
0.0809882009838
0.0116242702549
0.0936554103649
0.10990478868
0.0783977103701
-0.0291022334484
-0.0421219593956
0.0700471130606
-0.064009832645
-0.0144964329545
0.0541650589973
-0.0773643120766
-0.0517124820048
-0.0196847717791
0.0542693863229
0.0824118111768
0.0182351652789
0.0484815822092
-0.0926314977493
-0.0133303662809
-0.0823028829377
-0.0833677865465
-0.0460836953888
0.0913272010518
-0.0798834491417
0.0597131501747
0.0555601209588
0.0310195619786
-0.0712144077499
-0.0764407020881
-0.000388087270915
-0.0456808387456
0.0504221031678
0.0181162327772
0.00222219073303
0.0341642857063
0.072044298289
-0.00186842312402
-0.0248425356808
-0.06409876116
0.0786071394179
-0.0749738941769
-0.0921344183958
0.00428973390395
-0.0390757914839
0.0110450779342
0.029036713669
0.00302074229888
0.0149581278807
0.0142630891164
-0.00837632586704
-0.025544706883
-0.0459684600468
0.0619975082088
0.0535204035643
0.028859278075
-0.073263488834
0.0245964931771
-0.0601346868886
-0.032337416561
-0.0609379406784
-0.0644656722989
0.0642950236601
0.0233044030312
0.0531479169219
0.04958976145
0.0125259062667
-0.0134277907241
0.0801605623897
0.0175716260027
-0.0468645385258
0.0654514410512
0.041202518931
0.0583377708634
0.0093802696201
0.00616322157638
-0.0447241189018
0.0364979812193
0.00228969888174
0.0747170017576
-0.0326854937861
-0.078042104753
0.0292807946026
0.00328010891939
-0.0816999657443
0.086214367412
0.0119716021945
0.0592403520729
-0.0555897286653
0.0284935632193
0.0950867597181
-0.0432451833685
-0.0487916952058
-0.0615472012067
0.0738631475765
0.0337473589139
-0.0716050574826
0.0161434539105
0.0639046764946
0.0400715726107
0.0298383953004
0.0358665182433
0.0161511461378
0.0544036332287
0.00921257254405
-0.0714270481509
-0.0148728203942
-0.00768063104655
-0.0756299816799
0.00678574731661
0.0226219191046
-0.00151164939547
-0.0260536763443
-0.0101119123327
0.0964574718578
0.0148177503617
0.00900303849743
-0.0305681155072
-0.0210965171518
0.0182012755277
-0.0171157555632
0.0873997454182
-0.0297718145078
0.0156931569289
-0.0832586857655
-0.0560755810012
0.0309641977367
0.0269008228611
0.0338288155932
-0.0435048715004
-0.0158800598561
0.0271430659845
-0.0387254673857
-0.0300947785348
-0.0353864932596
0.075215473166
-0.024256324483
-0.0617547233698
-0.00252476298295
0.0450547666396
-0.045884992134
-0.0461612102671
0.00523844646787
-0.0183764858394
-0.0829855103473
-0.0294287658013
0.0918357478056
0.0524110666988
0.0961518018337
0.0179280857503
-0.0843850526074
0.0533920923967
0.0348024088025
-0.0691633808501
-0.00396700928044
0.0746279749151
0.00112794746271
0.0308397442711
0.0853620274338
0.0294255025157
0.0314019237693
0.00288886903042
0.0807328949818
-0.0209934081818
0.0634847652211
0.0186600001085
-0.0454689234801
-0.0646157718193
0.0502129630926
0.0590234802655
0.0652435713311
0.0858281016492
-0.0402930894383
-0.0298877779717
0.0797675472615
0.0254943152633
0.0740759666874
0.0564916067748
0.0878653337964
0.0845960184235
-0.0901980198967
0.0195392640504
0.0730501816446
0.0823768877491
0.0438956918476
-0.0635522138709
-0.0343558649928
0.0405119730215
0.049480804337
0.0763656279322
-0.0198487219881
0.0625300097524
-0.0762151671065
0.00328763713971
-0.0464382941745
-0.0647978441803
-0.0859750962969
0.0186095032831
0.0621140132462
0.0795256286107
0.058165718101
0.0419290186172
-0.0445919666844
0.075635564271
-0.0449990546971
-0.0113237353943
0.0567819593487
0.0767781113045
0.0813740892991
-0.0047094837472
0.0830515677977
0.0867695026711
-0.00710950458257
0.0176909531691
0.0155404564613
-0.0405446060529
0.0850657363959
-0.0460810804481
0.00452669842506
0.0684932990354
0.0523989637433
-0.0678271991789
-0.0725823454036
-0.0182315459407
0.0600131418743
-0.0713320025709
-0.0627436403079
-0.0177065822481
0.0799145606904
-0.0171762170286
-0.0129300307404
-0.091542158192
-0.0636231796013
-0.0891971229073
0.0538230422502
0.0206555935984
0.0520939247115
-0.0374274469817
-0.0333502120778
0.090565616428
0.0128144496702
0.0287093034673
0.0995379822546
0.049081789676
-0.0110683190798
-0.0289860275911
-0.0392662481753
-0.00401374418338
0.0428356897663
-0.012719089638
0.0600675181286
-0.0503890916084
0.0660750554059
0.0926598227467
0.0689394551967
0.0364495341078
0.0936047122793
0.0132377259581
-0.0788542271726
-0.0234834218879
-0.0106343254318
0.0426975563784
-0.0177482918568
0.0656911554453
0.0843208847053
0.0366714152332
0.0432342309374
-0.0120938035276
-0.0997837208948
-0.0517394670003
0.0271685951698
0.0335254303718
-0.0336887477386
-0.0583177860347
0.0811261912207
-0.0343827854981
0.0672214330877
0.080990941765
-0.0833405606512
0.0752477450121
-0.0545892569236
0.085349565128
0.112518140242
0.0802362916959
-0.063847194752
-0.0122812367439
0.0501673553319
-0.11527649639
-0.0272426546879
-0.0206405871892
-0.0854870369994
0.015629480019
-0.079915456284
-0.0122200686457
-0.069481593368
0.0249911334965
0.0586961405108
0.0502439436671
0.0528939264365
-0.0891178908593
0.0687507414918
0.101166586133
0.0819917659344
0.00495909248958
0.0451169292663
-0.0489245706767
-0.108345607905
-0.117981679728
-0.121636832936
-0.0765747174722
-0.0147934025095
-0.0906277085286
0.0823479839658
0.0763298794912
0.0714025517523
0.0324316037149
0.0252903021677
0.0806911751946
0.0517320167923
-0.0366151452398
0.0682093450338
0.0483295571118
0.0710170104652
0.0322058204098
0.0183132312547
-0.0356640597247
-0.0694812257202
-0.0401721053911
-0.0743465629156
-0.0378798141877
2.44271062693e-05
0.0193439729028
0.0974605155223
0.111624308462
-0.0564174879585
0.0819609622183
-0.00933032374301
0.0414201543791
0.0810941410316
0.0733681919701
0.0445565610893
-0.0372432910609
0.0448088501365
0.0650843527737
-0.0860600653099
-0.0546598801287
-0.0455618134901
0.0540278413016
-0.0551869306936
0.0111773792936
0.018345685263
-0.0200597695209
0.108598288903
-0.0523908554491
0.0797612390369
0.000449707375666
-0.033283144939
-0.0344772440586
0.0891787633191
-0.0509424055356
-0.00744310574588
-0.0897568059512
-0.0608967492812
0.0623684066398
-0.0337887638753
-0.0851315969894
0.0706007786755
0.0637544824997
-0.0543161415383
-0.078817928663
-0.0201559914588
0.120847787488
0.063297053306
0.0467026547876
0.0300430943097
-0.037409169231
0.00457097354575
-0.0171064686299
-0.0626929812883
0.00114200051259
-0.0545424953485
-0.0825265148881
0.0619858482617
-0.0341715330826
-0.0411831470754
0.109673794828
-0.0181821365757
0.116576079924
-0.0305931833223
0.00306672510703
0.0328415435321
-0.00122356998778
0.0132432016552
-0.00583656801957
-0.0565614667015
-0.0345860509428
0.021355296488
-0.0802781496551
-0.0545508852881
-0.0601917466563
0.0645486157338
-0.0193375894154
-0.100557463217
-0.0784699018338
-0.0554620517521
0.0259572747164
-0.000676469387993
-0.0399777797376
0.0766942028687
-0.0305143501769
0.0981591165644
0.0684757618011
-0.077531643755
0.0122015947209
-0.0685602346918
0.0266504117403
-0.0737548485862
-0.0323845405329
-0.048463551061
0.035609799866
0.0517754975995
-0.0330378172446
-0.0400557466947
0.0389545815697
0.0593028873955
-0.0376880427006
0.0980313515647
0.0106843320978
0.0934189831764
-0.00367518318955
-0.0796036426174
-0.0211938418362
0.0475583975169
0.0931573866897
-0.00416857698118
0.0414753196276
-0.0920023587753
-0.0192859703534
-0.022329090635
-0.0226242318291
0.0662837097953
-0.0232438936717
-0.0992978576546
-0.0266471042669
-0.071537889383
-0.0619091460074
-0.00191018935541
0.0834072756104
-0.000214180894503
0.0298575859906
-0.0426174187816
-0.0622112959828
-0.0234298326611
-0.0468749743594
0.0892774342127
-0.0935123749027
-0.0743703468857
-0.0632757271976
0.0175611276051
0.0882134996555
0.0197445348046
0.0781232927541
-0.0139709156042
0.0305052115582
-0.0745191546099
0.0145689478371
-0.0769951641777
0.042688203809
-0.0753169012989
-0.0391786217005
0.0308323275226
-0.0871765503839
-0.0320079993958
-0.0931172611355
-0.0110994154064
-0.0297397416319
0.00826434522027
-0.0537360866825
0.0441013209203
0.0591604226671
0.09536703025
-0.015205670108
0.0111557947328
0.0730591300422
0.00714678289302
0.0695657638916
0.0920683726653
0.0409084584224
0.0801395183249
0.0160100771691
0.0837303045254
-0.0141491633095
-0.0241743982242
0.0212524123385
-0.0218258195164
0.0685622676613
0.0711832652288
-0.0242468050677
-0.0327047564364
-0.072087355325
-0.0179702035467
0.0808674180049
0.0924372672856
0.0799891820511
0.0322937114954
-0.0163801703193
0.0130875864652
-0.0902859678207
-0.0500913403524
0.0239465483849
-0.0495960261137
0.0171567838586
0.0199345272597
0.0185982084627
-0.0646714086244
-0.0503554870767
0.0963629698596
-0.0385048682045
0.0109172927879
-0.00966590000361
0.0913687056491
-0.0234082751572
0.0795604976125
-0.0103646979988
-0.013400513689
-0.0512836467595
0.0721293637357
-0.085121172193
0.092615820364
-0.0923025119848
0.0683530649958
-0.060374389435
0.0565810183667
-0.0308214859058
0.0217231660575
0.0670857519633
0.0715448604979
0.0350578845319
-0.0197137859728
0.0845546479168
0.0135996653705
0.0916068679745
0.0108964499607
-0.038539265529
0.0460598176125
0.0387280658541
-0.000984972780483
-0.00474620390719
-0.0589692447466
0.0680269182727
-0.0694987251766
-0.0607385883162
0.0532212866695
-0.0142657130196
-0.0808873019229
-0.044568903
0.015451570102
0.0324117870302
-0.091539757843
-0.0836137744683
-0.0513951168775
-0.0786410840349
-0.0166905056308
-0.0809882118331
0.0862348842231
-0.0443734688274
-0.050250613851
0.0301774966064
-0.05724033176
0.0329783109073
0.0794381035122
-0.0662318192736
-0.0156463331515
-0.047159376914
0.0798320311148
0.0641826488989
0.0293303789633
0.0824566744265
-0.0116502598754
-0.0572297939773
-0.0544996476094
0.0881809311836
-0.0224526127279
-0.0447388125725
-0.0166455257284
-0.00989988104341
-0.0789386371588
0.037917413024
0.0305041950653
0.0189747332067
-0.0176173988603
0.0165771672832
0.0298480795003
-0.03827250811
0.00353903967403
0.0217836036286
-0.0417872045108
0.0546134134576
-0.0485378039321
-0.0181174918578
-0.00129985331752
0.0352657390832
0.0151567820969
0.0564829874062
-0.00764576249534
-0.0219015513723
-0.0803349430857
-0.0569995658999
0.0355875713684
0.0156522181609
-0.0922324287877
0.0698233158656
0.0327800162595
-0.0170121449372
-0.0184372541354
0.00427199992795
-0.0963549234349
-0.0179532040082
-0.0733609178079
0.012375857977
-0.00329888449913
0.0834717421616
0.0413661750095
-0.0837894666661
-0.0399476664643
-0.058189821236
0.0710150614236
0.0823236803662
-0.102705834603
0.0321814068439
-0.0792949681106
0.0226490473288
-0.0119387567792
0.0402559952011
0.035459552299
-0.044364027308
-0.0345906424802
-0.0820390280482
-0.0932630022929
0.0680753929202
-0.0376372456727
0.0812179161847
-0.0554594050456
-0.06115803982
0.0123606098352
0.0389705258747
0.0863484908506
-0.0909077090311
-0.0737854512944
-0.0589474315977
-0.00838383074559
0.0675182858947
-0.0389859925075
-0.0207108116203
0.0229519865226
0.0183526087368
-0.0548512076833
-0.00451824142682
0.0488629682944
0.0808033641863
-0.0129288264005
0.0457200104466
-0.0683116700663
-0.071470633568
-0.0594969068945
-0.0654966236665
0.0523132155034
-0.116128206721
-0.0257846233245
-0.0971048902114
-0.0365577676288
0.105938626706
0.0627597609636
0.0268140274493
-0.0326127673089
-0.0137692168646
-0.00663588780098
0.0287188630624
0.0414005957869
0.0583677285906
-0.0358007822815
0.0335091111336
0.0391410741996
-0.0411124037351
-0.0752498194076
0.0696093332758
0.0407249777796
-0.105638797498
0.0701345676471
-0.0404414846561
0.0560054991168
0.0115462000511
0.0730475791732
-0.0694596615229
0.00853515958689
-0.0453520321185
-0.0349561957221
-0.0159090726493
-0.0250804788351
-0.0526736339494
0.0297577954435
-0.00944268534313
-0.0802878837449
-0.0479813851591
0.0643930251964
-0.0358293857365
-0.0619090211134
-0.0774052063701
-0.0276806772533
0.111867959144
0.0552988185984
-0.0232267392721
-0.084335882956
-0.05168352278
-0.0763203980318
0.0122486705791
-0.0386570340084
0.0584072603932
0.0805518007295
-0.0878970417921
-0.0314423059046
-0.0910119022831
-0.0505284034101
-0.0127687241378
0.0739961726347
-0.0228781321876
-0.111163107983
-0.0964890553509
0.0145652315346
0.0329148909357
0.062183505242
0.00276054417088
-0.0763835671283
-0.0900065281893
0.0102721895836
0.0397167322026
-0.0131603645184
0.0629913301457
-0.023793574816
-0.0403230880093
0.0523493454208
-0.0321087749872
-0.00338251782086
-0.0360042654444
0.0915235740013
0.0595829575751
0.0919119363974
-0.0474955821692
-0.0358569412326
-0.105314835851
0.0326537263666
-0.088871127956
-0.00580321207077
-0.0211374417221
0.0502318054758
-0.0879580866368
0.0235857225353
0.00775944566911
-0.0697104493635
0.00710243293646
-0.0316752043564
-0.0952449835
-0.0208832006631
0.00970611648128
0.00511060714934
-0.0455683362328
-0.0193987563247
-0.0304646460134
0.0438513484625
0.00983494156673
0.0213615200045
0.0242436249299
-0.0358191861654
-0.0861663127233
0.0540876544963
-0.0548796486257
0.0903263460509
-0.0129537479442
-0.0521998589099
-0.00184312104072
0.068686259611
-0.011230311357
0.0605763015101
0.037094665634
0.00841875733876
-0.0793032722535
0.0282014630854
0.0654231798072
0.0261205089397
-0.0673302004186
-0.0761443665123
-0.0944276451254
0.0737086182906
0.0395377310552
-0.0598272886762
0.0493086011668
0.0741222401787
0.0502206830968
0.0653278594415
0.0120694907728
0.0342852142304
-0.064077006615
0.0842690755296
-0.0510004083433
-0.0934036987036
-0.0300749726221
0.0400354720402
-0.0537554738529
0.00571651267893
0.00419487866445
-0.00976282498947
-0.0430047318441
0.0193319186863
-0.0625665347764
-0.0643969568469
0.0218811379161
0.0754341164743
-0.0993582377433
-0.0262835603126
-0.025238239744
-0.00916009583928
-0.0903593030362
0.0767040926773
0.0526891426759
-0.0611057491525
-0.0423374600188
-0.0328370881341
0.0505672429321
0.0879461884435
0.00478147117549
-0.0878791158724
0.019232995533
0.0297424199101
-0.0187330659384
0.0292061707015
-0.0163529518139
-0.022733189567
0.0764322662506
0.0078187124248
-0.04067091436
0.0758797968713
-0.0939910299688
-0.00287526556359
-0.0530856246212
-0.0519645797857
0.0863346973485
0.032078216956
-0.0710180801414
-0.0472413977914
0.00474812454698
0.0906964364752
-0.0788534856576
-0.0256345725669
0.0248127816743
-0.0877988159719
0.0524728031703
-0.0176887558947
-0.00144105974651
-0.0923894102355
-0.0562063506722
-0.0844064762171
-0.0874543055252
0.0782062117365
0.0353701282919
-0.0511806085248
-0.0470112115207
-0.0715224626323
0.0442103306677
0.0859584809486
0.0645737578164
-0.0725624559955
0.0782607348651
0.0475520739331
-0.0393469446954
0.0830111083453
0.0383620437207
-0.00722450701868
-0.0304615148919
0.0207906592018
0.0303500614161
-0.0212210978243
-0.0479586381457
0.0105128337234
-0.0418668620104
-0.0282207675534
0.0497811001629
0.0590985315368
0.0921025688225
-0.00998763958463
0.00817394751303
0.0178724413294
0.0495753403062
-0.0886812648899
0.0550431112453
-0.0623245338863
-0.0398073574918
0.0333736312662
-0.00422905311899
-0.0580957362813
0.0618594836865
0.0111401033388
0.0414951600993
-0.0968073623722
0.0615511634688
0.0115738138108
-0.0345688034734
-0.0625430874979
0.0703866766348
-0.0488499848459
-0.0322788225885
-0.0228606259578
-0.00926002170699
-0.0701123346998
-0.00638906680291
0.0595366070749
-0.00225344816746
0.0150263208773
0.0643102540689
-0.0877288850625
0.0237765673985
0.020130408166
0.064222023106
-0.00514185479481
-0.0605609189046
-0.00419264959768
-0.0572605863029
0.0616594401679
0.00845504037615
-0.065346601412
0.0550810294193
-0.0731010364528
-0.0573284704973
-0.0576862982142
-0.0472244374278
0.0225288327447
0.035068558757
0.0676689561423
-0.0251362048042
-0.0019663791958
-0.0589585305613
0.077963014992
0.0926648180775
-0.0298226689668
-0.0248314311799
0.0111991475657
-0.0823418181485
0.0563609427597
-0.0418804652528
-0.00460132402553
-0.0158829164129
0.0699305682399
-0.0562296033223
0.0921290013708
-0.0535896036769
0.0112950582739
-0.0433201791286
-0.0820427597569
0.0857577856715
-0.0426569862153
0.0619917910717
0.0641494131191
0.0751691603963
0.036819695454
-0.0246453735422
0.0515896897288
-0.0904896319935
0.0114177950016
-0.0356730108962
0.0817156671219
-0.0782851248897
-0.0486464909339
0.0901158303195
-0.0527797995628
-0.0662310399702
-0.0531346784536
0.0361908145148
0.0726717942005
0.00320733126154
-0.0766101419228
0.0295772048695
0.0953169620445
-0.0886085609016
-0.0552348693074
-0.0541543836311
-0.0067591768846
0.0557529316598
-0.0269859371072
-0.0567723427171
0.0225079458053
0.114327643746
0.108275121751
0.079040248271
-0.0731641337022
-0.0596123290443
0.0342808926202
0.0473695754211
0.0345003004291
-0.073184466398
-0.0915168215261
0.0182236682198
-0.0842473795981
-0.0463212579342
0.0918100205511
-0.0691144158957
0.0537102955635
-0.0613233340483
-0.0471677733153
0.00236717501902
0.00592435166506
-0.0125326680375
-0.00877562667921
0.0989922836349
-0.0487547728324
0.0368563782754
0.016455542876
-0.0421307992759
-0.0005506100905
-0.0902651320401
0.0304982145366
-0.0922618148902
0.0941509525994
-0.0833811814387
-0.0470119568276
-0.00757803957957
-0.0420843690872
-0.019048364386
-0.061073964859
-0.0631774305294
0.082070865815
-0.0221801203581
0.0272605363142
0.0828490007067
-0.0506465950844
0.0793231255963
0.0833071102343
-0.0711487689277
0.0137316442775
0.0429973976564
-0.00865679672949
-0.0319572030827
0.0314448544205
0.0146879870046
-0.0279235246611
0.0263641549981
0.0309606956024
-0.0669716296155
0.0114737031319
-0.0361153566004
-0.0758868972257
-0.0598407368423
-0.0759645837442
-0.0384086400287
0.0795986359877
0.0670020443704
-0.00896554021155
-0.0730508053704
-0.0650725077891
0.0405976135395
0.0217875256631
-0.0062430498157
0.0136975022796
-0.00174779436698
0.0602449719789
-0.0277752907333
0.0770647892911
-0.0868652446332
-0.0410253767822
-0.0770622053167
0.0165474335536
-0.0633944308096
-0.00492580632858
-0.0221643432913
0.0615624225819
0.0332344695383
-0.0994785633872
0.0773947410862
0.0844158292187
-0.00681041330987
0.0247968918004
0.0467653385732
0.0629238001832
0.0641490659363
-0.0830271719506
-0.0208198953526
0.0274702449251
-0.0701769458986
-0.0311107685104
-0.00478205477039
-0.0787400993426
-0.0442976526838
0.0859440147839
0.0517890549557
0.0178743925058
-0.0828621644176
-0.103706862492
-0.0695076796756
0.0786191205885
0.100078783523
-0.00342006169358
0.0636885161879
-0.0313673986822
0.0948083978079
-0.0755654627308
-0.046324998717
0.103859106076
-0.0674799504918
0.0459761054772
-0.0955776237597
0.0860623694022
-0.0620154974225
0.0524167333117
-0.0853343308119
-0.000990343813841
0.0101435498139
0.00954791949979
-0.0441475529797
-0.0309939982795
-0.0529074606225
0.0332254810659
-0.00247751640928
0.0405111001438
-0.0195047349568
-0.0422378310783
0.0843689306742
-0.0884061297238
-0.028329687623
-0.102640823945
-0.0660464324694
0.0817950787876
0.060826765356
-0.0445036930472
0.0218892848832
0.0567103341381
0.053253417338
-0.0236097860461
-0.0410191653199
0.0286454224643
0.0282411815563
0.0805275486584
0.0351658386509
0.041799645455
0.0101994960103
-0.0573533285844
-0.0180985586151
0.0233345897112
-0.0481975484855
0.0643137359642
-0.0122146402884
-0.0305216301297
0.027525172608
0.0853902666275
-0.0331376348533
0.0247926716318
-0.097053373117
-0.0647123026278
0.0349651202255
-0.000623533191363
0.0667555973177
0.031521058407
-0.0791198969326
-0.0784835882541
-0.034046200218
0.100033789997
0.0117987428622
0.064241766603
0.0950896634005
-0.053692967053
0.0666722991069
-0.00879965577433
-0.00862118151205
0.071101458336
0.112558360275
0.0850244737207
0.0138590130604
0.0837675196575
-0.0528685792894
0.0605063514029
-0.0375555586204
-0.0833346038815
0.00980496910307
0.0462635097328
-0.0726755493782
-0.0620290820069
-0.0206705128062
0.104367890577
0.0476454565255
0.104977628951
0.0170603713605
0.0622272561921
0.0580708278553
0.0831787599974
0.0979449516658
-0.0688291892212
-0.0928264642578
-0.0102072157977
-0.011475620489
-0.0103263870322
-0.0460123255735
0.0290468825314
-0.0232504777044
-0.0505152852935
-0.0646510097027
-0.014838368091
0.0839721071108
4.73840948194e-05
-0.0676910157406
0.08304643788
-0.0259909868937
0.0158800975166
0.00132433920103
-0.02615137616
-0.0694339907622
0.0351667172376
0.0177315980621
-0.0782883398416
-0.0242806818978
0.021624985483
0.0719172643643
-0.0160587529433
-0.0590012690012
0.0211262900771
-0.0832616180303
-0.0724474687253
0.0852238810352
-0.0603838253366
0.0139478962422
-0.0730405003346
0.0240289395954
0.100184918433
0.104386593378
0.0514762274203
-0.00630689070597
0.0889689070925
-0.0500422963141
-0.0298204339786
-0.0695768123101
-0.0488830352898
0.0044644758108
0.0517210836849
0.0722868555035
0.0751375291928
0.0449817742684
0.0149589850588
0.0142279151087
-0.0302210057344
0.0323949928768
0.0736878889705
0.0161961135939
-0.057531551121
0.0146242024395
0.0218708889138
-0.0245403281724
0.0544395021325
-0.0258659616809
-0.0716725119642
-0.0807282823558
-0.0853569268078
0.0493978834833
-0.0693956569012
-0.0538904404121
-0.00628810317027
-0.0242739041809
-0.0643459316702
0.0143008113126
0.0188932317762
-0.0651981146911
0.0389837504222
0.0602944837882
-0.0492954579161
-0.0127834753453
0.015288026559
-0.0388962689464
0.0850634738997
0.0734534642728
0.0385598989906
-0.0216006246907
0.0312078295496
0.0677488683936
-0.0549957348668
-0.0836366551201
0.0549584573861
-0.0466390663948
-0.0387871838025
-0.0910010546359
-0.049317347822
-0.0633930850528
-0.0736042483392
0.0123436042867
-0.0478059804194
0.0782443376038
-0.0466612996294
-0.0116695629173
-0.0687201336608
0.0337318783367
-0.0699203218082
-0.0791206435793
-0.0691980392221
0.0397303997525
0.0592588020578
0.0666567008881
-0.0802878956708
-0.0473675589504
0.093266888359
-0.0365928724316
-0.0469125785326
-0.0178013588032
-0.067349241927
0.0327524899837
0.0876368048398
-0.0846770075971
-0.0821725274694
-0.0229933873544
0.0808379457908
-0.0300779439016
0.0314793706396
0.0622669549142
-0.0710730444642
-0.00376248025114
-0.0858596041529
-0.0528390951781
0.00518370336432
0.0223912619807
0.054092254034
-0.0204135545112
0.0947345260141
0.0825771692813
-0.0547355018557
-0.00429927555365
0.0952669244554
-0.016995349757
-0.000397477119194
-0.0026309551552
-0.0474615037431
-0.0882040633085
-0.0122910866071
0.0777534220048
0.087803947029
-0.00967175086638
-0.00569423351417
-0.022002856602
-0.0754394678424
0.0440818947208
0.0172474879652
0.0406945417376
0.0603458890964
0.0184875184129
-0.0598216640656
-0.0114149949935
0.0535811797704
0.0651369212901
-0.0426434689222
-0.0527666106004
0.0684105615612
-0.0172195516953
-0.0764190223515
0.0797953009993
0.027115262601
0.0195846988954
-0.0363680715913
0.0677684619772
-0.0599246086111
-0.0609765641443
0.0556863370642
-0.0214375149086
-0.0110927100401
0.0232360186032
0.0334620118608
0.0789502228445
-0.0168856918017
0.079035045093
-0.0735402338214
-0.0831677182352
-0.0489796338665
0.0107049014045
-0.0405376445751
0.0289142987232
-0.0420966751371
0.000970786765539
-0.083351609742
0.0612655695301
-0.0585291157452
0.0136546844012
-0.0840864935592
0.0213928185096
0.0191600454046
0.0551373937356
0.0321070426392
0.063036163059
-0.0381474283855
0.0179423407452
-0.00858978198081
-0.0824158111236
-0.100939413396
0.0558536023837
0.0767715006242
-0.0784521877648
-0.000721974663236
0.0477929416825
-0.0585254319908
0.0162413803748
-0.0944696271604
-0.045165791603
-0.0105747615842
0.0630520354048
-0.0148805353766
-0.0145792098251
0.0827446449306
-0.0473103393992
0.0604035159098
-0.046074655837
-0.0992612025044
0.0638223905993
-0.0653206642799
0.00905058911565
-0.0407484311654
-0.0469729272857
-0.0464236700844
0.0867816629514
-0.010538559209
-0.0465858630071
-0.00492513481152
-0.0142658497912
0.0185244017189
0.0931644402391
0.0716969770955
0.0105448081806
0.0346623579013
-0.109961030209
-0.107579207215
-0.00714711991033
-0.118984798494
0.0632674364426
0.0381878629154
-0.0220907133146
-0.0523617644234
0.0504456444208
-0.0515211909252
-0.0855072387182
-0.0435662176284
0.0234899318507
-0.10202182545
-0.0345763993035
-0.0848724036721
0.0975441326358
-0.0658210572946
0.0257940825702
0.0825257372221
-0.00532112040166
0.0172337063141
-0.069731905148
-0.00566214093198
-0.0885522556454
-0.0553025402526
-0.00185798246269
0.065297460486
-0.0748285941388
-0.0489520516219
0.0812653484244
0.0375008766411
-0.0332215203139
0.0128434720826
0.0477382414624
-0.048238006061
0.0934640030469
-0.0314230566259
-0.00645399079603
-0.0353031142888
0.0285424495085
-0.120837642457
-0.116899221625
-0.103851993937
-0.10319279735
-0.106589439623
0.101695173204
0.0352936314184
0.00460751807871
0.0641223422579
-0.014745085104
0.0760563082534
-0.0802958236023
-0.00922549364705
0.0771119091278
-0.00518027987156
0.0826212398134
-0.0215404996668
0.00142050100386
0.0453372825612
0.0312834441094
-0.0263096557165
-0.0812088658049
-0.0655780717277
0.0212873765516
-0.0671591313866
-0.00104781726506
-0.0311103354573
0.0134427169633
-0.0321648036374
0.0277643078804
0.0167628081653
-0.0416038991112
-0.0495792212703
0.046458217307
0.0104928656379
0.105546853387
0.0869947102868
0.000210806502544
0.00449945792686
0.000863032243145
-0.0162281623034
-0.053547796108
-0.0651657475139
0.0904241799527
0.00341065098986
-0.0374120382525
0.0726359407981
-0.0812011888111
0.0515652801843
0.0578691825241
0.0162480236089
0.00303718974542
-0.0218658283229
0.0702492035236
-0.0120509288462
-0.000310508021022
0.105765360624
-0.000630917363762
0.00212154350889
0.0648241375473
-0.0209585660432
-0.0215958726683
0.0256499695921
-0.0471722187469
-0.0554470676277
-0.0319019003724
-0.00771511705597
-0.0474136049859
0.0449233442168
-0.0663513299619
-0.0634679972462
-0.0571219939622
-0.066958801986
-0.118715005494
-0.0893438359197
0.0330688573068
0.0957796072811
0.0135167431546
-0.0476853066634
-0.0551832083805
-0.0262130255575
-0.0301504026091
0.0764878119533
-0.0668552373293
-0.00649288042139
-0.0212077112474
-0.00694666113796
0.0199719360008
-0.0376972162532
0.0670215157244
-0.00208239355296
0.0192986643088
-0.0966131710961
0.0720888358593
-0.0971958502429
-0.0018307310859
-0.0378384350431
0.0018999556622
0.0854192368641
-0.0275316998378
-0.0339907667476
-0.0705175272579
0.0346863022598
-0.0144326398196
0.0251215098808
-0.0670055600752
-0.0569418447321
0.066582779047
0.0751951895932
-0.0269680342376
0.0317516487729
-0.062236595851
-0.0499873670144
-0.047394614545
0.0572085996056
-0.0718863031839
-0.0400839011561
-0.0618683863902
-0.0964197886188
0.00441701579633
-0.125431059741
-0.105784434744
0.0276573365863
-0.1084848896
-0.0361036967655
0.0464763628571
0.0395193451444
-0.0345692317159
0.0673260695331
0.056005085641
-0.0721052949884
-0.00215723987952
-0.0317191649342
-0.0655268319264
0.0869127195716
0.0110513702746
0.0328787613139
0.0344188650881
-0.110119960476
0.0194082641762
-0.0310657930236
-0.00981162645813
0.0257485068922
0.0233399435348
-0.00393812820754
-0.00174707055247
0.0131616798046
0.0528233177332
0.0779943163871
0.0336967058784
0.0871132248868
0.034589260567
0.0260870977545
-0.0544339481253
-0.0646752231787
0.0888655540943
0.00428444070091
0.00195679160715
-0.0586524571616
0.0129290278786
0.0813239448385
0.0207731445418
0.0467459919851
0.0533519222416
0.00618169277065
-0.0500023478273
0.0361506685863
0.0333686101894
0.0444142617483
-0.0693048902901
-0.0450171235895
-0.00655103097563
0.0896354679401
-0.0421624181024
0.0204314401599
0.0437945764671
-0.018961072391
0.0803256698523
-0.0496454423364
-0.00490707996114
0.0573389144899
-0.0759688306915
-0.0125481033704
0.0669992790795
-0.0216846684728
0.0851654913397
0.00686009806363
-0.0791121460319
0.0866410448193
-0.0317562981462
-0.0554827463794
-0.0615573543293
0.0758438351133
0.0324595186238
0.0673593110344
-0.0849639837413
0.000606752521854
0.0511807034388
-0.0248081653719
-0.011405764405
0.0482548474356
-0.0839963097756
-0.0634720337438
0.0483708875986
0.00979348023221
0.000855267324065
-0.0326486446425
-0.0560302240495
0.0438197786092
-0.0572952047569
-0.0334901038819
-0.00424225073953
-0.0477520331812
0.0868931729052
-0.0241924002138
-0.0770629731468
0.0655434637654
-0.0512312814199
0.06864164382
0.0281776057946
-0.0226950866994
-0.0461713887116
0.0717174809139
0.0162207622479
0.0546695797317
0.0393387558797
-0.0830232266522
-0.0237237835043
0.0153625808331
-0.0342519851832
-0.0660685703934
0.0446582402323
-0.0521190606889
-0.0732509939909
-0.0543746144391
-0.0890189160238
-0.037091395187
-0.0780487966967
-0.0261421879653
0.0807266494588
-0.0758928067776
0.0437382435262
0.0456199295324
0.00191846176263
-0.0225342134989
0.0428288824484
0.0409822553509
0.090380382072
-0.0527256780565
-0.0615125322947
-0.00381516736424
-0.0167143251195
-0.0124353897665
-0.0862346631005
-0.0824398540521
0.00626789622449
0.000379202483539
0.0202306094278
0.0262509585556
0.0169503875791
0.0517179952464
0.0137241662853
-0.0619844934078
0.0277745548706
0.0880032682443
0.0591901022109
-0.0141911413479
0.0924319263146
0.0291982980774
0.0435288693368
-0.0291992870137
0.0009654472339
-0.0279659588551
-0.03402155353
0.0799585479485
0.0767054318389
0.0300000294988
0.0659632482797
-0.0865598289018
0.0476039002854
0.0355125121877
0.0732776824113
-0.0615558445325
0.0546610680778
-0.0676028422765
-0.012424769136
0.000262043573221
-0.048242292153
-0.0759663032139
0.0110030985732
-0.0831220450024
0.0540118412162
0.0790898471936
-0.0620327238451
-0.0138835394055
-0.068271215615
-0.0730551778107
-0.0685652359603
-0.0664613130859
-0.00317438253153
-0.0665088389847
0.0737096258321
0.0908116506694
0.0207923717444
-0.0792872088751
0.0826569820138
0.0642571915386
0.0340606861073
-0.0677530644733
0.00242698189003
-0.0162347549068
0.0602492143658
0.0952713266887
-0.0342874611418
0.0352772757001
0.0486644469543
0.020916989504
0.0461693310596
0.0098000741286
-0.0570329558497
-0.043858997849
0.0715563882083
0.0419983823136
-0.0361736743863
0.0550150217721
0.0911049408506
0.0744693124596
-0.00912481632039
-0.00498629286299
-0.0385814802309
0.00416418071555
0.0113235736894
0.0416986586783
0.0268635286958
-0.010022032958
-0.0466592442857
-0.00689801126826
0.0322899684598
-0.094231261318
-0.0203309379695
0.0194906151915
0.0452015300036
-0.00254150705904
0.00500120396051
0.0252154511255
-0.0801375864932
0.0565031744413
0.0293537625185
0.00745333939283
-0.0896004314159
-0.00535977414673
0.00269777411028
-0.0134958364186
-0.00279984513783
-0.0606526172309
-0.0667770565285
0.0454250983703
0.0453171326358
0.0374454958068
-0.0286658249857
-0.0136938561954
-0.0729490072742
0.0669063674729
0.0911565409409
0.112003810998
0.0929464663139
-0.0166096691456
0.0169450885506
0.0909691840496
0.0224466854738
-0.010262566048
-0.0354077640574
-0.0785721527137
0.0566864158534
0.011257066348
0.0116247225354
0.0130231598898
-0.0671716936837
-0.0226549319486
-0.0488195742799
-0.0216248960193
-0.0164986164333
-0.059478804018
0.0432322776309
0.0995274000036
0.0862296234135
0.0357401005234
-0.0604962782991
-0.0255485393096
-0.000221439773838
0.0381949224838
-0.028901410042
0.0318430581879
0.0125270727457
0.0353512794381
0.0280829977196
-0.0276845915564
-0.0216547531121
-0.0355001603801
-0.028146495367
0.0778694871933
-0.0560704718593
0.0628312988131
0.0292932846693
0.0611543363754
-0.0626041818107
-0.0686863622475
-0.0560039625196
-0.00923463942498
-0.033431585144
0.0777875328938
0.089866936589
-0.00370212834061
-0.111864814811
0.0430304635191
0.101791337784
0.0973139542171
0.0178579955813
-0.0751155999082
-0.0484869501236
0.0253039008067
0.074240377258
0.0504992661056
-0.027934230832
0.0791482995311
-0.0814144444001
-0.0259352173537
-0.0916265439707
-0.0854121466455
0.075541809866
-0.00170809900814
-0.0747213119388
0.050510757112
-0.0690233919802
0.0152454307823
-0.0141633612356
0.113722005641
0.0268534505726
0.0179056423364
-0.027983944944
0.0718248519317
0.0883095114885
0.0702763814157
-0.0586064423279
-0.0124121251761
-0.0720969582166
-0.0948820467476
0.0882254782472
-0.0162521610611
0.0273987453017
-0.0264564622726
-0.0143664303943
0.00041511107063
0.0324408444018
-0.051337359981
0.04951516084
0.0699390253654
0.0633107133192
-0.0905793392826
0.038779151761
0.0490538953837
0.0123467944739
-0.0678884806011
0.0482462464362
0.00939500487941
-0.102165575339
-0.0335566399436
-0.0883701168016
-0.0375863720061
-0.089826724986
-0.0792541030738
0.038827483781
0.060576570271
0.0630739047644
0.0303149322895
-0.0186159882307
-0.0746488960196
-0.000802630295617
0.0607495158057
0.0973570965873
0.0340155185921
-0.0136183221852
-0.029041885008
0.0395112021793
-0.0235832460876
-0.0242735746123
0.00705406666344
0.0724782739313
0.0408785742042
-0.0525110022694
0.0406365191643
0.0852029762268
-0.00859218717166
0.0656217713625
0.051035740588
0.012410827307
-0.00201970136256
-0.0615702795172
0.0742741010549
-0.0203708858749
0.0422228377539
0.00902799829179
-0.0595777757966
-0.0750523680542
-0.0422188397961
-0.065235653294
0.0489359626773
-0.00735692801751
-0.0921503830744
-0.0585577219432
0.0944658421056
0.0345504278034
0.0787667043912
-0.0446970113579
0.0251845452931
0.0139519613435
-0.0515153528703
0.083901784568
0.0394963195123
0.0533020072347
-0.0838467673988
-0.00215833636755
0.054089366638
-0.0534197625836
0.0830972604025
-0.0347427197418
-0.0628482557125
0.0262172073027
0.0663651972587
-0.0614003381974
0.0751426433508
0.0625781578989
-0.0144517814408
0.080242896363
-0.0133638413132
-0.0341827463109
0.091407715411
0.0711810832781
0.0450870352356
-0.0596069198614
-0.043049657904
-0.0317311069322
0.0547574705472
-0.0604171253075
-0.0500824624084
0.0220204018811
0.017038456845
-0.0703801625498
0.0273913024119
-0.0233709428822
0.0372031888075
0.0226201795429
-0.0761399518997
0.0658573594169
-0.0212079906114
-0.0476619135259
0.0221249353653
0.0924723796054
-0.0384867233238
-0.0536529522088
-0.0878929061451
-0.0661108825936
0.0534172971134
0.00405896611996
0.0785973540151
-0.0368061077924
-0.0108357145603
0.0634273715656
0.0042497873171
-0.0809556690014
-0.0325770747265
-0.0370638580302
-0.0622385259997
-0.0376613015237
0.0519315863133
0.00353690265145
0.0510164927167
-0.0703031221623
-0.0305109793971
-0.0838944012986
-0.0181926818231
-0.080152278447
0.0367386152758
0.0492702347073
0.0577231548942
0.0542294640186
0.0179817536514
0.0708358808498
0.0461958897787
0.0682515799291
-0.0164490260055
-0.0598801008
0.0242987529091
-0.00886383448939
-0.0784950387111
-0.0713043901603
0.0598478460864
-0.0831764910007
-0.0794239278361
0.0692155380643
0.046139230583
0.0361018881577
-0.08819706328
-0.0256597758782
-0.0224180601867
0.0835226055329
0.0897010527488
0.018667400366
-0.0393507589623
-0.0116213192735
-0.0214952095953
-0.00758728384576
-0.0214518467663
0.0634772863022
0.0530654941154
-0.0118379201805
-0.082595906029
-0.032814933026
0.048534135333
0.0328897676013
-0.0034862650104
0.0732113238321
-0.0940917648163
0.019241017308
0.0272824873173
-0.0347892000153
0.0519179383465
-0.079365217008
0.000103849160215
0.0645883658377
0.0332616307492
0.0460000739236
0.0561098511455
-0.0191313126177
0.0395140741113
0.0546393312283
-0.0229748839007
-0.0146554301975
0.00259380392327
0.0437758394316
0.0125429119256
0.0129096762997
-0.0847383252735
0.0941046311787
-0.0456737376834
-0.06108132523
-0.0488583859607
-0.0913285108902
0.0302944597752
0.0529001641678
0.069387026916
-0.0257197959299
0.000739028560335
0.00577123401719
0.0423145129666
-0.0757929548361
-0.0482695368717
-0.0753243633361
0.0775928831192
0.0254515477794
0.0290789030894
-0.0115951665601
-0.0822396064491
-0.00299791541941
-0.0321348072099
0.00852866923863
-0.0947300271519
-0.0895076366904
-0.000833003373279
-0.0368850445978
0.0293300168176
-0.0413365675244
0.00285495300907
0.01011987392
0.0595652790152
-0.0987411086699
0.00646786468612
-0.0597913130804
0.0758847699791
-0.0484968373904
0.0635058402019
0.016643022178
-0.0678924498568
-0.0489684772782
0.0723455338404
-0.078978289197
-0.0468427021462
0.0721883402916
-0.0827997278114
0.036310534295
-0.0834253871966
-0.0223863606078
-0.0286989999814
-0.0636830420006
-0.0773844125223
0.0841233696104
0.00352222302226
0.0493423666172
0.0946282682768
0.0111509062801
0.065806331914
0.0863420145217
0.083086377835
-0.0761241419295
-0.0419167169997
-0.0877108927429
0.0820848684607
-0.0255482853883
-0.0905293563299
-0.0814094534506
0.040605310026
-0.0639636731155
0.0633414477463
-0.0132291978342
-0.0958753453868
0.0617257718602
0.00601066816287
0.0381935465272
0.0230221662239
0.0468938038586
-0.0104319336578
0.0252300900694
0.0711486604965
0.0591701706521
0.110558756024
-0.06438607708
0.0798149560109
-0.0424173380296
-0.0891821040895
0.0237627017345
-0.0147587685337
0.0791222692235
-0.0141936234291
0.0416051613453
-0.0156267577843
-0.00692859382231
0.00633535009219
0.0870179775409
-0.0567482409897
0.0585363931924
0.0140259561695
-0.0877636438764
0.00651042552143
-0.0208569236038
-0.0530461251775
0.0865928337268
0.0363629294447
0.0779761745771
-0.0625964725656
-0.0905337531006
0.0540687199781
-0.0652675648086
-0.0195299843785
0.0545205291441
0.0278257797264
-0.0162004657723
0.0662512019753
-0.0335741222687
-0.06055034996
-0.0867099781123
-0.0567545417154
-0.0214408722362
-0.0505508191626
-0.0782434376471
0.118119890335
0.082142425114
-0.0803082201578
0.0393974494328
-0.00233271703817
-0.0282337458564
0.075641997641
0.0700972036449
0.045883856927
0.00986788779922
-0.0217524293098
-0.0682281671791
-0.0606224658148
0.00687515380395
-0.00881801490444
-0.0182286206815
0.0177855954464
0.0735000052335
0.0974087225601
0.0357335429603
-0.0330666128964
0.114729043413
-0.00118995142124
0.0366936238914
0.0280496971261
-0.0569778384898
0.0871681155497
-0.0805526850217
-0.0441591597376
-0.0639717104699
0.0904073671949
0.0297265046458
-0.0188208405439
0.0449749072299
-0.0635156084765
0.0641405411472
-0.0715045115549
0.0717733566029
-0.0857233095155
-0.00818661848018
0.0134678042195
-0.0080041836886
0.0108470980283
0.0601948415423
-0.0044519702918
-0.0226924819121
0.0890476935759
0.0160228146501
-0.0233077476886
-0.0603407871171
-0.0420541450006
0.0688279500247
-0.0727691331163
0.0981066339533
0.0696487016575
0.118485292765
0.0313571148162
-0.0452534691728
-0.0741255174817
-0.0255537837325
-0.0218177968508
0.0743646380452
-0.0400113322257
-0.0860514177679
-0.0322663930461
-0.0525311535759
0.0258924523926
0.0763963448327
-0.0431200894711
-0.051513589479
-0.0209919444648
0.0951800758544
0.0337176547099
-0.0394062900077
0.0393200397573
-0.0214012308441
-0.00447275226644
0.00026326189719
-0.0941423865613
-0.0133061559803
-0.0116540470485
-0.0547163472373
-0.0089871593325
-0.0272332567177
-0.0165783177015
0.00299347368221
-0.0405168604738
-0.000946077814396
-0.00502821199993
0.0326510935273
-0.0775113988611
0.0218323717336
-0.0653516965702
-0.0324557354417
0.0393893626197
0.093315061228
0.0755636994203
-0.0168641742926
0.0187184780584
-0.043842303816
0.0888254238072
0.0124961577911
-0.0711037593226
0.00953957781219
0.0260134521936
0.0854240001239
0.0612220170763
0.083437264157
0.0900182828745
0.0576823749535
0.0806838958888
0.0759101927656
0.0968640772757
-0.067815422784
-0.0592496390029
-0.0130805896851
0.050352087632
-0.0425127559047
0.120875011457
0.0492487680402
-0.0469661245578
0.0522884470466
-0.0866349887118
-0.0776498514957
0.0433054879592
0.0345652912928
-0.0386943295888
-0.0865409754041
0.0920213892026
0.118102471039
0.0822841667125
-0.0221334477955
0.0482773083078
-0.062842560818
0.0410893065254
0.0342787648107
-0.0432346953101
-0.0208279183072
-0.0148963988941
-0.0325548383175
0.0215320047948
-0.0835655855797
-0.0654467250601
0.0873313195275
-0.0701102984287
-0.0177148672778
0.0134443391524
0.012902978566
0.0613542325471
0.0440194818029
0.116820207426
0.0772760609816
-0.00209153789351
0.078103329271
-0.0815615078042
-0.0258316713264
-0.0276915180641
0.0732031812883
0.033262663622
-0.049161972778
0.0129698059338
-0.0103531876685
0.0825364084438
0.0124635587255
-0.0586574367121
0.0673552323156
-0.00384643919847
0.0352286062986
-0.0478643207119
-0.0582315794922
0.0426333455422
-0.064951988851
0.0583635712727
0.0307446446509
0.0175667913153
-0.0872631524527
0.0129753836497
-0.0662770514412
0.0312884404998
-0.00844892607092
-0.0195924827284
-0.00149436136796
0.0904742024802
-0.0382297792633
-0.0933795327008
0.0771483806376
0.0801192523116
-0.0533761332105
-0.0862266125316
0.040591856039
0.0692308553174
0.0666866399112
0.00777028323539
0.0357251188815
0.00026789142914
-0.00537558680887
0.0103434312666
0.0820616876052
-0.0379008441948
-0.0660246020034
0.0360628147011
0.0913093481936
-0.0533247306507
0.046235033148
-0.00589744864195
0.0901787738053
0.0819532358387
0.0378524799036
-0.02748978717
0.00775083369768
-0.0174833223261
0.0454380054123
-0.0334719102021
-0.0381012397499
-0.0925217043259
-0.0465951287986
-0.0389384042616
-0.0813247716368
-0.073138690681
-0.0934710625371
0.0315290148184
-0.0813028798264
-0.0856135919461
0.0631605431131
-0.0460381307572
0.0727434883614
-0.0389067409295
0.0652098862751
-0.00458319253515
0.0218324013708
-0.0259213792822
-0.0529058886769
-0.0010294069879
0.0891280713883
0.0763601361923
-0.0905899132941
0.00800367963922
-0.0290749057336
-0.0612601560585
0.0661606664271
-0.0109303581348
0.0730357287202
0.024762925884
-0.0253477153937
0.032705726303
-0.0103319261125
-0.0401227737372
-0.092181011527
-0.0129464255816
-0.0300239102889
-0.063187010987
-0.0327551327671
0.0528122969658
0.0222248658072
0.0269330410504
0.0501221504234
0.00456871178624
0.000267016387838
0.0268001846016
-0.00626137452134
-0.0613026279858
-0.0888750557578
0.0217418674421
0.00145095757955
-0.0714725562141
0.0601555176954
-0.0626383309393
-0.0242042802593
0.0816589895044
-0.0214567541303
0.065955781224
0.0542926292994
0.0752275935403
-0.0483815445299
0.0104560247857
-0.0510435359679
-0.0476810604188
0.0775162349517
-0.0305674751116
-0.0826347059866
0.0640549016002
-0.0865474663218
-0.0605070673588
0.0364683211092
-0.0492733966397
-0.0306076101707
-0.0216513133492
-0.0506686792516
0.0464308518645
-0.0140033031227
0.0684241317045
0.0456604083894
-0.0567847188884
0.0550762999946
0.0958501967348
0.0265641751278
-0.0532778933001
0.0716688187584
-0.0334952423309
-0.0403526727297
-0.0468771871734
-0.0930575791947
-0.0777172084554
-0.000926213180598
0.0093778899339
-0.0781864408896
0.0164174469908
-0.0803826766815
0.0880995953603
0.0400524944874
0.077841399117
-0.0904769419618
0.0559938370579
0.0727575252395
0.0312731229894
-0.0380295212541
0.0992716477759
0.0204111472193
-0.0135874481279
-0.0623396115277
0.0477362387399
0.0932142590073
0.0875015787922
0.0467622048085
-0.0699738702612
-0.0201181284392
-0.010800177346
0.0141891145151
0.0821491958435
-0.0115483649986
-0.0871508802697
-0.0719144953904
0.00139566642701
-0.0293200932606
-0.0530111734987
0.0831659004099
-0.0609419179186
-0.0656936994067
-0.097661408998
0.0618903437252
-0.0932662119655
0.0506123519906
0.0651896228994
0.0647895213493
0.0446338371701
-0.0103694323444
0.0490957121342
0.0086539033027
0.0999799178607
-0.0493291990591
-0.0894249722222
-0.00661557205856
0.0720620875173
-0.069568630873
-0.0130349722216
-0.0775862674526
0.0491450867843
-0.0795621594413
0.025048878067
-0.0652759548057
-0.0769383202531
-0.0535868357745
0.0128580414816
-0.0933152489121
-0.0562436864228
0.0589440479942
-0.0850250257154
-0.0515160102472
0.0786778753998
0.01359554185
-0.0462487812891
0.0727906250849
-0.044762948902
0.044506065386
-0.0784602227471
-0.093574466347
-0.0664345647303
0.0175531201012
0.00491073049635
-0.0409583640341
-0.0180953726645
0.0307231714243
0.0865876754318
-0.0641718996009
-0.0186800709535
0.0873054882188
-0.0154060678929
-0.0702875974721
0.0441681739396
-0.00428836759299
0.0287857711781
-0.0682211339356
0.00464686629742
-0.0937813450068
-0.00860732057738
0.0418889234797
-0.0274471273579
0.054960357525
0.0416045751609
-0.0673964345043
-0.0578091760594
0.0460086433328
-0.0241235731338
-0.0447483622909
0.0803980827349
-0.027492582074
-0.0398349583326
0.0972993721319
0.0828659929629
0.000809482897405
-0.0215512401324
0.0238326434163
-0.0377279170494
0.00466737938657
0.0666411233337
-0.0441439779239
-0.0564510505456
-0.029009367821
-0.0543576501348
-0.00332215442239
-0.073980790813
-0.0929520076024
0.00555867770376
0.0213944845863
-0.0368818279913
-0.04972374646
-0.0522703396019
-0.0179699613401
-0.0360270617406
-0.117609327381
-0.130979604727
-0.0304322705639
0.0208664958141
0.107879415736
-0.0171893006834
0.0668857945266
0.0169386413766
0.0112558577901
0.0226739727512
0.0358056807624
0.0217814072063
-0.0183715352761
-0.0106454495886
0.0501390235631
0.0985260374741
-0.00574470600259
-0.0598250604441
0.0708958891549
-0.0152610416352
-0.0804324397217
0.0765836232208
0.0415489858382
0.127006325168
-0.0426205550791
0.0176901651771
-0.0710147373518
-0.00777583326019
-0.0180501548894
0.0227371790131
0.0560568136242
0.0557766262077
-0.01470266937
0.0544225450523
0.0622835004559
-0.0713545087524
0.0261722699509
-0.0588410315904
-0.0478713762508
-0.101536116597
-0.113434207305
0.0335598395652
-0.0695420922856
0.0396254713757
-0.0451950059626
-0.0398243053297
0.0925643867191
0.11199275702
0.0582578301026
0.10170080009
0.00619523349073
-0.0526299280661
-0.0998074250417
-0.0435135071519
-0.0842314253926
0.0804745793568
-0.00517908774245
0.0142269234053
-0.0768411514384
-0.0043431980684
-0.0126180121051
0.0425521243986
-0.0322048771058
0.0816983463565
0.0500274682023
0.00231859897386
0.0887242539639
0.0732008751634
0.064935360363
0.0696484352297
0.020949900197
0.0718825501415
-0.0618799643421
-0.0739770491377
0.0247588007457
-0.0914437418408
0.0443271441056
-0.0583702676048
0.088501089404
-0.0728089056455
-0.11625022263
-0.0863390985609
-0.0223062541481
-0.115798672419
0.0235197390059
-0.0676896006383
-0.0174168679179
-0.0226299947023
0.0195846950678
0.0390443414707
-0.0589111405036
-0.0441545014507
0.0375906761289
-0.0399029728212
0.0201580700768
-0.0480003267699
0.0677813149885
0.0709763298865
0.0990299113976
0.0278314493896
-0.0124817230479
-0.0211242671303
0.0458684661779
-0.106746354382
0.078997590876
-0.0389955348585
-0.0872336710133
0.0467622644691
-0.0926932140471
-0.0541608005498
-0.104112013025
-0.101967407951
-0.0439125749231
-0.103729668762
0.0249041887111
0.0833037158442
-0.0278567931885
-0.0903545872446
0.0360493496969
-0.0547306207666
0.0237572279459
-0.0721748734545
0.00424672409562
0.0423980088317
0.0108291333786
0.0696291209713
0.0453501878395
-0.0172757601429
0.057705440484
-0.121166163129
0.0545386417311
0.00706129910821
-0.0568993658211
-0.0107817841989
-0.0811626168473
0.0721475630597
0.00421077644518
-0.0278662218751
-0.0145770516016
0.0599131879004
0.0599653180374
-0.0493107223284
-0.0735999739567
0.0304685693181
-0.0498387397695
-0.000969508379665
0.0286252887125
-0.0820260574205
0.054693380678
-0.0782875685528
-0.0481999618259
-0.0915696505261
-0.0578021740678
-0.0832212463911
-0.00556596402665
0.0425830463835
0.0589651266716
-0.0414445424444
-0.0310886483925
-0.0763665075252
-0.0509053558395
0.0424706479298
0.0878165366187
-0.0754002043389
-0.036243849196
-0.0408770983727
0.0131918271669
-0.028016722859
-0.0282774596515
0.0125074662239
0.0580486031074
-0.0830740008721
-0.0856736477071
0.0572191925262
-0.00291958726449
-0.0446433320846
0.00981951098655
0.0133850171663
-0.0813387027071
-0.040917514412
-0.0889410655608
-0.0559647536149
0.0549830389235
0.064742384066
-0.0722768613842
-0.0952871642235
0.074220986006
0.00841018891445
-0.0251225738908
-0.000361330477663
0.0864962666557
0.0416401425957
0.0293935676038
0.0597546075902
0.0636372781969
0.0818528790435
-0.0646882136575
0.0646860387211
0.0257474033213
0.00124743565909
0.0212158782147
0.0415800254874
-0.0038334473177
-0.00532713064696
-0.0117814796642
-0.00448558354947
-0.0262133192909
-0.0342783917855
0.0245876560984
0.0721933239448
0.0811460667123
0.0822840081072
-0.0790282169742
0.0132640397594
-0.08341105762
0.0447901747523
-0.0653935876123
-0.0902558388509
-0.00268704026094
0.0796712764323
-0.0507072398568
-0.059150761638
0.0572102579369
0.0673092821931
-0.00593456775869
0.00325154138817
-0.0742138228124
-0.0331976302133
0.0441736025327
0.065675131968
-0.0604929085667
-0.0546742803001
0.0369008156351
-0.0274464590976
-0.0814905818218
0.0855334114044
0.00944265235021
-0.0892015161831
-0.0232289354733
0.00828172348845
-0.0666491533375
0.0247988757716
-0.0850974429686
0.0234940084251
-0.0882598421441
-0.0754720420071
0.0295150354132
-0.0649057523114
0.0881971677482
-0.0343329315235
-0.0162252977768
-0.0307405981367
0.0332786444822
-0.00987838480251
0.0613390345402
0.0416430631162
-0.0856200438293
0.0246999889721
-0.00282477698856
0.00382240170746
-0.00581178535517
0.0938678024082
0.080384850053
-0.0400424171358
0.0881515797159
0.0909350134443
-0.0400101460698
0.0517295925228
-0.0252824578648
0.0881047221523
-0.0336339637145
0.0770845098731
-0.0971183565909
-0.063973645283
0.079967554284
-0.00892347443786
-0.0410377188929
-0.0473433805123
0.0891018942632
0.022100332131
-0.0177314280995
0.0354323007526
-0.0942260857427
0.073620230272
-0.0367529082161
-0.0120378696251
-0.0444655633177
0.0879139358063
0.0898247901372
-0.0523293163747
0.0892550972271
-0.0569693578981
-0.0520882788615
-0.0638822224758
0.00834444730633
0.0752565757921
0.0274673870637
0.0223051542819
-0.0949259350306
-0.053739157503
0.0743415431939
-0.0727357003623
0.050599660161
-0.0685055963066
-0.0201794758348
-0.0242723504291
0.0795974090841
0.100842019459
-0.00382598739297
0.060447225306
-0.0664814789988
0.0525436001907
0.0796514666587
0.0447876384884
-0.0575885425358
-0.0540736590802
0.0138459563713
0.0851538717755
0.00263784729122
-0.0455388140504
0.0235259350236
-0.0596625940724
-0.0700951217266
-0.0894727673007
0.0440696236347
0.101137329899
0.0665229705624
0.0540997754975
-0.0488433862389
-0.0375516791192
0.000401420479391
0.0988797183575
0.0118482752561
-0.0501296441734
-0.0310009925739
-0.0326594409338
-0.0632066769695
-0.0469736086868
0.0489668675041
0.0238156020404
0.0926003654626
0.0864378933907
-0.0427739729219
0.0677431969715
0.0795386453925
-0.0272589869507
0.0699605948646
0.0123004410218
-0.0537347903265
-0.0172015472323
-0.0362971204723
0.0575523052994
0.032499172928
0.0688675227651
0.0364541868873
0.00722480230509
-0.00275631194362
0.0211427708208
0.0823343119787
-0.0869546994129
0.081630797522
0.0331185288441
-0.0227480131542
0.0947967499763
-0.0340940688744
-0.00741349270658
0.0853623147065
-0.0275416531771
-0.0469775549101
0.0361241031293
-0.0686670070962
-0.00836214107529
0.0799117697403
-0.0609557762098
-0.0188321277012
0.0366107416713
-0.0729744062098
-0.000724911128479
-0.0563165073886
0.0125250046497
0.038082020723
0.00655287071062
-0.0164518822031
-0.00715231202172
-0.051311662896
-0.0343917548533
-0.00177341017177
0.0367575552029
-0.0213491303678
-0.0337562295919
0.0453519980182
0.0387750839637
0.0222299438096
-0.0216941499923
-0.0581193747978
-0.084365282701
-0.0779570130121
-0.0140300183873
0.0245368098518
0.0376016286968
-0.0499858888328
0.109942199099
-0.0230883668999
0.0165805880114
-0.0970544759115
0.0323956852117
-0.0669229283057
0.0212364521402
0.0196377017783
0.0674357330285
-0.0277998333206
0.0534135356153
0.0294339823367
0.0648441812832
-0.0671182484449
-0.0459679971227
-0.0205999283474
0.039567459064
0.029034827182
-0.00932544797359
0.0893444682786
0.00121541859936
-0.0958226126739
0.0747921905412
-0.0335658396818
0.0932324496259
0.0143070978487
0.079386897204
0.0233794330984
-0.0678061965094
-0.0175188288772
0.0721515248041
-0.025376825463
-0.0654261881353
0.0647468327748
-0.0938958298288
0.0507628926813
0.0719198353251
0.0227326998733
0.0765878879494
-0.0621744133638
0.059573326531
-0.0838734467796
-0.0181676599034
0.0955844288083
0.0876320453444
0.0561493347399
1.81228834604e-05
-0.077350271026
-0.0266528063735
-0.0828792410609
0.0861973080977
0.0540194828855
-0.00559249521679
-0.00150702422771
-0.067800597909
0.0564379676723
0.0489167179526
0.0341811198104
0.0712534277568
0.0413902310392
0.0789829378161
0.0146605705619
-0.0915930224293
0.0632064399783
-0.00696133899429
0.0512363211239
-0.0380400320211
-0.0658613753654
-0.0391870902927
0.0747037586161
0.0441102874241
0.0226139595469
-0.00292123592843
0.0393167472426
0.0684661532118
-0.083274163948
0.0477460704495
-0.0346513399471
0.0111957160383
-0.0438732944458
-0.0735924160436
-0.111387154219
0.0458310165852
-0.0574595392742
-0.0795346640488
-0.0744205165866
-0.0524721289988
-0.0439914970242
-0.00685021313324
0.072870886299
-0.0417143313659
0.0900370082756
-0.019355732855
-0.0708041691725
-0.0357934426175
-0.0790305456852
-0.085320369599
-0.0767431730175
0.0445983402879
0.0284638584319
0.069043491963
-0.109824996583
-0.106596653678
0.0861938775485
-0.0722278162141
-0.0210949251037
-0.0359723728882
0.101970996981
-0.0112795104794
0.00948702333097
-0.084350370871
0.0776420797071
0.0878955687892
-0.0646260517113
0.0902301900718
-0.0264296539013
-0.0732108197994
0.038529070648
0.078854104786
0.033091879063
-0.0430795841688
0.0395711312381
-0.0182430787734
-0.0819664508163
0.0657017029809
0.0811442167188
-0.0147976117451
0.0976894046905
0.10130359298
0.0619409970855
-0.0378389608532
0.0849406739593
-0.00830299079843
-0.0592269203207
0.0326987051886
-0.0260300402958
-0.0202773698489
-0.00426767898982
9.61903016168e-05
0.0880564979012
0.051251051537
-0.0551108613681
-0.0549807762228
0.0513684549785
-0.000577795289743
0.0610613063935
-0.0106147055844
0.0396465108554
0.0792115948546
0.0994723612067
0.0457347329971
-0.0316468845724
0.0137137977013
-0.0386882575271
-0.0504712815097
-0.0360208335083
0.0725298852159
0.0674103978813
0.0631792948295
0.0766301092043
0.0171655068852
-0.0457222228685
-0.0318146846791
0.0866191019528
0.0255652240195
-0.04377327068
0.101034351687
-0.0436942687074
0.0547883790279
0.0378214905119
0.0145582256597
-0.0439891339217
0.046389072923
0.0762839157896
0.0443275339954
-0.0670985350662
0.0676142863841
-0.0851667703201
0.0643198547416
0.0432668885326
0.0528092352116
0.0136034146857
0.071413220085
0.0113603883809
-0.0740766331489
-0.0357514685425
-0.0664548512757
0.041174687002
0.0637749430618
-0.0352408021232
0.0550768689231
0.069551050467
-0.0202775267131
-0.0609284851857
0.080752709456
0.0203279075777
-0.0673141532434
-0.00378812424222
0.0310468042534
0.0945163223957
0.07783896305
-0.0752833831674
-0.090374017356
0.00852804597288
-0.0595248784579
0.0799326791939
0.0607770606093
0.00890544133676
0.0725240026989
0.0524574820195
-0.0605973430204
-0.0957375998325
0.0777567801874
0.00828258289201
-0.06088944547
-0.0877432273127
0.0812225041985
-0.0262988266945
0.0673276261806
-0.0428194964158
0.0834423043893
-0.0887622707782
0.0915208806193
0.0532119622509
0.0365551212887
-0.0074887520863
-0.0173280134745
0.0830486180661
0.0254009495569
-0.0486091170434
0.017137118468
0.0769752784587
-0.0273614713374
-0.0302526119005
0.0378943977874
-0.0601475104482
0.0712812339869
-0.0749428555103
-0.0568344421307
-0.00249469529473
-0.0459171188915
0.0534190966825
0.0773991589864
0.0724866752334
0.0418602429185
0.0207623077766
0.040729715316
0.0147188332341
0.0762769383648
-0.0639077626504
0.015925139808
-0.0442466119884
0.0274225665373
-0.0922329076156
-0.0184725511832
0.0933121203827
0.0460709073469
-0.0476531521862
-0.00905390900804
-0.0708615617315
-0.0729778538069
0.0527399614551
-0.021190416996
-0.0246470392304
0.0585434274289
0.0778059522369
-0.0781773263885
-0.0879003690391
-0.0765287913343
-0.0533738134895
-0.0623079428548
0.0302129759426
-0.0427481611264
-0.0869393981988
-0.0528800033804
0.0242122604335
-0.0221718690331
0.00021506352054
-0.0537391950871
-0.0748678516825
0.0759737795622
-0.0356927093689
0.0599697415468
