-0.570048586809
1.33055671479
1.10174750836
0.103394079275
1.56951546636
0.193229152447
0.10610048178
2.32896571578
0.968529527179
0.0553966685185
-0.220437411244
-0.165679642216
-0.177972128499
-0.182331622728
-0.160190301561
-0.165519401237
-0.192400773813
-0.192748684763
-0.190827163345
-0.181250102153
-0.187272026665
-0.183503631814
-0.18252959875
-0.168835247926
-0.171996064113
-0.175455389954
-0.176863782744
-0.176027573784
-0.167068624645
-0.181813891132
-0.167115784893
-0.193413911992
-0.161817799648
-0.189814480125
-0.185354677085
-0.171214274159
-0.197877288583
-0.176366235863
-0.171223164005
-0.175701541471
-0.175070016268
-0.187448474427
-0.178517997035
-0.176249726864
-0.187136725919
-0.175816275069
-0.19062747566
-0.172008457303
-0.176186770202
-0.177702588022
-0.0100704123567
-0.0496821441843
-0.0407000030135
0.0483256601278
0.00672291196469
-0.0510822443247
-0.0458633708824
0.0432681495334
-0.0195532348951
-0.0342490743712
0.0219271378407
-0.0367275859498
-0.0355390940722
0.0385779809942
-0.016773511816
-0.00841673748234
-0.0408390245788
0.0464448652085
0.0435595823805
-0.00583458474383
0.00714071811482
-0.0496409938836
-0.0110128244867
-0.0282626817793
0.00792295788854
-0.0297792181173
0.00726823515276
0.0400211316099
-0.0043606584694
0.00727597860089
-0.0228811892168
0.0314254130151
0.0401354615493
-0.0210007147747
-0.0460769143416
-0.0241195736353
-0.0310300983409
0.0372340418714
-0.0111917427262
0.0150235848006
-0.0386307315505
0.00418982425652
0.0375339720534
-0.00428462855702
-0.0438439915174
-0.0398689622106
0.0218591147021
-0.0155626026205
0.00556479978615
0.0444114513137
-0.00763892902843
-0.0134271939299
-0.0470596492189
-0.0329664478966
-0.033293339549
-0.000601955153672
-0.0383775841103
0.0158667766259
0.00589672874827
-0.0112357259846
0.00683119679564
-0.0300098745036
0.0223127670261
-0.0150701683066
0.0474310052225
0.0481349511578
-0.0275256759983
0.0362847574771
-0.00260855986139
0.0141311032335
-0.0152215324484
0.016199554885
-0.0127833900492
-0.0219160520276
-0.0431295528157
0.0227065361137
0.0251897867919
0.0169462760568
-0.0407566922324
-0.00116689791693
-0.0411755997325
-0.0247515827961
-0.00230293797098
0.0395649683531
0.0355605772764
0.00948526294384
0.0185371020177
-0.0243119730654
-0.0130164730885
0.0310757848366
0.0120441178729
0.0488494599979
-0.00302264936954
0.0108694432777
-0.0511990583034
-0.039943100512
0.000129387512084
0.0071347655668
0.0444308812938
0.0407694378391
0.0498233000018
-0.0575563614058
-0.026491791254
-0.021852149515
-0.0285939164688
-0.0357354091115
-0.0400120112683
0.00768602356565
0.0317632003846
0.0489716146145
-0.032791981372
-0.0188112450004
0.0465194858065
-0.0459952558247
-0.0472363300953
-0.049355128295
0.0285007124127
0.0480296670786
-0.0192653994266
0.0395308875463
0.0100738395233
-0.0389616020789
-0.0487089853454
-0.0435908416528
-0.00232414875865
0.0072964900457
-0.0158325634363
0.0404209859297
0.0437828994355
0.0115227769699
0.0496863677809
-0.0192070462814
-0.0473385497547
0.00602981256464
0.0447740984206
-0.00391317214005
-0.0352049200683
-0.00888010214285
0.00531581757921
-0.0423736632443
-0.0462892393967
-0.00551450161041
0.0437436783424
-0.0500550932716
0.00630362698119
0.0455355510352
-0.0254861066864
0.00769359511444
-0.0465751620501
-0.0301554381185
0.0417845024052
0.012714866892
-0.00054717762312
-0.000781503630772
-0.0106227097605
0.00142059970014
-0.0185698278457
0.0370849737356
0.0229844581509
0.02605719643
0.0190752531729
-0.0279313529938
0.030329131429
-0.0231196242493
-0.0125929247705
-0.0129622706906
0.0315936173367
0.0138833284834
0.0437475828919
0.0472356936921
-0.0376291909774
0.0177214234888
0.00385824510412
-0.0304710644586
-0.0285220488635
0.0235292148068
-0.00866200098542
-0.0239574306052
0.0260782862867
-0.0130550511923
-0.0285925313504
-0.0517457223834
-0.0291204024102
0.0134878539141
-0.0449987067277
-0.0392652629221
-0.0146605957346
0.0394094572417
-0.04313689632
0.0470270676878
0.0232189043965
-0.00580386065868
-0.0505576552416
0.0320166290925
-0.00239538701923
-0.0317633115461
0.014908748535
-0.00436255976276
0.0117323562291
0.0294221241772
-0.0161718812381
-0.0213439767514
0.0850200551169
-0.0307221808796
0.0211991404141
-0.0430266921423
-0.00147892677147
-0.0185966411312
-0.018779930608
0.0211264891603
-0.0301209985759
0.0125744591095
0.011758753226
-0.0237404284363
-0.0332867770912
-0.0199960260276
-0.0415128384998
-0.0488247833509
-0.0178853132219
-0.00531157501377
-0.0090459377336
0.00353635549324
0.0342462222295
-0.0172786578718
-0.0186242257542
0.022275417617
0.00708171475735
-0.0177613258843
-0.0316164355322
-0.0489080635018
-0.0376609852608
-0.0414560574972
-0.0444801323552
-0.0526416395844
0.00341144831578
-0.0220309161622
-0.0306857682796
-0.0311353726718
0.0255098063996
0.0425460112849
-0.0445639000461
-0.0464211926981
0.0025622139985
0.0236134640932
-0.035359839643
-0.00718239987825
-0.00133151760866
-0.0405638582356
0.0156535085916
0.0365576964103
-0.012385967888
-0.0412319497965
-0.0336003817552
0.04190607621
-0.0389642431505
-0.0311101560595
0.030339076233
0.00592884729098
0.0233464860106
0.040775544188
-0.042750321828
0.0153675191631
0.050382955505
-0.0454372528082
0.0074623934571
0.043457037321
0.0449621555892
-0.0186815021713
-0.0261910657584
0.013944283509
0.0318262620701
-0.00925479140329
-0.00528726349835
-0.0211415729438
0.000218378150358
0.015746372055
-0.0295000692515
-0.025483942039
0.0463370359962
-0.0305824677438
-0.0265482589695
0.0461936687952
-0.0495704099867
-0.0452018690386
-0.0329253045326
0.0390476510111
0.0431406147865
0.0410798453139
-0.0349284839647
-0.00698831169913
0.0376943269156
0.0364814570872
-0.0274348123233
0.0132326515964
-0.0444526595422
-0.000419857585796
-0.0239348035531
0.0461351408896
-0.0375989749538
-0.025310277595
0.0299624872635
-0.0610774985758
-0.0256994949819
-0.00290460685734
-0.0150403311424
-0.0283048189702
-0.00610840348103
-0.0307030541561
-0.0486327188241
0.04270070076
0.0521824761733
0.0046586662718
0.0348021796899
0.0167010538388
-0.0207428442098
-0.0184786180913
0.0212974557893
0.0355302649795
-0.0385942339235
-0.0453305258162
-0.0438568304315
-0.0274282392307
-0.0273983030464
-0.0135645141944
0.00630771789948
0.00490260987543
0.0105545988379
0.0301941366045
0.0272472519052
-0.0205552364029
0.0318949868533
-0.00747058989404
0.0504453552177
-0.0388458910748
-0.0224054101232
0.0462630049665
-0.00807519086117
0.0295028808882
-0.0224881352147
-0.0248933709471
0.00386425550661
0.020912398245
0.00592650132267
0.0525770821659
0.0340049777517
0.0310833197602
0.0343280666702
-0.0353369790488
0.0190632516933
0.0436432577703
0.0512711679601
0.0259594970439
0.0260591494792
0.0129040214443
0.0329615743257
0.0216827745015
0.0394075030925
-0.0458814804803
0.0328315606384
0.0323058454484
0.00503574129502
-0.0465186483895
0.00614790129849
0.0197238511114
0.0182010642752
-0.0310027430968
-0.00588847779889
0.027594750171
0.0115685517232
-0.0376073185319
0.0505340290768
0.0489396868607
-0.0249457541893
0.0196309473487
-0.00991326266181
-0.0468562153554
0.0117388484024
0.00401174185937
-0.0447690963896
0.0373177437037
-0.0214156873969
0.0102127585774
0.0178331434205
-0.000259818574499
0.0470262644451
-0.0100198881064
0.011148233696
-0.016823295367
-0.0474090177776
0.0496833973804
0.00571509636355
-0.0274370402862
0.0439644304185
0.0418768530556
0.0191863659398
0.00874333486809
0.0306186292462
-0.0304560917812
0.0449992420917
-0.0494804821505
0.0130506521207
0.0347225385046
0.0294927932828
-0.0410587566081
0.00871897200079
-0.0416382152124
-0.0463608219805
0.0346759817188
-0.0113681352552
-0.00697601953323
-0.0229094773905
0.00790471449791
0.0463146921654
-0.0324601071422
0.00925800736937
-0.0492809272227
-0.0360932532141
-0.0423900502518
-0.0205797937645
-0.0133586382614
-0.0120028552092
-0.00644363282509
-0.00899520978528
0.00442419359676
-0.0501628334248
-0.0339700012198
-0.00213075586696
0.00277022433852
0.00423001586196
0.0435362817468
-0.035114891296
0.036057031274
0.000673175327781
0.000204250409576
-0.0184824934864
-0.0314754151989
0.00222832488802
0.0126828888431
-0.032161170703
0.038516386618
-0.0318877510101
-0.0458807207725
0.0158270542007
-0.0102226030272
-0.024687059321
-0.00647169354484
-0.00704680894862
0.00709722403598
0.0216046118081
0.010836583954
0.0285776862463
-0.0424025665064
-0.021894559273
0.0547299129344
-0.00606319473824
0.0300843749229
0.017948229213
-0.00431937913148
0.0453254771434
-0.0203805042328
0.00383593007464
0.00193935797203
-0.00849856853763
0.0068513722247
0.0386225897075
-0.0405685188614
-0.0362936282905
-0.0462270059116
-0.0151836540637
-0.0291221290831
-0.0278017700315
0.0142343738762
-0.0387959731649
0.0494142485978
0.0478958587976
0.0104077881108
0.0185701930725
0.0215965866726
0.0447281726687
0.00141595746156
0.0358918163296
0.0251148407402
-0.0324327068852
0.0296312417734
-0.0137783638341
-0.0456514862403
-0.0127845210996
-0.0322291507338
-0.0302486773162
-0.0227410767964
0.008189865434
0.0367401958168
0.043072089049
0.011572158861
-0.0356862759799
-0.00320684805219
-0.01885430068
-0.0468796386536
-0.00741308520336
0.0395077801582
-0.0404829880414
0.00899194590049
-0.0223251031513
0.0774812180415
0.00379305438265
-0.0115497663979
-0.014507159738
-0.00985164930043
-0.0248185023993
0.0173826545378
-0.0473959929837
-0.00450372580466
-0.0207712380299
-0.00331259566697
-0.0280098302805
0.0230173344351
-0.0272548648299
-0.0304551368697
-0.0440825124252
0.00201553555003
-0.0240513912046
-0.0138893391778
0.00442614318977
-0.0392517257438
-0.0091161816228
-0.0166123041491
0.0298395619203
-0.0140081442915
0.0278212782337
0.0253060366652
-0.0441974053508
0.0249594795476
-0.0373702706979
-0.0182176454339
0.0317087984367
0.044614171926
0.00898811107156
0.0156094495612
0.0246329981865
0.0252549445381
0.0134649508235
-0.000445660173354
-0.0131200414977
-0.0268362035468
-0.0304338258703
0.00017241522588
0.047641963262
0.0430983264262
0.0502964030287
0.014529450805
0.040460080114
-0.00024924595351
-0.0758206774313
-0.0526974748731
0.00559067065693
-0.0202186645311
0.0497374710199
0.0534313795175
0.0649378275071
-0.0459990022022
0.019541891293
-0.0192492173579
0.00374882435716
-0.0451372687396
-0.0397770082818
-0.0175933255459
0.0475510612224
0.0376995425365
-0.0245629821606
-0.0161563469841
-0.0533542030279
-0.00147820289155
0.0474372627838
-0.00334983223422
-0.0303433862971
0.0199044398644
0.0197554400626
-0.0307471451396
0.00025608948357
-0.0178611608401
0.0304451249487
0.016781184235
-0.00721689606689
0.000116757602304
0.0128320703144
0.00941419090482
-0.0164629588827
-0.00587556340237
-0.0314435022078
-0.0276490255283
-0.0100899130728
0.034302840504
-0.031002019653
0.00808295904124
-0.00497449002058
0.00867668576255
-0.010210766413
-0.0063963390103
-0.0162958265236
-0.0473216700483
-0.0600671603312
0.0540593740202
-0.0102257313726
0.0212018258576
0.00630930812676
-0.035584205812
0.0303190281628
-0.00980697963116
-0.0605279898742
0.0237445279308
-0.0195730123711
0.00294824157744
0.0445170398536
0.0182102742403
-0.0378168161292
0.040252388337
0.0106728179912
0.011469274693
0.0382247110673
-0.00647894033605
0.0127792872417
-0.0221638663933
0.00277419937126
0.0337211289607
-0.0149285020254
0.012027552932
-0.0407924224218
-0.00226056473809
-0.00608380516092
-0.0273338657882
-0.044882399858
-0.0526570866696
0.0197314245611
0.0287284652811
0.0144720887866
0.0223202116189
0.00749935062025
-0.0152279702951
0.0160141585055
-0.0363147838286
0.0355858911806
-0.045943304333
0.0446975553493
-0.00465530470332
-0.0127103559502
-0.0046209822773
0.0440026330244
0.0100727866343
0.0472219565204
0.0413251268538
-0.00077465515887
0.0673406699189
0.0452735760855
0.0265197783077
-0.0862824927698
-0.0218310303261
-0.0421422249187
0.00893325301314
0.00310264605253
0.0320056542421
-0.0152286567206
-0.0309222919534
0.0424523319802
0.0362807920629
0.043856479058
-0.0384784563794
-0.0489390327659
-0.00958080021586
-0.0253496647389
0.0440350743513
-0.0403840087338
0.00999564101747
-0.00449066785335
-0.0424418171122
0.0473773055935
0.0258962292011
0.000221311129933
-0.0337368907386
-0.021679673543
0.0241762985545
0.00389004640201
0.0292073667509
0.0199887029453
0.0212183058207
-0.0257358900162
-0.0416351732774
0.0358625856167
-0.00153281746847
-0.0251364999202
-0.0157551560849
0.0297169920193
-0.0153421143796
-0.00402523384303
0.0114538786054
-0.0292879339161
0.0346739794737
0.0228763907671
-0.0026460481752
-0.0311248310167
-0.0276308184933
0.0115668579311
0.0421602027354
-0.0244618740706
-0.0136947428224
-0.0205118057242
0.0548313739178
0.0159513806808
0.0662527927743
0.0714086561454
0.049716207388
-0.000868429645485
0.0419004434895
0.0373161915537
0.0207230968512
0.0229986497086
0.0373562289526
0.0469888779226
-3.63092890023e-05
0.0214389224465
0.0361277699686
-0.0128135121681
0.0284292285249
-0.0317674007074
-0.0549527281064
0.0177010513041
-0.0398955937852
0.00274499145369
-0.00746964547665
-0.0299327374971
-0.0276636749376
-0.0128170469126
0.0115135725009
0.0412045464021
-0.0145135161489
0.0258233365021
-0.0489761191622
0.0246301097818
0.0115110113471
0.033179450431
0.034191973313
0.0423529397521
0.0222432724517
0.039971100935
0.042172291764
-0.0104224750425
0.0300076121036
0.0447476567944
-0.0463918323216
-0.0256148981676
0.00362543445798
0.00821478423112
0.0331082101902
-0.0837599394585
-0.0366438932627
0.0202892138428
-0.0116124082722
-0.0451635043386
0.0839233283515
-0.0214434576811
0.0433789567709
0.0302310338107
-0.0145221277154
0.0306272275717
0.0317737975233
0.024236539898
-0.0443912597028
-0.0118268821445
0.0339286483031
-0.0134791553617
-0.0349981258964
0.0459633258224
-0.0188564958282
0.0230057326043
-0.0406688140581
0.043574542911
0.0336704585501
0.0100592811421
0.00788968343658
-0.00677924157124
0.00977768208869
-0.0294323178118
-0.0351404383137
0.00434582752594
-0.00838304886039
0.0410636348449
-0.0257256873437
0.0338522044653
0.0125251409778
-0.0399572088145
-0.0490323892021
-0.00259760945776
-0.0309246047822
-0.048118895061
0.0387477775796
-0.0181268658214
-0.0234008675253
-0.0469695633102
0.0145694140491
0.0266856072445
0.0470278717592
-0.00804768365841
0.0288714581984
-0.0684440113397
-0.0136513307546
-0.00646979803505
0.0336403620928
0.0137880005019
0.0323860356824
0.0520344142027
-0.0190371655314
0.0227557636129
0.0280545927366
-0.0416374567735
0.0469891982113
-0.0511183197017
0.0166810425605
0.0348483079768
0.0423508048952
0.0335041112829
0.0395180580855
0.0316590863716
-0.0452868836156
-0.022478344398
-0.0135486654254
-0.0142978757899
0.0477332921402
0.0453157415187
-0.00700720342868
-0.005526578511
0.0283541295251
-0.00385542647113
-0.0306809213279
0.00366951877409
0.00751823875769
-0.0198075133925
0.0146311385274
0.0204171316704
-0.031270702915
0.0481137718379
-0.00435502249725
0.0399187158342
-0.0408354431811
-0.0127951693396
-0.0238851583438
-0.0131376377208
0.0348700978634
0.00240058864481
-0.0331791231936
-0.0168033171686
0.0302291119837
0.0162046182104
0.0114785018231
0.00178697417195
-0.0193844297994
0.0395447944822
0.0286945601083
0.0301849180332
-0.00138638868404
0.012542703832
-0.0108875769122
0.00554390577306
-0.0277928179448
0.000806072253322
0.0172927380158
0.0173345298532
0.00230950516079
0.00678647159087
0.00390317235547
0.0313355618801
9.52230655987e-05
-0.0236257309822
-0.0324230075387
-0.0435866469488
-0.00368601826402
-0.00845161517759
0.0318417576212
0.0149910494577
-0.0197458809275
0.0341453911461
0.00316261648656
0.0135634322083
-0.0294106030626
-0.0285196939015
0.0510606603673
0.0149307421031
-0.0227381062787
0.0113556253472
0.0134799128576
-0.0245894397814
0.0200219987223
-0.0142115906233
0.00639866419786
-0.0467130594095
-0.0331961048452
0.0483020597098
0.0394213230234
-0.012649649435
0.0513590903377
-0.0484834049578
-0.0363465865931
0.0336766096004
-0.0185777526545
0.0157426570817
-0.00753852781816
-0.0241762824676
0.0333877909095
0.0390879380812
0.00829732569166
-0.00540233088734
0.00854704883289
0.016640485999
-0.0295627224783
0.00266689587469
0.0106862042735
-0.0243398093303
0.00434005559111
0.0219138372407
0.0368077735619
-2.63896650538e-05
-0.0476966657937
-0.035353790934
-0.0284071377547
-0.0265904335472
-0.0255931064225
0.022527305427
-0.0062735972318
0.0500583242789
-0.019556182028
-0.00637666105384
-0.0407598766962
0.0482640439866
-0.0261891751205
-0.0453777389114
-0.0393491099914
-0.0236668096514
0.00311758284233
-0.0286081026851
-0.037162013773
0.0350268622718
-0.0309890975207
-0.00263689344974
-0.00277436621882
-0.0268447822567
0.0207250022308
0.0331663249514
-0.00657153493797
0.00287044992201
-0.0257524544642
0.0248480252556
0.0510721257478
-0.0203953477982
-0.0148961949615
0.0115403325919
0.00136487773609
-0.0160765067077
-0.0191330516996
0.00465685022297
-0.0118644188082
0.00802304382501
-0.0245279803032
-0.012303733834
0.0448173632485
0.0354160908021
0.0339428974855
-0.0482390346841
-0.024228680949
-0.0317885807633
0.044896264889
0.0314302936231
-0.0446361659809
-0.0394038333262
0.0171135138102
-0.00960372259629
0.00753778221932
0.0496029750864
0.0403759762022
-0.00960926574822
0.0193227344723
-0.0128019068019
0.000459492740785
-0.0485509384781
0.0206232941496
-0.0482602248145
0.0108867149285
0.0395852939456
0.00767526935552
0.0105107274988
0.00709660376914
-0.0167758150808
-0.0379558503465
-0.0512792671261
0.0128062417323
-0.029067004304
-0.00509740220392
0.00465208910933
-0.00780613159651
0.0304025455415
-0.0358380563381
0.00634176019058
0.0296826361787
-0.0145166129511
-0.0597999781629
0.0296150200674
0.00412162220894
0.0377996100831
0.0326557822677
0.0150670193693
0.0291998651277
-0.00625027849774
0.00795526451269
-0.010863995514
-0.0142531335927
-0.0123079173865
0.0352631173068
0.0325738061988
0.0199258306613
0.0386730446703
0.0466226123772
0.030092696477
-0.03775793932
-0.0415955628022
-0.0233204509731
0.0339680064162
0.00866030341007
0.028122947881
-0.0358093652966
-0.021308477325
-0.0264067027802
-0.0181129158623
0.0447956553216
-0.0329806208045
-0.0382941499296
0.0246179285379
0.0427290106104
0.0207961686277
-0.0221137557801
0.0375989641039
-0.0495333402744
-0.0461996491077
-0.0358901659468
-0.00831337341904
0.0276428222388
0.0285853228507
-0.0484985886795
0.0105362995992
0.0293487207131
0.0141721971976
-0.00069007435741
-0.000571882276126
0.0363171236525
0.0271592083194
0.00313861648531
0.0186703280181
0.0217386324595
0.0322384254084
-0.078294195768
0.0283839604486
0.050276644898
0.0556720850763
0.0470655304353
0.0407108562326
-0.0203498733962
0.0381664784366
0.0059471715215
-0.0293673027022
0.0165912000584
-0.0423494978935
0.0215636565457
-0.0511763040651
-0.034984037044
-0.0512864018081
-0.0343905897123
-0.0150938997706
0.038697938448
-0.00255012139406
0.0323813434363
-0.031709879062
0.0411641922608
0.026763200103
0.0135646959904
0.00568696844791
0.00846903566754
0.015631110921
0.00287161883613
0.0148408153843
-0.0211137494337
-0.0451276734448
0.0308677968409
0.033897588134
-0.0156499317265
-0.00791613684936
0.0237146568258
-0.020204917747
-0.0507517908064
-0.0206932968648
0.0179072807579
-0.0242473449412
-0.0292629657163
0.0216630293629
0.0058136769507
-0.02714062891
0.0422214377037
0.0578528197471
-0.00988975593044
0.0095541576746
0.0275184261357
0.0182138968804
-0.00652794873561
0.0363951797992
-0.0275271171108
0.0282568467292
0.0294146052157
-0.000972197523708
-0.0131930309217
0.0219638628369
0.0541972936809
0.0329586553799
-0.0380897972791
-0.0483330364861
0.00944469030721
-0.00826201890064
-0.0438568049593
0.0442276349146
0.0456749154931
-0.051844585673
0.00733992996989
-0.00204640731801
0.00494762037563
0.0500070366999
0.0202979094808
-0.0310732077242
-0.0504696139583
0.00400807678207
-0.0155138677589
-0.0456579502506
-0.0127266990128
-0.0149401153233
0.00971240410942
0.0134881881701
-0.0163514819772
0.00420467712399
-0.0235063300279
-0.0505705090946
0.0363334750035
-0.0455294304357
0.0460294230971
0.00153714816809
-0.0248478135426
0.0227569077464
0.00477569001819
-0.0526737091941
0.00706839073654
0.0139607854075
0.0357671027012
0.0130724843682
-0.0222218196641
0.024441102478
-0.0125734880887
-0.00268885280729
-0.0242299502267
-0.0276322179486
0.0433626188103
0.0249078003952
-0.00666470160517
0.0100952609854
-0.00131824113883
-0.0146854264267
-0.0292601173585
-0.0233212853886
0.0045164667745
-0.0196468379019
0.0480034066059
0.0308372992742
0.0487307791549
0.0424217886847
0.0337180385661
-0.00538222430834
-0.00280960770835
0.0369119209362
0.0234550866121
-0.0184782920841
-0.0310167240683
-0.0375311688287
-0.0276421214755
0.039922519496
0.0468501173844
-0.0385153365643
0.0491389647549
-0.0180629534313
-0.00823273721757
-0.036512001822
-0.000255368616248
-0.0361681591553
-0.0292415958977
-0.0153570390063
-0.00038222793848
0.0456850115398
0.0507882334917
-0.00158383625917
0.0274836917757
-0.0412897960549
0.0136835317081
-0.0703731333267
-0.0257530125987
0.00582941346094
0.0512248614173
-0.00262852932895
0.0294659743477
0.0221608829439
-0.0402517091319
-0.00388382060736
0.0138605977536
-0.0334513656749
0.0171700697827
0.0349254365511
-0.00247566055885
0.0345529457711
0.00681010138896
-0.0170659918062
0.0236439632786
-0.0485875250882
-0.0377346465871
0.0407921950285
0.0217080262611
0.0412668521253
0.0374877014229
-0.00343963053025
0.0336843490934
0.0128223715701
-0.0132640785244
0.0209727861518
-0.0470119384109
-0.0240214767094
-0.0414633625391
-0.0128047236656
-0.021235437729
0.0235553935349
-0.0416059650919
-0.0370708423227
0.0406039829593
0.0103511125365
-0.0385388619746
-0.0284161253651
-0.0506356330866
0.0271827111785
0.043038706911
-0.0125256731312
-0.0448761671214
0.0108767804584
0.0328963775617
-0.00392475383371
-0.00462502375874
-0.0855049174381
-0.0303356054908
-0.047412929838
-0.0132978575085
-0.0453714472656
-0.0236926732585
0.0297159844372
-0.0257252625029
-0.0220019138126
0.00713932856012
0.00915931007785
-0.0406600249465
0.0306007188435
0.0036886863934
-0.0431721445346
0.0081522450178
0.0483952159032
0.046661112565
-0.00730093928043
0.0462367991177
-0.0321438073993
-0.0259711147741
-0.0053553056101
-0.000307872044147
0.0157274875964
-0.0167517799695
-0.00376625738955
0.0149964093065
0.0316214795705
0.0238484116474
0.0432523254424
0.0129545166487
0.0512876884061
0.0122632632346
-0.00686863549551
-0.016545788582
0.0178788598687
0.0313450008802
0.018643667574
-0.0313049601817
0.0457161233708
-0.0295431914652
0.0195562491265
-0.00969313479343
0.0130203629073
0.0363443724516
-0.0218626224597
-0.0214772290131
0.0309679870089
-0.0294647060886
-0.0431053552929
-0.0359551961687
-0.00771667686739
0.0408134012266
0.125519938919
-0.0647508895111
-0.0768419105298
-0.0287852923939
-0.00916666274972
-0.0132434409402
-0.0139404185177
-0.0396518823747
0.010694077421
0.0398790418892
-0.0220264887174
-0.00264996370553
0.0060200288257
0.00935333414664
-0.0186378958784
-0.0269880483661
0.0519862901685
0.0536203164163
0.0515952216653
-0.029331449458
-0.0214939969181
0.047673354376
0.000277416688994
-0.0334372126239
-0.0396846092055
-0.0304029787932
-0.0186695747518
0.0307197036525
0.00213320152203
-0.0302061727074
0.0428142434981
0.0254228667973
0.0280321451613
0.00303001389989
0.0199714244214
-0.0318211992339
0.0359192554217
-0.0249672982339
0.0451959516664
0.0128425530862
-0.0455094153966
0.0459866085876
-0.0444698612237
-0.0163952536486
0.0639922702907
-0.0431743525213
-0.00141497815632
0.0453816673127
-0.0306041935103
-0.000786633266135
0.0651727750694
-0.117877472085
-0.072767891175
0.0328739162118
0.00686427515453
0.00824887986736
0.0077888993388
0.000951904588248
0.0134448705884
0.0342068169631
0.0403610164419
-0.0187022194269
0.0393316136447
-0.0187685011466
0.00212579006641
0.045264384552
0.035275752113
-0.0240917939569
0.0369223555505
0.049695492641
0.0368517997554
-0.0154981722023
-0.0343225044217
0.0431836210899
-0.0310276051105
0.0181736726664
0.00592776308591
-0.0368927235101
0.0265340547555
0.0324978840951
-0.0267483330038
0.0274025114245
-0.00436640689236
0.0333486807162
-0.0334378178542
-0.0241734468319
-0.0353006025495
0.028405203836
-0.0393402898631
0.0255747741326
0.0322568366992
0.0307944459056
0.0230508789943
-0.0297945682214
0.046214273731
-0.0814830977802
0.0394095173647
-0.0304482574158
-0.0764677434913
0.011166252971
0.0431541524885
-0.0691844807797
0.0517584663374
0.016843613786
-0.00640941546413
-0.0127684656066
-0.0159942337739
-0.0218539505886
-0.0424744482837
0.00199664782626
-0.0137653472218
0.0502420084174
0.0122675794186
-0.0373321216369
0.0260443653596
0.0059374034754
-0.0209477622036
0.0527422473006
-0.0281993586105
0.0331216334825
0.0153749584281
-0.0292101545348
-0.000921039017575
-0.0474083448388
0.00488366806861
0.0166411852801
-0.0425809052856
0.0342486066211
-0.0296797955926
0.0290429964399
-0.046923185298
-0.0226449769036
-0.0402646956557
0.00942662195857
-0.0322071118258
0.0260647032526
-0.0162766883698
0.0374019591091
0.0136112063892
-0.00692605237568
-0.0472362643181
0.0299749562439
-0.0233957128032
0.0531273322698
-0.0269314148362
0.0171626344237
-0.00902316850333
-0.0379107123248
-0.0243848131782
0.0464286559402
-0.00894898284367
-0.0502046184872
0.0741474842683
-0.0101269704429
0.0140837903923
-0.0433411171451
-0.00162608462151
0.0153521427781
0.0315182437891
-0.00724273017281
0.038086949896
-0.0122433480638
0.0022127870274
0.0485824371858
-0.0361023888408
0.0480766342037
-0.0118528162304
-0.0045364517648
-0.0178122453789
-0.0438425923992
-0.0332850687758
0.0430352124366
0.0164556283682
-0.0481980884482
0.0114088873002
-0.0372177379674
0.0182810658938
0.000636071674299
0.00467394711979
-0.0242063271835
0.0301256742339
0.0137134689189
-0.0421128666962
0.0505156757233
0.0393969879017
-0.0472768130278
-0.00803513621654
0.0506404090745
0.0248404969412
0.0341568749123
0.0364985460597
0.0105400782122
-0.0341947768833
-0.0414891949651
0.00306511011057
0.0197262978835
0.0822138815825
-0.0393490487859
0.00112903803259
-0.0175698209532
-0.0327748494607
0.0297433637506
-0.0509668869865
0.0369209334841
0.0242672721732
0.0411915415604
-0.0338488964226
0.0267682748765
-0.0193880347896
-0.00848305006664
-0.0198371962501
-0.0413342702223
-0.0115945922838
0.0341014626911
0.0439137288993
-0.0292916346668
-0.0489080928772
0.0511661788825
-0.0252935065199
0.0371439775351
-0.0467026210075
0.0378105329198
-0.0363371585134
-0.00956257973398
-0.00678790614391
-0.0219945853698
-0.0435005340005
0.0436472773249
-0.0232640287924
-0.0334111868606
0.0400111516574
-0.0479688489734
0.0208299831026
-0.0465333284794
-0.013749414171
0.000163863954663
0.021500990746
0.00176165530324
0.0405303352894
-0.0253973805414
-0.0423985582996
-0.0409164385655
-0.0472572540515
0.00109843223119
-0.0125349063649
-0.00964599285083
0.09557966866
-0.0549459621247
0.0734413959554
0.0617384973853
-0.0834596510268
0.0175109272108
-0.103505863254
0.0161781230016
0.00862858946368
-0.00257241447565
0.0506467805316
0.0239734077305
0.0156499969506
0.0479996526363
-0.00586429368567
-0.0405129709147
0.000578023593026
0.0033272168616
-0.0373806403742
0.0325174800264
0.0246670549019
-0.0196421079142
0.0245922942328
-0.0134521501101
0.0194486031885
0.0491395386492
-0.0124923442345
0.0313307819289
0.0336741358625
-0.0317882123831
0.0412349120657
0.00675570368382
0.0153026592229
-0.0395597876153
-0.0328583427574
0.0264783376639
-0.0434967923174
-0.0431018483973
-0.0141825743119
-0.0368565106084
-0.0456792907142
-0.00867974501788
-0.0439222841567
0.0338285939297
0.0233288930527
-0.0211357479131
-0.00082499655649
-0.00463863483493
-0.00459483227365
-0.0237294989887
-0.0510800375402
0.0528580832563
0.0025944442645
0.00361995051247
-0.129200779265
-0.0535221044979
0.0460217793179
0.023882257141
-0.00337779393909
0.0216754026617
-0.0349343201305
-0.0156726558628
0.0352584402985
0.0345668759445
0.0185686298364
-0.000810144210998
0.0301707382614
0.0474998562876
0.0345959938134
-0.0345911142848
-0.0468961617981
-0.0106897144345
-0.0269996820946
-0.0474482099937
0.0048518164378
0.00547318056432
0.0277891295379
-0.0404115565891
0.0141968237432
0.00557947778994
0.0161654738636
0.0141134586983
-0.0449898089923
0.0446284786912
-0.0254288505825
0.0273886289955
0.0257248143511
-0.00368707423703
-0.0292344710169
-0.012830482863
0.0136258289879
-0.0382336936146
0.0178741697086
-0.0309289331324
0.046047838245
0.0330014081104
-0.045716911716
0.00816899334134
-0.0359040310311
-0.0480518956392
-0.195078670304
0.00623414134235
-0.0254738002237
-0.0132993667693
0.0341141370352
-0.051739370467
0.118426823584
0.00136747536954
0.041986697193
-0.0147049987006
0.0498135117031
0.00690040334279
-0.0381575880668
0.0220848007815
0.0149785708053
0.0464889534929
-0.00742133135047
-0.00965505492944
0.0408325064155
0.0289008628413
0.0287480609067
-0.032173953332
0.0212212215967
-0.0339275537184
0.051397109946
0.0212279888098
-0.0153507088262
0.025616223525
0.018394785953
-0.0134791450392
-0.0112204897907
0.0427139409021
-0.00256245909329
0.0165683370236
-0.0449689130669
-0.0347787136818
0.044485485791
-0.00811909240279
0.0112117238706
0.0497966500157
0.0327771065978
-0.0175071885302
-0.045333287486
0.0534227704757
-0.025503328291
-0.0202155855509
0.023518050189
-0.0115197173954
0.000531767663768
-0.0592847638151
0.00238636389332
-0.00867694076884
0.0293943626147
0.00181029048982
0.0746438335941
-0.084760247526
-0.0300792142799
-0.0231368410186
0.0512486582084
-0.0275649340791
-0.0304708558461
0.0484922408178
0.00965667612207
0.0166352672595
-0.0142157934829
0.0454930725139
0.0174682551788
0.0143913175402
0.0204713082292
-0.0258189957064
-0.00916540480029
-0.0225042615114
-0.0452955360663
0.0245542754125
0.00846379920243
-0.037538913447
-0.0337793132712
0.0189089605569
-0.0432314186248
0.0404423261568
0.0111191057236
-0.0464366838175
0.0440338369682
-0.0147801716011
-0.0066898129611
0.00313847100294
-0.00712924453027
-0.0127433833393
-0.00432362583926
-0.0377130890756
0.00701436066783
0.011533256471
-0.00145270575082
-0.0319109143931
-0.047479540578
-0.0294986899298
-0.0260345358529
-0.0336955809972
0.0147754369325
-0.0589258399167
0.0873200105709
0.0244946950724
-0.0971843254588
-0.00424959473834
-0.0263837848391
0.00456781900605
0.0501213711612
0.0301278545936
-0.0391555691583
-0.0282936050766
0.0229634174276
0.0301696563283
0.0345132419215
0.0387112838161
-0.0132093522496
-0.0416519505607
0.0129254171643
0.0388521330678
-0.00630111188338
0.04012012546
0.00945109545081
0.0505592331451
0.0159122297533
-0.016831502781
-0.0301649380088
0.00479072578045
0.0228311385071
0.0274574512189
0.0256321011458
-0.000357510606009
-0.0343825296279
-0.0360690494309
-0.0065719683321
-0.0436219832658
0.0257378215259
-0.0240169235328
0.0101555809866
-0.0299878796445
-0.0120811812973
-0.0366193876847
0.0473881151989
-0.0308160257837
0.017734164066
0.0183139910351
0.0535850824074
-0.0155755255625
0.0307930477299
0.0306847620319
0.0634814102795
-0.0501015847171
-0.0542292915692
0.0129139469638
-0.0125069883239
0.0171528005629
0.0126423474961
0.0063180859351
0.00709030396155
0.00314487662945
-0.0248253709868
0.0144667341368
0.0344303966445
0.048565606268
0.00368890892542
-0.0442825330261
-0.00570528279487
-0.0271406352214
-0.000934084415465
-0.0126323498557
0.0336900194919
-0.0182341603972
0.000835669679796
0.0185586461985
-0.00403921637712
0.0331399012228
-0.0173399855649
-0.0109083489508
0.00324227241504
-0.0291757859483
-0.0305836172902
-0.00465956213513
0.0174013166812
-0.0383889907263
0.0109480199264
0.00524832444252
0.000701327282658
-0.00367508648924
-0.00195226672443
0.000447121940017
-0.0157069338761
-0.0212115490506
-0.00849053092869
-0.00521670398513
-0.035506092541
-0.0277009104727
0.0312154170105
0.0315066359558
0.0108895684872
-0.00476515932304
0.161556417724
-0.0903082369177
-0.174660488685
0.0177737956329
-0.0521292706218
0.0334140250955
-0.0388984515278
0.127807018885
0.00980568445339
0.0933039127475
0.0371991816881
0.0436089800988
-0.0225807150537
-0.0401200713392
-0.0426292960965
0.0249877403425
-0.0197262007166
-0.0303490472916
-0.0218640696429
-0.0359588482857
0.000928758567441
-0.0298904240984
-0.00658564571267
0.00214819439709
0.0331954312206
-0.0184406597466
0.0166129891166
0.0281737099767
0.0302558676803
0.0358416037426
-0.00444008149132
-0.0133384223723
-0.00817971688102
0.00362304990939
0.0378025148501
0.00801703083313
0.00841268064601
-0.0102061477828
-0.0169898414506
-0.0385038080456
-0.0330151444334
-0.027150633636
0.0343402194137
-0.0135473919157
-0.013407513514
0.00702235447865
0.00830747813417
0.0150443253824
-0.0291804262665
0.0235078534935
-0.0692166063936
0.0585539735147
-0.0710835698274
0.00444660224172
-0.0111186839314
0.012029835208
-0.0167083484691
-0.0287759019968
0.0887199220827
-0.0449120603507
-0.032643043424
0.0128181085802
0.024855256488
0.0111413296753
-0.00188635735816
-0.0435259533319
-0.0283673899273
-0.0466951142218
-0.0184632265527
0.0480096699929
0.0225176106471
-0.0304361289104
0.00898531682925
-0.0229743895133
-0.0414145872662
-0.0368096153075
0.000159023657774
0.0240497749592
-0.0385055613982
-0.0166001048722
-0.00680762028996
0.0240192181703
-0.0201753674076
0.048389460301
-0.0329550715698
-0.0381426951152
0.000662315070326
0.00842807169535
-0.041565623126
-0.0311898336957
-0.0351248588915
0.0482060797102
0.0425067243273
0.0372446445556
0.00432382466761
0.0454893500936
0.0487001016488
0.0111602509425
0.0439176038693
-0.0345655976625
0.00411130667252
0.0476391885519
0.0142555648084
0.0154811200564
0.0107488985421
0.0398108169722
-0.00612290186708
0.0754964976212
-0.0238472962456
-0.0256808198174
0.0188637974813
0.00523102545289
0.0315140046905
0.0383201388782
-0.0153675988163
0.0246276133405
-0.015363057707
0.0436866789252
0.0400593503236
0.0473019615265
-0.0163910420921
-0.0440008007075
-0.00984874232344
-0.000510676889999
0.0346243245609
-0.00859921845311
0.00668068257692
0.0193557884725
-0.0155101293775
-0.00118139105909
-0.0461453326659
0.0192581802478
-0.037662397402
-0.0247202745101
-0.0532591314158
-0.0137789193627
-0.0504862666895
0.024070969914
0.047342627485
0.0329488001561
0.00973231993975
0.0422882810427
-0.0368458811764
-0.0488323698575
-0.0179061818642
0.0166352985015
0.0253790831796
-0.00142136047469
-0.00652940540572
0.0148875634403
0.0347536994235
-0.00316077943667
0.0259323083472
-0.00714300443113
0.012534958326
-0.0104498500378
-0.0187761348843
0.0545112514269
-0.0273371892392
0.0263693985973
0.0441177717916
0.00946067204977
-0.00500047990133
-0.0372408761852
0.0330417583388
-0.0108615782325
-0.0442365635435
-0.00813414389445
0.0409832081044
-0.0384991427287
-0.0261898966912
0.00793425473056
-0.00532161161361
0.0262884937313
-0.0214071554697
0.0346264782002
-0.00329405818449
-0.00338022425503
0.0308098388444
0.0164040908047
0.0100664758935
-0.0120224685188
-0.028149825069
-0.027659185096
-0.0257517289516
-0.0508271998672
0.0195850357955
0.0134095726104
0.0227554187085
-0.0105238556772
0.0210076267698
0.0193038516971
0.00869859293219
0.0279285583801
-0.0504690473299
-0.00765129291494
0.0397692952695
0.0351091324404
0.0316809812952
0.00558872543388
-0.0360285569175
-0.00210506977274
-0.0598311021645
-0.04739819116
0.0148338360902
-0.013622180006
-0.0299723808934
-0.00330356832504
0.0374958064923
-0.0307265818288
-0.0499878785736
-0.0390072025603
0.0163700583548
-0.0159488682297
-0.0337616293134
-0.00410905936364
0.0341940719796
-0.0451022896488
0.0149614559957
-0.0201845009455
0.0172065278242
-0.0499482969954
0.0295258962557
-0.00447104352667
-0.00729832881908
-0.0136329957254
-0.0347070593103
0.00185968969929
0.0158583340234
-0.00392839490129
0.0384249028214
0.0493977862452
0.0157393760791
-0.0150544801511
0.0372187435577
0.041578209826
-0.000405562539459
-0.00262299876657
0.00709070093365
-0.00421588890865
0.016648149101
0.046429285987
0.0403999656315
-0.0379014210087
-0.0244315058719
-0.0237143822992
0.0238045338105
-0.0399237813313
-0.00439236795083
0.0268254505839
0.0474794749666
0.016465555742
0.042240933714
0.0315854943084
-0.0445720294954
-0.016560344698
-0.0274197634378
0.0688241692404
0.042626503899
-0.0151588102943
0.028907936429
0.00339277773395
0.0199810869657
0.0146768553701
-0.0244620735976
-0.0315247072352
0.00743484535065
-0.042300617701
0.0441610110995
0.0168267429307
0.0270675045685
-0.0270027517953
-0.0458105629286
-0.0521505142031
0.0236132198187
0.0454784888679
0.020374024693
-0.0204696940144
0.0157462801825
0.0208371345727
0.0227166276879
0.0351946882861
0.00778217198184
-0.00277105757237
0.0331577740541
-0.00227562109966
0.053873093509
-0.0296034606344
0.0167681746202
0.0211441660463
0.0388900748385
0.0340764102032
-0.0193061332659
0.0387889565543
0.038096497261
0.00493429095868
0.0148781668873
0.00906122164375
-0.0411613940969
-0.037116955293
0.00833074847727
-0.0318258931837
0.0418221725613
-0.0171319766482
-0.0334573952826
-0.0161676578284
-0.0101135862526
-0.0702658336626
0.0195364152925
0.00877538680779
-0.0356048549554
0.0378574991507
0.0219765273504
0.0422465945033
-0.0458336409571
-0.0386012867387
0.0213190222687
-0.033949717349
-0.0183689122221
-0.0216855414792
-0.0367109790195
0.0369678242311
0.00313189825918
-0.0188499536975
0.0292196880194
0.048781532818
0.0311318672255
-0.0436789983968
0.0527304963629
0.0522887995314
-0.010701429235
0.0441646972793
0.024419403675
-0.0421116010053
-0.0435535826367
0.00201904498344
0.0101983648611
0.0456015729064
0.0149826011344
-0.0238977142376
-0.035249107383
-0.0412911112085
-0.0491451488472
0.0277673712165
-0.0283626188574
0.00224524909371
0.0213797297618
0.0405516800487
0.0336500601151
-0.0304502475242
0.0233338997113
-0.103812516007
0.144676246086
0.0237104164039
-0.0562222281981
-0.0575772218099
-0.00239009912929
-0.071474281464
-0.0313422165957
0.0311504911587
0.00656006413234
0.0139318859204
0.0120645235123
0.0431200537891
-0.0132472210163
-0.0464847373704
0.00271524176487
0.0478558504792
-0.0458236016319
0.0204960979281
-0.0295207539696
0.0183925528626
-0.0282321712345
-0.0255750107701
0.0541687922537
0.0140319057872
-0.011985710616
-0.0301196538243
-0.0368816497528
-0.00102448049199
0.053495258908
-0.000972308482989
0.0204356185266
0.040568102254
-0.0206636364508
0.0198288003915
-0.0286670657331
-0.0450504365038
-0.000284702874946
-0.0202443086999
0.050061562119
0.0118086936037
-0.0448768668871
-0.0461925884283
0.0510919501342
0.00638769763216
-0.0159880187218
0.0363846262212
-0.0419876255089
0.000431070900397
0.101950784663
0.0523061211571
0.0634378943955
-0.0400072128603
-0.144547946053
-0.0255397677219
0.0261987322499
-0.182101697474
-0.033609349987
-0.0401238276036
-0.0345493092008
0.0332906733678
0.0059810210762
-0.0140816516658
0.0255465215298
0.00330035273949
0.00923791200118
-0.0429604032589
-0.00850535241661
-0.0256190902399
-0.0396778764559
0.0177352746176
-0.0243217794655
-0.0107497517444
-0.0271029560597
0.028153497738
0.0081647199804
-0.0234807817398
-0.0221290168288
0.0518953125469
-0.0135791681758
0.0480552217432
0.0484696755785
-0.0265610675847
-0.0223823544379
0.0139302050328
0.0101308773388
0.0166169917554
0.0289754014422
0.00862368459515
0.0107398056316
0.0199770588285
-0.0316920537571
0.0411778346519
-0.042810132573
-0.0115437218823
-0.0381974790415
-0.0396530483135
0.0379304533695
0.0194269843764
0.0972586889755
-0.0434592517077
0.0197334356963
0.148219931956
-0.0997613932769
-0.0397555588368
-0.0142717005128
-0.117985083285
0.00682684498078
0.0217260112478
-0.0335681181466
-0.0476098427055
0.0420263260745
0.0294645182362
0.00712053701369
-0.0194875757882
-0.0369447409226
-0.0338244476139
0.0102292850243
0.018430871029
-0.00396383795741
0.0551796431258
-0.015991128581
0.039352699064
-0.0135017261128
0.0030848631749
-0.0393276578211
-0.0384436426578
0.0433346929802
-0.0316351943132
0.0304333283951
-0.0266263071798
0.00857339707408
-0.00809149092945
0.0017123064559
0.00318239740773
0.0172649297717
-0.00389881719557
-0.0212650273714
-0.0282071377923
0.0167715797235
0.0159960717409
-0.0354721479699
0.0246274933588
0.0195814686259
0.0131272133504
0.030632509613
-0.0380860852844
-0.033319054026
0.0440240074249
0.0142171981597
-0.175171964086
0.167173067629
-0.183770392747
-0.030942241555
-0.0478841839408
0.254450220172
-0.062875448096
-0.121892881953
-0.0166825830383
-0.0188006210341
0.0361722771954
0.0270527778127
-0.0330865069519
-0.00533871569402
0.0211675421318
0.0515796846241
0.0279874324441
-0.040187816037
0.0186111263393
0.0218309589099
0.0225417428068
0.0342602748418
0.0475932971402
0.0148585396336
-0.0297192463917
-0.00912484862956
0.0021638841584
-0.0262269965678
0.0318430334174
0.0123150860161
-0.0378291017612
0.0232514522111
-0.0140841424019
0.00330314881973
-0.026069867022
0.00115702288252
-0.0413299440379
0.0353427015214
0.0160736810871
-0.018547879503
-0.0359377392738
0.0150280214615
0.0108311666408
-0.0307740347049
0.0256069472037
0.0469526101182
0.0144140963258
-0.0314549150391
-0.0145015511074
-0.00926737172947
-0.204526069325
0.000985546996223
0.205755610384
0.0643988573654
-0.132770151503
0.30000147216
0.0162790641625
-0.31087725785
-0.0430776976928
0.0335956406638
0.0409427476677
0.0100356281747
0.0555299539861
0.0153719074616
0.00904645328251
-0.0367719035026
-0.0312664315798
0.000659994298557
-0.0377620677687
0.0310544820067
-0.0296419138381
0.00938627279185
-0.0289945020988
0.0515934192814
-0.0343183688133
0.0264306074042
0.0339384603481
-0.0154598704659
0.000598534178617
0.0361757721858
0.00976415541192
-0.040051357193
0.0158689433734
0.0528871512136
0.0214023489615
-0.04517886755
0.0525125907729
0.05374807597
-0.0194905366403
-0.00504916238565
-0.0404752350516
0.0332959675588
0.026570661966
0.0270150549597
-0.00974796708604
0.049369148608
0.00245334893702
0.015904606713
0.0141063999489
-0.00153143557088
-0.0603585026358
0.0146593553635
0.0490027624013
0.0409857285485
-0.198526485576
0.201565924905
-0.0204497477728
-0.076279128923
-0.193238323107
-0.0105385566463
-0.0049794973284
-0.0291257808287
0.000970562111935
0.00407513004555
-0.0290642662828
-0.00709571975824
-0.0281866596636
0.00232484993408
0.0188028073345
-0.0194666930933
0.0190298380062
0.0267058634534
-0.0391619957808
0.00661841282455
-0.0449844391737
0.00507614074149
-0.00405385192184
0.033468445476
-0.040685205017
-0.0172912816801
-0.0177958533015
-0.00557743596974
0.00518500245985
-0.00460246111475
0.00237665752614
-0.00793723522156
-0.0403673876054
-0.0250504714004
-0.0277486527813
-0.0430170254773
-0.0111508193377
-0.0298379785259
-0.0210888158498
0.00521660898041
0.00891292627906
-0.00411247804439
0.0195914387892
-0.0246290338718
0.024285208747
0.000790652324734
0.196546577843
-0.100734279946
-0.00628632674905
0.0109663545702
-0.126232105198
0.0134985046058
-0.180329383402
0.249023566887
-0.10542470941
-0.0379311440275
0.00719635564871
-0.0442426470355
0.0333977834805
-0.0073424798546
-0.0387617974972
0.0317825063339
0.00421051081423
0.0465775066081
0.0190481121614
-0.0199821132104
0.0218401427244
0.00428414216708
-0.0416450139083
0.0421608993347
0.0105164821823
0.0199793391207
-0.0432494893681
-0.00788491257184
-0.00909573315349
-0.0428859676861
0.0292819895358
-0.0445157356149
-0.0081693528095
-0.00890594584459
-0.00823447667928
0.0444583660921
-0.015926494354
-0.01467560786
0.00793792350038
-0.00765359088306
0.0146506107636
0.0125379186354
-0.0387812650799
-0.0427666150362
0.0305408757226
0.0200381782454
-0.0399856231782
0.0220730824199
0.0114788377118
-0.00996572339312
0.12138298754
-0.263921539834
-0.0809971276652
0.0160990226227
-0.024858009088
0.162634956317
-0.154815076602
0.166852882659
0.00440639457594
0.0117971248163
-0.033670600347
0.0277180369797
0.0313691739259
-0.0253525485071
0.0374998061321
0.0182277911165
0.0378851585411
0.00224053193608
0.037406901863
-0.0371589593502
-0.0100870634293
0.0109697227309
0.0258809363644
-0.0312305727037
0.0241777702931
-0.0414798868532
0.00783447341862
-0.0355321278765
0.00450250015954
0.0365904733945
-0.0250390960318
-0.0153137432286
0.0127350980237
0.0113275400065
-0.0193781944056
-0.0208153300653
0.00303681700126
-0.0113155171496
-0.00525536663683
0.0326468964944
-0.0215761229817
-0.0216861111809
-0.0120057545435
-0.00194846651535
0.00889455439156
-0.0327467070697
0.00679239356988
-0.0141167923865
-0.0088694822826
0.0213625492822
0.129591748403
0.173372807633
-0.17348212789
-0.0874782969122
-0.077733046888
0.178478368884
-0.133905255971
-0.0548530619577
0.0200454030547
-0.00726038049
0.0487835480698
-0.0441325294233
0.0168415189361
-0.0418003734746
-0.00753884218256
0.0267314221496
0.0128790165429
0.0224577578745
-0.0110030851994
-0.00716850469442
-0.00386765812631
0.0343468388985
-0.0269409218013
0.00716396101435
-0.0188086833693
0.0281937736988
-0.0214331091909
0.0358438292522
-0.031853116524
0.00952113407107
0.0349985245779
0.0348192482971
-0.0144683687227
0.00677511823852
0.0226216680453
-0.0423841911146
0.0027275022045
0.0160734414804
-0.0266895871251
-0.0286467634665
0.00737874783268
-0.0128527947288
-0.0384014456202
-0.0335451535786
0.0472906663267
-0.0164569109083
0.0201356847307
0.0184036455258
-0.00470640359668
0.0492093480082
-0.0306579601448
0.238389844382
-0.102489744276
-0.0474103067708
-0.0484978490341
0.00478230103007
-0.175442817059
-0.212518017526
-0.0554391199761
0.0368987496319
0.0566813055198
-0.0408806928649
0.0203455937051
0.038620009909
0.0319121219951
-0.0274185013621
-0.0204327313405
-0.00169113109761
0.0241200059097
-0.0141104179293
0.0299003446313
0.0269906458703
-0.0332184457569
0.0248439437502
0.0105328274106
0.0351625311774
0.0104091999562
-0.0433867548864
-0.00390495420268
-0.0230870193165
0.0327489475132
0.0288797398895
0.0166758205668
0.0291298635258
0.0164016151965
0.0247123641365
0.00250812132015
0.0378701883121
-0.00809391335334
0.0486850698943
0.038942899576
0.035481225494
0.00578157741092
-0.000374478151334
-0.0386746957933
0.0140272794521
0.000780272560489
-0.0283494466035
-0.00580926520765
0.0838140643918
0.0383908299269
0.256201843196
-0.0302768556806
-0.0527463986785
-0.0547415950821
-0.0287749913314
-0.32545034336
-0.0787526162992
-0.0355390499493
0.00265895176828
0.0180158265709
0.0101979178168
0.00696927026841
0.0327020022638
0.0070028359644
-0.017938915421
0.0387035688431
0.0139753157379
0.0174482805096
-0.00449481907499
0.00788076235413
0.0420752010362
-0.0393089066908
0.00628739584673
0.0499628631403
0.00995823926308
0.0320732133633
0.0243860266728
0.0595290491443
-0.0393764844425
0.0347420249267
0.0500054017179
0.0569963212636
0.0167520726108
0.00908351499059
-0.0291334778196
0.0515940705348
-0.0360008197033
-0.0400942001416
0.0520933368254
0.0168987984435
-0.00825039744218
-0.0371163607665
-0.00680899802645
-0.00047270856413
0.0266191732883
0.019650558557
0.0427644239279
-0.0287850928563
0.00523553302318
0.118967582768
0.0635549521786
0.00608998801248
-0.158263266028
-0.0387259129088
-0.0444384164226
-0.209883294678
-0.0124921110666
0.0825153375916
0.0141389773983
0.0522718046501
0.00936655219471
-0.00687334090287
0.0494282797032
0.0457642984866
-0.0177586883415
-0.014624664032
0.0519903950972
0.0382294855614
-0.0407983240856
0.00638158662252
0.0333526743275
0.0033968123155
-0.0157257837161
-0.0191038074135
-0.0010636959451
-0.00213630571948
-0.00827946396498
-0.0368740260614
-0.0399010095617
0.0378644665885
0.0330408042314
-0.0373282436045
0.00975268150158
-0.0162895318056
-0.0121030184023
0.0193139863421
0.022862366694
-0.0268575171412
-0.0281002745615
0.00664852947991
0.018584366584
0.0192233538755
0.00328281714754
0.0322701260408
0.00743781198228
0.029984410769
-0.0113246958459
-0.0263999784239
0.0220229561061
0.14868324507
0.0833402662944
-0.0100864893689
-0.0404003781549
-0.0350836931039
-0.0741900712278
-0.171161052061
-0.0835502256
0.054012072468
-0.005528730192
0.0108936925294
-0.015538633815
-0.0123895973688
0.0100361262983
-0.0239820114753
0.0132295910606
-0.0353479672135
0.00930539334446
-0.0317753194601
0.00626795122164
0.00190167151974
0.0122383651089
0.019980174557
-0.0243929594621
-0.00826509526873
-0.00809206320611
0.0314731835656
0.0457279490158
-0.000902893841877
0.0474239754135
0.0195640251475
-0.00702365825729
-0.0426099546962
0.0285711028118
-0.0044196576982
0.0237061194239
-0.0272972174893
-0.000461279773436
-0.0283654999809
0.0177128625314
0.015397642414
0.0331177494633
0.0485777596026
-0.0409411357402
0.0106642078793
-0.0268164256354
0.0059440044741
0.0380850156269
-0.0414628558005
0.0721139456303
0.114264028638
0.221774219683
-0.0147814582068
-0.0759998154492
-0.00909553051969
-0.114844520448
-0.0587368442828
-0.107738752811
-0.115508590284
0.0561358209232
-0.00176790643291
0.0215865365936
0.0519827118374
0.00568512761791
-0.00737515414843
0.0161646914558
0.01843860564
0.0381810374173
-0.0220508321407
0.0450416137594
-0.0233928538053
0.0409135582214
0.000623125243128
0.0343747381934
0.0141957987061
-0.0172347072455
0.0244560898324
-0.0127490898907
-0.00912331417277
-0.00403247170203
0.0227747362619
0.0510675835685
0.0247754955842
0.0119209992021
0.0173427927413
-0.0093432150374
0.0328612996187
0.0451221757881
0.00823492990488
-0.0286312070943
0.0487512817145
-0.0227366055742
-0.00632574304784
-0.0461766885486
-0.0263009978056
0.0502660371508
-0.00551987402045
-0.0455766069083
0.0309055741548
-0.0330193443537
-0.0261941675609
0.0145520259598
0.0363837212459
-0.00945682758331
0.00987538518443
-0.0649082207432
-0.00392573825656
0.0237474276251
0.062561335305
-0.031617616307
0.0143228827168
0.0179759919917
0.00411487146981
0.00158401848147
0.0440380782489
-0.0179011004341
0.0136269527384
-0.0184491940137
-0.0437730082488
-0.0301602345475
0.0163708120182
0.050418071257
0.0320949898371
-0.0293450581733
0.0232402164327
-0.0296257516669
-0.00357998113672
-0.0177535645415
0.0385779286643
0.0231358859239
-0.0248823739329
-0.02744336916
-0.0162146050901
0.0508537205203
-0.0199964488921
-0.0174620722525
-0.0236071755052
0.00770715447017
-0.0495384546698
0.0487454822187
-0.0215001543969
0.0216404198545
-0.00481065604392
-0.000777427224608
-0.0176071977841
0.0282811806882
-0.0137085548332
-0.0443599427693
0.0317492249405
0.049897142296
-0.0322981260058
0.0041615474497
-0.0535183054585
0.0422713501885
-0.0286891145541
-0.0178246105279
-0.0078640516469
0.0451569394502
-0.0387530873143
-0.00617775758832
0.00511258856098
0.0509813665002
-0.0134000237787
-0.0359409233426
0.0342374361898
0.00966862449625
-0.0129211455135
-0.00920527549069
0.0209401029692
-0.00995190158771
-0.00530875958446
0.0277745573414
-0.0243448894475
-0.0113363148531
-0.0336201785113
-0.0347187591408
0.0271667725144
0.00047671672067
-0.0363952464225
-0.00129510813955
0.0408066346474
0.0152395552752
0.033365265367
0.0318537515726
-0.0441239876292
-0.0237485327624
-0.0141181895383
-0.0357149980141
-0.0167977425074
-0.0307360724399
0.0456839299092
0.0168308710134
0.0020967771999
-0.00920829538011
0.0282273103654
0.0438553292782
-0.0507505569
-0.0380335458027
-0.0387785095095
0.0310433894982
0.0395280930632
-0.00419315591083
-0.0349045928812
0.0124906814537
-0.024891555085
0.0232986152366
-0.0159528824996
-0.0130685960062
0.0109360816571
0.0401258307211
0.0469953064061
-0.00862465998852
-0.00453162007519
0.0258429835783
-0.00599144216229
0.0192355301846
-0.0321091341572
0.0255448840503
-0.0339048384776
-0.0108002028653
0.00635739623339
0.0204626876013
0.0148467497288
-0.0515518919472
0.0050368123489
-0.0292155004844
-0.0220555034666
0.00798954509874
-0.0287309633432
0.0317110309653
-0.0438285571664
0.0147143859157
-0.0346596588923
-0.0438090015431
-0.0517819962146
0.048327452685
-0.0338696691128
-0.0472136473501
0.0136220579759
-0.0448375271271
0.0495734925543
-0.0131214100282
-0.0267065651327
-0.00515118146035
-0.0518401320395
-0.0251520317421
0.0270476249429
-0.0270970961075
-0.0072652424404
0.00437724005272
-0.0236180394571
0.0336240318892
0.0255742631793
0.0468172808926
0.0082888516405
0.0282475872474
-0.0387453097776
-0.025922297635
0.00799525948328
0.0100111476734
-0.0129501381379
-0.018458020582
-0.0234049271382
-0.038471951562
-0.0234970297098
-0.0120375601011
0.0415252549119
0.0258967630985
0.00472133485006
0.0240511659847
0.0356661610124
0.00758281259606
0.0392405975658
-0.0261120324888
0.00538104943022
-0.00513451918607
0.0229478965677
0.00768514883295
-0.0280472451303
0.0428397567302
-0.0514615385254
0.0491394744531
-0.0393200534596
0.00214437934664
0.0213465577393
0.0483476630944
0.0388080210041
-0.0468142861892
0.042216151114
0.0499143864714
-0.0387400218412
-0.000682415782028
-0.0460844736916
-0.031400135569
-0.0330743417685
0.0288382214658
0.0360226878737
0.00339375333888
-0.0399678137613
0.0672641767115
-0.00932034429452
-0.0693697672322
0.024909433548
0.0104760933386
0.0366228267489
0.0196160723429
-0.0430195784643
-0.0199146368377
0.000957991832989
0.011584567585
0.0171547920298
0.0274176893459
-0.00209529352045
0.0323621388438
0.0183244943761
-0.0363344098744
-0.010498407523
-0.00491847215757
-0.0227285581992
-0.0217990856875
0.0422297969333
0.00669039432497
-0.0204883131523
-0.0329613223152
0.0495553217538
-0.00672997743512
0.0525455821874
-0.0362830950566
0.029254964316
4.89472935084e-05
-0.0199873280646
0.0340063269206
-0.0356025654729
-0.0479023945471
-0.0302920462111
-0.00209764295359
0.0178546578067
0.00990367598443
-0.00545351483832
-0.0476660973323
0.0371715396324
0.0507975459941
0.0130871535983
-0.048974568262
-0.0385136231958
-0.0464072265777
-0.00392486696369
-0.0477227079237
0.00532780872844
-0.0260646871886
0.0794016415571
0.0807685846118
0.00745042055839
-0.100748150507
0.0307763727034
-0.0733245003805
-0.115343927331
0.00545964739607
-0.00517113872269
0.0204027080225
-0.0175875697154
0.0363446700165
-0.0404413569829
0.0364683347103
-0.00118892116446
0.0426302921235
0.0150613782074
0.0491385429018
-0.00992936773304
-0.0455131957671
-0.0362241463852
-0.0205765640163
0.0352747798357
0.023630253389
-0.0297544007945
-0.0100127370221
0.00361377378874
0.0191651105502
-0.0403131432096
0.0291735145301
0.0366083537701
0.0356407755325
-0.000924286353266
0.00692328183409
-0.0119122610214
0.0196819849791
-0.0178975772115
0.00192618140807
-0.00266409728834
0.00115069317503
0.00458494036464
0.0158555409142
0.00254576780865
-0.0344259762459
0.0303017664078
0.0169793402854
0.0574045163531
0.000648470903404
0.0252801979337
-0.14357546497
0.170919378744
0.112277194185
0.0137801166344
-0.0921159776211
-0.098625231066
0.00370154452668
-0.185832542304
-0.0340292097243
-0.020854086557
0.00626570700693
0.0298559425461
-0.0351331586709
0.0315452396796
-0.0197663840765
-0.0340274842139
-0.0215721740079
0.0241465323432
0.0448697696917
0.0152118008488
0.0391191104615
0.0427343840381
0.028804820116
0.00370399755663
-0.0370674529635
0.0360618382362
0.0290877507851
0.0140785854453
-0.0278065321194
0.0196812672477
-0.0285471998822
-0.0324736584501
0.0566536985878
0.0251187334044
-0.000587315173324
0.00173327819363
-0.0152874631905
0.00460144402701
-0.0218547801495
0.0331453535827
-0.0185009924814
-0.0158364553907
-0.0249682242452
0.0426966226976
-0.0337600472428
0.0200211074336
-0.0304577335365
-0.00769109602366
-0.0272138586051
0.0309072025955
-0.0685508660007
0.159684127657
-0.0672388850414
0.0703875615693
-0.118807010301
-0.0152049567262
0.21307137021
-0.350342897264
-0.141385025714
-0.0299426566135
-0.0262155809571
0.0303342544072
-0.00442826990023
0.0327720327815
0.0283803025214
0.0538352976381
0.047572084258
-0.0391212957598
-0.0233656999365
-0.00136549579321
0.0396153299083
0.0287982981313
-0.0145031579377
0.0245118782506
0.0613751512571
-0.0107138076385
-0.039388330948
-0.0211056528137
-0.010605067132
0.0322455835149
0.00518775825309
0.0550910286532
-0.0378699785124
-0.016359345952
0.0324017903526
0.00769889805302
-0.0251095294037
-0.00629807462094
0.0103205490897
0.00648823833243
0.0319933072191
0.040877366273
0.0305494065907
0.0153099868587
-0.00886593187106
0.0102359313505
0.0542859483011
0.0235042242918
-0.00977343598822
-0.0333664856852
-0.20453486077
0.136791405519
0.106730961987
0.153837703703
-0.141773973291
-0.0577377339334
-0.0488588985175
-0.168237747544
-0.0444510910984
0.00931984349947
0.0463943710193
0.0182991606017
-0.0322677132844
0.0208697233312
0.0418726026611
-0.00478222546663
0.012155880426
-0.0250488902939
0.0291194734142
-0.0321666262627
-0.0129438193181
0.0214912911042
0.0169816416789
0.0171056604873
-0.0380178768171
-0.0185436820979
0.0388222634797
0.00210529081436
0.0172788745552
-0.0257823254859
0.0271066558812
-0.0312904966671
0.0553193965614
-0.0232396668028
0.00441028594783
0.0283968286531
0.0290633892462
0.0296090591706
0.00385593264679
0.0358400233631
0.0325397352592
0.0557303413604
0.0447123352967
0.0153337147129
0.0152165964835
0.0319098108237
0.0506495768814
-0.0367521269395
0.020891286297
0.0252090526289
-0.0150737115254
0.177518549312
0.102287422697
-0.199837802619
-0.171669728503
-0.0998972337291
0.151367143844
0.0212504346956
-0.00779325990116
0.00167363598535
0.0221746002646
-0.0332953101264
0.0429017033911
-0.0213865910099
-0.0164403217954
-0.00166535214336
0.0281925758377
-0.00385687936593
-0.0333440848673
0.0249322597963
-0.0168172710442
-0.02888304509
0.0324526684923
-0.0419347815595
-0.0361710453683
-0.0361042153012
0.0482596983001
0.0142017915921
0.0246257235742
0.022989016347
-2.07976894366e-05
-0.0125459702616
-0.0120923302658
-0.0144487107275
-0.0106767359074
-0.00905658682191
0.0415670261288
0.0505354961703
-0.0286863449488
-0.00374644045446
0.0407766774546
-0.0162268170203
-0.0189957552805
-0.00725811685648
0.0129203888804
-0.0159332333634
-0.0424832111666
0.0468322313377
-0.0377132042146
0.0442248069339
-0.000948173911191
0.161495554555
-0.351905357212
0.135093488921
0.0249266196175
-0.0537897577447
0.00108536903981
0.197122277161
-0.0567988163611
-0.0368599869002
-0.00159186202564
0.0319500678815
-0.0337251812062
-0.0290467771262
-0.03464229318
0.00685930294225
-0.000767242765251
0.0386245745323
0.00787433386817
0.0410550812593
0.0128422050779
0.0340220218456
-0.0512065959916
0.0166421910975
0.033071242204
0.0258190828425
-0.020900903887
-0.0210585376223
0.0211736750204
-0.0155160579576
0.00518077629202
0.00527830353199
-0.0190148287939
0.0160629591633
-0.0243541498484
-0.0310828290831
0.0453202273474
-0.00347044888507
-0.029295772612
0.0386173082005
-0.0423501702503
-0.0158425261301
-0.0283573403927
-0.0101332262517
-0.0337790006004
0.0453643131198
-0.0276794097436
0.0236647062393
-0.0163475807252
0.000582195739668
0.00130032124115
-0.257995549398
-0.309419781605
0.168452689138
-0.102565901896
0.187617158938
0.222644492056
0.144669922093
-0.0710561350444
-0.067375068112
-0.0351793287272
0.00622443808084
-0.0136765836353
-0.0407968706958
-0.00735347122897
-0.0324601419342
0.0396204877516
0.0446543764972
0.0478162892157
-0.0246747299144
-0.0269386552257
0.0372875288786
-0.000732573485807
0.0149734432148
0.0104867819658
0.0256578943064
0.0350560580011
0.0382208251208
0.0429344175541
-0.0422029307425
0.0208883245893
0.03501696557
0.0498975985471
-0.00352926567798
0.035090525096
-0.00921144713542
-0.0370339823753
0.0122763769518
0.000670473193911
0.0259725606205
-0.0292923415762
-0.0319834557823
0.0503464389055
-0.0325807442592
0.0359689663586
-0.00214517265892
-0.0187281981388
-0.0312063739927
-0.000976358395663
0.00937584549965
0.0346853216593
-0.133090640949
-0.314736597733
0.204171074164
-0.0407858955232
0.0431694256083
0.0619435753114
-0.239590406762
0.183067136284
0.127383305774
-0.00792643563484
-0.0151851726287
0.0422880347777
0.0383861846957
0.0228465373216
-0.00485100523312
-0.00781145889821
-0.0169537860387
-0.0119677832951
-0.0418734102985
0.0359697836028
0.033710881416
0.0494612820917
-0.0343722691966
0.0033553245483
-0.0130733801884
-0.031122832995
0.012736415429
0.0343304449558
0.0289127232915
0.0101761345464
0.0230981308845
0.0383287667969
-0.00128532645082
0.0164327770009
0.0426833016818
-0.0131473354652
0.00728439655496
0.0260547380014
0.0309306579349
-0.0325275049008
-0.0155558302896
-0.0032529349878
0.000472384810656
-0.0165230527458
-0.032432939386
0.00643886099437
-0.0174451571821
0.0331124590244
0.019972418935
0.00465759370993
0.164714815015
-0.16740812898
0.0452847835558
-0.00401350986206
0.0209325865985
0.102107231211
-0.113037458991
-0.0482987147223
-0.0160069646806
-0.0438245792307
0.00508666180919
0.036056366322
0.000765644229397
0.0236600106724
-0.0376259308742
0.0448134697498
-0.0240704668802
0.0308981979754
-0.025362139122
-0.0367216080451
0.0431844703211
-0.0365320700909
0.0268760911568
-0.0369077878564
-0.00863175362397
0.0337519651417
0.0107170886588
0.0299397683994
-0.00300322676966
-0.0409113355089
-0.0109881922385
-0.0359336963447
0.0189177982179
-0.00368251619135
-0.0269882418221
0.00627532265107
0.0204660978521
-0.00891258084798
-0.00909707251186
0.0318973827392
0.0404635361998
-0.0457070390598
-0.0366189133471
-0.0410095874296
-0.0244623101433
-0.00607928908496
-0.00481418275678
-0.0291495972451
-0.00557960429322
-0.0242794354165
0.109334003679
0.376442245725
-0.249163876614
0.118917664501
-0.125420910297
0.263329624736
-0.0204821463797
-0.25509040533
0.0269545148931
0.014302346351
0.00824189776903
0.0144842342895
0.0383565233735
-0.0437725913796
-0.029051246795
-0.0406362881053
0.018019505329
-0.0381400603122
-0.00590201430008
0.0410908720298
-0.0332155452427
-0.0258966879602
0.00984916739011
-0.000675617275059
0.0129984110618
-0.0187849119911
0.0381035039203
0.0105549966606
-0.0115916456817
0.032561646508
0.0283666157115
-0.00179904357173
-0.0417746803606
0.00802177055998
0.00367300592497
-0.0443213216668
-0.0514138687269
0.0353994086609
0.0307163884513
-0.053916345293
-0.0155651538318
0.0397966966323
0.0372015864101
0.0269334699707
-0.0425931056326
-0.00538135197269
0.0278096360761
0.00188240278279
-0.00566172899209
-0.0258647528797
-0.0609505414032
0.232338312947
-0.179016599838
0.32423994312
-0.0790667570373
0.0291825015217
-0.00286679188993
-0.327044915165
-0.0395793551719
-0.0391259881215
-0.0267486240796
0.0332268480508
-0.00693336549266
-0.0411351432415
-0.0251563573253
0.00605672812973
0.0195513803229
0.0195945272436
-0.0178054333456
0.0180151245528
-0.0354396249422
-0.0177604821767
-0.0197588960666
0.0448179495134
-0.0342728535405
0.0147485321669
-0.0292239575401
0.00949240895667
0.0377288977396
0.0360466261773
0.0177927470994
-0.000143294533623
0.0335339769374
-0.0024032237193
0.00862034344524
0.0395433862316
-0.0103695914034
0.0283460423691
-0.0435755764534
0.0163296252355
-0.01508021842
0.0264630600726
0.00578154451643
0.0543726399447
-0.00480284889584
0.0411619686064
-0.0116749834105
-0.00651263843028
-0.00477664313923
-0.018806841771
-0.0241026798801
0.282078116661
0.010847832555
-0.0444664098758
-0.105315570438
-0.1821818963
0.25515369929
-0.357025955249
0.00372784241801
0.0163257271922
-0.0333703593087
-0.0342943285089
-0.0101555195489
0.0341649372942
0.0434244405407
0.0666133886416
-0.00734383116699
0.00766850574353
0.0171355340899
0.00648789554593
0.0250928995933
0.00377914204446
-0.0327197078297
0.0408352675688
0.0246945812774
0.0279377392609
0.0158651995634
0.0407485494801
-0.00540405732653
-0.0114449049408
-0.0140174086757
-0.027610294065
0.0278373228719
-0.0241494375415
0.041880749257
0.00862344462286
-0.00964189370646
-0.0356716703968
0.00940806038238
0.0402428586129
0.00129677781253
0.0111348769082
0.0258112514196
-0.0207007871948
-0.00849420484074
-0.03028122125
0.00695172337506
-0.0441483315935
0.0548810178747
-0.0771911511259
0.111880984571
0.0211912391994
-0.0830531569245
0.232705938065
-0.0793851551031
-0.103132401628
0.0181882452439
-0.337336612008
0.0982266287233
0.0312206312293
-0.0305864552348
0.0519635569908
0.0397793958858
0.00149150101555
0.0173804983274
-0.0206972374671
-0.0229659355867
-0.0416862588135
-0.0203220825534
0.0564404003444
-0.00115169481282
0.0307503122837
-0.0022093997457
0.0430808690423
-0.00756905394485
0.035901174962
-0.0284658519481
-0.0160461445017
-0.0244852133992
-0.0282898346501
-0.0324714636094
-0.0056340283019
0.0115494342769
-0.0103269514535
-0.00888679548485
-0.0144002364748
0.0032092621594
0.00199769816809
-0.00447244785455
-0.0418374077004
-0.0114898365528
0.0477641681985
0.0128129716976
0.0357253881933
0.0142543558758
0.0345931465052
0.0300560399001
0.0335525973158
-0.0310733473215
-0.106529933216
0.057146748267
0.272797400138
-0.0300372754922
0.028574194009
-0.0121179775781
-0.0422792659291
-0.269155977621
0.0320411952384
0.0552278336335
-0.016365793007
0.0423237416666
-0.030559752708
-0.0382860501887
0.000752963578094
0.0421293222954
-0.0137195266852
0.0368601179227
-0.0306579512456
-0.00524567099957
-0.00129943709463
0.00080386889103
-0.0024759300344
-0.0146265502591
0.0152161025269
-0.0334694378755
-0.00460299027209
0.0332682506934
0.0320732073842
-0.00250195750512
0.0521752545851
-0.014909467476
0.0394044501519
-0.0504489840562
-0.0461241100363
-0.0380119765976
0.00426617482598
-0.0128057349647
-0.0375437006704
0.0480992924645
0.0164213126652
-0.0346363279485
0.00290726145653
-0.0208716196845
0.00829284339311
0.013794580406
-0.0371378401628
-0.0441203829183
0.0297033639244
0.0356775773636
-0.374376373205
-0.0706813652586
-0.0250254186761
-0.062333107649
0.100359242063
0.0435120144108
0.130186665888
-0.158506399861
0.246645535639
0.0485472167819
-0.0229754505823
-0.0372673369968
0.033960663175
-0.0271031645797
0.023360280774
-0.0442583874017
-0.0202088690013
-0.0349805463941
0.0400554197422
-0.045882495277
0.043877161987
0.0281108714184
0.0421663506656
0.0290323226829
0.0238364846996
-0.00289225211393
-0.00250719082218
-0.0158754034532
-0.00501639812204
0.0425073522475
0.0110709179182
-0.0414564243448
0.0211722612529
0.0383358678131
0.049091001523
-0.0255487465442
-0.00853824505284
-0.0310898857987
0.0256865045347
0.00688833184098
0.00648548315517
0.0309912114133
-0.0126658423026
-0.045759993051
0.00974987371946
-0.017194839267
-0.019294961568
-0.011769204576
-0.00678801892303
0.00872141327852
0.0752083095641
-0.0392287960878
0.0450695207187
-0.000739189556858
0.0225752187361
0.00104146760659
0.139137510357
-0.0592088153701
-0.234757635317
-0.0503197796466
-0.0331491660525
-0.0303841971312
-0.0437727539808
0.0351338893841
-0.00132980660233
-0.0103429022817
-0.026588514475
0.00574607910623
-0.0202011187569
-0.0403918668629
0.0334143506804
0.00244677774842
-0.033643798934
0.0186896094705
0.00355797802001
0.0313269100904
-0.0283238986313
0.049071280213
-0.0152228105959
0.0443962729533
0.0286220422012
-0.035776299562
0.048848782778
-0.0317895324565
-0.039447963234
-0.0315457041915
0.0453692790738
0.0453895561989
-0.0291113631749
-0.0427264539013
-0.0392925950072
0.036038793086
0.0108790568586
0.0476147994246
0.0218850495081
0.0356990712121
0.0267399725299
0.0455222971541
0.0461239314164
0.0171111990289
0.0438219421154
0.0216883164535
-0.0374857595359
0.0419924592778
-0.0349588077962
-0.0478028185189
0.044884560149
-0.0565378088418
0.047742920413
-0.0306818612016
0.0220291052959
0.0302555210173
-0.0234977550711
-0.00337539515316
-0.047678257132
0.0196387870955
-9.95457155161e-05
0.00431873322548
-0.0170973501022
-0.0271649081647
0.013144776854
-0.0426991060508
-0.043782842421
-0.0276708975006
-0.00224917847808
0.0288268641092
0.0206996705142
0.0412362334243
0.0442967028624
-0.0192564719975
0.0478016051254
0.0512125233982
-0.03138477902
0.00700329766832
-0.0274747661442
0.0448462916674
0.00474662548143
0.0404613550318
0.0238355519036
-0.0261072085008
0.0467163605958
0.00902998396546
0.0275226625576
0.0141317533642
-0.00257310544646
-0.0419897809888
0.0488218355829
0.0331098968161
0.0211687610595
0.00865512940332
0.0204665809924
0.0686907746122
-0.00715351820606
0.0124540622825
0.0309272340357
-0.00880548292886
-0.0120029509984
0.0476926225368
-0.0169495187173
-0.0370797957862
-0.036211149539
0.0441414052256
-0.0467896124057
-0.0300864005295
-0.0197087471777
0.0018848591091
0.0390314450242
0.0342956838434
0.0358519733962
-0.00100763909381
-0.0451294716834
0.015743070117
-0.0282928330602
0.0251441073582
-0.018314300497
0.0219632089338
-0.039956526294
0.0088572565828
0.0495440243707
-0.00481743601631
-0.0133911461338
0.0410786264058
-0.00833969590743
0.0496423003967
-0.00216853446456
0.0422253769639
-0.0282487049585
0.0246111269892
-0.00505076246723
0.00414330734833
0.0337706086377
0.0158577880175
0.0418088665626
0.0300465735545
-0.0498897223414
-0.0254993192903
0.0351551026424
-0.0224964000848
0.0490159668193
-0.0057491885584
0.035135272415
-0.0744422713886
-0.00622227229215
0.0392572096757
0.114865180549
-0.075265029342
0.0568336088086
0.00401852206071
0.0728825479349
0.00242084151304
0.0231102719308
0.0476191827563
-0.0473474475431
-0.00882457275967
-0.0335076348206
0.0127855002165
0.0370197709698
-0.0425410349212
0.0187330510505
0.0388783103258
-0.0219258913054
0.0460661884837
-0.044281456684
-0.0175905181949
-0.0279358963855
-0.0106092380436
0.0113879078764
-0.0380335705038
-0.000634525336156
-0.0155886291017
0.0187183281326
-0.0293047935073
-0.0123715464454
0.0319442160364
-0.0396457728942
-0.00726932930948
-0.00725900281174
0.00671302177003
-0.0237181897885
-0.00329703034279
0.00215475849695
-0.00526494575484
-0.0437492981801
0.0185191902279
-0.0482516657997
0.0339766149097
0.0106659493204
0.0159363825078
-0.0480105016299
-0.0512441433975
-0.0496633510752
-0.0353652253194
0.0598719851667
0.0343792548819
-0.073181299448
0.0186793929294
-0.0301112886884
-0.000551372692473
0.0181477294616
-0.0620659631522
-0.00599838562198
0.0136722880404
-0.0175115876519
0.0293842860586
-0.00439488591903
0.0103841733433
-0.000133046925684
-0.0223157361286
0.0143784313969
0.0123069713433
-0.0296155493103
-0.0115885505474
-0.0273228931752
-0.0263990714296
-0.0261885892837
0.0162646160513
0.0173240378057
-0.0421189449654
-0.027791163298
-0.0330533319519
0.0173927543542
-0.030181802101
0.022906064092
-0.0471635427414
0.010884104775
0.0253555910722
0.00578735136779
0.00762945213929
0.0499486079946
-0.0365995577213
0.0512615160408
0.052374827361
-0.0033981965161
-0.0463209955382
-0.0152311025298
-0.0420203698716
-0.0256715519013
0.0464046740144
0.0255128202644
0.0503348391419
-0.00964361045986
0.132941558534
-0.00790487270986
-0.00900465116459
-0.00911270848153
0.128115353943
-0.122949391265
-0.125897272552
-0.0397344249909
-0.0686936937784
0.0438942303232
0.0487075118675
0.0379938295487
-0.0284886410031
-0.0117542561964
0.035890905848
0.0220448794953
0.0257008945107
-0.0215622128046
-0.0377624553873
0.0186676311638
0.0455006811855
0.0383455105767
-0.0347209247534
0.00745772557849
0.020499982931
-0.024586072828
0.0295719090224
0.0301412027465
0.0171115011108
-0.0372208279196
-0.0122832328851
-0.0442816995842
0.0112304371482
0.0438322598411
0.0229993686666
-0.0219125999541
0.00383867571175
0.0212570522506
0.0520011783246
-0.0338101376477
0.0500990280236
-0.0423988123768
-0.0300758936445
0.003544322736
0.0405890601488
0.0568920187769
-0.0406684738462
-0.00565868118025
-0.0169382927836
0.109891950023
0.12561562147
0.262557101218
-0.110424709116
-0.254432640475
0.14398692605
0.127155550802
-0.348249041229
-0.280077933628
-0.026998847347
0.00590612481076
0.0322775602657
-0.0389737623932
0.0370981297831
0.000800445451834
0.00323189360233
-0.0311937220659
0.0430824477909
-0.00376101869982
0.0365215819833
0.0162968507583
0.0285987497502
0.0219629160241
0.0254028772359
-0.00112738028392
-0.0313736525222
-0.026057959123
-0.0111958874776
0.0167924550711
-0.0258828866165
0.0612647388154
-0.0101249041091
0.0037851317257
-0.0377304706175
0.00319234671417
0.0281874381818
0.0210890543454
0.0461481410832
-0.0131135706082
-0.032244922426
0.0551212499988
-0.0263306904109
0.0465732171157
-0.032571157252
0.0102696427594
0.0247996943272
-0.00745245085713
0.0243563080819
0.0422352295308
-0.0265900155684
-0.278245503558
-0.0749028553244
0.215774089927
0.00263989897531
-0.0163200546124
0.0536079652519
0.566383666822
-0.251293389308
-0.328531172588
0.0404804565529
-0.0318575726104
0.0244143382003
0.0262548950159
0.0328647087044
0.047230282025
0.0330697509905
-0.010741983617
-0.00945147739503
-0.0197659045287
0.0468352485072
0.0386605545038
-0.0295469635146
-0.0113989585564
0.0276110789416
-0.0024278568457
-0.0272906855009
0.00235147110381
-0.00695018968868
0.0505774560483
0.0324638853072
0.0481297487732
0.0604202913909
-0.00501960496934
0.020969185494
0.0162070381477
0.0436362546464
0.0127258088303
0.00992802925162
0.0557862113754
-0.023587196621
-0.0265317216931
0.0446495763852
0.0212575615159
0.0564875916733
-0.00997628680165
-0.0428445175035
-0.0178706867387
0.0401958298062
-0.0382233769096
0.0523421480933
-0.241784469788
0.155194373272
0.352291445871
-0.210526873466
0.032509029497
-0.107776750178
0.255846013556
-0.0533202530901
-0.174131082603
-0.0529153063827
0.0362210051648
-0.0323014361043
-0.0418997057816
0.0427433348382
-0.0283511986088
-0.00414519907491
0.0258695761478
0.00308015437248
0.0219868824813
0.00524578849368
-0.00492274975489
0.0418274237557
-0.0280094495675
-0.0409992061022
0.0157327453901
0.0434616425864
-0.00621502729396
-0.0213875871099
0.0402897676985
0.0290320284925
0.00202229430269
-0.0265154797093
-0.0257214351189
0.0364466105833
0.024709544791
-0.00458749835163
-0.00616539934285
-0.0360052108855
-0.00848412420926
-0.0308662901241
-0.0395126150539
0.0075088499409
-0.00299552753659
0.0416222549718
-0.0311478406576
0.034986675529
-0.0379420933768
0.0453833173471
-0.00278331017606
0.0258633180487
-0.0784820530267
-0.0710037662314
0.381391796385
-0.318134456117
-0.342529076959
-0.0141953742195
-0.066560626515
0.159974001433
0.192589110008
-0.0703456312305
0.00104599469665
0.0412821167863
0.00371706208168
-0.0185170079525
0.00473998682787
0.0204806024933
0.0109832997656
-6.10098013974e-05
0.00589199617509
-0.00841819108861
-0.0048567176011
0.00447822805987
0.0308962513713
0.0322666660988
-0.0224045912457
-0.00599310366979
-0.0313494907551
0.0169018819719
-0.00932312039489
0.020577150831
-0.0398976167632
-0.0286318836438
0.00670463311334
0.0148392048169
-0.000782987540155
0.0365942082266
0.032197750393
0.0462474038744
-0.0200266238506
0.0413430291636
0.0210116525634
0.00510214284762
0.00364054915651
-0.0250616766836
-0.00179948397632
-0.0238717036521
0.0485620303055
-0.00488917088914
0.0204401205591
0.0038177807302
0.0583782420453
-0.317550180889
-0.386912353156
0.0105123763266
0.0119052959558
0.151465866138
-0.225795993982
-0.107197003803
0.320029491751
0.0893139525532
-0.000417796679887
-0.0213736555538
0.0302608503097
-0.0330418438694
0.052856679848
0.0425421165164
-0.00408580252404
-0.030716211042
0.00596666122571
-0.00731975359935
0.0358314704282
-0.026998087935
0.0455999622079
0.0182133891329
0.0489057911565
0.0431096060803
-0.0163344993828
0.0468566310476
-0.0480100517716
0.0104108848114
0.0549330838718
-0.0153864790104
-0.00291411295942
-0.00230150736329
-0.00187866040841
-0.000730870225009
-0.00824722401329
-0.0177030672375
0.0528143024234
-0.00653648867287
0.0169437921146
0.0107231659725
0.00765769996017
-0.012614907813
0.0521175973365
-0.0439468835722
0.0060325416255
0.0403819074023
0.0354020270451
0.0196776097388
0.0533552054208
-0.378080700135
-0.376539658486
0.14506175984
0.0209234233972
0.0559749567125
-0.015197151431
-0.0419558480439
0.0627184350741
0.175992414929
-0.011530488729
0.0335698296519
0.0159416075611
0.0295952750519
0.0274389438969
0.0139528328573
0.0418228456626
0.0311764436925
-0.0317039410934
-0.00172221419039
0.0499353039797
-0.0234126993697
-0.00415572365922
0.0126130341098
0.0085349875844
0.0380237914438
0.0455769209386
-0.0121182175888
0.00465051637797
0.0174691194007
-0.0316885970517
-0.0072137868494
0.0207104549977
-0.0307463021242
0.0320772552475
-0.0402301625645
-0.0341123003972
-0.0260736375976
0.0259295368134
-0.0280546484155
-0.00803717614944
0.0202055729511
0.0124779617386
0.0613817590695
0.0500019116165
0.021546470851
-0.0311701020317
-0.00937401284185
-0.0040132315947
0.0443419369347
-0.0308080740646
-0.263808954346
-0.277224374494
0.228539052567
-0.113026486505
0.0405862077272
0.159816191707
-0.108897843525
-0.0513484756898
0.223852331204
0.00273692984331
-0.0341628919136
-0.0286071516525
0.018592589453
-0.000570336923109
0.00582227463729
0.0497515136356
0.0166103102736
0.0317825968175
0.034986789847
0.0465584983514
-0.00494781564559
-0.0318058482311
-0.0144759128126
-0.0223185141267
0.00623241326408
0.0290473447487
0.0465938747018
0.00364747732257
0.00855095174056
-0.0111033814677
-0.011758349508
0.0059295332743
-0.0132280602447
0.0301325947447
0.0480367607931
0.0497326717778
0.0163931135475
0.00497728527153
-0.000487549531542
0.00710162658579
-0.00280385856513
0.0187529498408
-0.00523284458985
-0.0264431884434
0.0397010806631
0.0327476222424
-0.0405028645763
0.0295410091987
0.0328260763968
0.0542659967778
0.3281244385
-0.312936802247
-0.12479961585
-0.198613447834
-0.0417603098961
0.186123179038
-0.0707658527759
0.103186782616
0.0834529387415
-0.0193886696523
-0.00451629185199
-0.0407100351032
-0.0342280014065
0.00147749069748
-0.0100873836757
0.0301018265989
0.000238906918243
0.0162369581392
0.0379422012784
-0.0319945075921
0.00794469795819
-0.00224447712388
0.00258968071022
-0.0234977206857
-0.0190392453855
-0.0094381629673
-0.0310895843552
0.0236469881644
-0.0102372334956
0.00371832422364
-0.00158726147747
-0.0347514755521
0.017411034252
0.0126158961808
-0.0155689757249
0.0310475287201
0.0265631138413
-0.0111524529977
0.0444906139285
0.0332112997471
-0.0477741889032
0.0335628325508
0.0176287635812
-0.0206045614869
0.0274372873899
0.0155685864032
0.00398483870358
0.0481704805007
-0.0332395175418
-0.063556254856
0.360539643407
-0.0615139145043
-0.248233126522
0.0986028250502
-0.123698087471
0.227456435878
-0.0390789948571
-0.180512282539
0.128719003696
-0.0376215263331
-0.0165094751975
0.0441524160849
0.0186130148395
0.0113353477564
0.019285869417
-0.025858406626
-0.0099531407594
-0.0205569369697
0.0280389664351
0.0194334184983
0.0148469634524
-0.0282589163436
0.0172704944657
-0.0424460097484
-0.0248294913644
-0.0555577853724
-0.0377092995771
-0.0414304391128
-0.0176244737469
-0.0315148450576
-0.0199368199386
0.0333244806159
0.0162312556269
-0.0448730348945
0.0176530998723
-0.013449785068
-0.00092862200809
-0.017170700779
-0.0168007836204
-0.0070517335365
-0.047865350693
-0.045809816169
-0.0225325495789
-0.0210260470791
0.0214426654002
-0.0387935770811
-0.0157962242107
0.0351221857397
0.0436351606023
-0.087058403923
0.13664321043
0.158328020188
-0.00976101620722
0.412262658381
-0.0918438937383
-0.249523872362
-0.197341904686
-0.0670923706584
0.0265321535779
0.0332189310548
0.0310922907779
0.0296925231331
-0.0195589415299
0.00323025410885
0.038129011474
0.0351031532276
-0.032176939643
0.0291186525059
-0.0016540892234
0.0529530231208
0.0473115571528
0.0184487297996
0.0275601300658
0.0379207692656
0.027346965859
-0.0209011026459
-0.0151246127382
-0.0400887175996
0.000384524788812
0.0338258689471
-0.0326532420547
-0.0273576276516
0.0432248485944
-0.016219279886
0.00726723717788
-0.0287756411685
0.0177119893085
-0.0135137599263
-0.00203696662281
-0.0167870282637
0.0312295112926
-0.0231171969654
0.0325736756723
-0.0152082487013
0.0351246937633
-0.0011214505325
0.0187177282548
0.0121435822797
-0.00267401932099
-0.0828910714433
-0.0155002045043
0.588479864117
0.00171455690554
-0.183822247608
-0.216072660358
-0.30070620539
0.075447624521
-0.0582379740342
-0.155810764496
0.0422936146508
-0.0297294971855
-0.00750030283224
0.0308577986511
0.0122849794354
-0.0419166511599
-0.0218509121014
0.0277463185775
0.0459899548582
0.0378894181688
-0.0110390785232
-0.0182130773715
0.00221411109445
-0.000372000250761
-0.0030231890293
0.0170135994958
0.00879742093319
0.0119590248862
0.0231935788295
-0.0376754060209
0.0486256954911
0.0408544562577
-0.00351427564241
-0.0119225973765
0.0318461210854
0.00463679206318
0.0215217055081
0.00566952276678
0.0126863895993
0.0290838950484
-0.0064084973204
0.028504200997
0.0349682283668
0.0266826004252
0.012324938573
0.0267053061146
-0.0211405145893
-0.0295566761776
0.0274561158198
-0.032563313475
0.122271487878
0.296139538423
0.139843936525
-0.233276524354
-0.0555147679935
-0.27268018282
-0.244158585104
0.138759012144
-0.182958981507
0.0225709055877
0.0115020152578
-0.0339220570896
-0.00230306574654
-0.00992107918603
0.038881675953
-0.0030559966003
-0.0126808538779
-0.0227682622022
0.0100225711085
0.0345842258067
-0.0272925626335
0.0387136383502
-0.0230467381322
-0.0159363309028
0.0505393869338
-0.0261029472065
-0.0226624335261
0.0311330198707
-0.0256366480446
0.0108171943431
-0.00577456769738
0.0462250812877
0.0387763554125
-0.0420343115621
0.0332790642637
-0.0213195199065
0.0359670064799
0.030378042465
-0.0264623553056
0.0138712073252
0.000787185710482
-0.0126306606306
-0.0367440048752
-0.0352567770824
-0.00396131073621
-0.0117269793194
0.0254975809531
-0.0111558803427
0.0308328977095
-0.024167212119
0.232365367389
0.348484121218
0.0428420303821
-0.150647741552
-0.117195262109
-0.247464925204
-0.0874215279251
-0.0691505049852
-0.328065094053
0.172651693571
-0.0111138414837
0.0239410041183
-0.0354166822713
-0.0126931151249
-0.0240775081484
0.0403899993714
-0.00734316952058
0.00861746326396
-0.0166595508138
-0.0180852922794
-0.0383826166717
-0.00818567848676
-0.00133523647115
0.00187142049022
-0.0316837055858
0.0152451505323
0.0229109509825
-0.0187223781673
-0.0305064086046
0.0489654338288
0.00738047969197
-0.0336211523893
-0.0300650416786
0.0422230476019
-0.00515217731415
0.0085518257814
0.0348637178018
0.0245412410404
-0.00574093674468
-0.0279477052598
-0.0225440925875
-0.0240774945859
-0.024768115879
0.0235064148416
-0.0209843385025
0.0046170653159
-0.0024071014298
0.0268603392389
-0.0491364377382
0.0268769090452
-0.0373578142316
-0.190434020067
-0.183388659827
0.0930160737975
0.00701147199939
-0.0772540870051
0.10384391238
-0.022785858651
0.117573596794
0.038202135988
0.00380185757112
0.0236658345893
0.0258414612933
-0.0281545040639
0.0226898633739
0.0217952589159
0.0127955916525
0.0322455610908
-0.0172575240842
0.0296171090453
0.0467095780096
0.0301109236764
-0.0304839837376
0.033906447373
0.041005660472
-0.019173204798
0.026590725253
-0.0266632296677
0.0140746719898
-0.0388599239156
-0.0171715318893
-0.00459991334342
-0.0470963273384
0.0242685038661
0.00588407617531
0.0446155985674
0.0193613492016
-0.0224482087955
-0.0132230491502
-0.0139085401956
0.00627962589387
-0.00270223800094
0.0404334348974
0.0316119754498
-0.0198932708565
0.00367927635016
-0.02846826294
-0.0031402265272
-0.0449279657619
-0.00610852254939
-0.0538760157098
-0.20587106603
0.00356815959431
-0.0963516652395
0.0710458538823
0.0161939136377
0.057896227089
-0.171570091305
0.127485685055
-0.0120685849742
-0.0289519249238
0.00294751890124
-0.00865085760768
-0.0288371879509
0.0503158974611
0.0243189538114
-0.0312132563126
-0.0437755811042
0.01450425483
0.0328357441459
0.00255246556304
0.0526404789585
-0.0380069004275
-0.0347744178377
0.0294387928676
0.0354239677183
-0.0018376035757
-0.0224845881389
-0.00171190810232
0.00894196671202
-0.0312085016671
-0.0131756539287
0.01571287379
0.00212042499006
0.0296778572715
0.00905505189498
0.0250610224447
0.0376573689311
0.0102189060295
-0.0356675182338
0.0162256052956
0.000801317171416
-0.0174047541823
0.0427589903577
0.0444206923847
-0.0324738829508
-0.0338480105257
-0.0128258041754
0.0401541605569
-0.0452014358278
-0.0177909812177
-0.0358445421688
-0.100056146313
-0.0190900994617
-0.0518828224983
0.0394128355561
-0.0218369604092
-0.103394108416
0.0352480939367
0.0376570115301
0.0373122460454
0.00483095612018
0.0464410803102
-0.0288039443293
-0.0315187803825
-0.0445557530118
0.0458208274273
-0.0294743762318
0.00750877331752
0.0563512290584
-0.0402053907983
-0.00550950818607
-0.0259804412847
0.0228708431684
-0.00906346297925
0.0262469496001
-0.018129025879
-0.0336485968151
0.0232250856559
-0.0167872095501
-0.0218802939245
0.0498734442138
0.036428751916
-0.00276430692748
0.00743138491066
-0.0205499404737
0.0289111896529
0.0356148395867
0.0275750164295
-0.000298137982087
-0.0104244608757
0.0261114490974
-0.0328815398343
0.0172217278873
-0.00422288224851
-0.0015098346369
0.0143863216153
0.0259376035401
0.0132995666055
0.011344097835
-0.0137491716486
0.0104977727193
-0.0243032577455
-0.0345111316051
-0.0166069728165
0.0699543338095
-0.0138143538533
0.0272058482145
-0.0526159625171
-0.0202509377886
0.00659079691239
0.0372418535851
0.00415535033458
0.00737177477443
0.0386416543404
0.0495357370966
0.0462165452303
0.0422621438704
0.00327998533124
-0.0359077985746
0.0157522132473
0.00383780224692
-0.0404737845746
0.0193495654305
-0.0134159070721
0.0278477519179
0.0116895584271
0.0421864918261
-0.0248498820044
-0.00743515055816
0.0219713818233
-0.00966336346389
0.0451157551986
0.0401772687936
0.0140134427937
-0.0346044960455
-0.0208929898904
0.0206948554387
-0.0303557453
0.0499515568503
-0.0252299648785
0.0506574798099
0.0250538967506
0.0344922188735
0.000558631916259
-0.00445359816328
-0.042083345644
-0.0298382285492
0.00699567846423
0.0175593831811
-0.0774504144788
0.0571121383183
-0.0741452485167
0.0484125788006
0.067431095166
-0.0365851357701
0.0436881334299
-0.0422967702625
-0.0371467132438
0.0670831766194
0.0417974253898
-0.00829878999698
0.0514103893871
-0.0420510129969
0.0123836147951
-0.0175189754424
0.0484348792281
-0.0415227867103
0.0443068875866
-0.0458022324472
0.00856642664988
-0.0423018359562
0.0416784779073
0.0308480145028
-0.0251808322664
0.0117164255024
-0.0248992998766
-0.0451821533376
0.0497556100127
-0.0115665246714
0.0455599875658
0.0425488925307
0.0055864908922
0.0181343918987
-0.0338020880352
0.0263424939168
0.0277872817922
0.0489105163922
0.0236482547763
-0.0282847240406
0.0446623986342
0.0491256786205
0.0182262436717
0.0325434934313
-0.0206654685535
0.0424482878282
-0.0457747132962
-0.0136734171156
0.0277496367816
0.0437211935412
0.136449293073
-0.0285825380282
-0.0433656829572
-0.0200513435936
-0.142506744973
0.0908232109785
-0.0598775588862
0.030952262718
-0.0608188340967
-0.0772251677014
-0.0463127304516
-0.0129532088576
0.00257924727907
-0.0167947454122
0.0309772056044
-0.0427696351747
-0.0238119426284
-0.047497970119
0.0492978354556
0.0310851934466
0.0366736932635
-0.0465467902129
-0.0312054406121
0.0451407826892
-0.0319447828671
-0.0417052288706
-0.0151888006198
-0.00832484074855
0.0455184818769
0.02321520718
-0.0210264049967
-0.0280714870696
0.0259867440814
0.0490930724176
-0.0273674617519
-0.0318940941405
0.00281058750727
0.0531258734294
0.0259330592264
0.0273995674008
-0.0205885813218
0.0263496694621
0.0422688295581
-0.0259769565128
0.0319328654414
0.0364743203633
0.0511855682879
-0.00913758853259
0.0177753080368
0.00393626838172
0.367006379607
-0.025945320078
0.134585904419
-0.089506070176
-0.0980281398657
-0.0214217444042
0.0161457894797
-0.0705634334131
-0.114299695276
-0.0882867961735
0.0294180385921
-0.0509007116381
0.0125917361335
0.0341859764064
-0.00775880402139
0.0404275381096
-0.0100646827667
-0.0306641617269
-0.0309919275344
-0.0425989734581
-0.0537834282807
-0.0326754848953
-0.0184577738745
0.0213995648536
0.0281552611628
-0.0226464483604
0.0362033867407
0.0382947772109
-0.0417905634076
-0.00484211674056
-0.0338892844756
-0.0395431282432
-0.0181044318402
-0.0126544343077
-0.0148446770331
0.00269487452411
-0.0642409635385
0.017159619152
-0.00807402267229
0.0200208748898
-0.0202781556331
-0.00775914678212
0.0308273108877
-0.0343818955406
0.0237061260491
0.0404256319206
0.0159873295259
0.0405908277735
-0.0263619450043
0.0033918979868
-0.0202538244995
0.126639663959
0.179730703216
-0.0840187128658
-0.0733660393698
-0.149553699965
0.249837343229
-0.0514189600683
-0.313067054801
0.0194119116431
0.0337973945179
4.21128606227e-05
0.0506728096134
0.0366120006606
0.0456864195977
0.00667398730242
-0.0276556233092
0.0492919755775
0.0263492319415
0.0199822310701
0.00271021584618
-0.0109334103425
0.00277633209816
0.000605360739774
-0.0345919407787
-0.0295340299958
-0.0402596635819
-0.00919218933204
-0.0148623712456
-0.00426150071398
-0.000443320881562
-0.0264688443721
-0.00386209824382
0.0484922261875
0.00171943853679
-0.0161949814195
-0.036196260472
-0.00937648845948
0.00247185827275
-0.0248009369728
0.0319410196489
0.0363338859863
-0.00826205693801
-0.0368028050427
0.0313770708787
0.0333830058153
0.015143494103
-0.0112626348777
-0.00902637793834
-0.00629715990342
-0.20550053583
0.0689466567018
0.0176430788002
-0.0349514018828
-0.0847096055661
-0.245767029607
0.00750201187929
0.343096188056
-0.157347804334
-0.132447353841
0.00158326807083
-0.00595715090413
7.35176659959e-05
-0.00974359406842
0.0306432962043
0.0273048301705
-0.00350706820636
0.0337226164709
0.0112364873777
0.0144855151933
0.0244805456024
0.0291090688244
-0.0225067554498
0.00461381798496
-0.00141212666625
-0.0344315848456
-0.0168315354548
0.0134319559762
-0.000449437509994
0.0198250410769
-0.0180281561407
-0.00626536708854
0.028978387045
0.0356143529203
-0.0453903857753
0.0219277678328
-0.00581417912187
-0.019875322446
0.0257562030661
0.0359231981914
-0.00987807891461
0.0141057422155
-0.0314556281891
0.000477343289851
0.0350639150352
-0.00489454654068
-0.0243131180846
0.0498926026579
0.0197683127733
-0.0237321182053
-0.121876545965
-0.0722000736169
-0.0365460204467
0.0663323533699
0.0886189605549
-0.141554589699
0.155675635381
0.260462707975
-0.0472437738186
-0.299724339638
0.00370535484515
0.0149892097362
0.00156352707219
0.0543076642667
-0.0123517069536
0.0500086468494
0.0104908652604
-0.013301667383
0.043979112662
0.0183838413918
-0.0235516938839
0.00292240186443
-0.0259978485716
0.0340768231644
-0.0114309775574
0.0132304399752
-0.0232751599445
-0.0107031564778
-0.0271581712511
-0.0316009699122
0.0147096960007
0.0140440674728
0.0128765668032
0.0495400586993
0.00666039505257
-0.0371790548448
-0.0309899744338
0.0377133042565
0.0239529985663
0.0207250425133
0.0433080271341
0.0193200906476
-0.0139188601934
-0.0214636474186
-0.0147972300654
0.0286801370888
-0.0180956208685
0.0252485372915
0.0250124869137
-0.0208498278724
-0.0731793460319
-0.140612356008
-0.272706795659
-0.152635784115
0.0159167887891
0.0281084094115
0.133768380347
0.1573689505
0.0357539953328
-0.147801278107
-0.0061229151066
-0.0291600587999
0.0176243387822
0.000817467660795
0.0334878673959
-0.00241974522451
-0.0298676557777
0.00252181391027
-0.0233396602679
-0.0290531900832
-0.0205044766796
0.0337152255157
0.00544251449441
0.0540992262811
0.0333967585752
0.0120473135096
0.0025520427616
-0.0339417136208
0.0276375054913
0.0202551924244
0.0042497686724
-0.0243678943196
-0.0203697214641
-0.00686505147819
0.0148905449874
-0.0173275086572
0.0383606634929
-0.0426002618126
-0.0306923953332
0.014607841463
-0.0210881588266
0.0211242645621
0.0128180332199
-0.00969454354158
-0.00490325981746
0.0261262533152
0.0443198781233
-0.0270555464962
0.0201036148898
0.0430812082749
-0.0111080712939
-0.683382338468
-0.357524508023
0.155948767305
0.245602018274
0.0587227735592
0.229316920831
0.015473016491
0.191615865121
-0.0391935305006
-0.0645057164052
0.0293504980732
0.0492076013399
0.0399843020312
0.0106044118428
-0.0179620250226
-0.0213474137368
0.0452634063457
-0.00755500370463
-0.0117351977272
-0.0219237924123
0.0566792344643
-0.0331429364486
0.000995929060952
-0.0058718359526
-0.0237812822154
-0.0476458676526
-0.0195920248191
0.0428310532696
-0.0259891199409
0.00515026750524
0.0298963546611
-0.0176598513012
-0.0269647956868
-0.0343951531392
0.050013030454
0.00328852049008
-0.00356594266957
-0.0284440281212
0.0292264261756
0.0401979878025
0.0332148564881
-0.0430930011617
-0.00471882223577
-0.0102250104231
0.0222822442844
0.0135543345226
0.024449902311
0.00331345203117
-0.021925428431
0.0648631707572
-0.529245476941
0.0310748811576
0.505880634348
0.0891018667288
0.0756410382539
-0.199340369776
-0.210696399059
0.149879937583
0.0377349138211
0.0110354039455
0.0420850124005
-0.0168716146723
-0.0196861450049
-0.00887432590267
-0.0242657514815
-0.0113217429915
-0.0235086850782
0.0280563075049
0.00628523135975
-0.000237617269338
-0.0238064910173
-0.010702659653
-0.0264897831168
-0.0339535132355
0.0438091971592
0.0273329194191
-0.0215384861781
0.0188796996365
0.0100743818941
-0.0204281472133
-0.033417437896
0.0139118680865
-0.000431456369645
0.0235478790128
-0.0215994385706
0.0566528132453
-0.00658389325461
-0.0380771137061
-0.0379114598349
0.0499869721587
0.0413161544469
0.00869792035777
0.00791541919485
0.0140792663844
0.0388817506096
-0.0109182158342
0.00483219328594
-0.0014372250752
-0.0346904060784
0.0364918778406
0.00457441412501
-0.187277537354
0.276717650498
-0.352131280726
0.114052618496
-0.121591130892
-0.0958537268215
0.0477970614376
0.144219436481
0.0339661807749
0.0328384388341
0.0219623664036
-0.0295711339524
-0.0102042871991
-0.00731182619601
0.0572109664636
0.0312211063246
0.0258350333913
-0.0138914483051
-0.0269953201101
0.0578207773433
0.0128836831959
0.0503036945976
0.0347832249101
0.00114673353042
-0.0403832255581
0.0557328239647
0.0214008129719
0.0195450485223
-0.0457669755412
0.0535878745289
0.00959891916643
0.000826137328127
0.031257562081
0.010350496053
0.0262471972112
-0.00865599697446
0.0338632786513
-0.0362561533089
-0.00426187537593
-0.0136246046501
0.0379433702994
-0.0432051245075
-0.00300855813688
0.0215743405574
0.0280083083608
0.0278983316913
-0.0177467809109
0.00389086146006
0.07317279958
0.161181850997
-0.430270622266
0.203730595552
-0.512165428759
0.0757409072323
-0.00253870919322
-0.159942087479
0.217668253226
0.227990230345
-0.0191869887564
-0.0203669746183
-0.0275140126831
-0.0202355495362
0.0160629735785
0.00779585605464
-0.0103384544092
0.0156964278398
-0.0208315451457
0.0358805166001
0.0404183511176
0.00852713403012
0.00123428646109
-0.0344278968068
-0.00130147518838
0.00721709061551
0.0120776276867
-0.0292143846161
0.00269513894005
0.0260299586464
0.0422250787058
-0.0407165633804
0.0417715757299
-0.0328138908488
0.00603083994933
-0.00960976993541
0.00857470989329
-0.0335545301327
0.0496918062462
0.0266674576451
-0.0240978139588
0.0250646674875
0.0389836597582
0.0549172649701
0.0191335879937
0.0332619407839
0.00280470326512
-0.00826976212298
-0.00696529010802
-0.000393930497081
0.0698891608071
0.164424341227
-0.257039661369
0.151125443182
-0.219438832392
-0.0474553185463
0.0604316629051
-0.0151629398817
-0.221476121671
0.259525903833
0.0167999923001
0.0448338937073
0.0494551989807
0.025514513161
0.0504071509006
0.0187938836237
0.00354684856234
0.0436540958444
0.0115061020855
-0.045843257165
-0.0207966848297
0.00292134044495
-0.03001105168
0.00975410195087
0.00794936547876
-0.0224028610151
0.0114822528697
0.049352410004
-0.0165205884612
-0.0282650491785
-0.0272692013722
0.0199756656622
-0.0368649612467
-0.0360783737421
0.0318663119234
0.0235729035816
-0.0257295324086
-0.0241567673778
0.00492451455156
0.037811770786
-0.013119954133
0.0229395396721
-0.0378415864381
0.0267530467134
-0.00890183751491
0.0171428650773
-0.030703735633
0.0418390139807
-0.0438549847902
0.036611658743
-0.215136604083
0.351802203148
0.156236337362
-0.188477597631
0.34384300622
-0.238641206581
-0.410606371399
-0.167147605897
-0.0197269416866
0.30379363472
-0.0268818528405
0.0477659049128
0.00244446725607
-0.032102028758
0.0181308048006
0.0325630163472
-0.0183038308204
-0.0495112334547
-0.00449623800028
0.00285059680416
-0.0235171385794
0.0444019211143
0.0210383504962
0.0387046379473
-0.0224195253638
0.00821502687993
0.0259869401655
-0.0212106066119
0.0411255888053
0.0237420883469
-0.0217425370849
0.0204386160558
-0.0189106913841
-0.043068168805
-0.0224686245323
0.0444395579661
0.0489932239654
-0.044822654896
-0.0179709296692
0.0210403238076
-0.034626451634
0.0355274629777
-0.0147960373883
0.00868451010936
-0.0252098887145
0.0074921881122
-0.0271545535073
0.00387497261644
0.0121886562887
0.0569684827116
-0.256255285616
0.0676687100041
0.292151650596
-0.164469927275
0.187277756559
-0.224856151571
-0.37963255265
-0.04889669966
0.275361898159
0.049177405509
0.0268007419228
-0.000540739091078
-0.0212226724403
-0.0366268325002
0.0464091005056
-0.0361638676626
0.0223556670737
0.00207771761227
-0.0439851230038
-0.00418310406468
-0.0193256670911
-0.0262651127816
-0.0263518020084
0.000961433115215
0.0555476188868
-0.0283907326848
-0.0327009317179
-0.0141175169314
0.0414288805589
0.0169100501876
-0.0169891146147
-0.0442554341167
-0.0285572740454
0.0364987839171
-0.0108250158741
-0.0301563723131
0.0431828009595
0.0289482232011
0.0230445191816
-0.000875072337274
0.0169091506591
-0.0410198523462
0.0132333077609
-0.0178102137153
-0.0219210032604
0.0413766043359
-0.0221973790537
0.0256509122664
0.0462510558454
0.0299957344436
0.203378571399
-0.0514935653099
-0.0855954645598
-0.202241587118
-0.00721448323879
-0.0502987307131
-0.158654388397
0.144060229265
0.0248193072712
-0.0926901193391
-0.0430939044101
0.0213628337534
0.000217110555527
0.0312832704223
-0.0279600731504
0.0133572504483
0.00880061033734
0.000164073524782
0.0473838612856
-0.0183733629624
-0.0047718677687
-0.0194603396906
-0.0239432693058
0.0199155832852
0.0109557963776
0.0537818644366
0.0328328703667
-0.020592352439
-0.0154635537952
-0.008937320934
-0.0355155731997
-0.0140454207592
0.0346358355599
0.018067626761
0.0347988734613
0.00051561933879
-0.028207667105
0.0269732679197
-0.0161762465197
0.0487869114346
0.0256291253325
-0.00318383825528
0.00940773129005
0.0235469652389
0.0596036759708
-0.0363766977747
0.0387517621697
-0.044402941823
0.0197801054571
0.0296876276859
0.25386413821
0.2584254844
-0.0496628138459
-0.0845770046087
-0.0237892112893
-0.238677368864
-0.0585093248337
-0.0488403948124
-0.172108067846
-0.170100735398
0.00842497514863
0.0391129936874
0.0272141795056
0.0463734477431
-0.0338845591847
-0.0202723737764
-0.0325504619423
-0.033565321959
-6.33423485087e-05
0.0120931016621
0.0307675950735
-0.0178507139712
0.0610095393256
-0.00654024152489
-0.00432366761412
-0.0190288329935
-0.0235677221557
0.033520978802
0.0277101675238
0.0346511004738
0.00236271472951
0.0162507689057
0.00293902197922
-0.0105411570859
0.0411431818064
-0.0114192275733
0.0168588506103
-0.00556397109694
0.0271996979836
0.039197477616
-0.0181181921856
0.0287357153565
-0.0204367786042
-0.0227948976275
-0.0152197507114
0.00634181147608
-0.00423495754961
0.0521815730486
0.0434448958247
0.00294997742309
-0.220494153307
0.116379514607
0.24259878373
0.0144358718772
-0.203824747452
-0.237947229152
0.169496568392
-0.0732670319734
0.107970966599
-0.16872771201
-0.0317913217181
-0.0268859564283
-0.0260193396862
-0.0204816266272
0.013232720913
-0.0249436349957
0.0364050428103
0.00873790745397
-0.0352139018954
0.0338494327915
-0.00677032325296
-0.0205977139001
0.0477948542933
0.017063875242
0.00652960683087
-0.0214009547009
0.00238685623706
-0.00722826668997
0.00798237768364
-0.0185530755059
-0.00851297912934
0.0534878979821
0.00315897425771
0.0157010742171
0.0480716223175
-0.0229932357343
0.0493102908319
-0.0392424241241
0.0422094717839
0.0486617767715
0.0194897812712
0.03203996995
0.00584412733506
0.00849877535897
0.0200341921844
0.0147654490456
0.0319460170959
0.00610943130195
0.0473417186872
0.00551883616988
-0.182526835473
-0.246427839709
0.0732567391773
-0.0498634988793
-0.188144955655
-0.00735892095037
0.375833433277
-0.0816548481832
0.074529136983
-0.0402375256759
-0.00239872071635
0.00800423895849
0.0163075310308
0.0203792477906
-0.0394350239863
0.0386919549625
-0.00398065496766
0.0267342514681
0.0333355900395
-0.0288887240447
0.0302546595728
-0.0366728214693
0.0224341548254
-0.0158969698724
0.0176615756119
0.00173899471211
0.0370754193436
0.0381503237911
0.0405578987068
-0.0163923260564
0.00739537898718
0.0324551116434
0.0176520081108
0.0365498443988
0.0277704680849
0.0482616556727
-0.0326351944104
0.0130087556014
0.0310864647362
0.00130226326056
0.0347471552935
0.00160355874849
-0.0287090924495
0.0337209356192
0.00843730807286
-0.0336594215821
0.0203725602848
-0.0378148857047
-0.0168970432847
-0.0189672201124
0.0902859467109
-0.0055462984156
-0.139653200799
-0.0312946224989
-0.0652083413149
-0.0116719365317
0.0820697378608
-0.141558004362
0.0400820163416
-0.0395349032133
0.0112191991457
-0.00954697168264
0.0385616163138
-0.0271355456284
0.0512548269508
0.00951392372936
0.0242651615629
-0.00487130957757
0.0229656486254
0.0100512535563
-0.0276853421419
-0.0146516306781
-0.00676314618642
-0.0225402010847
-0.0183692224058
0.0245153790306
-0.0157547170657
0.0105158419363
0.017743471954
0.0223084993494
-0.0428590453833
-0.00864318425033
-0.0151586950196
0.0119495320803
-0.0321388909154
-0.0171586597571
-0.0162324553533
0.00750005683164
-0.0120246131685
0.00539648340098
-0.025269573538
-0.0335788781855
-0.000285254144465
-0.0404512330858
-0.0244630148715
-0.00492547547024
-0.0144192929015
