-0.0374490052459
-0.0499380492536
-0.0570425472588
-0.0371458552518
0.102499791822
-0.0548982024401
-0.0130127290305
-0.00385885789784
0.0993755196827
0.0434954433626
-0.0719864393164
0.0798121340995
0.103613062227
0.00762974003168
-0.0575582632765
-0.0107701396373
0.0366814351995
0.0343904457462
0.0665367875178
0.123395226255
-0.0261948901193
0.0965347160315
0.0992149152623
-0.0065020805386
0.0216667051386
0.0160104241982
-0.0823230955536
-0.144311278497
0.083924189823
0.20048249679
0.0495360112095
0.0702389556995
-0.0945804258026
0.146533741473
0.0410660659633
-0.0530496945744
-0.0253991825963
0.057567116215
-0.121070721917
0.0129731820301
-0.0413893512937
-0.0183566056905
0.013272962724
0.0703900109706
-0.00922380862443
0.0417570967739
0.0303058665908
-0.113829587562
0.0915397902423
-0.074015764631
0.00198432187922
-0.0528056510586
-0.048479107423
0.0337049248107
0.0942015673028
0.0282092994218
0.0945071118799
0.0614088894201
-0.00336852675036
-0.0974344269187
0.00611221961251
0.057169716249
-0.0674632510918
-0.088155432393
0.0609365178998
-0.100046906878
-0.0539031818058
0.0384682158412
-0.00957996694859
-0.00279193331663
0.0330293032989
0.0793169404109
-0.0446222554562
-0.0723468158004
0.0725264128649
-0.0310711723846
0.0847647077658
-0.015414608826
0.0838306312228
0.0312635911601
0.0826090153643
-0.0453210593598
-0.0164912833008
-0.0913049465109
-0.0251138923077
-0.0319306198023
-0.00332131920998
0.0448732497073
0.0025198721543
0.0915501922589
-0.00738257983613
0.0300069795909
-0.00284799030528
-0.0581811902349
0.0391610819183
-0.078484275165
0.0775788025686
0.0575680857761
-0.0931890851705
-0.0261003012219
0.0448129974674
0.0438405224762
0.082284239671
-0.023267173015
0.0569919919119
0.0167338816701
0.0869376410117
-0.105921167156
-0.0543332754909
0.0630081451213
-0.0553127269853
0.0527606510727
-0.102811758675
-0.0275452648548
-0.083755090576
0.0183208295931
-0.0743408709124
-0.0491318271066
0.082167255416
-0.0276685632864
-0.0683195567658
0.0815884701303
-0.0109568688292
0.00996820600354
-0.0672617455993
0.0391194731836
0.0479988204016
-0.0478847324296
0.0594208823445
0.076199462036
-0.0120462905035
-0.0814878730587
0.0640419720109
-0.0402436288411
-0.0297684609431
-0.0964955184692
-0.0983170418619
0.0343047767352
-0.0576309604094
-0.0826613618352
-0.0256393906158
0.0327582621
0.101845627253
0.0653537601445
0.0642794856157
-0.0854252715901
-0.0310921921627
-0.0874022095427
0.0779208948018
-0.0716735593499
0.0906229579066
-0.0230378824141
0.041294502035
0.0476070502707
0.00345327405486
-0.0225280433324
-0.0280933129706
-0.0914196715942
0.0112349935545
0.0308714921002
-0.0177964923737
0.0288356116967
0.0684854922846
0.00773974456192
-0.0632974374829
0.074888556662
0.0481251902584
-0.0376043900132
-0.0771912473485
-0.101562791939
-0.101636822371
-0.0431770283739
0.0360158229632
0.0653372909215
0.00545993669712
-0.00459552511531
-0.0109740232098
0.0625375381219
0.050589257101
0.100277901529
0.0505642702234
0.0418900007667
0.0780837588625
-0.0830681953921
-0.0453316668844
0.0290749088311
-0.0380437627888
0.0902712239254
0.045770989509
0.0261066705902
-0.0154518939054
0.033968709617
0.0938139226413
0.0966782776978
0.0799977772182
-0.0365560733456
0.076683323435
-0.103195090697
0.0720946988467
-0.0625301548182
0.0769345110887
-0.0625484862657
0.0394456240166
-0.0153061915146
0.0956778844764
-0.00524587763717
0.0411083528178
-0.0333042651693
-0.0786782998155
-0.050823420691
-0.0183071060417
0.0371740398504
-0.0830358552873
0.00116932381623
0.0996719690808
0.0310487453423
0.0481294287256
0.0966930609396
0.0960764973089
-0.0578039692466
0.0227679952774
0.0998428499549
-0.102057181699
-0.0815616389643
-0.0430985326102
-0.0758443031692
0.0946606130318
0.0498513521179
0.10508679231
-0.0512106522894
-0.0497684474127
0.0222376088463
-0.0552351786658
0.0481150670477
0.0276621858757
-0.0579995574672
-0.10230215665
-0.103497249079
-0.0117646599627
0.0418573121264
-0.0721908186893
0.0243947270641
-0.0954968820074
0.0572362573345
-0.0501030309472
-0.0136799675528
-0.0731513337453
0.00674332837967
-0.00765386220394
-0.0931086661752
0.0770460589748
-0.0168259286181
-0.00329420058147
-0.072414996042
0.088554658265
0.0960845600584
0.0171696561749
0.0343227453492
-0.0704155973309
0.0918186873258
0.0370606579627
0.0179186994905
-0.0594120029063
0.0887569333616
0.0853131806946
0.0775412504924
-0.103259862753
0.0360789850438
0.0480326484482
-0.0645581504909
0.0858835816664
-0.0956564098203
0.0848602956017
-0.100212223855
-0.102101162745
0.0620763598065
0.097009177887
-0.107012849205
-0.0862336286469
-0.0327878023353
-0.0117860947685
0.0248875427722
-0.01730301914
0.0587414101631
-0.0591615976352
0.0493017991009
-0.0314521951491
-0.0841869535304
-0.0983495753306
-0.0203871801146
-0.00026672171779
-0.102128143879
-0.0260773509628
-0.0698865109123
0.0217160167312
-0.0545729413666
-0.0416670234296
0.0982071301475
-0.0924051913289
-0.0277554788008
0.0162910835882
0.072515852403
0.0440073438973
0.0901758047565
0.0211981752025
-0.0946097146431
-0.0956764005334
-0.0602351325095
-0.00825122043883
-0.102248319293
-0.00576623200451
0.0998344551093
0.0589995986415
-0.0150260007408
-0.0672758324943
0.0749261420236
-0.0698495816103
0.0751212764857
-0.0934683071018
-0.105885278367
0.0884424374118
0.0493585818368
-0.00118187087918
-0.0412166878954
0.0279995471765
-0.00457478746229
-0.0200379388938
0.0372086237942
0.0716706697308
-0.0840700594322
0.0826492597585
-0.0541529753841
-0.0252871313029
0.0463784540191
-0.078842329215
0.0882897001487
0.0519203836859
-0.0100665309806
-0.0628074141279
0.0408901082622
0.0129733941689
0.0739830033262
0.0607609778239
0.0884261160938
-0.0836811462621
-0.078618422329
0.0917290707511
0.0558498021977
-0.0541583418985
-0.0420293238524
-0.043538249237
-0.0476189119256
0.0551926680261
-0.0678265651401
-0.0780110619384
0.00209959091812
0.0586138053153
-0.0916715685889
-0.0305828791616
-0.0288244691861
0.00520950554232
0.0128985597294
0.0661993051602
-0.00307102383024
0.0174771031536
0.0668402163985
0.0668493105319
0.0181349318026
-0.0478009368862
-0.0901782918084
0.044315904477
0.0629030535513
-0.102355614181
-0.0252659595139
0.0770358208384
-0.0884211786456
-0.0702332453476
-0.0654294981087
-0.0938794299416
-0.107590296165
0.0303241254151
-0.03593064981
-0.0299852620376
0.03710288205
0.0922897349799
-0.0289883704212
0.0583886239686
0.0483813377531
-0.0302033414069
0.0862844543977
-0.00237327635221
-0.0746990038722
0.0353011646642
-0.0192240610895
-0.0646806602628
-0.026211415813
0.0664209336027
0.101991267525
0.0600445068802
0.0292036342982
-0.0394358857199
-0.0506158876893
0.0380304547957
-0.0249947588534
0.021591195133
-0.0836874578831
-0.0281987472794
0.070192372363
-0.0727257338322
-0.102850253903
0.00981511646242
-0.0335305606695
-0.0386849641382
0.0921489513562
0.100376170496
0.103390044708
0.0447298417448
-0.0165726920276
-0.0991696186323
-0.0238356197801
-0.032598945375
0.0382985995093
0.0597255635843
0.014882294306
-0.0347241569574
-0.0024535609843
-0.00608601499159
0.0076282202475
-0.0427404676358
0.0364186098654
0.0833525363208
-0.0813481928825
0.0280933240031
0.0404653346505
-0.0306778503826
-0.0332127909916
-0.0135089502272
-0.0765560836215
-0.0662269754016
-0.0522308027709
0.0523894649335
0.0217266922719
-0.00735816971262
0.0175380735129
-0.0442851945251
-0.00251379786874
0.00665882872015
0.0528657642659
-0.0918177287586
0.0131809897328
0.0754240977473
-0.0116536480155
-0.072246047757
0.0800252794674
-0.0429081476
-0.081100598441
0.0637145736076
-0.00967930899192
0.0880031133593
0.071921189232
-0.0133366784817
-0.016824826526
-0.042132620042
-0.0836080440254
-0.033114117928
0.0216439993524
0.0601909673749
-0.0894825951169
0.0690122259744
-0.0256488964849
0.0499179151586
0.0551455281771
0.0387552573842
-0.0142888868592
-0.0559931833298
-0.0154624999349
-0.0086727849095
0.0378262977705
-0.0455323680438
0.0878488199794
-0.0512936130957
0.0921710966828
-0.0343810373848
-0.0453469534991
-0.101657772444
0.0153693023791
0.095026179228
0.0547901617027
0.0596790202154
0.104471347441
-0.0584177765501
-0.0352944149216
0.0471754906139
0.102897440555
-0.0082247781957
-0.0300970981285
-0.0402782518069
0.0239076853551
0.10088361393
0.0415605428473
0.0377493570822
-0.0355966729982
-0.0387907759135
-0.0352211388407
-0.0951377864402
-0.0719398472831
-0.0333826009481
-0.0502193751571
-0.0533467565784
0.0030072425285
-0.0818195119884
0.0825276436783
-0.0615053037611
-0.0226683198177
0.0243282418686
0.0572657195901
-0.00260703348606
0.0839378569908
-0.0587336727726
0.0409604172666
-0.0974323655042
-0.0057147258367
0.0456032669997
0.0554466078651
0.0219561627573
0.0788575703812
0.0303704341008
-0.0608760664434
0.0188597497861
-0.00394392461915
0.0916267905835
-0.0989696015336
0.0577226971133
0.00661083136748
0.0108344684053
-0.0862467457159
0.0777478334095
-0.0608630397483
-0.028490365892
-0.0124774122028
0.0118183542319
-0.106364151737
0.0885467688753
0.0320033000222
0.0536074122342
-0.0485889751786
-0.0768555341989
-0.078006235289
0.0357722201701
-0.0644172389654
-0.0359173178001
0.0359615958242
0.0155833735677
-0.0495873075624
0.0775673298152
0.0676739405744
0.0367394868048
-0.00384734959999
0.0617282399357
-0.0318111369902
0.0163830996065
-0.00139397367578
0.105768462574
-0.0873351341156
0.00307708007369
-0.0356256369866
0.0338349981635
0.0280911496043
0.0328501506096
-0.0951920596429
0.0142436485189
-0.0852103910343
-0.0125810235932
-0.0884903567382
0.100997043969
0.00534662732631
0.0602124088447
0.0425229574561
0.0304626977412
-0.0300050780225
0.0740033523114
0.00427452222749
-0.0571643214575
0.082697964084
0.0608752291395
-0.0775826646851
0.100830159999
0.0360572082426
-0.0954601206727
0.0919387907984
0.0509462859895
-0.00205234783626
-0.00399476472282
0.0666640264604
-0.0836919557764
0.0400975690689
0.0826014794746
0.0914652382683
-0.0619930730404
-0.0229046918241
-0.00862500132789
0.0842153528609
-0.0414834194535
0.0370925227613
-0.0301149635115
-0.0193057843968
-0.0314584934808
-0.0878737952866
-0.094601772726
-0.0509263668125
0.0935746735888
0.0060196312971
0.101545773781
0.00193847344163
-0.07401558457
0.0750480867364
-0.028699032249
0.0889401226371
0.0877345223297
0.00390477613021
0.0796954580722
-0.0186482457321
-0.0815400568804
-0.0106243296322
-0.0393370037382
-0.0711242464679
-0.0330537088661
0.111773548413
-0.0382492651142
0.116221661003
0.0825594239432
0.0743373634187
-0.0610154093065
-0.0802442570352
0.0821209892167
-0.0227426033548
0.0444310970469
0.0897563458364
-0.0375534483689
-0.0439968262023
0.00903793264722
0.0525276697636
0.0451453915052
-0.0812018983236
0.0077390111101
0.0858716795969
-0.0982500291496
-0.0701012761942
-0.0213043615979
-0.0610106594441
0.0552725189252
0.0319916343773
-0.0153978765238
-0.0488139505945
-0.00621856572063
-0.0564473012796
0.00131042386165
0.0936182874366
0.093227015753
-0.044225076201
0.094617989773
-0.0643753617012
-0.0443986204416
0.0451673445762
-0.0387400308862
-0.0999868804269
0.0389698491497
-0.114962152927
0.106619951294
-0.00403610587403
0.0604057180625
0.0694261097662
-0.0434812238602
-0.0663417799791
-0.0128701579294
0.0143525355965
-0.0283699259217
-0.048996101136
-0.0220713506926
-0.0464195845899
0.0356917159342
-0.094018986803
0.0975888010306
0.076192371225
-0.110277673001
-0.0687748563943
0.0130664909447
-0.00193597985653
0.00585269145884
0.0609443780403
0.0113150437629
-0.0961963344245
0.0518995997256
0.0225390798079
0.0908708399454
-0.061698765327
-0.0665498004934
-0.0143056108761
-0.0388069848413
-0.00825092898395
0.012973948386
0.0736851283955
-0.104936374008
-0.0765367902292
-0.101982043136
0.0511052827049
-0.0384151493888
0.0543126348898
-0.0952277516233
-0.0861689338909
0.0656165349662
-0.0460838025283
-0.0636329843054
-0.0486791615164
0.0778409838688
-0.0256878154355
-0.0160360918967
0.069253761951
-0.000613218731814
-0.0312761236001
0.106717416071
0.0261126024386
-0.0616484367903
0.100886001917
0.0339465713059
0.0212449438401
0.0832211649316
-0.00288981254712
-0.0934109985641
-0.064940665711
-0.0771508236325
0.0942849388844
-0.0354083277357
-0.0170996980283
0.079755348671
-0.0387919128301
0.0693788176036
-0.0829664657436
0.105778859642
-0.0171139041813
0.0588045643833
-0.0443962096158
-0.0268793376602
0.0666229560476
-0.0877142019446
0.0701915523122
0.0296937354363
0.0128233179181
-0.0596954390981
0.0934963829976
0.0991899670513
-0.0451481225575
-0.0509023032144
0.0593224360615
0.0262827504775
0.0246218555515
-0.0135935949673
-0.048324950262
-0.0321621133011
-0.0350997162962
-0.00136180780126
0.0969591026022
0.0912936207442
0.0732493825384
-0.0162524037524
-0.0586239711149
-0.0523784797335
0.0125919613425
0.0927479993584
0.0887096705177
-0.048888260859
5.09552727666e-06
0.044997704699
-0.00730970879312
0.0673071967253
-0.0425019271281
0.0964639747702
0.0241270782185
0.074482004903
-0.0597220008287
-0.00256028361261
0.00587221931149
0.100935676653
-0.0237014716101
-0.0344045169322
-0.0844757230826
-0.00928104951614
0.0108664087348
0.0724172252018
-0.0241242615002
-0.0848426422889
0.0699807123612
0.00343713769434
0.0746864909986
0.00832746224116
-0.0390534925757
0.0591441051316
-0.0526392682071
-0.0218644450633
0.0126888308969
-0.0839185728375
0.0994079249314
-0.0957894245133
-0.0794742531849
0.0796076774917
-0.0820915269927
-0.0017324976671
-0.0460761649213
0.0615939411598
-0.0665192965557
-0.0826917224952
0.0906654894134
0.0669838951573
-0.0714324696688
0.0838797846669
-0.00191565571729
-0.0722320668464
0.0284583313075
0.0838838969467
-0.0466855688782
0.0405565305053
-0.0953403209774
0.0263354417797
-0.0307010496493
-0.0847477681969
-0.00995712203319
0.0121930524697
0.0932050772717
0.0767656339897
0.10026233589
0.0541633691267
0.072186115702
0.0612858417925
-0.0666830449487
0.0173646650274
-0.0920140264303
-0.104005957844
-0.0191279856171
-0.0821483873223
-0.0714748482137
0.02156969651
0.0528950766513
-0.0393716541924
0.0753362985884
-0.0761625638536
-0.101006583612
0.0708375769541
-0.0433960824357
-0.0199081979891
0.0190479824943
-0.0321138399562
-0.0522995532659
0.0694597011856
-0.00740343819125
-0.0265834659247
0.0698006492951
0.0212946114303
-0.0300091037481
-0.0883744681511
-0.0441047566475
0.00688321746889
-0.00112070842242
-0.0720832896044
0.043338363863
0.0883477768153
0.0594192052249
-0.0665878653877
-0.0939787963362
0.0188365244463
-0.0440750517554
0.0418045269511
0.0327281210826
0.0616781051907
0.0691484359661
0.040327707028
0.020568299944
-0.0460444471403
-0.0204128355984
-0.0506492820013
0.0755077869468
-0.0580618886333
-0.0908170806091
0.0581435056281
0.00484440931545
0.0255104400498
-0.0861522162527
0.0597244855335
0.0493351146752
0.0986876197
-0.114249863784
-0.0481366976009
-0.0937223900167
-0.091467036079
0.0808455668316
0.00670614020029
-0.0933336616041
0.0380378754947
0.0824920286989
0.0217137623883
0.0852257593289
-0.0794850460157
-0.0488174217873
0.0494464156239
0.0561109936546
-0.00955374810205
-0.0791928476974
0.00818180668456
0.00748570652713
0.038991511027
0.0224184409694
0.0840265550476
0.052105271532
0.0971713606817
-0.0903265818473
0.0379959044806
-0.074312615289
0.0426234538824
-0.00782605548414
0.0712964064597
-0.0698607478284
-0.0392175687376
0.0644117300332
0.0181793613548
-0.0278191644758
-0.0799340840933
-0.0451806636676
-0.0427606217938
-0.0337340624474
-0.0580280069684
-0.0235387125865
0.0129022154891
0.0701762460958
0.077460743163
0.0540250236819
-0.112441512169
0.0961032432462
-0.0388442500423
0.0400775533548
0.0556085389509
-0.0646849024029
0.022784614374
0.0984891982408
-0.00865428957903
0.0846895547678
-0.0448233489173
0.0632509217061
-0.0704613329774
-0.0476044514855
-0.0945211226952
-0.079161047683
0.0773189523089
-0.051449046144
-0.0412333503915
0.0683006990028
0.0746504955887
-0.0746195126191
-0.0919602944943
-0.0894697722493
0.062605283353
0.10164294047
-0.101024845005
0.0906837106209
-0.0453366620422
0.0200700281766
0.0170900287266
0.089835225516
-0.0609823537178
-0.0492743724811
0.0373006377678
0.0744973461335
0.064684953069
0.0547319312473
-0.0702207043248
-0.0642480599724
0.0317563261095
0.0382581387102
0.0209030109771
0.0777420893154
-0.0761273034172
-0.0943371905453
-0.0996125429111
-0.0728821929841
0.0161095539986
0.00199726904883
-0.0307588869578
-0.0865719668685
-0.00370537716094
-0.00858758244286
-0.032288313303
0.0913097026855
0.0350604605976
0.0193272143169
-0.014605485893
-0.0449542596407
0.00189650390578
0.0491587041618
0.0435845397699
0.0360554609937
0.0232905671967
-0.0112733282042
-0.0871847923399
-0.0730897839969
-0.0398409717247
-0.012931904799
-0.0630185105948
0.007116535491
-0.0628561509625
-0.00437642635926
0.0385985847897
-0.0126630535216
-0.0763039091285
-0.102967685579
0.0477147883716
0.0824119492919
0.0319101008985
-0.0757110741854
0.0456481791383
0.0996354495344
-0.00453569828764
-0.0263975060268
0.0245424487592
0.0462613754601
0.0829145416961
0.0944575335297
0.0992884746114
0.0966783354335
-0.0274243613574
-0.0715085361166
0.0762434192887
0.0571834646364
0.0566319019525
-0.0711017971847
-0.0465262531807
0.0354506574671
-0.0614338246962
0.0947613695949
-0.0973595042177
0.00925618158897
-0.0905634982651
0.0317198087956
0.0275570439162
0.0491394242464
-0.0480359175673
0.0666109064766
-0.0323116656992
-0.0592309708905
0.0496101762173
-0.0334265314664
0.0305228772392
-0.0543121680036
-0.104043376865
0.0997770503839
-0.0954199159331
-0.0436854634191
-0.0788773766279
0.0895024864109
-0.0577069105368
0.053376694145
0.0440181197656
-0.0398667726647
0.0434703875246
0.0848883885223
0.0942238609725
0.064097209377
-0.0833071525472
0.00326371755406
-0.0400520505809
0.0576751369254
0.0475532988762
-0.0304283876108
-0.0136015138377
0.0621405174375
0.0986482363677
-0.0927972530717
-0.0423328845283
0.0730880358975
-0.0868911560379
0.0816895913575
0.07169304991
-0.0155794853275
-0.0339328981838
-0.0412768421431
-0.0148549277112
0.0554686526081
0.0881292408515
0.0656873762455
-0.0728576014791
0.0176072907161
-0.0864071094484
0.0254112268101
-0.00277057031787
0.0751085171457
-0.0929373302916
-0.0758292641059
0.0213277847341
0.0761328349285
-0.0338602732872
0.0448723299301
0.0184228168145
-0.00169867628576
0.0883271728899
-0.0203275150488
-0.011888136892
-0.0593912380347
-0.0697379747065
0.00231596744033
-0.026150854773
-0.0859898342894
-0.0755876404143
0.0793775716044
-0.0387506772589
0.0449032260195
-0.0531115135912
-0.0992583957555
-0.0321549062386
0.107000984567
-0.0594900136067
0.0695086722176
-0.0550302179584
-0.0825651002566
-0.0218524963151
0.0817482343893
0.048743439479
0.0911715014457
-0.0603659974557
-0.0589652429052
0.0559623028451
-0.0941429998526
0.0683861202387
0.0925157749992
0.0078027396097
0.00849416906542
0.103126924959
-0.00647899568245
-0.0562470417326
-0.0605673706404
-0.0164196491913
-0.0332458710138
-0.0664137276744
-0.0659350543148
0.09886174963
0.00981660539398
0.0661207025697
-0.0347660174379
-0.0745010559493
0.0313699692689
0.0926739844188
0.0216653542182
0.0553183133134
-0.0218034590545
-0.0245738653961
0.0278306552004
-0.0987936548868
0.062746728204
-0.0252898161003
-0.0645210025194
-0.0764311273125
-0.0975291381691
0.0265407926764
-0.00723759483841
-0.0888254352818
-0.019505479138
-0.0259715768244
-0.025188621957
-0.0156339159093
0.00117736308079
-0.00441657444789
0.0873709958696
0.0928730465426
-0.086076958993
0.0511178206029
0.00140284025434
0.0617931802212
-0.0724604816309
-0.0452978745801
0.0318112236525
-0.0841169263225
-0.0351902046083
0.0279414352507
-0.0788712122526
0.0316339234898
-0.0155805423008
0.0865558782115
0.0372605165971
-0.0513284047053
0.0836962481928
0.0141694193672
-0.0803963479171
-0.0534512013464
0.0427317480859
-0.0252098072654
-0.102439515833
-0.0735118514139
0.0834638940873
-0.0286580821435
0.104172203595
-0.0758120695753
0.0270784092082
-0.0252048658442
0.00733897673184
0.0400641435973
-0.0826819818258
0.104753992274
0.0488188679025
-0.0664147969833
-0.0561292478328
-0.0379107424408
0.00712792136468
0.0846461362644
-0.0553127303516
-0.0901048500669
-0.00289352886965
0.0916287713763
-0.011457579294
-0.0753321766555
-0.0404415233937
-0.0534862587222
-0.0904235708409
0.0293838636658
0.0673903712364
-0.0180942281321
0.0943885022862
-0.00735497131736
-0.0807109059584
-0.103148028423
-0.0207339676641
0.00222215467497
-0.0490451626842
0.00776682599485
0.0316152070257
0.0602430610313
-0.0444992854806
-0.0492238281048
-0.0241402849663
0.070815708533
0.0549606867227
0.0752701554297
-0.0548042396166
0.0818779215053
0.032429285391
-0.0162105248793
0.103249100942
0.00523768056337
-0.0683782674962
0.101013490697
-0.0236573092885
0.0339944837402
0.0163080407618
0.0232331044607
0.0866380282486
-0.0314903987805
-0.0271148508809
-0.0314714795715
-0.00862722731119
-0.0437672553237
0.0540272550522
-0.00924440747249
0.0696806627788
0.0849940469894
-0.0770261975416
0.0708653233181
0.0682804641621
-0.0781485271813
0.0715659065535
0.0486289268591
-0.0935653535624
-0.0713586155399
0.0542393943036
0.0497219543233
0.0748235671377
-0.090120284023
-0.0731567421414
0.0726593131576
-0.0374035687302
-0.0965237897302
0.03527177131
0.00626228443127
-0.0916223286785
0.08069773838
-0.0511563151946
0.0872746927542
-0.0477639343996
-0.0827226613527
-0.00177829764164
-0.0218186834262
-0.0501018059201
0.0800705773128
0.00490607498098
-0.102703038481
-0.0431798668025
-0.00819422041811
0.0583225345697
-0.0424115607156
-0.0620655197746
0.0446286499128
0.0328964864688
0.0108194877418
0.00449671597697
0.0785672251126
0.0778724825119
0.06868147232
-0.0947874614994
-0.0204173852656
-0.0112218330696
0.0598550873456
0.0936109732982
0.00589919584161
-0.0372938244259
0.0915418430412
0.0976058175515
-0.0469511286025
0.0922979363795
-0.000160662364146
-0.0394740112122
0.000962426960873
-0.0781995171681
0.0880512860713
-0.0816808050762
0.0343821382494
0.0836655022051
0.0874563347278
-0.108156454818
0.0522062892566
-0.00792965897385
-0.0906459088977
0.078457425263
0.0883831359753
-0.0275343508941
-0.025164757595
0.0863981106476
-0.0495022630806
0.0260526538022
-0.0503174455688
-0.0341897665754
-0.0457219044017
0.0346673195875
-0.0104858383416
0.0615565032425
-0.0893654194242
-0.0440031281699
-0.0436362247168
-0.00422911549295
-0.0994161152586
-0.0277757716202
0.00680966934852
0.0558765262783
0.0445631848044
0.103890711829
0.00771471418231
-0.0044835430871
-0.0622135089069
-0.0274393864851
0.0274801294503
0.0474004899193
0.0788323024397
-0.0497496792488
0.0415639273561
0.0656583936432
-0.0862290012564
-0.00316566235549
-0.0220886622324
-0.0642333377928
-0.075584554991
0.00695182570149
0.0304614765096
-0.0140935842051
-0.043558597754
-0.116260260458
-0.0990585757698
-0.00444792751794
0.106390092577
0.100262783576
-0.0671993062363
0.0945730965521
-0.0507660486209
-0.0117220802623
0.0524329668611
-0.0405349218313
-0.0346949413899
0.01591631614
-0.0340618838466
-0.0569859009328
-0.0370467191001
-0.0287668472643
0.0656408167812
-0.0684959530703
0.0307719473877
0.0537790489217
-0.051784991726
0.0895227432785
-0.0841968624672
0.0426621647533
0.0759235598343
-0.00371457377048
-0.0304591662413
-0.0297404743404
0.00572783718068
-0.0728640465947
0.0830888291633
0.0648654668062
0.0836686450645
0.0500467327116
-0.0557023610121
-0.00685315114428
0.109180505774
-0.0653016030866
0.0955953805277
0.0881621166513
-0.0605921747176
-0.0230066535746
-0.0526535502975
0.00407794021866
0.0205413300466
0.0667167098303
0.0486455340468
-0.0411887971285
-0.0488986083349
0.0739753889464
-0.0313036107991
-0.103284684589
0.0995377033778
0.0338999273698
-0.0460346971568
0.0190043467042
-0.125393377652
-0.0241979538913
0.0368660625382
0.0871480019331
-0.0488572611772
0.0198217961525
0.0853807709972
0.0123714154111
-0.00508800056402
0.0801173862024
0.0823896194171
-0.0878991071848
-0.067702613725
-0.0158685073655
0.00555234463288
-0.0550210245267
0.0180444687464
-0.0427070349509
-0.105474726727
0.0822781839097
0.114663453159
0.0203875552434
0.0391904765274
-0.0610829152196
-0.0307442539818
0.0844305150771
-0.0208944460323
0.0592021893382
0.0365515590132
0.077056174707
-0.0758705824033
-0.0855999714289
-0.0150112493196
0.0443295649481
0.102421650648
-0.113816513638
-0.054465952598
-0.00905273022729
0.0343364249157
0.0217270582009
-0.0489615393137
0.0872052176834
0.0732383388955
-0.0735463149938
0.0304368712246
-0.113014984181
-0.0550167340273
0.0988208418207
-0.100627033545
-0.0435208948525
-0.0020523475189
-0.108207118543
0.0332286711972
0.113457758933
0.0537827094296
-0.0474243284885
0.033011204093
-0.0287803019974
-0.0731430705592
-0.0590065073144
0.00221407667671
-0.0429142558781
0.0456080624551
0.0010491370393
0.0604142816659
0.056131694401
0.112469701514
0.0737655065219
-0.076603037941
0.0658170317584
0.0712197709575
-0.00590207049465
-0.0204985466277
0.0717520818606
-0.0893222009297
0.100474010194
0.0739605383853
-0.106900779496
0.091491013371
0.0457362012967
0.0745561354744
-0.0503500363928
-0.0919471173654
0.0712483864654
-0.00766163743586
0.0829372797762
-0.00090348957449
0.0491349109875
-0.0278603604165
0.0746391261126
-0.0209194846096
0.0154962806885
0.00701906297809
0.0237589786163
-0.0585086705596
-0.0264138315905
0.0859231919679
0.0194462140506
0.0782744035599
0.0385165176439
-0.0336305775058
0.0407864271459
-0.00404667639215
0.0628032918044
-0.0345454060648
-0.106660958559
-0.00523566763049
-0.0846124158135
0.0805977824503
-0.0921546729477
-0.0866121009262
0.076952498184
0.0090172698262
-0.0756727628201
-0.0665444325011
0.0285510458644
0.000849284582622
-0.0174633254735
0.0610029349369
0.0528503880693
-0.0961201740198
-0.011946235201
0.0379245832731
-0.0181897262112
0.0666757112115
0.0799057272647
-0.0340925184841
0.067330728849
-0.0883477191037
-0.0900214280129
0.018259606613
0.0119562403403
0.0806840895497
-0.0912287720466
-0.00798156592348
-0.0551221919408
-0.0685519311309
0.00547142350393
-0.056967088265
-0.0743052161504
0.06619587444
0.0730810213229
-0.0585647645292
0.0318272937452
0.0457511841859
-0.05411637724
-0.0765513351133
0.0980068330143
-0.0563962177702
0.107038693814
-0.0738775058155
0.0697059545845
0.0913204420798
-0.0104762099198
-0.0229296642044
0.014743952101
0.00370856938386
-0.0974916969019
0.0314573186831
-0.00288082761929
-0.0648209157248
0.0827802582736
0.0861033148293
-0.0961564589932
-0.048900025964
0.0247901837061
-0.0136196106684
0.0513271647038
-0.0783715881714
0.0660506576142
-0.0933412343156
-0.0141958244789
0.0329255836116
-0.0436397745094
0.00400485902942
0.0333817027725
-0.0558904243681
0.00440937556597
-0.0623808014396
-0.109364653572
-0.0402348371784
-0.104641677656
-0.0793798724848
0.0924127644525
0.00876277842302
0.0544576299713
-0.0743888759869
-0.0143838769142
0.0844580333962
0.0323165441405
-0.0431992279772
0.0526356164551
0.126551573719
0.126841065278
-0.0353766769291
-0.0839116141841
-0.067415599463
0.0621937175631
-0.116950355874
0.11243878514
-0.070617909323
-0.00892287444048
-0.0777138631085
-0.0699505205075
-0.0127028094089
-0.0305778916713
0.0846399740241
-0.0813744767956
0.024123752149
-0.0067618516386
-0.0333573815096
0.0202672085105
0.0702584215037
0.0498450698467
0.0290156205618
0.00773376789659
-0.0843224207537
0.0695025015617
-0.063475768498
0.038563807288
0.082206198098
0.0711522905331
0.0590486547365
0.0562030297777
-0.0549712831374
-0.0379853013981
-0.0698152853361
0.0127247605762
-0.020958204536
0.0588975027522
0.0241976422863
-0.0240148260451
0.0330666577323
0.0791956794166
0.00524622961822
-0.0515076220734
-0.0884362094027
0.0838831668361
0.0253102815994
0.0808497314946
0.0546221961701
-0.100710822643
0.0960216128919
-0.0299793709826
-0.0712171609732
0.0497993926853
-0.0766440397735
0.0138708641706
-0.0305980390875
0.0738086873906
0.081408941055
-0.00927642840986
0.0146289641375
0.0810582069706
0.0381703884865
0.0128659778643
0.0819064585824
0.0460196517847
-0.0469757644172
0.093416205752
-0.0897470047708
-0.0584940887814
-0.0206031106558
-0.0444402499756
0.00048458481047
0.103223411804
-0.0875075582662
-0.0686412484977
0.0283165513331
-0.0556465312902
0.00554480078153
0.0889095743152
-0.1077148483
-0.0050015797687
-0.066563804925
-0.0867106687281
-0.0684141315573
0.0399086577217
0.0787167136286
0.00493328940457
-0.0193383299864
0.000594651050019
-0.0462475577573
0.0206538330108
0.0380381931157
-0.103393998385
-0.0597262077745
0.0639942315677
-0.0994837121793
0.0675038782791
0.0916684879609
-0.00976910745253
0.094489993855
-0.0544506461304
0.0416586333363
0.0615729773231
0.0354532558882
0.0352956675029
0.0756734778186
0.0916443086767
-0.0190655537894
0.086603122441
0.047091741565
-0.00318259362976
0.0556217683651
0.031835397662
-0.0455073154595
0.0506054861302
0.0220029910397
-0.0594647551196
-0.0237995778198
0.110430765282
0.045383944894
0.0452487706849
-0.0496556977358
-0.0365123704865
-0.0736529121125
0.0744589229197
0.0734286201809
-0.0850083663165
0.0712901922586
-0.0197537960716
0.0452889376919
0.0234375262857
-0.0257271074063
-0.0280753656578
0.0968015141744
0.0304649980203
0.0773179848818
-0.102217396667
-0.00522895226902
0.0262428231639
-0.0770545245025
0.0387350643396
-0.0288916877109
-0.0918323010906
-0.0259877012707
-0.0490116340644
0.0544739708409
0.0351371707642
0.110171145184
-0.0845796906694
0.108082703587
0.0741711667977
0.0612585279234
-0.0886013836462
0.031383639719
-0.0562851071122
-0.0648954043854
0.107750049347
-0.0985607906548
-0.083230250767
0.0789642367008
-0.0173520740922
0.01629759691
-0.0683588814731
-0.0662250940536
-0.00246623133149
-0.00156908059443
0.0391222568127
-0.000960108078068
0.0327727630501
-0.102161593176
-0.0111486741002
0.0606332704605
0.0782084568386
-0.0326645283508
0.0465672540899
-0.0144332343218
-0.0838823005079
-0.000848902321765
0.0147266882338
-0.0908263232567
-0.0684367015684
-0.0594949365156
0.097746631183
0.0747769754848
0.105699229235
0.0261911478581
0.0983495442034
-0.00731484548687
0.0171749084109
0.0302170533321
-0.0427080605716
-0.110333351309
-0.0407098367838
0.0593704724268
-0.0281184203449
0.110029960612
0.0672519293788
0.000994052039013
0.106869603088
-0.0895870089824
0.101995720795
0.0077936013272
-0.0549171943574
0.0441246750456
0.00348242953388
0.00808535847747
0.0479026748541
-0.0731922580859
0.0457188816137
-0.093924237418
0.0535995946023
-0.0786026657602
0.0152164618875
0.0284138281673
-0.0311920343375
0.0493336541119
-0.0932558338914
0.0892542460515
0.0576078570326
0.0131344012681
0.0727568820067
0.0915857554694
-0.0647173035942
-0.0549078909686
0.0380194484485
0.0329616299116
-0.0604274630202
0.085153398433
0.0172379289061
-0.00989099763812
-0.0445048241849
0.0775851979007
-0.0894364481776
0.0579500620108
0.00885175346087
0.000899668158934
-0.0950021316296
0.0610986584126
-0.0893722052126
-0.00242786917297
-0.0134739967932
0.0579137404724
-0.0493642337429
0.0290233264642
-0.0770928238115
0.0960674538736
0.0511015517011
0.00476005124026
-0.0386052601972
0.00870230232182
-0.0781477373833
0.0792204924666
-0.0324189424773
0.0427074086801
0.0787253174598
0.00599565338631
-0.0471261764635
-0.0523427518617
-0.0651694732036
-0.0726684648974
-0.0527200594393
-0.106143069222
-0.0051662800543
-0.0461371731852
0.02927173578
0.0441729257662
0.0938003750381
-0.0333031252135
0.0415653380989
0.096516222009
-0.117673532955
-0.0570881153419
-0.105462438219
0.0536322795678
-0.0942608365914
0.0143763577402
-0.0535405717896
0.0493612935465
-0.0283884883802
0.0705636269544
-0.0706621719858
0.0744902674607
0.0326932982135
0.0484504298941
-0.0404038419744
-0.010984676081
-0.0676773597547
0.085745973581
0.0260471789152
0.0899188349852
-0.0366168304025
-0.0689048302524
0.0753571540834
-0.0103439897675
-0.0427468619868
-0.0378124000173
-0.0288028340293
-0.000203580911058
-0.0955575572112
0.0107929214862
0.0401893227455
-0.0170791349484
0.0971391813293
-0.0440442228963
0.0279882247645
0.021107271929
0.0843402513665
-0.0247062024139
-0.0692503990674
-0.101014852996
-0.0819257298255
0.0182468866251
-0.0865795878636
0.0454089506805
0.0343030718729
0.07939932719
0.0610506088815
0.0999005849828
-0.0785692015396
0.0407269853316
-0.0675523113438
0.047921662972
-0.126520765497
-0.060656975277
-0.0152859076359
0.0414509176325
-0.0170072690669
0.0297237440225
0.0281529335702
0.124848540534
-0.00799706829891
0.0974086461522
-0.0912017693399
-0.03161193918
0.0553305066212
0.0354827525749
0.0753087310155
0.000909554028447
0.0231713285076
-0.0814777243098
0.0234848893048
0.0202666803249
0.0391543710177
0.0789360529647
0.0128007536434
-0.0289572477759
0.0984084652841
0.0373169477366
0.0359741029101
-0.0457646890636
-0.078912079303
-0.0484528385755
0.088589788
0.0913975001548
-0.000812966526058
-0.0812313629241
-0.0919230018343
-0.0223144874998
0.0909175651693
-0.0705430136851
-0.0872798860788
0.0829045268161
0.04973257518
0.0808210690884
-0.022259903869
-0.00216915668191
0.103758794525
0.103867489581
0.034744454602
0.100793352913
0.0926871072702
-0.0645190926093
-0.0230433907119
0.0112207324747
-0.0659415872576
0.104476825463
-0.0441303982558
-0.0299990809362
0.0213506362967
0.110772701473
0.0100783371052
-0.0479142111149
-0.0984905646658
-0.0669742237828
-0.0620184995566
0.0292838263405
-0.0853208945432
-0.0872754776532
-0.0187459286763
-0.00264477284818
-0.0338782012512
0.0952033266655
-0.061728758949
0.0414751524518
0.0528808566084
-0.00426456348956
-0.0480254548118
0.0688284725572
0.105624667175
0.0512240641815
0.0273335129447
0.109524541086
0.0251683384375
0.048795894466
-0.104475243095
-0.00194156685326
-0.0108376909747
0.0872115202219
0.0665155902352
0.0643473662425
0.0812427001096
0.0975654906454
-0.0789370376834
0.0511408564347
0.0473295282295
0.0901162243451
0.0683329815303
0.0450573826329
-0.0821495022656
-0.0315357852893
-0.0377810795574
-0.0929265306432
-0.0609369142314
-0.0728934231829
-0.0623868298888
-0.0286140082306
0.0809001243786
0.0503470682867
-0.0602075754139
-0.0733576553772
-0.0131838420156
0.0906438748276
0.0598995590231
0.0696559159988
-0.0356087060326
-0.108154323252
-0.0471331924962
0.0927665277776
0.0490110295007
-0.0674985338268
-0.0937790095876
0.0833094471387
-0.0139155786006
0.100822305597
-0.0988365059745
0.080878368698
-0.100517268825
-0.0452491780488
0.0312090394065
0.0788044754018
0.0188868793685
-0.0244740114869
0.0111821630241
-0.090794741547
0.0335582693685
-0.0827184335436
0.0595921670294
0.070714791556
0.011091643421
-0.0140073065581
-0.0139976768542
0.0377133154735
-0.0467831428299
-0.0900280228913
-0.0749752077245
0.0944177409416
-0.089629078559
0.0574631558763
-0.100075210499
-0.0126690671758
-0.0305209929827
0.0827406848589
0.0326760558332
-0.0913613849415
-0.00237699753006
-0.0819226164882
-0.0884332887706
-0.0700201905308
-0.0626578222033
-0.0541380215907
-0.00383050064727
-0.104271222412
0.0470739015878
0.0604410626307
-0.0195728780199
0.108222770343
-0.105783455872
0.0649263270971
0.0763009227761
-0.0859956061637
0.00961987436175
-0.10644020745
0.028674081317
0.00427874896816
-0.0804731699628
-0.0889523360119
-0.0648371577766
-0.0650713633383
-0.00499082075207
-0.00486961346344
0.0276913888031
0.077313965253
0.0473280016189
-0.0252981134807
0.0894149695595
-0.0918306391916
-0.0754681468213
0.0567085930505
0.0544218119805
-0.0248817781905
-0.0568978721965
-0.0920197415311
0.0872441241188
-0.105999079218
0.0394104391881
0.0912041621137
0.0741793665601
-0.019624031435
-0.00255463212193
0.0952623849916
0.0352320335596
0.090992749363
-0.0513453978517
-0.0585453485056
-0.0684973204087
0.0932568612802
0.0786270650758
-0.0406679173458
0.104228928732
0.0277407638999
-0.0279627746078
-0.0715261576648
0.0291435382075
-0.00626483999739
0.00914358620817
0.00813694123546
-0.0653007514366
-0.00868637453045
0.0312637749619
-0.00956503356763
-0.00167870860856
-0.0863229391011
0.0646479573595
-0.0801211574582
-0.0605966680563
0.0861132611557
0.0200309474377
-0.0946195728401
0.0233161643648
-0.0644238641397
0.0670441253716
-0.105043886236
-0.00396672011996
0.0846851384947
0.0158652467626
0.0863203806408
0.0806100117178
0.0491229326162
-0.0534602329385
-0.0813414737525
-0.0332101785464
0.0781163576399
0.0240415661626
-0.044894016019
-0.0891112171182
-0.0127890555472
0.0223960547636
0.068836042794
-0.0149780941857
-0.00140942430402
-0.101500800804
-0.0357286683764
0.0136459093147
0.0187544880543
0.112640930422
0.0799289383474
0.0131426023844
0.0105615899921
-0.036083506131
-0.0290538626511
-0.0398405716276
0.100700307625
-0.0804482705041
-0.0886732285645
0.0790175644584
-0.00809669512765
0.0257804735635
-0.0390500922607
0.037676307079
-0.0249258332747
-0.0405229275409
-0.00372089155864
0.0975760048606
0.0974428976852
-0.0422567152949
-0.0316838333313
0.0391008489773
0.00944380895794
-0.0123557746397
0.0380761846503
0.0231734827279
0.0394773453371
0.0897432143721
0.0764317899935
-0.10177581512
0.0924534559913
-0.0756295905624
0.0150116586379
-0.0623033979031
0.00284727728497
0.0572837938923
0.0424480808582
0.0648833264455
-0.0284562479558
-0.0150945942397
-0.0917623335251
0.0725575621402
-0.112219911075
-0.0891645997492
0.012932646297
0.0265675468612
0.0323866999043
0.0161364458672
-0.0584959895794
0.0727313521652
-0.0528801557553
0.0327386810445
-0.0656032981199
-0.0575816316432
-0.0306659711247
0.0276798031096
0.0215392826535
-0.0470644467359
-0.0197209492947
-0.00193461025418
0.0785634789731
-0.103723167542
0.0626580714917
-0.00891430924579
-0.0739247823663
0.00593967928801
-0.0706141163362
0.0538214913497
-0.00714589052484
-0.0288933490674
0.110975264364
0.020648786077
0.0678007037425
0.0668280540534
0.0112192214381
0.07096595416
0.0757663660648
-0.0809323021193
-0.0441994298122
-0.0844151631333
0.0181716510554
-0.108427667842
-0.0693267168031
-0.04408559059
-0.100313867851
0.0189937244831
0.0203980283515
-0.0348974514559
-0.0603376434932
-0.0638899356359
0.024522978419
0.0768797751581
-0.0648158105479
0.0345575843584
0.0913235044089
-0.0835603774775
0.0293488643031
-0.054818669155
0.0105235906842
0.0723616493223
-0.0575688409834
-0.0990543614012
-0.0858347286913
0.0717159858672
-0.0673603799346
-0.0805230161027
-0.000952011766279
0.0509065131206
0.00172976611419
0.0845618756562
0.098152076292
-0.062674245234
0.0701475217547
0.0579653573404
-0.0198535565809
-0.014188591442
-0.0752088839036
-0.0579821343813
-0.0502563995911
-0.0387468537983
0.0618880468915
0.053410513063
0.0401061865672
0.0750265751686
-0.0152748062606
-0.0521906624074
0.0471040067709
0.0774753632784
0.0706463545296
-0.0601965775574
0.0558976362004
0.0638880027883
-0.045510330628
0.012159601454
0.0460431448963
-0.0185368672399
-0.00674635343358
-0.00822218614007
0.108321926975
0.0130171341074
-0.0395830749513
0.0562725052507
0.0616185473389
0.0213178394948
0.0364902082879
-0.0607406022278
-0.0267750975609
0.09693600682
0.0216918327479
0.0878257363152
-0.00637079673361
-0.0865122100239
0.0979297451431
-0.103534665233
0.0653290172747
0.0842946191797
-0.0171908737396
0.0104453023642
0.0199867062435
0.0493247928574
0.0216067749234
0.0205297426011
0.042475012874
0.0528451065207
-0.0815143732278
0.0346003411181
-0.0108065337766
0.111652270843
-0.114221401338
0.0212804419387
-0.0141626113352
0.0386237909084
-0.0569352086576
-0.0532131084855
0.0494901894316
0.0211691375471
-0.0980394469627
-0.0366082093238
0.0591774647479
-0.00911158739003
-0.010633665167
0.0294460509105
-0.0749319471598
0.0434446862399
-0.00710067839177
-0.0913310620336
0.0620680644799
-0.0650646380406
0.0452698476821
-0.0210473884277
-0.0173405037739
-0.0494249564884
-0.102494659916
-0.0171986830209
0.0841182731882
-0.0398302031593
0.097700956319
-0.021854804016
-0.0479244837709
0.0736949900097
0.0850523075665
0.059241956492
0.0564063108231
-0.0216442129198
0.0620569526167
0.026628488885
-0.0528305929053
0.00740083319774
-0.111305384697
-0.0154617205503
0.00217757996215
0.10127414972
0.0806352945687
0.0224692665957
0.00575443580767
-0.00910818803842
0.0109519350224
0.0784755554772
-0.000282851351609
-0.0268577378816
-0.0203865195464
-0.123363421153
-0.107192564414
0.00603416112796
-0.0549442127396
0.0749535314393
0.00848086969665
0.0472233904797
-0.0488213158387
-0.0482241524216
-0.0747503060098
0.0443092527606
0.0495608075093
-0.12359756218
0.0395086772235
-0.0764796658466
-0.081356911401
-0.0153331455518
0.0675239239176
-0.0526934499883
-0.0884188684599
-0.0624254725444
-0.0839635732525
0.101951095874
-0.0928968323819
0.0353627865999
-0.0821000820337
0.0922792664401
-0.0417937057231
0.0421858051543
-0.0959101975092
-0.0646757694821
-0.0383717448087
-0.100821900903
0.0453954738587
-0.0136963018178
0.0393276050258
-0.0675689772199
0.0377832800038
-0.0769226893385
-0.0669741490433
0.088655378132
-0.0328795662407
0.0800352039772
-0.0316955616847
0.104596050953
0.0687100447393
0.106883911807
0.0744731531117
0.0770007945928
0.0454737416369
0.0425057664848
-0.0695811053503
-0.0114459362019
0.0577057135641
-0.109992991792
-0.0953022009593
-0.0538645050024
0.0266452924119
-0.0296532662752
0.000744442273936
0.0622437703917
0.0335581107142
-0.0225207371511
-0.106262105229
0.00373143695568
-0.0595743407229
0.00468442545897
0.0709980509273
-0.0407339325646
0.107446510979
-0.0139240710991
-0.0640630738037
0.0797088771143
-0.105460247266
-0.0539505448265
-0.0673467314951
0.0173184030281
-0.0403226059773
-0.0705750402704
0.0287038172307
-0.0303915257012
-0.0345467939575
0.0482752384586
0.0637544934202
0.0628632379897
-0.0813893857678
-0.0847343935198
0.00775239756669
0.0774938267516
-0.0715667571095
-0.00403628751153
-0.0859453426583
0.0367866753074
0.0468277067772
0.0717759934181
0.11162067818
-0.0153343174723
0.0696772641656
0.0460764466517
-0.0486105161085
-0.0249806307832
-0.0717197937571
0.0606267556865
0.0787961373086
-0.0554050723806
0.0712073503252
-0.00112655051258
0.0540002294326
0.0951087563749
-0.0116359115366
-0.0738776573031
0.0198240553803
-0.0855907069508
0.021816136392
0.0404295100793
0.0338564101777
-0.00141415807251
-0.0926122841631
-0.0951213774041
0.0750683260434
0.0601722152531
-0.0751474941055
0.0165854639264
0.0902003499433
-0.0887969727336
0.00398720275463
0.0239979651248
0.0592935210555
-0.0866876302861
-0.0157104138311
0.0413135527299
0.00774630367117
-0.122735245235
0.0684384391353
-0.0583292280693
0.116465507841
-0.0912859397841
-0.0258619293478
0.0387359000725
0.0485888347498
-0.072607471152
-0.101630187534
-0.0507211388261
-0.0434182073399
0.0297009150839
0.0758103167609
-0.0296639336839
0.0354419550279
-0.00393698245601
0.00998932147913
-0.0349147098582
-0.0912683683076
0.0628831157216
-0.0625861452539
-0.0658801173799
-0.101058169566
-0.0384112815117
0.0882378248611
0.0837665041646
-0.0511540579448
-0.0964744330522
-0.0202565302497
0.059963784797
0.0602763168494
0.0895095042712
-0.0163363939858
0.0964421658856
-0.0475607943746
-0.0383790486822
-0.0420418478034
-0.0798169740798
-0.0148881490393
-0.0441595024699
0.0168852105669
-0.0427177043776
0.12835014703
0.116116886357
-0.0499463312535
0.11399557114
-0.0457185574037
0.0638731684905
-0.0146472997032
0.026113690154
0.0841484549971
0.0319629028871
0.0245754240692
0.0370900655571
-0.0426278712614
-0.0932207222716
-0.0794327300877
-0.0558628339239
-0.0953688543581
0.00366207562538
-0.0553623461443
0.0752752265896
0.00226401614987
-0.0360511461375
-0.0226449031474
0.0686017862848
0.0551059570697
-0.0914052400164
0.00704602783547
0.011337160245
-0.000572086905451
-0.00537383135121
-0.111860250743
-0.00943078598221
-0.026381067863
0.0114012969765
0.0987462509187
0.0143761324626
0.108601250191
0.0567091641976
0.0156170820889
0.0841970095955
0.0646699524161
0.0123230113464
-0.0387615335971
-0.0400655232125
-0.0702982824968
0.0283006893214
-0.112504846614
0.0362312804156
0.10112413068
-0.104849536464
0.0436016050466
0.0471856164045
-0.0968643796539
-0.0689386468156
0.0955487476316
0.0635634555844
0.0778771861506
-0.102092641646
0.0905360902702
0.0959110330781
-0.00450997809163
0.0564742075845
-0.0485219874916
0.0914655009765
0.139951180687
-0.0478288712827
-0.0325489231262
-0.0425058374063
-0.00916226354917
-0.00743182922314
0.00773779473889
-0.00649661199592
-0.0752212360393
0.00558869452834
-0.0337932148124
-0.121375278338
-0.0868846245158
0.0868128390224
-0.00964649491606
0.0182822877781
-0.0597707379295
0.0134070592452
0.0157489701125
0.0818856112082
0.0116028578937
-0.0539924445012
0.0644639503886
-0.10715971163
0.0791270356965
-0.0287995288506
-0.0265604090749
-0.0489459397689
0.0972791754961
-0.0609676054007
0.0623160288471
-0.044210610038
-0.0282385791083
-0.104854865919
-0.0246829187828
-0.124001836014
-0.0736190019428
-0.0337237383698
0.0163340407438
-0.0113337777072
-0.108099321944
-0.0359351253505
0.055283995001
0.00944099517491
0.0473966527717
-0.0983399159524
0.0475141895041
0.000409657993919
-0.0106912444263
-0.0673141630754
0.110748748438
-0.0589941645032
-0.032127310298
0.0089728999586
0.0285338745295
-0.0617011261711
-0.0509721247658
-0.0687199290037
0.00310410414236
-0.0380764607161
0.112440361981
0.00514846560882
-0.106503870091
0.0541637485799
-0.045676547027
0.0934455952339
-0.0273547229447
0.0500602523459
-0.072448770595
-0.0117294499592
-0.0253606681677
-0.104968489722
0.0381405449265
-0.118708336851
0.068052177405
-0.0692003507793
-0.0108095395678
-0.118564702113
-0.015786473001
0.0667675371571
-0.0031169683183
0.082575624197
-0.0163171183537
0.0537179198603
0.116362613363
-0.0257465963629
-0.0267679380938
0.0195840523693
0.0161185675259
0.0763707116011
-0.0566376629753
-0.0237366277864
0.0813282200302
-0.0302451643943
-0.00431341101074
-0.0444688490749
-0.12190135842
-0.0535179910296
0.102410438843
-0.011910521137
0.0778995024237
-0.0669382953782
0.060610086392
0.0662576312786
-0.0823684529795
-0.0164052435837
0.121300953855
-0.0277860895522
-0.0950076269764
0.096364535736
0.0605785275474
-0.104418457315
-0.0118119437602
-0.0530758643422
0.011596640836
0.0183948192431
0.0985865197208
-0.0404308062769
-0.0546019718884
0.0369184803457
-0.052216636447
0.0291638991135
0.0500639347465
-0.0771587470274
0.0706248448785
-0.00792895258656
0.086748558153
0.0420131432366
0.0282559528699
0.0913279188134
0.0128958641203
-0.0609730895684
-0.0830241327813
0.0777873030665
0.0749734108384
0.0101701228559
0.03722294134
0.0100345133681
-0.00688025249052
0.0940002111096
0.0205256116926
-0.093537611543
-0.111999449079
-0.0613967083297
-0.0767905361941
-0.0357502372368
-0.092768752256
0.0734414068621
-0.0870819546809
0.127870955026
0.0244993617262
-0.122968607387
-0.103976164579
-0.0068755694281
-0.0587828814041
0.00298142801938
-0.0430760303189
0.0347433157398
0.0798711246706
-0.0445080004756
0.0697412705864
-0.0893061925367
-0.0918656244382
0.0436199531703
-0.0325921361333
-0.0913285454767
0.0399022046907
0.0201095196925
-0.060858325258
-0.0462011783538
-0.0479520494718
0.0469977531558
0.0493350297105
-0.0451429466019
0.0433349391832
-0.0926305870107
0.00865122013429
0.0374674721473
0.115754511313
0.0686184433809
-0.00227800975016
0.0255965817444
0.0928228829627
-0.0738231875663
0.0278243067984
-0.0473261544945
-0.0128416118315
-0.0655509679949
-0.0731164101211
0.0901486232518
-0.0921919319008
0.0262978227867
-0.0495836581969
0.0419808870636
0.0485627997834
0.03854503854
0.0155600958313
-0.0195732990565
-0.0166569991072
0.0421854228718
-0.106107479496
-0.121034299547
0.0657720999897
0.0746189962461
0.0370483248198
0.0964416224155
-0.00469859503819
-0.0829374699788
0.00538972625523
-0.023809103097
-0.0913281548992
-0.0117515498279
0.0488925663071
0.0260842117855
0.0559248681618
0.0169671723388
-0.0408778250335
-0.0783722571662
0.00351391568621
-0.0282944294148
0.0234491676087
0.00163965130799
-0.0853739810439
0.0441850709837
0.0422012328277
0.10605235111
0.00968837732724
-0.101814291177
0.104763099161
0.0679276821677
0.0131427348736
0.0103143410609
-0.0600054131535
-0.0961948186157
0.0616687900304
-0.097235581885
0.0383332758372
-0.047440699718
0.0832144640722
-0.0119934870329
0.0495506470389
0.0878299790756
0.016375490639
0.0386032916557
0.0170689485767
-0.0841729261873
-0.0371917524109
0.031871010377
0.105177764041
-0.0288831728183
-0.0453899313397
-0.0143888667003
-0.0172287472099
-0.0391200085843
0.020660645105
0.0899628143963
-0.0111364665705
0.0822444314633
0.0685562195696
-0.0161959997454
-0.0768447475985
-0.0736479410333
0.0775696231015
-0.00813802382114
0.0310557390219
0.110709570671
0.0571257880876
-0.0376918364954
-0.127140281181
-0.102527434213
0.0242833874419
0.0651967302407
-0.0461814201115
0.0455638342497
0.0432566472324
0.0602483865896
0.0866817835035
0.0847979017857
-0.0303805396459
0.0462364872288
0.0283032699777
-0.0477642135434
0.0323888766634
0.0721891406053
-0.0782589647911
-0.0254808847169
-0.100396596896
0.0199852665944
0.00203030718297
0.0386411840978
-0.0869122160546
0.0862558135768
-0.0594348197719
-0.0209734308724
0.0611033345499
-0.0828082567092
-0.0698992358887
-0.0354247733201
0.0681779560306
-0.0767011275288
0.0524470070924
-0.0220195571817
0.0478869551944
0.035315425138
0.0699297770697
0.0581645140274
-0.108464143434
0.0727092746366
-0.0109848097818
-0.10513475304
0.00799986425478
-0.0591563029879
-0.0293713211585
0.0486317829383
-0.0824293775519
-0.0538344719355
-0.0605077852974
-0.0635466270594
-0.094810072768
0.0931733314988
0.0527255664911
0.104398570644
-0.0152845406793
0.0878486607058
-0.0968802376165
0.0132133473655
0.00428071806528
-0.0896647716764
-0.0908988090661
-0.0155387524799
0.0271883989149
-0.0722936999428
-0.0855829344615
-0.0541848451659
-0.0408997237471
0.00227612571517
0.00139391880212
0.0753847712776
0.0219637228982
0.00972337356969
0.0165659773803
-0.0749155615012
-0.102498208211
-0.0382775283319
0.0824967384189
0.0902340878533
-0.0278511336366
0.047055599336
0.0597715238671
-0.0868590114699
-0.041274342738
0.062636060447
-0.0556693187942
-0.0435452179645
-0.0392231542026
-0.0825531884159
-0.042997628812
0.0245472624788
0.0121465652734
-0.0481666814298
0.0418682181683
0.0387078690882
-0.0432145901808
0.00269772072593
0.0242491619141
-0.0420024814936
-0.0743567211552
-0.0193289532806
-0.0583415163313
-0.0622176790759
-0.0371342491803
0.0521436364048
0.102673254413
0.0942182598352
-0.0447510344687
-0.0584017032749
-0.0643291690215
0.0193687170557
-0.0946287081647
-0.0502694483181
-0.0901403614428
0.0966210452236
-0.0785423535077
0.0677418336446
-0.0944435725296
-0.0089929941162
-0.0766862922173
-0.01376839315
0.0338591484369
0.0569971219759
-0.0596713577505
0.0596925980301
-0.0732069339541
0.0251168496132
-0.0682541245814
-0.0952230258767
-0.0287207646371
0.0139250647938
-0.0592709136201
-0.0041902887498
0.0729868988042
-0.0319893426541
0.106152846636
0.0775669847621
0.0147030629932
0.0454216593369
0.1070967301
0.0935188199685
0.00967661071248
0.105320591925
0.065325954921
-0.0480782271176
-0.10707686526
-0.0791992956902
0.00462655163139
0.069654284092
0.00601595230837
0.00530521979508
0.0197226377456
-0.0638577225322
-0.0610755770849
0.0443716367128
0.0287703285585
0.0616037796958
0.0355913753444
-0.042506281007
0.0033402305373
0.0307696905845
-0.0574511750088
0.111515282215
0.0170689811945
0.0104691929658
-0.0611075322331
0.0544785317032
0.0483120999045
0.0278424560222
0.0448325389769
0.0644623466396
0.0794177743729
-0.0417259716329
-0.0101820149568
0.0905373464197
-0.0642423693718
-0.00439676703423
0.100929517753
-0.00852639173182
-0.0261813115995
0.0942556575408
0.0358082440941
-0.0253362064643
-0.061074728602
0.0906204739218
-0.0843599917219
-0.0922708405841
-0.0839627795679
0.0668508105042
0.0344298074783
0.0814644171756
-0.0650875893485
-0.0771494967294
0.0520516701485
0.0351711182058
0.102199924455
0.0278015280921
-0.0432040756843
0.0267146958364
-0.012086020861
-0.0573312081607
0.0955518679465
0.0374906955589
0.0368905859771
-0.0119193338734
-0.0852106683427
-0.0807191137395
-0.035471005086
0.0736134134264
0.00454132927789
0.0965420593691
-0.0675148168919
0.0621499851102
-0.0430990922897
0.0844774199783
0.023484463772
0.0158621634511
0.0468080453124
0.0651901437148
0.0152352260239
0.0635816210983
0.0732329989818
-0.102094296343
0.0885892280578
0.0142275210257
0.0367053238475
0.0789491181401
-0.0429301098683
0.0837691025754
0.0502565901116
-0.0367670751605
-0.0400261202653
0.0962700416069
-0.0923726552587
0.0900056192251
0.014312134417
-0.00577178214808
0.0215279794875
-0.056853353602
0.0509030897868
-0.00958117935965
-0.0565100582201
-0.0842191168249
0.00378948883644
0.0583091887865
-0.0938655454951
0.070811421463
0.0358805884673
0.0317325544619
0.0601577862357
-0.0611026418073
-0.0118433692841
0.0378359079501
-0.0259654026823
-0.0178866364016
0.0360435191607
-0.0879088961985
0.0454592316442
0.0753920002362
-0.0610174446359
0.0742386512987
0.0170200488635
-0.0132024852529
0.119375787859
-0.0312693851465
0.00355431336495
-0.0750385843172
0.01236725866
0.0922584803892
0.0504333368289
0.0878432572216
-0.100468356685
0.0330282380329
0.00278583599662
0.103948249372
-0.0741714847057
-0.0512290842136
-0.0382412986346
0.00344011470552
-0.101110830618
0.0609610370429
-0.0179943132954
0.0327288378686
-0.019383477087
-0.0311851538191
-0.0489185059326
0.0612638336702
-0.0520949305059
0.0706719452534
0.10758995183
-0.0232896842122
0.0722815301927
-0.0927673045567
0.103257469521
0.0884266560861
0.0463747156279
-0.00837004619632
-0.0453054401283
0.0933818188126
0.12184172834
0.0596001220083
0.0896093530629
0.0541458753813
-0.0668011581543
0.0293455200544
-0.0355961156713
0.10047682954
0.00860567819003
-0.08691995262
-0.118675422703
-0.0794146737811
-0.0723237143389
-0.0645101518909
-0.0626766193643
-0.0468170051284
-0.0618852477902
0.0395200526866
-0.00556356661621
-0.0501654395105
0.070966295823
0.0516550347365
0.0854637130768
-0.0717838090396
-0.0324457889042
0.0267593560033
-0.0795164498717
-0.0194168161401
0.0485142418903
-0.0288248673625
-0.0512144776355
0.0492700460364
-0.0676323229007
0.00851623357981
0.0678636677812
-0.0338318134346
-0.00725053426595
0.0776177211169
0.0568188051655
0.0466149671815
0.118797253852
-0.0244715570082
-0.0247414487597
-0.0420344595993
-0.0201472586406
-0.108928341597
-0.0324676516126
-0.049788130575
0.0641775247544
0.0488196669215
0.0209555988215
-0.0780256684413
-0.0510494465699
0.0813775029964
-0.0867073310824
-0.0289339497541
-0.0661716748346
0.00398799278271
0.107860372551
0.0948997429553
0.0918683930805
-0.00949150743402
0.119482175132
0.0472347086599
0.0621373403212
0.0279422990433
0.0481087560303
-0.105444301429
-0.0207395592734
0.021312952342
0.0768852250334
0.0459078748912
0.00996027658797
-0.0811555216041
0.0451191775561
-0.113969551148
0.0802091258365
-0.0625207566266
-0.0204674553238
0.0303217672535
-0.0396117826765
-0.0055167570507
-0.0661144242072
0.0836211723058
-0.0129645622475
0.0514799580833
-0.014948767154
0.0573906256051
-0.0721604648044
0.055303529726
-0.042483529604
0.00731670999653
0.0899947009822
-0.0271066999747
0.0532111982092
-0.063180786698
-0.054638088294
-0.0768306246149
-0.0632757148559
-0.0928242663114
0.0679771147619
-0.0616931304894
-0.0811287736399
0.0623261948798
-0.0154764931028
-0.036920744749
0.0216908228741
0.000710795005085
-0.0145090358654
0.139903803592
-0.0850198957313
-0.0499208825295
0.0717302897982
0.0300318489201
0.140987480596
-0.102663718726
-0.038811992708
0.0558209928819
0.0934795911658
0.00764839588243
0.0542595180541
-0.0916981135
0.134888907748
-0.00635903745147
0.0425522606287
-0.0119782716563
0.0577283747819
0.0153397751671
0.0295822747414
0.0734210577132
-0.0448081994066
0.0351023269755
0.102672609091
-0.0868709020582
-0.0144676798245
0.0451756049953
0.0824113348852
-0.0365151980694
0.0344651998233
-0.0400674688233
0.122644208549
0.114654200696
-0.0572653789969
0.0606112219216
0.0102298747346
0.132023317584
0.0263600776885
-0.0340277966984
0.0932686886428
0.0902351548526
0.0849595702423
0.0390571355136
0.0683531536814
-0.101334663788
0.0284631683677
-0.0628801445259
-0.0972402342479
-0.139659236635
0.0676014304177
0.110785082126
-0.0418764806951
-0.108565944412
0.144711576862
-0.0518663067741
-0.0928903691477
0.0221419563555
0.0120454720001
-0.10239249534
0.152656613543
-0.0725527929994
-0.091553124821
0.0811343095962
0.119826284183
-0.0976914531413
-0.110836163314
-0.0570363227515
-0.0237436299917
-0.117624056575
0.129236875291
-0.104013761785
0.0449152524877
-0.0538631919515
-0.0518615106706
-0.0132578895486
0.122867097724
-0.0110806255742
0.0249953889932
-0.0748897399036
-0.0307338844073
-0.112022043681
0.0914616316552
-0.0140651762912
-0.0830116485336
0.0457081118568
-0.00256404024771
-0.0121979545617
-0.0828946288537
-0.0297764090695
-0.0254087397346
-0.0231477655623
0.150251177943
0.0153557203358
0.0895571467385
-0.0751566987994
-0.0416424836869
0.0807861275884
0.0365423331818
-0.018946164448
0.0749980673053
0.0396128470633
-0.0609570149322
-0.00703430811523
-0.0171827947095
-0.076400153168
0.0752222199404
-0.0351359510094
0.00634558390905
-0.047705106934
0.0045460013527
0.0388941862088
-0.00528100799027
-0.0972722043381
-0.0492349269713
0.0401842218978
-0.0378929980689
-0.0509072941441
-0.0948222815098
0.0596999756688
0.00331529688126
-0.00162244054361
0.0611421405644
0.0832286784821
-0.0444594835688
-0.0639036549559
0.0384577123234
0.00499513225838
-0.0685842452891
-0.0441777938869
-0.0599830689849
-0.0928794485863
0.0043307769424
0.0891354468413
-0.00653962707047
0.0608678386769
0.0865048170516
0.00139383392936
0.0393267517088
0.0105353850107
0.0308017221833
-0.114345170885
-0.100593322119
0.0550536970349
-0.0217342070515
-0.0516114166825
0.0228169294456
-0.0200455215699
0.0561620030089
-0.0853455460287
-0.0528918223262
-0.0182317633839
0.0725743612034
0.143510208592
-0.0604163524884
0.0314267347295
0.0166679495063
0.0398371219554
0.0315093306283
-0.0209824073511
-0.0842218865358
0.0464746971628
0.00752773894334
-0.0244231505942
0.0620381704131
0.000290097674049
-0.0338862271104
0.0426153931902
0.0338233577952
0.0634554429711
-0.0113017777439
0.0707997993674
-0.0888678679141
0.130999113587
-0.0603509532773
-0.0120594695693
-0.134337016952
-0.00330077552001
-0.0223794901705
-0.0618430450915
0.0777195967707
-0.0129079780274
-0.0499531422109
-0.032212776173
-0.024198913988
0.100769929429
0.0127979968257
-0.0597688526232
-0.0474972654056
-0.173890203955
0.0338718557761
-0.123605430969
-0.0791403776689
-0.0775136674349
0.000361773327715
-0.128097486192
0.0855806178347
0.0455941118859
0.0649984188014
-0.0862976390628
-0.167584668428
0.052759156324
-0.0793692289752
0.114635187497
-0.0694797799851
-0.0932118300393
0.13563288435
-0.0215641043173
0.0413345533941
-0.00256420174628
0.0270467154222
-0.0754702850492
0.0610517562165
0.0676753770384
-0.0935841980533
-0.0485770252175
-0.0150742332307
0.00821599985408
0.00699096454441
0.0346227626435
-0.0318267227476
-0.0986400272763
0.0724879381871
0.0200737083422
0.0641252168639
0.0569631769163
-0.127236728375
0.102642561404
-0.0597990324481
-0.0561232729558
-0.00246213586343
0.0616108084687
-0.0601144790275
-0.0439303718372
0.0330516469292
0.00065530769009
0.000693872373887
0.0902608234625
0.012213083274
0.0533005855507
-0.0150176195445
0.0324050414345
0.0430441470519
-0.0554793225587
-0.0362492100926
-0.0259889917069
0.062707469389
-0.0634719938572
0.114241190262
0.0328902059678
0.014639619624
0.0200535528866
-0.0173577962167
-0.0208289792621
-0.0507607422779
-0.0829520163436
-0.00456948148113
-0.0645657825166
-0.0765058393471
0.0516938864359
-0.0635403125113
-0.0099260907455
-0.0290083005199
-0.0158223541712
-0.0199057019699
-0.0546580954283
-0.0906788169363
-0.0687002483867
-0.0980576287443
-0.0712527428373
-0.132275748181
0.0595372488546
0.0219556403249
0.10928903158
-0.112678966141
0.0585930861007
0.0817669268542
-0.0488039159457
-0.0810904776949
-0.083517977372
-0.0509403620441
-0.103445414809
-0.0322023212239
0.00613407306506
0.0224436623188
-0.0803681990473
0.0484937494936
-0.080250631278
-0.13429322035
-0.0897189934363
-0.0987868286141
0.0200386129727
0.0755241610379
-0.0247441386977
-0.0805981350848
-0.10342443513
-0.0511564204887
-0.0688474584188
-0.0489673470668
0.0111614244046
0.087738883897
0.0379674072186
-0.0669833827035
0.0567215787977
-0.00300298206599
-0.0637102431738
-0.0403835742416
0.0298521673419
0.0506568838941
0.0190643698067
-0.0718112188394
-0.00972101921287
-0.0597719363924
-0.0681611696537
0.101051496172
0.142208782934
0.0228988285288
0.060415213164
0.035716488234
-0.0240981051957
-0.0165060650051
-0.0257639022797
0.0716836059211
0.0561634046789
0.0266908581877
-0.0370976542372
0.147364739085
-0.0733058352819
-0.116862480575
0.0346994643133
-0.0422505863777
-0.0620380983882
-0.0346056755243
-0.0248697732956
0.0319806542143
-0.0412309474452
0.0625921383218
0.0430114330056
-0.136931500413
0.0657020807775
-0.0270483932754
0.0294593578183
0.0823392548501
-0.11219070438
0.0924388852143
-0.0907007161853
0.0842847400965
-0.0707722373352
0.103597386277
-0.141535781641
-0.0445591178083
0.0111532343787
-0.0938615638401
0.0827104921185
0.117764760007
-0.0348596736083
0.0361333157794
0.0910683185717
-0.09719067555
-0.114702105379
0.049284837498
-0.0174547264742
0.00913590644603
0.0612672198507
0.0729213533628
-0.0312910946383
0.0449435934786
0.00179396064797
-0.00331854724471
-0.0534593682341
-0.0533778019295
0.0215248056576
-0.0310339448735
-0.104378801666
-0.0315142362097
0.0194510398339
-0.035643381744
-0.0704293961779
-0.133764942003
0.0866701308255
-0.0733427182058
-0.023569350531
-0.0598774584825
-0.0467804906768
0.0608195981242
-0.0313333467817
0.0414535788344
0.00345298613209
0.0220650005438
-0.0308038382901
-0.108454361161
-0.0525990168427
0.0554295039447
-0.0690214371383
0.0478662606973
-0.108531271407
0.120674220599
0.0557280063217
0.117815041895
-0.111453889605
0.0225184535095
-0.0268722505053
-0.0582144727883
0.129749638533
0.051852614395
0.0491973822212
-0.0540714324262
-0.0256317714596
-0.0303539229269
-0.0722973993165
0.053678456693
-0.0706221215237
-0.0404209884932
0.0590731784133
-0.0571558237568
-0.0207372630336
-0.0262148774879
0.0096873752618
-0.101392700278
-0.0738404097166
-0.0106003483615
0.0227527677501
-0.0268554028777
-0.128784758333
-0.067356910171
-0.102133949101
0.0376616193176
-0.00208978126061
-0.0861729663777
0.0524319883745
-0.111494603332
0.0215684695134
0.0856383641615
-0.0518327883662
-0.0862422001302
0.0598885877448
-0.0705407139972
0.066165162049
0.0498066454803
-0.0597477286657
-0.00939547896947
0.101824277815
0.133189699816
0.0410582881082
-0.00545221534019
0.106973625594
0.00904351456435
-0.096599543501
0.0194630045121
-0.0669522794594
0.0261758314331
-0.0203686772608
0.0797489122178
-0.0343978208399
0.0982077976279
0.134913574298
-0.0409315400334
-0.0516385585298
0.048167062428
0.0106718568074
0.0284696074765
-0.0796624248234
0.0242496210188
0.125047199891
-0.0590543336812
-0.00628111510328
0.0742870349983
-0.0674799078069
-0.0160082530021
-0.0364431760702
-0.0917538643049
-0.131069494788
-0.0440866520808
0.0681131929562
0.0621435503879
-0.0160997094104
0.0148486451845
-0.0432118052606
-0.0995102060337
0.00593329965867
0.0402270013582
-0.067031036657
-0.0584972662317
0.0666161249897
0.063828961707
0.0301346598144
0.0542343121319
0.00169933331396
-0.0854009895917
-0.0357451114548
-0.0393391492942
0.101674422578
-0.0401725849274
-0.126453019915
-0.0539273469212
0.034304772911
0.105068447769
-0.0298134373106
0.0642631525859
-0.0956684423158
0.0652131456704
0.0845278377026
-0.0651435283265
0.0802202687204
0.00416637598407
0.0871480498648
-0.0489385657478
0.0583696280796
0.124149038142
0.043672100758
0.0815604941242
-0.0331460740254
-0.105283635985
-0.0470266973651
0.0491961871307
0.012867247941
-0.0527202977544
-0.0057720171833
0.0424437527279
0.0740618698879
-0.0562379170699
-0.0102915640238
0.0370046412798
-0.0519214748637
-0.0761877556123
-0.10372976117
0.0654008948152
-0.0599043906582
0.102417580824
0.0761718348303
-0.0918638117691
0.0113116832393
0.00270417692299
0.110937888122
-0.0546540446228
0.0816799292184
-0.0415867674573
-0.0804596686446
-0.0069147200238
-0.0115523267681
-0.0835889336358
0.0115784082913
0.0847922097211
0.0116628457084
0.0576585390556
0.0323653974824
-0.0461762405191
0.0505976428079
-0.0838201063088
-0.0186962777414
0.0810772152869
0.073037527728
-0.0209066740266
0.0537819465405
0.11090878753
-0.0682731253772
-0.0789224821631
0.0929545951408
-0.0156653496521
-0.0827639211959
-0.033646348323
0.0115766570667
-0.0102138649931
-0.0165008640411
-0.0140289277987
-0.0189508026272
-0.0308125004617
0.0274158199062
-0.0527983280976
0.0654294268117
-0.0966091881485
-0.0313019037764
0.0458397327949
0.0913815974117
0.114076107148
0.0165750444853
0.0428239089894
-0.0105227370665
0.0335163231182
0.0680950033906
0.00654943732469
0.0617124545383
-0.0111289471226
0.0587772051779
0.048970028793
0.0169076938308
-0.0776421877277
-0.0460268538572
0.0692090131372
-0.0309755049933
-0.0523225485252
-0.0325666813598
0.0358642465258
-0.0816686032199
-0.0317803843631
-0.0741373284641
0.100556967917
-0.0278434648006
-0.0966537593199
0.068977325891
0.0888817678622
-0.0640483752354
-0.0483153517285
0.0490100811103
0.0418134699788
0.0570922353357
-0.0296173127915
0.0103217340089
0.0221982728807
0.0809795236776
-0.0754812013019
-0.040407916548
-0.0326821641659
-0.0482960921445
0.10543998076
0.0954695812257
0.00679658853005
0.10085949472
0.0341932783539
0.00967823714956
0.00326099567927
-0.0253721958064
-0.0204789075919
-0.0252590694397
0.0768997058401
-0.0827541132009
0.0641536694268
0.0959612071595
-0.0832455853844
0.141429845537
0.0560018258684
-0.099317127442
-0.00745590913228
0.0301172610824
-0.102745152633
-0.0519506102781
-0.0339915837695
-0.00809021082287
-0.0338759385391
-0.0286130995276
0.0794754672801
-0.0102543692072
0.0610786540547
-0.0341617160962
0.00762553603131
-0.0339405678787
0.0439413509347
0.064490407782
-0.0232702943698
-0.0376956914812
0.111629943261
-0.0944600077298
-0.0784195416078
-0.0438468278064
0.0330598619052
-0.11448373877
-0.0989517568178
-0.0555337204695
0.0626620655647
0.102380177141
-0.0740841186732
0.00319885635216
0.0191893379734
-0.00226114835462
-0.0327947812039
-0.00697306826149
-0.0147425665144
0.0691812147693
0.00838274443632
0.0608196283933
0.0569797643065
0.00133198447904
0.0118952617503
0.0896900376761
0.0529493784806
0.0275706977503
0.0730586226215
0.0264541315992
0.104677619844
0.09926853209
-0.012046798975
-0.0852862346464
0.112577254469
0.062179481576
0.0747207256983
0.0534385264763
0.0552616725917
-0.0861346090143
-0.0157538785358
-0.0238594788381
-0.0126125013161
-0.101215574875
0.0981210593625
0.0529072604891
0.00561543539137
-0.0800308131561
0.0295545803478
0.0626234070764
-0.00921255080919
-0.054327428597
0.0244566574305
0.0264920441699
0.0314268657667
-0.0251194962724
-0.0290747959722
-0.0663506867266
0.0797101475878
0.060807534701
0.0111217381182
0.0110769627084
0.0108202910877
-0.0131308281522
0.108601676598
-0.0488670522449
0.00581784287645
0.102480119943
0.074504632027
-0.068183313251
-0.0594267373776
-0.0402812434331
0.0996292286451
0.0713949334092
-0.0296257937193
-0.0544060812489
-0.0690783880841
-0.0461594746492
-0.0930251457478
0.0940106886614
0.0987366539057
0.0291401349861
0.0620150848925
0.0676733295946
-0.0673110480889
0.0850341916042
-0.0606665067369
0.072257792887
-0.0445886956602
-0.102636807669
-0.0796948068719
0.0208142747974
-0.0300837610213
-0.0694801106353
0.0831691752631
-0.0444923986145
0.0600889409907
-0.041148955445
-0.0729143658457
-0.062625744182
0.0890284244511
0.0118388107043
-0.0654537087991
-0.0331548515508
0.10511668088
0.00352828612652
-0.0829494278227
0.0919679747088
0.0427236706303
0.0358428998372
-0.0692586237567
0.0364054109901
-0.0152697079285
0.0849598861519
0.0525569170211
-0.0509810286904
-0.0488526548486
-0.0992036082441
-0.0769578116524
-0.0782857194632
0.0777200338349
-0.106904122796
0.0566570213341
-0.0722575371157
-0.0610679466222
0.0571164261295
-0.0605255306847
-0.078522438355
0.0511036837054
-0.000957702013464
0.000500141673184
0.0532471805465
0.0626976092092
-0.0117989227555
0.00478654051706
0.0131310029939
0.083846374626
0.0752828190994
0.015867429501
-0.110910384792
-0.0857331205903
-0.0226337889728
-0.0776243306055
0.101024143126
-0.0958711446253
-0.0857565037491
-0.101963197365
0.0640589677792
0.100507685238
-0.0938942990217
-0.0649603982805
0.0740828191929
0.0199977808835
0.0642521322501
-0.0527591828964
0.102912870985
-0.105141822991
0.00188872619799
-0.0302502184864
-0.101675552325
0.0491961166858
-0.0512194679658
0.000711695692658
0.0423464397409
0.0712559524526
0.0276531400808
-0.000459007479746
-0.0360659657933
-0.0323776037744
-0.0230718559988
0.104467675387
-0.0127386944842
0.069721721105
0.0849470185062
0.0226447529548
-0.00786603829003
-0.098001365137
-0.00139842690397
0.00666997613339
-0.0503092436829
0.0508540905411
-0.0579271495114
0.0639112449262
0.0810136950377
0.015419620777
-0.0704745408935
-0.00412660413984
0.0093767593719
0.081982513836
0.0215087822144
0.0291372970881
-0.0507522431659
0.0146292641769
0.102813322779
0.0866648470668
0.0863268320125
-0.0928343955109
0.00680917821239
0.10460218001
-0.0791039165512
0.0320626381472
-0.0924200946035
0.0800946810548
-0.0619560720481
0.0299011104182
0.10355026506
-0.0420681629676
0.0474794430795
-0.010277719834
-0.00950364150668
0.0856576570885
-0.0793734202448
0.0579609037518
-0.0472720800912
-0.0219544141815
-0.00420491825098
-0.0736534355352
-0.083815069934
0.0476112591636
-0.0924659040282
0.00630818747283
0.100807200875
-0.121045635506
-0.0419491360746
0.0428041735791
-0.0845375916064
0.0511092671458
0.0288076459501
0.0785985923795
-0.0272666346439
0.0707970912036
-0.0293006008663
0.0936073476716
0.0963630009112
-0.0805380283578
-0.0257030011037
-0.0591416156299
0.0567749433356
-0.0573939506286
0.0732368820139
0.0181179136072
0.0105526661123
0.0436886642127
-0.00146209266397
0.0600706453493
0.10068783125
0.0825591657371
0.012687900449
0.0176094953704
0.029988495241
0.0491440770314
-0.0680330656246
-0.0910055297893
0.0108803453434
0.010159528518
0.00873376019319
0.0969595740685
0.0955873921835
-0.121358352806
-0.0415318376012
0.032932341251
0.0342825174611
0.083685069979
-0.0270775970944
-0.0442857193766
-0.0586592750088
0.0133120434042
0.066199523614
0.0677827971964
0.0057179182031
0.0522786020379
-0.022382056448
0.0339640125226
-0.0681448476425
0.0606034826214
0.0608322746367
-0.0371753485629
0.0450294383835
0.0705624706538
0.0818544596912
0.0344143393949
-0.0650968614809
-0.0111947397981
-0.00191781100318
0.00500680418633
-0.060485912104
0.0244113626312
0.036891458246
-0.0490494940129
-0.117058882604
-0.120598446097
0.0658136805462
-0.0360581177625
-0.106897918593
-0.0515660347923
-0.0082676354656
0.0552500671175
0.125360025192
0.0291877939951
-0.0599911597253
-0.0128400069696
-0.081116449701
0.0953535477469
-0.00572651053783
-0.0810964380095
-0.128443968744
0.0050949610887
-0.0676017719363
0.076911511676
0.0759454043458
0.0179561214536
-0.024755354794
0.132776794719
-0.0827069360593
0.0558077568137
-0.0534253816634
-0.02588102696
-0.0325816378653
0.068074934085
-0.00971879817599
-0.0435920530715
0.0682302693
-0.130355942742
-0.037124391
-0.121914279644
0.021403816354
-0.0745620246338
0.0535373626902
0.0406863608413
0.111511638385
0.101400219248
0.0139645324073
-0.0175956048447
0.106745964398
0.167283882296
-0.0318023361296
-0.0670647583394
0.091215465867
-0.0782643190567
0.0324366831817
-0.103180264261
0.00091783577416
0.100750642101
-0.00555470833553
0.036537498705
0.0581788572846
0.0111241147051
0.0221628803275
-0.0507117064126
0.0788494360855
0.00380255230075
-0.120389221812
0.095894811861
0.0185253018738
0.00392196162957
0.00270808270983
0.17381760256
0.0829993728646
0.0923524448307
0.0569289444513
0.0544024122701
-0.0391289636285
0.0349242771252
0.041837833226
-0.0445570382739
0.0457410194724
-0.00483879371296
0.0107723405227
-0.0742616343501
-0.140527097235
-0.11532870807
-0.119745852491
-0.0736248381124
-0.107075482716
0.0479607022957
0.0503526611216
0.0513999489098
-0.0855152067892
0.0269058553064
0.043557040136
-0.00581474124905
0.0913881812271
0.0648834498613
-0.0325505757875
0.0995396786257
-0.039915972939
0.00736817840303
-0.0539627811446
0.060155031294
-0.0228657623438
-0.00431203603692
-0.0684001706949
0.00453149086952
-0.0575598863968
0.0131956849618
0.0148559701557
-0.039666001724
-0.0113753177129
0.0177510923217
0.106704975909
-0.149324118655
-0.0924471381892
0.0016246556419
-0.0764130276598
0.00678088419358
0.0821198765679
0.165363519782
-0.0542426385861
-0.0647256053238
0.0479251314037
-0.0816316419257
-0.034608756078
-0.0360764891045
-0.0986796055632
-0.0454142761739
0.0129700263169
0.0496796642326
-0.0370627966864
0.0331881226682
0.0447159856465
-0.176965142775
0.0349503377563
-0.0231247014097
0.0185227650036
0.0410317282546
0.0796081304382
0.0448057206019
-0.00680876111557
0.0102819610784
-0.0723138694087
0.0041877675843
-0.00755458157863
0.0253459018834
-0.0285003471519
0.0322871946178
0.0441165230932
-0.0849444650957
0.118304690124
0.0726867765592
-0.00870252036467
-0.0299375440008
0.0697446280105
-0.046163569007
0.0128204351006
-0.0797547480183
-0.0609494857446
0.0493249226151
0.0137050759611
-0.107472924725
0.0546118010617
0.0558174227652
0.027719380616
0.0698040628922
-0.0435497563751
-0.0440755022331
0.0523773458516
-0.11351362967
0.00106468611896
0.0215977339097
0.0791926429304
-0.0199939136203
-0.119954743401
-0.00265887939644
0.00514451251981
0.0874598279431
-0.0939513932105
0.0578527283157
0.0349657753065
-0.047481854784
-0.0294272349392
0.00244989890936
-0.0491552093835
-0.0934903787352
-0.0134499264875
0.0321253360556
0.0211753936178
0.0249567042619
0.0554601414375
-0.0346112332082
0.0964293568786
0.0808295745767
-0.051817445805
-0.0372852259106
-0.0238337603081
-0.0442179800264
-0.0725163476068
-0.0887070784022
0.000528539189245
-0.0835681214181
-0.0649379007044
0.111864248305
0.00382944661471
0.00721174268408
0.0980836986636
-0.102976128771
0.0573484643724
-0.0457776247457
0.0244963184093
-0.00662801907818
-0.0807731621027
-0.00843381165594
0.0617032394056
-0.16837611464
-0.00406649092251
-0.0452126309036
-0.0368875554599
0.0192238022507
0.0177245094337
-0.0269573941122
-0.0117091065486
-0.0313414331489
0.11988081796
-0.0904336848628
-0.0264440418515
-0.0303458942401
0.0329506286563
-0.125818710404
0.0714177853757
-0.0194920888632
0.00483506698815
-0.0737989350993
0.0313642283834
-0.0870152722503
0.0836835981262
0.0159598920481
-0.0418570631145
-0.014643923305
-0.0291629958735
-0.202751499384
0.0356109845081
-0.0664045602614
0.061539358163
-0.00733455024843
-0.000966145855555
0.0357143481279
-0.00351363429598
0.0698389556542
0.0159611677419
-0.0042767670146
-0.0201036162762
-0.0184270700071
-0.00432474198308
0.0391562182388
-0.100284497979
-0.127073900295
0.0429571923373
0.00590647492136
-0.0241024677331
0.0179539724061
-0.0103883198203
0.129020596251
0.0801538427619
-0.0139273714528
-0.0766165503815
0.104737157928
-0.108412950617
0.0312050745853
0.0954771642518
0.0217352574117
0.138065021082
-0.058873969093
-0.0312342245456
0.0811065183607
-0.0299630804896
0.172212385963
-0.00283770360346
-0.0865753073184
0.0422552690412
0.0819114453826
0.0652866419956
-0.0065176167939
0.0019010158572
-0.0872285492626
-0.0263020198751
-0.121047619786
-0.0281310153679
-0.0423225944359
-0.0218662720464
-0.155677708536
0.0240055215345
0.0590601959961
0.119130388008
0.0141621909565
0.00555728483212
-0.0363655698691
-0.078506128923
-0.0404955020482
-0.134021369686
0.000503909186677
0.0765050998845
-0.00318152361565
-0.013068937149
-0.0312403227288
0.0653354525745
-0.0578312544938
0.00596692432799
0.0778860746647
0.00578749656501
-0.0113073531824
-0.0823640306754
0.0477285116699
-0.0816501007864
0.0277263637571
0.0685889379467
-0.00463315058584
-0.0190977086057
0.0132153966524
0.0600190523135
0.0375600882412
0.0447586468275
0.0264018615778
0.14710795398
-0.0390407126394
-0.0664036642029
0.0532246739132
-0.0669334074367
-0.128802030364
-0.0826832106868
0.0273938498527
-0.132706317147
0.00888947158935
0.0636811348906
-0.080832759262
-0.0337486699076
-0.144009282334
-0.034991213118
-0.0765791761496
-0.0371189684486
0.0746519843453
0.042525397762
0.0640163575584
0.0859412452981
-0.0498099320866
-0.0854076412523
0.0129953392049
0.075983231816
-0.0234054999853
0.0200724321138
-0.101517519254
0.0605900479616
-0.00817967562502
0.00838688422658
0.0571947791289
-0.0206512289247
-0.0148614301882
0.0616733724347
0.0270244158296
-0.0323262052379
-0.0863694802641
0.0960563449259
0.0094964248157
0.0944091605628
-0.0964564901477
0.00841416479803
0.0296976763267
-0.0446490914729
0.0164838889365
0.0980372422139
0.150832129948
-0.12023944883
-0.0797661564696
-0.0647206234625
0.0961161626967
-0.1050902463
0.0076471833035
-0.0592002384706
0.0714974992806
0.0852861312228
0.0586419802723
0.0831325540523
0.00934396514973
-0.105493182144
-0.102252326417
0.0726233922695
0.0949622044256
-0.0475055132359
-0.0347587970033
-0.0782560011896
-0.00617176578989
0.113890556486
0.0579799618994
0.0261566184891
0.0517757512698
-0.00886935093439
-0.0653889077077
-0.0843546088458
-0.046885163866
-0.0352803711612
0.017568880827
0.062688162474
-0.113675640808
-0.00176027477655
-0.125811886884
0.0435766216629
-0.027922438324
0.0555678803676
0.119434733482
0.0544148170234
0.0462791559164
0.0723626621774
0.12885390472
-0.0015019130002
0.12408170713
0.0588992303842
0.0159648283035
0.160681143184
0.130390766027
-0.0620469119022
-0.0147330967515
-0.0527315565557
-0.0312021625677
0.0364200183255
0.0786961339226
0.096312077906
-0.0281634434613
0.065345057361
0.0839332105761
0.0845554878164
-0.012917290818
-0.0658340985423
-0.0833984751937
0.0612747674955
0.136653066294
-0.0147193304683
0.058907161225
0.0112354388816
0.114991452638
-0.054251730595
0.0119495784709
-0.0759970221359
-0.0508491376089
-0.0635001978184
-0.10584076414
0.0632482992674
-0.0537227370151
-0.0728290949072
0.0982989782194
-0.0608751405546
0.0264187111973
0.0911302244481
-0.0247312136163
0.0469888607926
-0.0490950621881
0.0501085371283
0.0393958935238
0.0690377739391
-0.0909068314661
0.0914585977879
0.0256389912813
0.00548121593631
-0.0290436655045
-0.111889584485
0.0881746539721
-0.120380691008
-0.104582236871
-0.0430013672019
0.169901485971
0.0866437467575
-0.121218200372
-0.105228971216
-0.0973536398055
-0.0166519195672
-0.0083079387437
0.0391047837962
0.00988639080461
-0.00281851605527
-0.0741489573548
0.0981462966068
-0.02580957165
-0.119571322983
-0.0291604005961
-0.0463174083914
0.0775275487354
0.0182106125981
0.0950805635988
-0.00124819637376
0.0180463718603
-0.0355038653824
0.111874022592
-0.0543035038654
-0.0375163804947
-0.044779640658
-0.0465238471086
0.0212093699531
0.100087683969
0.00767224454143
0.0394902814918
0.0253067257407
-0.0520766635159
-0.0700906806566
0.00177075361923
-0.0303545645601
-0.0231768042954
0.0438727085569
0.112613967874
0.110502464701
0.0949118195943
-0.0208973824928
-0.0586489321031
0.0827110109812
0.00652898861467
0.0425732949293
0.0291485876105
-0.0825439261116
0.0209578324045
-0.0742342678019
0.0128420492236
0.11841626013
-0.0755758931366
0.0356360539074
0.0939789409166
0.0312236407885
-0.0482202862865
0.0400157775168
-0.129624687733
0.154976133074
-0.0279326030797
0.0101655861894
-0.0459212498051
-0.0452975182833
-0.0396146513609
-0.0356742133022
-0.0880042036758
-0.128169007019
-0.0943824242997
-0.0553881099621
0.0741127450646
0.0258300737865
0.109525396288
-0.111254907925
-0.0354962841592
-0.0724522642088
0.0236234374976
-0.0122357960564
-0.109050028318
0.149279205632
0.0680095317846
0.0151338257782
0.123311106172
-0.00900694368146
0.0615586304263
-0.0428231057291
0.0103182928154
0.0149688442807
0.0355558043067
-0.07496008283
0.0255905478032
0.11821114202
-0.0389769444315
0.0649463808298
0.0509253196218
-0.0483012704078
0.0482985259375
-0.103576224635
-0.0400780899097
0.0691091348925
0.013643074366
0.0794396557748
-0.0776402354523
-0.0549979139535
0.108595848254
-0.0333467968757
-0.0735170941916
-0.107980841066
-0.00478728515865
-0.0457944585278
0.0274256685054
0.0911987423786
0.00906462531583
0.0376369066808
-0.089485002476
0.0127356145852
0.0677363071966
-0.00930994470876
-0.0892044457025
0.0125782294146
0.0820635858375
0.124862654704
0.0335053625997
0.0876467434275
-0.0569114786227
-0.0985824177338
0.0283634291446
-0.0740531751966
0.0609518886159
-0.0113279042377
0.0546008453467
0.063877530191
-0.0733732676005
0.0955164527168
0.0522077551984
0.155845327683
0.0379215603268
-0.0912942528531
-0.0102064897855
0.0463026177246
0.00838157423687
-0.0152384631223
0.00819958639765
-8.25829318596e-05
-0.0321216734872
0.0149295892817
0.151805418755
0.0277257345241
0.00915529297024
0.00509474866897
-0.0822091127478
0.0376618606549
-0.0231490791332
0.0207605323806
-0.0720978216809
-0.0610294946863
0.0164573234582
0.000193118781668
-0.0368502745951
0.00927555940995
-0.0287292145049
-0.0644325101739
-0.0979056414362
0.12037230826
-0.0549514387069
-0.033108247725
0.0240287433032
0.0247201800664
-0.101295474203
0.105508596302
-0.0139328201798
0.0234151985824
0.0438897179131
0.0968955732092
0.110043443539
-0.0219019264948
-0.0241347824145
0.0574450477542
0.0230169238262
0.10718993284
-0.0496707247504
-0.00389817850737
-0.0158493649382
-0.121721235265
-0.0485203504002
-0.0278049321638
0.102538693565
-0.0908788249992
0.0245741101174
-0.0487095240093
-0.00858353573477
0.0710093676463
0.0604302040106
-0.0646212822866
-0.099077769159
0.0912891855683
-0.0378153592368
0.1127387062
0.0927138702821
-0.0281806613369
-0.0742472559629
0.0447049318744
-0.0310359865953
-0.086981117289
-0.0209912604678
-0.0651535534616
-0.0551264864757
0.0332281846626
0.042273528177
-0.0363877806654
0.136372972326
-0.0732642472507
-0.0663743272549
0.0864815818677
0.02937413725
0.0315442275316
-0.0574711223195
0.137078062964
-0.0579042520695
-0.104232842268
-0.0645717844894
-0.11969142917
-0.0242396966752
-0.00489128848075
-0.0167979920165
-0.0636020616601
0.0248295556019
-0.110898730796
0.00360922994001
0.0848021676641
-0.00461269378708
0.113530679036
-0.079084605229
-0.0358020443378
0.0187772797264
0.0653413544898
0.0251863799766
-0.0918581917002
-0.0916429565442
0.0165991857507
-0.0571664401517
-0.0654397241739
-0.0513029171737
0.0436025984432
0.0920566874488
-0.0199025695634
0.0616926256872
0.0638417901267
0.0382271865875
0.0123643969531
-0.0065765265832
0.0795841480657
-0.0586058687793
0.0244527029625
0.0381924589081
0.127530302264
0.116001582807
0.024471943445
-0.0298685470166
-0.0163500985855
-0.0185976649858
0.0854475197609
0.000607223547949
-0.0582610404829
0.0189910389518
-0.137314887211
0.0387573226654
0.0407686543932
-0.0720034897164
-0.00950979684822
0.0921409626666
0.0456023406457
0.0258200434715
0.0791489687939
0.0189551475233
-0.0376233025956
0.0526599513419
0.0316684866971
0.0163224536075
-0.0723847990382
-0.0895141677865
0.026682691044
0.0791006908909
-0.0372567495323
0.0474469750275
0.021490277374
-0.0316271460561
-0.0468491970541
0.0553682871769
-0.0629365692153
-0.0622509786262
0.0739897234551
0.0235516567361
-0.0350323240667
-0.0644844541845
0.0221929157955
0.0588232745649
0.0904907465784
-0.0529848945592
0.0657852802929
-0.0948615101864
-0.0810200911411
0.0567657414849
-0.0414697960222
-0.104598391756
-0.0662880016258
-0.0404562850275
0.0137678218079
-0.0712891716128
0.079672548857
-0.00462364541503
0.0566756948414
0.0233807224168
0.06683682281
0.0762236008548
0.0415024466581
-0.106077139203
-0.0213904925914
-0.044308344308
-0.0552674305864
0.0614757672405
-0.0088596204154
0.0802086648467
-0.0485169685003
0.0463761058958
0.077269022393
-0.0840961101498
-0.0601864463242
0.0718083735453
0.0445910155629
-0.0567805359181
-0.00189791649672
-0.0140918888678
-0.0159032816594
0.00625983296075
-0.0774529436473
0.105914950072
-0.023128919009
-0.0828560425919
-0.0823795191546
-0.0741689518708
0.0826057489038
0.0653857884045
0.0482690623861
0.0934258090171
0.0466545586899
-0.0601341384126
-0.0145774343348
0.0162803409256
-0.0580979318191
-0.00629105681408
-0.0224555269944
0.106573388787
0.0902923084936
0.00264599975839
-0.0799269322404
0.00470297965418
0.079815009075
0.0949675813095
0.0174850544379
-0.0236368366474
-0.0730771456525
-0.091127378494
0.104498534293
-0.0676558164414
-0.0560776082736
0.0842635987128
-0.0630492943522
0.048592371297
0.104779977459
0.0166185803731
0.0842811975797
-0.0122869009709
-0.0401957224429
0.0120603477483
0.0632346600913
-0.0535896315652
-0.0944872034119
-0.0466612035454
0.0691236015414
0.0865130879377
-0.0697947270144
-0.0989997926629
0.0277367503892
0.0780162654074
-0.0485873406164
0.024347726894
-0.0917519017695
-0.08989164655
-0.0673115735226
0.0860830142052
0.0693112355517
0.0519558971836
-0.0872315962853
-0.105856681107
-0.068408882316
-0.0565614007594
-0.0162173899502
-0.0139557601778
-0.0451427863359
0.0869865376284
-0.000837710914794
-0.0859183869744
-0.0944165482152
-0.10050299585
0.0695949815242
-0.0775469836387
0.0052827645463
-0.0393973226351
-0.0414303102205
-0.0732258093013
-0.0157136797157
0.057024580299
-0.0149618987502
-0.0143095825271
0.00176739668763
0.072959012815
0.00370901931596
-0.0217417465564
0.0532820055705
-0.0377190482349
-0.0733380918594
0.0414482150523
0.0221000955874
-0.00959525067928
0.0609752068159
-0.00638637656209
0.0921246594045
-0.0627913204017
-0.0967228735427
0.109165366476
-0.0131186742143
0.0670264235532
-0.0485739198054
-0.040836564841
-0.0561096813683
-0.0956545605357
0.0191717430487
0.00871104729874
-0.0781893175159
0.0522781107837
-0.0502924479558
-0.0403112682815
-0.09733605647
-0.0240782805558
-0.00111048200544
-0.0328351360393
0.0746067357877
0.0789926575863
-0.0451098438672
-0.0533233529797
-0.0324512172833
0.030629715969
-0.0157258366949
0.0907136004142
-0.00861017729489
0.0562984162623
0.0817402316254
0.0962016157513
0.0567444282622
-0.0389116486327
-0.0228434770324
0.0655209738008
-0.0501035681818
-0.0126907789898
-0.0757170335403
0.0592020563363
0.0656516400473
-0.0726914632497
0.0571723967284
0.0597262144708
0.0296597059139
0.0425133736677
-0.0722296011618
0.0586257240305
0.0404212841572
-0.030335131505
0.0828637464286
0.0395258990594
0.0256457195366
0.0947912937079
-0.00619933822689
0.0429069846957
-0.0381139713636
0.0166942217948
0.0552480798721
0.0638558764324
-0.0195030722911
-0.0153369263235
0.130158565751
0.0448973840802
0.0131587727827
-0.106749021225
0.00448040910715
-0.0130299346848
-0.0438295648591
0.0488912295243
0.0360335681437
0.0855125486135
0.0593191437048
0.0386073405344
-0.0211517928645
0.0898999819612
0.0226628492373
-0.0606339230779
0.0443959661728
0.0345847193875
0.0654173480486
-0.0940260416051
0.0322864119029
-0.000787904416985
-0.0210340974815
0.019800863492
0.0150104630359
-0.0856149913983
0.105133928182
-0.039748633988
0.018626623954
-0.0694456872435
-0.0481620834988
-0.0363843357909
-0.0753565114386
0.0674201597373
-0.017527963024
-0.0195988886683
-0.0493794359297
-0.0843509065198
0.0663847591773
0.0369936490416
-0.104095933029
0.0614842992226
0.0960155819572
0.0641646856483
-0.067018484402
-0.130728111614
0.091276851985
-0.071464732332
-0.0673549450019
0.117064651738
-0.0790807866786
-0.0933220738247
-0.0586863493318
-0.129218380084
-0.0123183210328
-0.00525420627951
-0.0768132049569
-0.0499661855821
0.0386120684261
-0.00826401392191
-0.0632821119793
0.0814675449825
0.0498300929214
0.0258683764966
-0.081053971109
-0.00815697702355
0.0141912971761
-0.0591821366757
-0.0589072665145
-0.0508755980559
-0.0543518598491
-0.00898072083743
0.0782615818614
0.0552404732647
-0.00978077177387
0.0698824689252
0.0322901941893
0.0910953604811
-0.111432840503
-0.0982463467459
-0.0250711998238
0.0129153061369
0.0429340187129
-0.0439489274837
-0.0356523457803
0.0439967130212
0.108832890316
-0.0808075793974
-0.0204984313798
0.00579078743186
0.0202688401234
0.00732246285955
0.0588083438167
-0.0252080767014
-0.0619275337096
-0.100346018497
0.00639456377902
0.0444384680784
0.0572652659878
0.0415305743612
0.0409378087892
0.0514409638853
-0.00256246654707
0.0473061912047
-0.0499293177467
-0.0657950339459
-0.039817695878
-0.0527456087055
0.00774390626154
-0.0227294460492
0.0738986297572
-0.0134308112081
-0.0340592121799
0.0193449975639
-0.0286845110885
0.0589831710961
-0.0408418446629
0.0524483446484
-0.0717763685548
0.0581284421975
0.110804593917
0.0341807847166
-0.12745563693
-0.0156032937003
-0.104088235331
0.0143120141796
-0.0713324449344
-0.00717644940133
-0.126848101199
-0.0603433704798
-0.118032422268
-0.0918272027604
-0.104429571335
0.060235177268
0.110239704506
0.0241385236689
0.0321473226158
0.0841915561099
-0.017720451464
-0.0283962103739
0.112885269292
-0.0442247591643
0.164165605318
0.0145016995495
0.0414543148398
0.0185941087199
-0.0551912892168
0.0657330690247
-0.0777882494793
0.119144913334
-0.0224369415272
0.0812369257147
-0.00848788156111
0.0649117273567
0.031312310579
0.0741617369048
-0.133463730774
-0.0199334819495
-0.0415040472725
-0.023427949565
0.0400284436901
0.100955832599
-0.0856043728663
0.0180361184587
0.0117322510015
0.0808905152708
0.0152053109677
-0.0605039451525
0.0706549845108
0.000417144125533
0.0722045822381
0.0595584350903
-0.0809069296534
-0.00408523296155
0.0177736644348
0.0198395981457
-0.00659882186372
0.104387071159
-0.0418873365012
-0.0169376670756
-0.0807154900265
0.0558588764565
0.0171770084646
-0.0737434508559
0.0725029705618
0.0777088806571
-0.041076334116
-0.0100398896263
-0.00653946688479
-0.120914526662
0.0972120709408
-0.00702893594398
0.00803768656849
-0.0244593599953
-0.060156761686
0.0177459634233
-0.0552516622588
0.0173125165262
0.0122970976088
-0.019889552495
0.0346494417432
-0.0528195870381
0.0401842595154
0.0100312432445
-0.0170806932488
-0.101862174957
0.0896208671089
-0.108522705599
-0.0621695211033
0.0124714576558
-0.0491147526137
0.00842403283164
-0.0469098005454
0.000430345382736
0.134977223915
0.00795368002777
0.0795156054187
-0.00624246006006
0.0661894865763
0.106638938791
-0.0848933605545
0.031664210311
-0.0412020816485
0.0124722952599
0.00632383407164
0.0990784838721
-0.0374932799814
-0.0413283971014
0.0403626409915
0.0934853271514
0.0140025658681
0.0603853453971
-0.082657183233
-0.21100482908
0.0475082387576
0.0434993593607
-0.0785935641371
-0.0227475882872
-0.0562406879184
0.00723216059422
0.0661932344503
-0.0244434135122
-0.0118809610731
-0.107044266339
-0.050790580147
0.0847604857955
0.0587942184197
0.120937030882
0.0730817121188
-0.145753909639
0.0532863876931
-0.0679422256823
0.0107716671784
-0.0170467656153
0.0267646194119
0.0222654389895
0.118720624975
-0.182797038653
0.0583353602786
-0.102438610135
0.00326575256286
-0.130099517641
0.0558188560035
-0.0290017378368
-0.0763036253659
0.0717544810436
0.124007448061
-0.0438931664372
-0.0253554527863
0.010648230264
0.0582049790379
0.0421353979684
-0.0294836519601
0.00955056704369
0.0998565674765
0.0722128994047
-0.0554603473608
0.0423080899441
0.139274698404
-0.0727646752809
0.0599635319789
0.0126139754874
-0.104175741451
-0.197582218686
0.0272157772531
-0.0776150412756
0.0731492116271
-0.00581199779096
-0.0115345208261
0.0521750184643
-0.111859092042
-0.106293459494
-0.134407221731
0.0108916415637
-0.056783346442
0.0215291613248
-0.0579047739676
0.0655040364257
0.0979989293369
-0.183658619333
-0.0648632534639
-0.151191806152
-0.141325268417
0.0459017152621
0.00334662919468
-0.00695782468463
0.0997289372772
-0.0265925333878
0.0713678115082
0.0765543659103
-0.13471109014
-0.0433110445114
-0.0796228685973
0.0616934224223
-0.0999311445532
0.174969265024
0.0866919515467
0.0675660619495
0.0665199174696
0.0705898460407
0.104116244526
0.0359407746635
0.0208534454584
-0.0152530241285
-0.0438097492695
0.0135139131051
-0.0917539422792
-0.120864890224
0.00979965075699
-0.0494905864324
0.082412878467
-0.0176850565819
0.0417215693651
-0.0849360811331
-0.109258369846
-0.0471394907532
-0.0576718321228
-0.0643479670886
0.0660931046743
0.102540097354
-0.0486355303518
0.0635544568802
-0.106730932853
-0.0936620598767
0.0968084175965
0.127513346048
-0.0489519461541
-0.0243490824419
0.109014365024
0.00995767598144
0.131165098435
0.00302661448394
-0.0135558746225
-0.0969897969386
0.0601480511258
0.135290367597
0.00194603933496
0.0495601033497
0.0193352276256
-0.0547979216457
0.00539937637233
-0.0349760693046
0.0646884145685
-0.0242447996047
0.0592360117704
0.0250281154199
0.000875925080943
0.150140604106
-0.10822980759
-0.0122176920779
-0.086873277748
-0.11480473521
-0.0348974407409
-0.0480082969293
-0.0452606327682
-0.0268381106981
-0.00525258885482
-0.0259166556654
0.109105989041
0.109162758322
0.102807772677
0.0248683992465
0.0622851922462
-0.00300347154334
0.05156425358
-0.0123034855069
0.0711458654791
0.0178941918358
0.0826671460372
0.0629770188362
-0.0809724252808
-0.0293615146811
-0.0848415196776
-0.0570026182184
0.0510358388016
0.0391941961891
-0.06734777946
0.0929347254057
0.0732285072986
-0.137510387703
0.0791261322817
0.195366598243
-0.0506621612967
-0.00166758547587
-0.0701002927898
0.125001848999
0.0292520534165
0.0424890433465
0.103718120034
-0.00139655009432
0.0116744605525
0.00710719361156
0.00934717375153
0.186574317895
-0.176286775376
-0.0965922803445
0.131661725462
0.0938798457772
-0.1368170136
0.0906424060157
-0.0636213570669
-0.0107598479698
-0.0186980628811
0.0180162507094
-0.022069851653
-0.105978721672
-0.121947868811
0.0362088068452
0.0539223127049
-0.0781790131795
0.167034262509
0.0264265000741
0.115723247018
0.0906853527425
-0.0352148955998
-0.131197507198
-0.0959008235435
0.0442458607822
-0.0370369051781
0.0558764529743
-0.0437550217863
0.144746701185
-0.0200502554565
-0.0548333287249
0.158866449934
0.0923283397853
-0.0486592445143
0.0444434151861
0.0631368003424
-0.0239818174317
0.0620688485824
0.0537697307818
0.054101724436
-0.0465348435105
0.0204807004117
0.103163982355
0.00294149900515
-0.00614758857474
0.0303678442597
-0.13741812894
0.128091344375
-0.00149579060336
0.0217382091967
0.0236010241095
0.00877404609396
0.0125485738526
0.0197481998682
0.0406402641791
-0.0549005522
-0.0186258872606
-0.0754431984499
-0.0795484903054
0.0268979873321
0.0408391825292
0.0316049127332
-0.145482656178
0.0412373042214
0.125416620485
-0.0695408311574
-0.049931685554
-0.0217193121346
0.0883234663923
-0.0751907052894
-0.101837376538
0.0781746701562
-0.117010210138
0.0255239476749
-0.0234549964686
-0.0716182504472
-0.0752066697334
-0.00465736844079
0.132059352422
-0.131931297362
0.0251136758945
0.00626010652399
-0.0689675978837
0.0732939804749
-0.0549437307636
0.0168720930925
0.146845582009
0.0352027297509
-0.0707878940217
-0.087815562436
0.122742235369
-0.00657812090052
-0.0678197251239
-0.0949325589257
0.0232417010261
-0.00336457703107
0.0548944472049
0.11745744604
0.0660617298323
0.0474377468
-0.203239315788
-0.0894066775307
0.039961617971
-0.00101401206303
0.113450172646
0.163088524405
-0.00282843982613
-0.0976933818031
-0.0794030193255
0.0185479908171
0.000849152580803
0.00106468280188
-0.0267165831541
-0.0580715779263
-0.0363247489386
-0.102896129943
-0.0573516272141
-0.0470305909162
0.0829649069259
0.0210756572394
-0.066566845487
-0.0907173115657
-0.0184420246838
-0.0419002725551
-0.129482277255
0.0966631613158
0.0677644455984
0.0724388033095
0.0425933696316
0.0143808635738
0.0497902749201
-0.0795161666494
0.0110755772761
0.0717237762384
0.00107006526368
-0.0793722098166
0.0515216622764
0.00400951957502
-0.0253954662556
0.0346165280162
0.0358384203392
0.0651271437624
0.112962883129
-0.0380714139503
0.145676891788
-0.198271046584
0.0292392476537
0.000814491755412
0.0378409558288
-0.0478115751071
-0.179950154645
0.0596272948345
0.00232188435006
-0.133170420428
0.0586442688685
0.0912872895981
0.0297311009354
0.0732757563091
0.0227543864295
0.126187896171
0.057447179579
0.0574703374764
0.0339225971734
-0.0115543277078
0.0427441261907
-0.0133501647481
-0.107995023352
-0.0187068138557
0.121647707527
-0.0894260631408
0.00594967779345
0.0623156872524
-0.0686319152036
-0.0181818868264
-0.0206215371065
0.044303301591
0.00412888834222
0.0314483179882
-0.11358767412
0.0153869592107
-0.033773793054
0.0468722188981
-0.106636798594
-0.0199580971911
-0.0685503726467
0.0243416949877
-0.0869055171596
-0.0987184525233
-0.0560728184453
-0.0800400233937
0.0674324451321
0.110038381017
0.0449452131807
0.114871800076
0.110699711891
-0.0823098473988
0.0624198504002
-0.000654083293844
0.107015299796
-0.100051154144
-0.119378972347
-0.00947962461774
-0.0635805486573
0.0625400415989
-0.0213672257941
0.0524820522778
-0.107469610405
-0.0249272674445
-0.00424289873457
0.0457983525216
0.0622023560915
-0.078491687941
0.102584932124
0.113621383504
0.0262113113098
-0.045695753808
-0.0167722761856
0.0734042359283
-0.0264876613915
0.0856983664761
0.13659964506
-0.0105060663778
0.0307793484966
0.0341045259592
0.0327537084293
-0.0527146548225
-0.0496122956053
0.0672029991134
-0.089210968899
0.0189096572046
0.116310589798
0.012690029482
0.0044770633694
-0.00166520887137
0.00555004376568
0.027887802343
0.00277940032996
0.0801724919509
-0.0173035187204
0.0503573783198
-0.0214824753513
0.0897390891794
-0.0958175106681
0.0428547240951
0.0379595385407
0.0712877186522
0.0828590642798
-0.00780108525113
0.0462314428203
0.00868046207196
-0.0269559909775
0.010017230673
0.0126444023303
-0.0713030329396
-0.0606953690947
0.0417683286823
0.00749600848953
0.0129487303531
0.0815802794382
0.0380324877603
0.016655929756
0.100761328135
-0.0461587338921
-0.0225359557252
0.0466843305684
0.0281192340764
0.0177909288389
0.03400758052
-0.0565526513712
-0.08607441567
0.0422913130348
0.0164086017928
0.146211213294
0.0599967063118
-0.0360880200913
0.0583826765803
0.0321855785202
-0.0260114913287
-0.0452979635201
0.038980963438
0.130955760102
-0.0951140831954
-0.0399827891093
0.121991866553
0.0499984520002
0.0831997713926
-0.0849947525045
-0.0635572939771
-0.000135693104437
0.0614428452607
0.107188354292
-0.137914940296
0.0278394438024
-0.0386546325661
-0.0811461730044
0.0424834736892
-0.038493181344
0.0324315466833
0.104941666202
-0.0695982727912
0.0303884547116
0.0306639323304
-0.0533840393919
-0.034379656332
-0.0865996023951
-0.0566927609542
-0.0776811414352
0.0485309019785
0.00888140752742
0.0594940316855
-0.113144949161
-0.121802673475
0.039475997419
0.0609571344459
-0.0416523675344
0.0421875587614
0.0137897459893
0.0452982551559
-0.0468774146221
0.0560018302045
-0.0872180265242
0.0703431519969
0.127436964176
0.0861836914245
-0.0492255615198
0.046362122778
0.0923085754912
0.0397642689629
-0.0946579686396
-0.0258858383158
0.0682303110038
-0.037008184642
-0.0667670454637
-0.0340174949266
0.0894200271141
-0.0909894743263
-0.0573685045024
0.0277248444979
-0.00958783744536
0.0807938137315
0.140682795143
0.078501698826
-0.0402140750153
0.0189649677133
-0.0929153510937
-0.0487745102374
0.00813683365729
0.0166291856613
0.0710936693932
0.00752163484688
0.0300032520289
0.0228572487833
0.0290161681314
0.0169683284941
-0.0183725785196
-0.0256053010198
-0.0320945702781
0.0402838293063
-0.0277603522118
0.102191579451
-0.143263754151
-0.102696061813
0.0774147629995
-0.0349955146079
-0.0357499010233
-0.0126053021979
-0.0186656000529
-0.0517730488078
0.0554999924827
-0.0213290945771
-0.0105514018621
-0.0339149065193
-0.0130088975965
0.0497031162433
0.0849435669139
-0.06096282894
0.0026779986828
-0.0316527893896
-0.0814301244346
-0.109570380063
0.0742344614738
0.0296628071834
-0.0384034748376
0.0311923588141
0.0801842096966
-0.0369761531066
0.0663818331133
0.0207144851681
0.0276165854655
-0.0947328247261
-0.0532279805704
0.0830253800904
-0.0761848400934
0.00226102603003
0.00255837685357
0.105220168309
0.0154128932445
0.0614810319594
0.030621935518
0.0342899788907
-0.0292905171802
0.05357432303
-0.0978470190664
-0.0995676162651
-6.05941622875e-05
-0.00196381436067
-0.0835720725687
-0.078831159311
0.0422321040836
0.00468212804379
-0.116753358548
-0.0276307086899
0.0397660170607
-0.0180677767628
0.0588059073458
0.0235570454354
0.0794176869466
0.0195518033525
-0.110059394267
0.100202160773
0.0442226442239
0.080400639829
-0.0118180251628
-0.0133988863632
0.0405167105382
0.109645092342
-0.0715945360894
-0.0786991812651
-0.0388932868396
-0.0584291863958
-0.0387871569921
0.0963359029761
0.0752211344844
0.0492016798556
0.0532596869218
0.0952636825855
0.00438545202385
0.0447583015105
0.0949244407624
-0.0710033316728
0.0504601581362
-0.092035369948
0.0477189642648
-0.087949473888
-0.0118126516925
-0.0491201311318
-0.0343141389747
-0.0834455736782
0.00736094143198
0.0680698298627
0.0014202085285
0.0193858870878
0.0545933334474
-0.0739177730076
-0.0399044533429
0.0380739211214
-0.0566759569135
-0.0179668850591
0.0970670379111
-0.0633454878961
0.0659676982538
-0.0171670524623
0.102785850174
0.0901363319217
0.0115441882571
0.101252682103
0.0167545045941
0.0274355323126
