-0.249344432273
0.160405498219
0.147754707541
-0.164411014096
0.0782552239244
-0.076744985838
-0.0168170805336
0.270304358882
-0.0368419664628
-0.112560309362
0.182714854345
-0.272284286443
0.169293025673
-0.16102011334
0.281365654754
-0.341541342309
-0.351825829331
-0.044304006019
-0.023113288932
0.171240273473
0.257381917563
0.193073748144
-0.0145185411094
-0.231348178564
-0.46825382707
0.0926519087829
-0.360737019393
-0.139072280425
-0.163458522082
0.0214641112116
0.357713802604
0.572629025626
0.428606409628
-0.456689570393
-0.313645920166
-0.0886661516298
0.191225717677
-0.107889233082
-0.224407761621
-0.414855553456
-0.179690008001
-0.264410094562
-0.23672234985
0.0809017287469
0.150642423054
0.0419229698199
0.478377635725
0.00984091881334
-0.413653557095
0.482092381055
-0.454444376262
0.141934849932
-0.268445595889
-0.408074857502
0.0550529110014
0.0739689397312
0.098905195776
-0.0615536821566
0.193331164734
-0.207608511613
0.102831846598
-0.188631009163
0.282195948762
0.337179046867
-0.117846870625
-0.260332726049
0.46457992634
-0.072355091411
0.0819163878093
-0.194547874671
0.238783759884
-0.415193924055
-0.306323539143
-0.268036976569
0.0279857956534
0.27745095086
0.37228377623
0.394804058544
0.309603185058
0.0275660082484
-0.241963705738
0.168628986269
0.247118526661
0.631107526513
-0.044541764908
0.328655771038
-0.237699074231
-0.44710502026
-0.442629693993
-0.281453544501
-0.385975807613
0.266502736433
0.325289820612
0.267284025139
-0.293744536617
-0.450058120521
0.408973631295
-0.30636886539
0.441436183733
0.123930640613
0.130473656203
-0.184318089027
0.204156384458
0.0148417319621
-0.305336929946
-0.309453973623
-0.122069604013
0.596117338246
-0.155308410573
0.142700894161
0.265964430157
0.195332299264
-0.265964083778
-0.27635670127
-0.149704072839
0.337563348009
-0.356742562751
-0.317165678985
-0.151770451569
0.352398338396
0.00820976327997
0.289463350316
0.213852607387
-0.0287787185289
-0.429592720827
0.144899897941
0.307904105565
0.510629511532
0.262935057094
-0.329602687301
0.411935996773
0.417135276524
0.33945217044
-0.0118535740928
-0.549625022686
-0.5441944106
-0.0712006979477
0.25351678864
0.490171963891
-0.496346658976
-0.136759808941
0.188547131296
-0.389107869784
0.117201656973
0.183348736322
0.273485648047
-0.343012446583
-0.109928813316
-0.504726852234
0.181627429538
0.337086805444
-0.154260029994
-0.183690334306
0.300028406421
0.184561833449
0.136684519478
-0.3071527503
-0.223264115462
0.259123295178
-0.0420112500018
0.349472697551
0.000745788076081
0.490400738139
-0.428016311761
0.368078986621
-0.468213375964
0.177211945419
-0.410739998517
-0.143549255857
0.124135764247
-0.360816457284
-0.511795774226
0.437142526214
0.277127873298
-0.348896790174
0.295979052488
0.294836648094
0.0786514806796
0.368439562656
-0.129845496438
-0.137512521738
-0.0263124929207
0.341315628561
0.10727154335
-0.257852105751
-0.0277121931761
-0.409339603219
0.0738459843544
0.108427794007
0.325698100577
-0.304799975558
0.550696910269
0.416381623099
-0.203857210433
0.21329688133
0.307740982086
-0.311328784288
-0.0748956271453
-0.266096026119
0.201744357463
-0.0541018505544
-2.91295194409e-05
0.206714033314
0.34342763051
-0.398643669293
0.24766687733
-0.15163942767
0.5527504605
0.441347743269
-0.416613411431
0.0779513065632
0.274493337556
-0.0438196596912
-0.188555981227
-0.553795905045
-0.142613461671
0.474454982679
0.309350256967
0.158354393517
0.587982610292
0.12731872964
0.378874456049
0.0934450689031
-0.429483410588
-0.417012580338
-0.30124437384
0.190319336033
-0.0545992726864
0.233471328872
-0.174809836034
-0.403534365293
0.128498470546
-0.072018976947
-0.414289777642
0.52077169942
-0.332539698367
-0.0681103453376
-0.36670605161
0.435482272977
-0.0743065284114
0.340884926774
0.35589632483
-0.146449344097
-0.237667828688
-0.119181630438
0.0753637386238
0.417634001646
0.129747255314
-0.412156924469
0.281539457963
-0.0892583955346
-0.290892172878
-0.100852389661
0.312556459208
0.223376556138
-0.428963586934
-0.298511617068
-0.103290326734
0.303934603479
0.198690004396
0.228918472308
-0.147976719333
-0.306573998757
0.185849967926
-0.373797596597
0.139088826875
-0.396610307854
0.198552596523
0.434168345588
0.212230588081
0.394759010314
0.483824823258
0.252718270201
-0.393872445144
-0.394308449842
-0.357846228303
-0.21443956485
-0.381915079
-0.331709434747
0.128796109897
0.276180959903
0.256423060624
-0.250701508529
0.371313030957
-0.397715020842
0.355690248637
0.596787509495
-0.722757583239
0.36236244842
-0.389427027142
-0.189353607238
-0.0560237472762
-0.165801564204
0.262467579177
0.248387469614
0.019945634434
-0.447193105443
0.483333830567
-0.453864166937
0.00428076404468
-0.547872599119
0.488068071844
-0.32943315235
-0.297123396414
-0.241206026183
-0.260757778413
0.0449777291287
0.520325681435
0.0315645155759
0.074314914575
-0.294690096577
0.192143178397
0.463655008467
-0.0321597198738
0.246616230836
-0.00542672280854
0.172347916154
-0.265068420913
-0.425608468682
0.231335539371
-0.109745764712
-0.00269028109779
0.409363068991
0.274383890747
0.0434918372845
-0.481280692645
-0.0083814243802
0.00672179043303
0.403263848321
0.237283455251
0.280594381011
-0.0910542237253
-0.38034776194
0.316422112996
-0.282145715798
0.42110583226
0.480603194354
-0.115789468894
-0.366165995339
0.244499329023
-0.457113043382
-0.499909539416
0.110605486669
-0.126802537939
0.210984862064
0.0203567526609
0.0982083555343
0.515114440579
-0.278884044341
0.406185387248
-0.0133370312439
-0.328692119196
0.198678894439
-0.254119375321
-0.150367772309
0.400426962639
-0.290743720967
0.344339115493
0.133419750017
0.20418016872
0.127944085631
-0.291825513212
-0.170209441084
0.465782257447
-0.143867023091
-0.455631860451
0.19892713707
-0.144236489599
0.327007639751
-0.148154543595
-0.444141018027
0.405505268054
0.195718203475
0.29060149793
-0.191304816142
0.511361931697
-0.132667636419
-0.41683009426
0.123856047944
0.109776388225
-0.321001198184
0.0285554965057
-0.120802718024
0.100797442392
0.438539053262
-0.0681189410821
-0.474372810074
-0.0691858885945
0.108249578887
-0.114518380535
-0.000883678592976
-0.445504852718
-0.309008298443
0.324497737068
-0.122743901328
-0.0172060921204
0.0138371147938
-0.14881970535
0.0150831031951
-0.0181256326544
0.0185538877844
-0.59982731787
0.58823203775
0.0842793378184
0.569349056388
-0.502339033348
0.123613700158
-0.116329368452
0.067846115392
-0.348700566337
-0.15233526591
-0.089374674891
0.256331689778
-0.266208733904
0.0319754224926
-0.221724749665
0.512031405623
-0.301136939251
-0.212970274173
0.116945697288
-0.111954470471
0.0133444127031
-0.125552339438
-0.54484823925
0.120232996366
-0.168630344899
0.103522043818
-0.411439802624
0.0308806763949
0.454338980687
0.0574170668692
-0.172541992309
-0.52264522381
0.159525425954
-0.00752753811267
-0.212293463536
-0.108198374296
0.46731866076
-0.295971266745
0.0825268805655
0.0181845228572
0.0573111853136
-0.169356146654
-0.506795668635
0.421556048803
0.384414454461
-0.0258768340947
0.179028078212
0.018971236379
0.266555977255
0.298020629777
-0.299172490828
-0.0739374144991
0.081148770351
0.364463493673
0.0825986942191
0.379024007474
-0.00893640262256
0.133089722196
-0.411820299104
0.0633262660363
-0.022216353424
-0.0611825355328
-0.265112372706
0.462940726606
0.130098806826
-0.421443016462
0.243450446487
-0.0764990722357
-0.287596648825
0.330671947869
0.452635178699
-0.34027628313
0.186606756552
0.0909776947103
-0.181368894818
0.174770767484
0.485172070229
-0.40465545076
-0.123797247325
-0.217619470207
-0.295099021093
-0.398163488627
0.0681758369081
-0.259063055364
-0.0244964934286
0.128642209821
-0.259453360373
0.585401451846
0.157634934681
-0.205809372549
0.36424925839
-0.364945020863
0.0864506186653
0.381665298514
0.0131782318959
0.108622025801
0.26318940756
0.183350047479
-0.370364942027
-0.0423207458567
0.423914711302
-0.307186227345
0.286408867532
-0.367107164991
0.270343479908
-0.29523298834
-0.237670037764
-0.0562223363203
0.0163379019645
