-0.762936182035
-0.555670434515
-0.553310750867
-0.470103616778
-0.700577370548
-0.850927097474
-0.4267409435
-0.547258636097
-0.516561027768
-0.960622978357
-1.04678502579
-0.386265161312
-0.4293771659
-1.21167362987
-0.54250957746
-0.816919533373
-0.933522943395
-1.02641877657
-0.258221430093
-0.949986960394
-0.813798750196
-0.944319855276
-0.827674347163
-0.980964669985
-0.828889102669
-0.804549134404
-1.0968183062
-0.473956955229
-0.93876308629
-1.18205365922
-0.850714756624
-1.11809712737
-0.746540570735
-0.860130019822
-0.71366468355
-1.26291185327
-0.547906562379
-0.895821539725
-0.645528962098
-0.273338836101
-0.886764463346
-0.2599375752
-0.69159648488
-0.52343318978
-0.589048576137
-0.761731186412
-0.69858328584
-0.475316754624
-0.783458773263
-0.566107571198
-0.810374032824
-0.73941460413
-0.183375243592
-0.791847777681
-0.852531906199
-0.595574560238
-0.939660643452
-0.535776516104
-0.454611390638
-0.225209771076
-0.500059142937
-1.06787390507
-1.02765043134
-0.766338600094
-0.842131582019
-0.705240249781
-0.458720777044
-0.963763328889
-0.400960866986
-0.611152285839
-0.337848766042
-0.923045776374
-0.852103056543
-0.40818011942
-0.413481345938
-0.438594354778
-0.787055166406
-0.247802980886
-0.422914962517
-0.414350792566
-0.736733953015
-0.865280854686
-0.808125263952
-0.57345006717
-0.945483065053
-1.03555943204
-0.436366093057
-0.406409168055
-0.759855471662
-0.37490253438
-0.989126051142
-0.446562225154
-0.815091971918
-0.65229819356
-0.778950776155
-0.816111357047
-1.1441869333
-0.392241159962
-0.954153186197
-0.887905578294
-1.00911112482
-0.567010870973
-0.771987383391
-0.257634036125
-0.80218267105
-0.847602184608
-0.830020600609
-0.661059754583
-0.542651123159
-0.211636332011
-0.901923584459
-0.709061798471
-0.424312873923
-0.52596370295
-1.0193571763
-0.949620720345
-0.531613725602
-0.993064398792
-0.808564847551
-0.838487589097
-0.843791734359
-0.843151251663
-0.568643533398
-0.784877694581
-1.07626394622
-0.70235468696
-0.739265316294
-0.210444744437
-0.640003507777
-1.01861090438
-1.10258494813
-1.02397563857
-0.436765487849
-0.833355433833
-0.27108884417
-0.952063550321
-0.895867062386
-1.03740315838
-0.813349021748
-1.04570280354
-0.479263634845
-0.900772498645
-0.160982887142
-0.576380770574
-0.901013937324
-0.292175923032
-0.782954323659
-0.593269616234
-1.01794584559
-0.827935838372
-0.311254735838
-0.435052248858
-0.409797392003
-0.527945962426
-1.04029218724
-0.228642436045
-0.353582358358
-1.01928677749
-0.662944536139
-0.816599778513
-0.801634124046
-0.806895582663
-1.07093004204
-0.449170778629
-0.185404467985
-1.04774649699
-0.78676449658
-1.06574781319
-1.1143439189
-0.336207622688
-0.401102622067
-0.444124427734
-0.871661929955
-0.839110218465
-0.357843712435
-0.618242163752
-1.06098534401
-0.941775665386
-0.851228755011
-0.51400141549
-0.936894939893
-1.05055539176
-0.401299437698
-0.507666031964
-0.650976563221
-0.456888275559
-0.868451490057
-0.576689215349
-1.12884233656
-0.749096646655
-0.71775987988
-0.496765947175
-0.798414846676
-0.806159770067
-0.249983290026
-0.348913790173
-0.0583435057232
0.0541097829546
0.0701756357828
0.0573374297669
-0.0274064646898
-0.0777217128168
0.0612210610454
-0.0714791001803
-0.0762172136092
0.0309198900075
-0.00973689358131
0.0665757658111
-0.00769367758209
-0.0244781565834
0.0390927589522
-0.0520763699007
-0.0619210163401
-0.0674909776165
-0.0288919481241
0.00239597520463
0.0779046167361
0.0693801712274
0.0180545801642
0.0129527114368
0.0174578164227
0.0703533420804
0.0192487411768
0.0660116370794
-0.0568119242253
-0.0530592438168
-0.0694456368437
0.0410332517395
-0.0765114600852
0.0491184666459
-0.0573990997116
-0.0725553403638
0.0678536062436
0.0767736430787
-0.045559341709
0.0119457134746
0.00401087499676
0.0626284883024
0.0390237716188
0.0695185058617
-0.0365955482992
-0.0190920849177
-0.0351633907556
0.0344042902107
-0.0635293512247
0.0626557150512
-0.057972111578
0.0173758243822
-0.0501963257914
-0.0325534955045
0.0612950025755
0.018060851967
-0.0708202094288
0.0402644560257
-0.0186623625356
-0.074340092033
0.0216079258921
0.0509157855048
-0.0401386399828
-0.0704756053215
-0.00890856043629
-0.0190045525438
-0.0548576066096
0.0661582467197
-0.0720738673111
-0.038197890189
-0.00157799237483
0.0459364398414
-0.0499854709633
0.068514061487
-0.0214540040748
-0.0723844892429
0.0172003667079
-0.0268914011899
0.0163798850838
0.0228369087252
-0.0333932745694
-0.0460572253419
0.000367929817602
-0.049129814652
0.0503847038084
-0.0451103745763
-0.0290992938816
0.074291613957
0.0390250603902
0.0425506107071
0.0645630188689
0.0414591152153
-0.0754234130232
0.0339421011323
0.0041373599383
-0.0586117976547
0.068011803466
0.0300417389488
-0.0342010555136
0.0421960399787
-0.00253950200577
-0.028605079912
0.0714813844982
0.0365227820281
0.00932821477866
-0.0684128792648
-0.0191224468591
-0.0621929621934
0.0439461847526
-0.034032915895
0.0126081164415
-0.0728602060731
-0.0753024503937
0.0398692335818
-0.0189866279982
-0.0107466038017
-0.0525748525686
0.0162673212861
0.075939216345
0.0242650478523
-0.0110385347072
0.0756165086743
0.0192616391881
0.00118437332679
-0.0209310856258
0.0395559706372
0.0746764168881
-0.0276343637385
-0.0453518657423
-0.0161998033153
-0.0178657584386
0.0162702635093
-0.0669496236085
0.0333287687018
0.000806633862566
-0.000693059839423
-0.0423670675227
-0.0745119915575
-0.0386478290623
0.00271654389993
0.0229070243624
-0.0271295036478
-0.0111375089749
0.0696183111866
0.00991067815425
-0.00877707476955
-0.039165288492
0.0371694566528
-0.0541257668882
-0.0725246606599
0.00758894124329
-0.0255432784887
-0.0748485119616
-0.0117622798003
-0.0575388434419
-0.0768357303682
-0.0267975822797
0.00416132844007
0.0262921377587
-0.010031131233
-0.0385848672854
-0.0611627478046
-0.0746332523669
0.0656002561895
0.0420674166007
0.000466705170627
-0.0466446950352
0.0313030529399
0.0678673182777
0.0113182105589
-0.0321295564782
0.0739968811832
0.0655771494664
-0.0144593704139
-0.0119691828793
0.0506706265282
-0.0744676325992
0.0653223192828
0.024881139175
0.0240221777594
-0.0268996164151
0.0183930943651
-0.0560176934851
0.0713206799668
-0.0199475432866
-0.0560234699956
0.0277201706931
-0.0534262924765
-0.0347318081652
-0.0124550692985
0.000977049364937
-0.0209603003948
-0.000888593659887
-0.00384162585507
0.0228925760996
0.0618687219788
-0.0296831095345
-0.0147662098131
0.0606504865565
0.0512267073815
0.0403692842667
0.0774141695313
-0.0728255710115
-0.00651879755209
0.0124854003094
0.0158336291413
-0.0704164949364
0.02460166145
0.018366812185
0.0149519031622
0.048212581233
0.0604860054738
-0.0495089604362
-0.0747677667448
-0.049445076733
-0.00602677322904
-0.0127090316693
-0.062903507305
-0.0599897591886
-0.0525949603411
0.0741149853136
-0.062350615588
0.0367775906331
0.0502329862676
0.0130493584089
0.0121750215853
0.0367759072224
0.0139799078108
0.050913377323
0.0516301624985
0.039924077288
-0.0766376295034
-0.0722079833892
0.022187962557
0.0619405100135
0.0432262117346
0.0127439833965
0.0586234417183
-0.0437530687558
0.0243265673969
0.0598385214773
0.00147367092417
0.0768722876472
0.032403936501
-0.0643962073505
-0.0412695804597
0.0147439820538
0.0429769115862
0.047155928178
-0.0273649760616
-0.0774849029459
0.0168977074213
-0.0109168689783
0.0630795570135
-0.0746756407225
-0.0493508962343
0.0650562450743
-0.057827018195
0.0734435968779
0.0189028697661
0.0572656563274
-0.0110459785103
-0.0137651586752
0.0320199828218
-0.0657599987485
-0.0275823397101
-0.0710298743815
0.0762228281622
0.033591299123
0.0176097243481
-0.015956666107
-0.0692133255329
-0.0223000000545
-0.0561308230607
0.0432726407105
0.0380721905824
0.0228461868758
0.0689691629072
-0.0593870061795
0.0476130663048
-0.0520665762397
0.0538522154599
0.0317952057827
0.0466099119697
-0.0225583275162
0.015310146446
-0.0241774982228
0.0446140344175
-0.0437547426955
0.0353830754364
0.0404993763062
-0.0139753356204
-0.0469443952963
-0.0681825746822
-0.0611878132084
-0.00211093953929
-0.0111821945055
-0.0738338037402
-0.0385884411268
0.0346344476301
0.070394089598
0.0319967219222
-0.0578959847427
0.065133294932
0.019438889959
-0.00195702093425
-0.0517373597321
0.0580693119828
0.0774367954488
-0.0700651955063
0.0616812161346
-0.0495513105446
0.0407342501405
-0.00852567214134
-0.0152087092476
-0.0261741520968
-0.00999103468301
-0.0442789109788
-0.0506426279061
-0.018632957793
-0.0417070128243
-0.0370676139063
0.0656515342985
0.0032782159606
-0.0504204045823
0.0614044689305
0.063221520791
-0.0766868807163
-0.0314892865944
0.0602549664131
-0.00326909410834
-0.0269207693965
0.0328648907469
0.00769907436196
0.0481674652588
-0.0352852927826
-0.0643171314486
-0.0493154264559
0.00465526047532
0.0549521144721
0.0378308183565
0.0343228184133
0.00909684759318
-0.0628482744765
0.0588758265657
0.0220402923886
-0.0527450935023
0.0129763884068
0.0322719807569
0.0125230911712
-0.0389787150011
-0.0334805382951
0.0258865742849
0.0369055957663
-0.0400222569426
0.0132932176447
0.0298996216288
-0.020218988997
-0.0655712408041
0.020574519202
0.0340329551472
0.0461547236275
-0.0722049413742
0.0381361110907
0.0151782804482
0.0637152664952
-0.0513185800282
0.0509222862355
0.0483906077958
-0.0257365195439
0.0135108001662
0.0229988819258
0.038779960052
-0.0190270390725
0.0593459308332
0.0449707839739
-0.0444740856326
0.0656112976889
-0.00481182753912
0.0710936511034
-0.0369528156409
0.00614369263391
0.0261598980643
0.00128733240688
0.0286118141754
0.0192879933955
-0.000839848157653
-0.0439046768077
-0.0712648399406
0.0312772797844
0.0208579245158
-0.0644063422679
-0.00529766138116
0.0302569911881
0.0491827074312
-0.00320369679351
0.0440075678706
-0.03812815831
-0.0470824448934
0.0638638942053
0.0603517337821
0.0647153540413
-0.03404541677
0.044308510608
-0.01551895827
-0.0466414151319
-0.071220959067
-0.0178144645862
-0.0162581488076
-0.0457271939098
0.0480597790717
-0.06055219628
0.0345951161424
-0.0738700839126
-0.00607020822474
-0.00206423424681
-0.0400445111249
-0.0183260543438
0.0441457745889
0.0760830089843
-0.0306088057344
0.0703289343317
0.00952551081765
-0.0563261489006
-0.00314917862988
0.0774297023445
-0.0666247216462
0.0749688836357
-0.0663495074933
-0.0105651802184
0.0695038315561
-0.0117652725706
-0.03477661086
-0.0199787990236
0.00864188370797
0.0296604736837
0.0419175845787
-0.0221085631045
0.0730096355896
-0.0522855562538
-0.0489859865944
0.0468708323587
0.0256843020393
-0.013308141215
-0.0264040291903
0.0228354702775
-0.0258317770992
-0.0366892900026
-0.00638187738957
-0.0640480210753
0.0234334617635
-0.0438431782167
-0.040608642241
0.0248988849655
0.0775708236082
-0.0714138593638
-0.0347343785377
-0.0364458885801
0.0199893977423
-0.0327956960242
-0.0209298911511
-0.0550991705847
-0.0778543278582
0.0277029517694
-0.0583455334124
0.0403196179947
-0.036823787454
-0.0620506909402
-0.0606834551658
0.0410148690266
0.00359785146139
-0.0211724631823
0.0460427512123
0.0174968782298
0.0208555818553
-0.0145146496231
0.0674980029336
0.0354846841535
0.0110851112274
-0.0522222100972
0.0718512768005
-0.0254309717319
0.0213374677846
0.0565774049574
-0.0437711332628
-0.0460226689766
0.0221916316911
-0.0512990706379
0.0763658124926
-0.0747318273784
0.0262641991497
0.0754744035606
-0.0329149649758
-0.0343287709778
-0.0324736948847
0.0159228004352
-0.0477069162604
-0.0532008285615
-0.0191121348376
0.0483823631566
0.0734472468426
-0.0064598927582
0.0430875350242
0.0458971511055
0.0548776432211
-0.0100844934214
-0.0248087905131
-0.0665995743127
0.0508011497343
-0.0686128852532
-0.0384363732034
-0.0639237302066
0.0733117482247
-0.00363322917629
-0.0466884276841
-0.0733620961796
0.0516183768509
-0.069780241743
0.0718832291595
0.0715009910017
0.0546354453811
-0.070488047834
0.0162759976325
-0.0261683951244
-0.0415436741586
-0.0217785255372
0.0350349167186
-0.0496454024151
-0.0533300559866
0.0147556471196
0.0438974114117
-0.0173037187826
0.0329662301146
0.0561385982328
-0.0669615338917
-0.00764187879884
0.0379278067389
-0.0231102062191
0.0608509136718
0.0524894782339
0.0379297202329
0.0350262974112
0.0768994372727
-0.0463813169219
0.00649797076929
0.0617555275887
0.0412512302584
-0.0100291050284
-0.00890564353919
-0.010150345506
0.0123302056902
-0.0655936763776
0.042025734688
-0.0781809646469
0.0259879143982
-0.0595002321804
0.0218289576495
0.0280404663827
0.00441467152317
0.0141772051464
0.0314942522561
0.0154347581331
0.0500534558011
0.0772061576061
0.0567546586465
0.0434821007828
0.00446564660119
0.0762313541691
-0.0298138930965
0.0419874992995
0.0582503115958
-0.0613235356701
0.0701004208218
-0.037272295335
0.00960412186269
0.0680029367672
-0.0380144763354
-0.00710680865327
-0.035245018613
-0.0592173169137
-0.0291868152683
-0.06077856176
0.0508392490257
-0.074431311931
0.07759219899
-0.0550017290693
-0.0620416811041
-0.056394546484
-0.036940257846
-0.0526257472204
0.0555559435803
-0.0688407576594
0.0475721554075
0.0383175845633
-0.0586151886494
0.0298612184557
-0.0735919867612
0.0482914251243
0.0341910611307
-0.014536058782
0.0578165521277
0.0151366576642
-0.0449460434061
0.0156589987466
-0.0597178817854
0.0511370594939
-0.0176712438218
-0.0764508025728
0.0736506972462
-0.0322881413273
0.035699108545
-0.0737843267249
0.040138418603
0.0387600993392
-0.00803950499117
-0.0355392205139
0.0292323107419
-0.0110811863691
-0.0162047823152
0.0343210423736
-0.0583300807664
0.0120380945799
-0.0248336982606
-0.00277770986053
-0.0656770742761
-0.0243501748644
-0.0710042513665
0.00251330247441
-0.0679601460765
0.00565568911023
0.00155183423615
-0.0156758084425
-0.054838303134
0.07029682907
0.0772520912603
0.0325860456772
-0.0187034380898
-0.0693086837631
-0.0771055701136
0.0532108811815
-0.07658823577
-0.0502139630864
0.00263918346896
0.00709433420857
0.032954939753
-0.00495777324705
-0.0394855655188
0.0398318659443
-0.0729442569793
-0.060779380498
-0.0156415372901
-0.00849135059576
0.00293490934219
0.0395552418341
0.045220576617
0.00491493259385
0.0569825380575
-0.0088039232241
-0.0477352425177
0.0612666602245
0.00133443535348
-0.0606279088857
0.00686598847676
0.0108264578561
-0.0140179457697
-0.0718670483187
-0.00792873274063
0.0515726388976
-0.0636258371538
-0.0517555098609
0.0508967238068
0.0559847255817
-0.0126696208911
0.075287775075
-0.0694206137934
-0.0286320771301
0.0418272635737
0.0546138916145
0.0630960619742
-0.0777024379472
-0.012411447139
0.00946683994544
-0.038912866009
0.0194511154676
0.0298476556714
-0.0247585427565
-0.0681537880297
0.0588013995982
-0.033951206109
-0.0430978358038
0.0256137820689
-0.0744900882756
-0.0262375429796
-0.0579210996346
-0.0460457328785
-0.0670453983436
-0.0529791801118
-0.0303871622492
-0.0470956201803
0.0449452319601
0.0341536993699
-0.0458810419008
-0.0104029938166
-0.0234208006491
0.065645859736
0.0282567510607
0.00800022779726
-0.0680537915888
0.0216524457588
0.0472379499287
-0.00680932881465
-0.0496138723538
-0.0186037530932
-0.0649938744172
-0.0241845132814
-0.0453283788373
-0.00402107856253
0.0310064231314
0.0594561177982
-0.00589925948328
0.00868751289324
0.0573388934807
0.0460733124118
-0.0385115077317
0.0261587700144
-0.0659393883661
-0.067582248562
-0.0569453354042
-0.0214112491028
-0.0544519207734
-0.00773689824939
-0.0645571837504
-0.0225489888642
0.0232659015908
0.0257633349577
-0.062240023529
0.0116544402758
0.00364028439556
0.0108600214865
0.0422794859231
0.0351984374462
0.0510901158237
-0.00447774945558
0.00242402673668
0.0723345698662
-0.0590004369551
0.0682871511572
-0.0631689245442
0.0741751423135
0.0597457896134
0.0433148206067
0.0654516877497
0.026961033474
0.0502063951873
-0.0464983200768
-0.0300305423495
0.0264783433662
-0.044920582368
0.0738796980828
-0.0532719018736
0.0453015306537
-0.062656114777
-0.0643783712209
0.0411117677614
0.0614477703804
0.0572067954762
-0.0142968397684
0.0250292064299
0.0010597983249
-0.067449339377
-0.022673649
-0.0473453316247
7.62623483942e-05
0.0688838529484
0.0032684681576
0.0124959319455
-0.0622484606172
-0.00990701566844
0.0229704864759
-0.0066202962836
-0.0751882135962
-0.0745256035276
0.0481351103812
-0.00582998030066
0.00341469404389
0.00758768557212
0.0294761583272
0.014413437251
-0.00147936866647
-0.070739381992
0.0482573369799
0.0101410229482
0.0357359713978
-0.0274125883662
-0.00190659981942
0.0169001469788
0.00233123109352
0.049430800482
0.0214367182451
-0.00552247796421
-0.0461834159919
0.0201695900829
-0.0201373543247
0.0112607211855
-0.0688628706821
-0.0706373391778
0.0185281008996
-0.0524131886277
0.0215980525241
-0.0765669361722
-0.00913961940388
0.00652339577504
0.0779050617887
-0.015346554938
0.0400042590676
0.074180402613
0.0581703314213
0.011604384907
-0.0152020741297
0.0457725278943
-0.074589716544
-0.00300034811693
0.0669229423929
0.0721635496617
-0.077426234742
0.0105129373084
-0.0276948717787
-0.0476679686396
0.00575516261738
-0.0382725071732
0.0300190829608
-0.0712723067098
-0.00663276621069
-0.0765587471782
-0.022322234086
-0.0355543540731
0.0490736412204
-0.0127622673047
-0.074169619271
0.0678216496735
0.00235465432048
0.0677950212256
0.0317155571574
-0.00499390365625
-0.0190547786368
0.0635626847783
-0.0282862297159
-0.0142740641274
0.0587923253932
0.0554880439873
-0.0707067770546
0.0448018830241
0.0352664147579
0.0342909678718
-0.00912853599987
0.0215683310364
0.0765832890957
-0.00714444507555
0.0717382369042
0.0155851339158
-0.00423054935005
-0.0429546848094
0.065481631081
-0.0488865575592
-0.0378926253054
-0.0318230351401
-0.0415913403376
0.0515258838233
0.0246425764653
0.0537697454594
-0.0132316885115
0.0575826424314
-0.0214705772377
0.0323126936704
-0.0195637655094
0.0125597088559
-0.0263589303896
0.00247962421831
-0.070281790562
-0.0193910782269
0.066865969816
-0.0374830692385
-0.0236801536501
-0.0397945433149
0.0647286461094
0.0377728253375
-0.0341159747262
0.0169420850058
-0.0633351173274
0.0133186947035
0.0522979532069
0.0258118747662
0.0744450120516
-0.00207002637792
0.0482844406455
-0.0358128259513
0.0257732025718
-0.0596394338036
0.06851393694
-0.0704589807662
-0.0533605680272
-0.0362062766231
-0.0276694880012
0.0759558730756
0.0639484363937
-0.0289187100175
0.0715069407559
-0.00933257325776
-0.0395031244448
0.013900326555
0.0125580761733
-0.0179641966033
0.00126968424746
0.0431878953288
-0.0479413060216
-0.0155617616375
0.0622348607114
-0.0658502653134
-0.0475082273323
0.0536132325176
0.00350136142745
-0.0544489770001
0.0452758647067
-0.0754687291395
-0.0163605811249
0.0634520113617
-0.069122240547
-0.0519956662727
-0.0552785997065
0.0505516500513
0.0760018038541
0.0298898573381
0.0725212536373
-0.0405742053026
-0.0265941318412
-0.014493149554
0.0413125906565
-0.00415407836094
-0.00273302396588
0.0433873516305
-0.0554239326059
-0.0715677512558
-0.0653295340625
0.0518703626448
0.058695178575
0.0179384910542
0.0679731867498
-0.064301990919
-0.0465452903003
0.035961743862
-0.026704700264
0.0107134584747
-0.0345446502394
-0.0704362533047
0.024153457478
-0.0764639394113
0.036404909332
-0.0298161954535
-0.0328310243588
0.0344539382497
-0.017769430356
0.0523385178252
-0.00422725012496
-0.0149607182793
-0.0332248681882
0.074678194186
-0.0633053274208
-0.00108902782656
-0.0567832343356
0.0416062238265
-0.0474199489623
-0.0572178978853
-0.0407908715222
-0.0431837869578
-0.037352794377
0.0289975304751
-0.0777898241148
0.0737663917763
-0.00951657083295
0.0716055415717
0.0145688467172
-0.0549152245648
0.0545768895617
-0.0454734486441
0.0179918856382
-0.0360988829972
-0.0354345001098
-0.00133609284965
0.0178825841557
-0.0329375742852
0.047209745303
-0.0425144040007
0.0743653000541
-0.0435501908165
0.0761726316582
-0.0659048510851
0.00174202623162
0.0393895161841
-0.0281172796194
0.025655108827
-0.0272449857873
0.0343475134524
-0.0611703630183
0.0382006518584
0.0474521725522
0.0661083364794
-0.0382357318771
-0.0736054935286
0.0512304727823
0.0197762130827
0.0107026599657
0.029748751039
0.0346747856357
0.0764548623845
0.0404841758249
-0.0588522170253
0.0266185434035
0.0276078186374
-0.0538806260198
1.88932717679e-05
-0.060915768628
-0.0274474852862
0.000694839364319
-0.0691395705281
0.0188711139896
-0.0401262117042
0.0619430469947
-0.0199656697337
-0.0235390984399
0.0287092985204
0.0142164860215
-0.0391619084627
-0.0621734346439
0.0232407878238
0.0703206503071
0.0599080606514
0.0756701545781
0.00779432122036
0.0527059341682
0.0763625455904
-0.0112686624639
0.0239261912654
0.00325389122657
0.0600033374176
0.0707849837046
0.0717569505937
-0.0103663200501
-0.0576668303417
0.0266513960858
-0.0334641362253
-0.0368029894899
0.065225968063
-0.0244720873096
-0.0237146900189
0.0109727038068
-0.0466488607772
-0.0634293224447
0.0745417624516
-0.02413242103
-0.055331810847
-0.067903318394
0.014873899449
-0.00792429788917
0.0229983812079
-0.0757864159698
0.0527112302658
-0.0101088546913
0.00970132886042
0.0701501377984
0.00906415966779
0.0535376536116
-0.0307056877233
-0.0672513553237
0.0608660030556
0.0705468762032
0.0147692768732
0.0446899497299
-0.0553489738153
-0.0404199362605
0.049773358351
0.0570687800703
-0.074722427379
0.0490829529662
-0.0526170859675
0.0550877701076
-0.0130599690453
0.00911645801423
-0.0700549464821
-0.0215268226506
0.0108245737436
-0.024552719877
0.00296140573608
-0.0576368834308
-0.0688359689779
0.0753111685213
-0.0623396288558
-0.037969707905
0.0585383544079
0.0630474999112
0.0605741366542
0.0246887600717
0.056797846697
0.0044819699437
-0.0381100094929
-0.0227586193315
0.0557124244225
-0.0429483020966
-0.00850422001584
0.0350067224316
0.0210955141844
-0.0334459850112
-0.0546703715825
0.0717906063162
0.0675790308008
-0.0306330747175
0.041199615023
0.0122177769895
0.0746080164416
-0.0302501150866
-0.0493220827641
0.0351975975272
-0.0532491914034
-0.053398064909
-0.0728070572673
0.045011337912
0.0482500225822
-0.0530452953932
0.0176543472451
-0.0630626513489
-0.0765831261105
-0.0111905141382
-0.020578839056
0.057104138984
0.0499690353949
0.0547960614932
-0.000123422542131
-0.0162629318588
-0.0101867240756
0.00990244959145
-0.0715926326381
0.0067201701348
-0.0231646014938
-0.0542794830905
-0.0264661614933
-0.069620414758
-0.0703938572743
-0.00956321394228
-0.0397745274895
0.0131928642077
0.0315989724426
-0.0657207939727
0.048821337582
0.0199418418218
0.0629076610416
0.0144113159174
0.0235213494209
-0.0453117675088
0.0594709959477
-0.044905042392
-0.0630297184724
0.0473271322083
0.0428733053168
-0.0285698390762
-0.0760904608313
0.0230495340271
0.0605644453719
0.0463332559243
-0.00623698424177
-0.0408631968594
0.0387711547207
0.0286897549278
-0.0354647512736
-0.0517416790055
-0.0667827414582
-0.0625982438742
0.0282760808725
-0.0402327018406
-0.0452414764688
0.0344968839407
0.027975873775
-0.0270335528443
0.0717328277198
-0.0525072782193
0.0488334662689
0.0056412126826
-0.0407529974196
0.0271382539681
-0.0509657336316
0.0272177222626
-0.074278315959
0.05359068753
0.00393186652089
0.0590283239577
0.00779587726169
-0.00391702730851
-0.0433194904025
0.0634738845827
0.0415879285235
0.0179542821759
0.0175864167847
-0.0188718963966
0.0307058834124
-0.053422041587
-0.0322845279855
0.0300352019968
0.0731858890067
-0.0481003027482
0.0291622184884
-0.0576296309174
-0.0691746400722
0.0663645710989
-0.0220526826724
0.00350936259679
0.0342208910943
-0.0721810342765
0.0280002688749
-0.0504239214284
0.0322256895521
-0.0262058626742
0.0235950268905
-0.0380050813093
-0.00791258291535
-0.00153735303213
-0.0136316174721
0.0324247229935
-0.0368171494285
-0.014287182651
0.000632609708779
-0.0661291616943
-0.0493631663699
0.0566724247582
0.0622462501209
-0.0524753207184
-0.0771233491561
-0.0261467620985
0.019723246106
-0.0406791225302
-0.048629617968
-0.0550170953324
-0.0240788547887
0.0275180467328
-0.0179582000463
0.067065920736
-0.0659329181045
0.0319863358212
-0.0361302607471
0.077434083974
0.00700395816254
-0.0497609990241
-0.0385997438737
0.0444983242569
0.0631511120314
-0.0736320360877
-0.054634730769
0.0280259382894
-0.0217276147119
-0.044667118204
0.0355850032204
0.0131419852929
0.0166337617398
-0.0470561078267
-0.0732632719978
-0.0326950419789
0.00667931626052
0.0412723102015
0.0599274591437
-0.0230461541408
-0.0751346051969
0.035004234679
-0.0249993586455
0.0229351277413
-0.0205725982014
-0.0531466768855
-0.00385667827428
0.0529842759619
-0.00300588922426
0.017870628983
0.0311162759092
0.0155713716778
-0.0771414940892
-0.0466843235116
-0.0210952256346
-0.0443746273076
0.00733892155081
-0.0237121630579
0.0471489476574
-0.0648784065339
0.0455361201206
0.0501332164432
-0.00714718011771
-0.0730916811724
-0.0240801155797
0.066941483913
-0.0148881095602
0.0611348402473
-0.0449296790642
0.0199279003095
0.0498162190573
0.00555358817258
-0.0538252263016
-0.0211490271897
-0.0501950418295
0.0297607576335
-0.0767428910877
0.0525096327328
0.0478147168329
-0.0380169502829
0.0257947974957
0.0443800795771
-0.0251951234625
-0.0108048993783
-0.0507159266553
0.0625666306413
-0.0185149076316
0.0517962435079
-0.0345652370686
-0.0564281199664
-0.0577329766126
0.0280956513997
0.0531576758906
0.0198753917152
0.0393345008396
0.0154018134633
-0.0782030158122
0.0211963680673
0.0412343298322
-0.070282812286
0.0142311108073
-0.0186222437394
-0.0777741184381
0.0614921346062
0.0174196864344
-0.0767942310384
0.0309639829599
-0.056956637179
-0.0433977871208
-0.0644482310663
0.00480562925345
0.00758988988273
-0.00286083131715
-0.041683239929
0.00341820474176
-0.0586500945661
0.0458249915916
-0.00335243543855
0.0716334097399
0.0606898131462
-0.0136621298289
-0.0527741586304
0.0138914524883
-0.0254624514632
-0.0479633765378
0.00283782827111
-0.00619285031416
0.00185939052065
-0.0393876879425
-0.0622860946505
-0.0191287832602
0.0557073561046
-0.0448055975355
-0.0297283827808
-0.0493437983263
0.015893530389
0.0162225409346
0.0455749440724
0.0512581940216
-0.0172298853266
0.0375489878845
-0.057508182862
0.0237503151897
-0.0562391827234
0.0340390380887
-0.0402928935703
0.0514491146004
-0.0558688893759
-0.0734097321241
0.0533387451701
0.00579597119522
0.0255690056533
0.0775156871248
0.0236815330339
-0.0633813664552
0.0169524136741
0.0588631945784
-0.0765315320189
-0.0432301892666
0.0389643285148
-0.0175110247045
-0.0236559542721
0.0050810554037
-0.00926583335286
0.0199885755818
0.0628657007017
-0.0196704996734
0.0425139325208
-0.0399835311929
0.0322724677789
-0.0033335268753
0.0666786279078
-0.0680813639824
-0.0605779727655
0.0309577239836
0.0655284652445
-0.00974244797767
0.0139010349746
-0.0401861966951
0.0142140719134
-0.0476256861558
0.0226505231782
0.00926027908394
0.0218597432393
-0.0574849978704
-0.0280875230419
0.0368614536857
0.0310407007298
-0.070005567856
-0.0695273371882
0.00762440775047
0.014491809281
0.0284927429455
-0.0746159264587
0.0339389236967
0.0209444280711
0.0129571007226
-0.0499616935188
-0.000342755693536
0.0269871185471
-0.0024714879062
-0.0169880784491
-0.0620552073072
0.0113281113839
-0.0724151635647
0.0638958347327
0.0731433663465
-0.0427281113686
0.0555971823938
0.0342980331774
-0.0771093350088
0.0640728089072
0.0253707913896
0.0309841234586
0.0768674275494
-0.026727043402
0.0667443778225
0.000599656158044
-0.000196237427833
-0.0189936730989
-0.0361057431262
-0.0279206559662
-0.0488390924828
0.0623441974741
-0.00560674999914
0.0679947230884
0.0510656081944
-0.0125931089691
0.00681894454401
0.0753538967307
-0.017028223004
0.0394709936949
-0.0719829516125
0.0436101179766
-0.0768086218154
0.0396393981551
-0.0219571359348
-0.0396935976574
0.0199302424456
-0.0410522968715
-0.0712020583497
0.0281436474379
0.0553476843801
0.0203980866711
0.0367807953841
-0.0545503865502
0.0521225354273
0.00559329598832
-0.0409133013343
0.053984064342
0.00399810807505
-0.0202041069259
-0.0754310461678
0.00822248904336
0.0580248808744
0.0294364682359
-0.0744491514645
0.0531790453605
0.0685651135903
-0.0589839956948
0.0220589987363
0.0219887405244
-0.0393828274295
-0.0532602094386
0.030458517077
0.0238671700061
0.00314451709144
-0.0252633596765
-0.0483339418962
0.0254520886327
-0.0618934503114
0.0271561602707
0.0722761464934
-0.0370243548958
-0.00116984858168
-0.0500029583713
0.0260412089535
0.0346196840179
0.0237222981099
0.0612478611056
0.0112783351141
0.0730341354739
0.0300394585268
0.0751867714704
0.00984702755621
-0.0572117587077
-0.000360715100992
0.00124153770599
0.0659992929353
0.0262139138537
0.0143412034732
0.0719279665232
-0.0414490919324
-0.046928625596
-0.044311046198
-0.0165526415956
-0.0217381820004
0.0314002467587
-0.0309702334936
0.0655752837861
0.0447452113768
-0.0422890996472
0.00342841897871
0.0567131761706
-0.0695555817054
0.0276390003704
0.0248915471962
-0.0433339484056
0.0351316997546
0.0181128402984
-0.0116790588309
0.0278466863864
0.0147677391652
-0.025481646649
0.0280481743931
0.000225677078228
-0.0297045844953
-0.0252644611424
0.0602209459565
0.0769840077206
0.0133035064669
-0.0671349331175
0.0373505966787
-0.0216888010619
-0.0432475988863
-0.0735138254061
-0.0471557561443
0.07602890621
-0.0344755573545
0.0622142398717
0.0212041977694
-0.0216003924948
0.0381740677067
0.0364307491982
-0.0177020063437
0.0600453067746
-0.0338729631707
0.0143441618759
0.0238757549016
0.00539739575987
0.0466323927279
0.017157198449
0.0515191328745
0.0649040380192
0.0390537383127
0.0118651007257
-0.0525187547032
-0.0118900622665
0.0545922669908
-0.00161464283259
-0.0206697030928
0.0728147439192
-0.036797216457
0.0759455773576
-0.0655601375673
0.0577317031872
0.0635523608302
0.00893678250625
-0.0578162747852
-0.0491290866687
0.0436137966288
-0.0363731970614
0.0224515559678
0.0485975864192
-0.0241236312731
-0.00819600881798
0.0654757352034
0.0156857470268
0.0571505770452
0.0571487537422
-0.020360511434
0.0396854737038
-0.0560866487769
-0.0361015194593
-0.0330427199871
0.0145441050549
-0.0747911734247
0.0685006702888
0.069163741829
0.00364357648393
0.0732033922921
0.00504153152607
0.0498198725683
0.0410852547059
-0.0239439591491
-0.0761491873673
0.0547742612124
-0.036200290538
0.00714898856229
0.0692252660058
-0.044770583545
-0.0126810934501
-0.0286838294577
0.0706241239105
-0.0281500949914
-0.0677858155482
0.011201763445
-0.00931461700812
0.0334610666194
0.0646139413756
-0.0285169656533
0.0384713735941
-0.061175766954
-0.00471677915305
0.064240676083
0.0577396013516
-0.0347471411532
0.0216453389253
0.027450572947
-0.0546010770709
-0.0406163983108
0.0703699364262
0.0497246590026
-0.0164470544824
0.0116602150276
0.0595013604057
-0.0346865426958
0.0766432439074
0.06540226483
-0.0323522237457
-0.0332460288515
-0.0507516956053
-0.0649872445869
-0.00899642725635
0.00575680850142
0.0254504278669
0.0160139434045
0.0191313969298
0.0149193960443
-0.0781533939329
-0.0502469744075
0.0692817480521
0.07654779806
-0.0716197605171
0.0541754512157
-0.0761771025095
-0.0616557877265
-0.0456459364047
-0.0573120889364
0.0578260309093
-0.0380178112373
0.0504590189109
0.0443426407423
-0.0697499514968
-0.0155297942773
-0.0356969471163
-0.0706564899736
-0.0602529653578
0.0766720498518
-0.0132072770947
-0.0483331672536
-0.0600847752189
-0.0424269583896
0.0248242464605
-0.0399438262538
-0.0547908660903
0.0570294242757
0.0205388634648
-0.0359721868151
0.00231400985701
-0.0109470252142
0.0570781280022
-0.0614899144661
0.0284265286526
0.0196956254987
0.0497659738622
0.0743588899202
0.0561570199602
0.0191928275854
-0.018164132229
-0.0310694477883
-0.0424453444974
0.0363694454467
0.00962406601276
0.0699156476625
0.0556003357163
-0.0380745998413
-0.0499686604486
-0.00744839994048
-0.0163866319913
0.0483617442764
0.0396956896365
-0.0691324730125
0.0418588044396
-0.0570468783292
-0.0450192763949
-0.0148641563386
0.0354014408355
-0.0348203123771
0.03881222043
-0.0173914841486
0.0233178789244
0.00903784339494
0.0536486975142
0.0335835336716
-0.0181286561687
-0.0213400940779
0.0695915823965
-0.0383431416661
-0.00377305365658
-0.0657724765342
-0.0486542731392
-0.060777205746
-0.0235005970137
-0.0432105875159
0.00131721303926
0.0688982079643
-0.069932962168
-0.026730939141
-0.0204808071841
-0.0743446821622
-0.0565358708672
0.0492949165077
-0.0545473232471
-0.00683379462741
0.057077124424
0.0416008447108
-0.0674288845671
-0.014813787085
-0.0556447356373
0.0114455552661
-0.0291508698594
0.00513685802803
0.0617715333722
0.0658893898456
0.00978333196791
0.0317920488462
-0.0233833442968
0.0127720516448
-0.0557234841839
0.0490111834161
0.0718575040595
-0.0428949743578
-0.0456319462264
-0.004478847187
-0.0552669390775
-0.0432490985242
-0.014550276895
-0.053100070332
0.0547088660897
-0.0662467124899
-0.0665712735091
-0.0696346899498
-0.0519429900209
0.0250036455755
0.0238981755182
0.0197066483149
-0.0554513357692
0.0674574104311
-0.025207178851
0.0149611311667
0.0316551568581
0.0698517243986
0.00690573423698
-0.0634300973641
-0.0612783827903
0.0387752974303
0.0440638359445
0.00332426300382
0.0331170427872
-0.070813860581
-0.0288794698961
-0.0348410786466
0.00640814104086
0.00193228927079
0.000652890211754
-0.0049488906654
-0.00531139888462
0.00223731369124
0.0466380236477
-0.0102326041913
0.00660143915352
-0.0299576565742
0.0653408589205
0.0589894820128
0.00574668318037
-0.0408135494527
-0.00103318434927
0.0458022237864
-0.062398726356
0.00342959928069
0.0156301634556
0.065045617917
0.0295648212468
-0.0449171114403
-0.0612864952263
-0.0490551283887
-0.0776558947028
0.0637505090271
-0.0628966220144
-0.0298711412095
0.0474989591531
-0.0602113025139
-0.0532144473306
0.000836003583494
0.0126024709717
-0.0457532086658
-0.0291818156155
0.0458874572342
-0.0762340442603
-0.0222782485538
-0.0423733691991
0.0480341255972
-0.0522348525734
0.0245509315642
-0.0673312835707
-0.0309789592428
0.0118459531037
-0.00885014546527
-0.0738042486404
-0.0563601295428
-0.00717031466334
0.0327357648908
-0.0533350001677
0.0618506088469
0.015421899202
0.0611516686866
0.07667285558
-0.0508444577768
0.00995066675724
0.0352929245326
0.00460796960253
0.0315919902151
0.0604567382214
-0.0078732610292
0.042628964908
-0.00530326672135
0.0206370961842
0.0409185769073
-0.0683126860716
0.0362286883778
0.0695217285741
0.0670980860075
-0.0621299025206
-0.0314683034448
0.00959976339435
-0.0362441034775
0.0423471996277
0.0731829636446
0.0648762167878
0.0155242985487
-0.0481627446356
0.0522500624185
0.0582550180291
0.0580656822228
-0.0328892718659
-0.0329604876964
0.036757848076
-0.0139609580051
0.038509327804
-0.0499057414129
-0.00687982648994
0.0102497027125
-0.0387978373034
0.00645602601672
0.0434459169067
-0.0717156717711
0.0405343184928
0.0636751814962
0.0732880038815
-0.0409437519166
0.0572951041778
0.0727469663507
0.0453195530564
-0.050921160428
0.0392781746974
0.032254924161
0.0106970907876
0.0328523216123
0.0281435467393
0.0411821804576
0.0676326133004
0.0402621581474
0.0371762525839
0.0108735390266
0.0537851825275
0.00546294827584
0.072653753539
0.0250537807156
0.0544626961242
-0.0122908866572
-0.00214366013121
0.0267890729408
0.0571489786295
0.0275884867725
0.0681678052003
-0.047462527749
0.0716801504412
-0.0203818518345
0.0146574981009
0.0402784562351
0.0670627413627
-0.00385116115755
-0.016123266189
-0.0130671906151
-0.0391592193604
0.0145832383483
-0.00529371573559
-0.0652210942844
0.0185335295273
0.0140917055449
-0.0353779095101
-0.0528503055998
-0.0745359093549
-0.0509108722155
0.0395807033703
0.0560479543155
-0.0431509583568
0.0766325761914
-0.0305318661797
-0.050453838242
0.0680814842349
-0.0421600721781
-0.0224749085771
-0.0754192114303
0.0394096472994
-0.0762569676088
0.0109340200059
0.0054544250299
0.0726073959797
-0.065572204233
0.0488549539021
-0.0764595444128
-0.0325150714099
-0.0554462450064
-0.0391156571717
-0.0218686636888
0.037047276548
-0.00749598372089
0.0571236150197
-0.0270529111606
0.0248644711866
0.0673664932532
0.0766312902402
-0.0744162527492
-0.0219288362657
-0.0556447824534
0.0079085301754
-0.0529558676301
0.0327710990742
0.0468612623339
-0.045543771746
-0.0193720176127
0.0503597819129
-0.0562726777655
-0.00385696612476
0.0658507753464
0.0739419326598
0.0195569594363
0.0517858970812
0.0633269341474
-0.037400994013
-0.0262424166854
0.0581478837415
0.00564841136474
0.0148832486874
-0.0686519656209
-0.0705169301645
0.0280808697491
0.0216315166289
-0.0293382024197
0.0467018302908
-0.0610471977608
-0.0179945597968
0.0176768348541
-0.0746651113842
-0.0555251735174
0.0224556418803
0.00685080835941
-0.0705708728414
0.0316502243759
0.0615591339711
0.0392086101362
0.0621197187213
0.0706562544881
0.0306183109788
-0.0347513208689
0.0286616893037
-0.00436266482287
0.00583042504077
-0.0543479279267
-0.0477172805706
0.038780941371
-0.0525924293721
-0.0449514024468
-0.046791539292
0.0672780959881
-0.00437302714997
-0.0380895764263
-0.0375378957459
0.0564359976215
0.0583387947012
0.077139550943
0.0525681975668
-0.0581971606086
-0.0120056458344
0.0543922915757
-0.00894067012159
-0.0619200498008
-0.0604869452019
-0.0759061870987
-0.00885919336385
0.0569123507618
0.0549418526304
0.0239669179801
-0.00724080470539
0.0249409632008
-0.0379405236377
-0.0243898747191
0.0651625939812
-0.032208698727
-0.0142194285676
-0.0313243037594
-0.0159859235098
0.0360572449304
-0.0542874752769
-0.0759687812311
0.0231682583809
0.0152870455695
-0.0684924433485
0.00477589285103
-0.0656207962809
-0.0561295831662
0.00647333288714
-0.00553257988245
0.0218532041001
0.0533914299258
0.0384578583047
0.0148864703194
-0.0191457569097
-0.0731910099123
-0.060526913992
-0.0656500962525
-0.0776146210085
0.0401669970802
0.00228938197785
0.0567952747145
-0.0341761971815
0.00163588354954
-0.0107709877356
0.0452615869903
-0.00151609618211
-0.0237471754399
-0.0758246509311
-0.0561697161336
0.0568326157393
0.0184898893827
-0.0181811820154
-0.0337319219463
0.0278938106321
0.016705102507
0.0606093781049
-0.0225059928781
-0.0254319684058
0.0361966908791
0.016040946295
0.00953675801798
-0.0511191331348
-0.0475290609305
-0.0476141943385
-0.00426970363159
0.0717219748806
0.0577976608739
-0.0520423895392
0.0270308366662
-0.0517792065887
-0.0182810063383
-0.0731586265165
0.0773167563069
0.0381948668505
0.0528615840734
-0.0619169498599
-0.0588448196476
-0.0248809347533
-0.0360915259284
-0.048021988149
-0.0528545340304
-0.063860148681
-0.048228485439
-0.0159375769581
-0.00795928631019
0.0481225762668
0.0218135636992
-0.0100538090402
-0.0305341018544
-0.0578082456239
-0.0199696199833
0.00345904865724
-0.00795023063188
-0.0183050864155
-0.0477373082214
0.0505662966461
-0.0606366320962
-0.0756813743731
0.0498993296371
0.0572952413914
0.0272933383128
-0.0108855969254
0.0383257287112
0.0608944585736
0.0642333891434
0.041982391406
0.039925120824
-0.0435847329881
0.026102977218
0.0368599859422
-0.0175145627395
-0.0643450887139
-0.0408232524442
0.0693904641555
-0.0686922121238
-0.0229187099529
0.0551623130425
0.0108912481764
-0.0107205396782
0.0132707896311
0.0625559321865
-0.0658135433637
0.0126212797293
0.0461969578186
0.0303774689147
-0.0401464208711
0.0172338923726
-0.0628671310409
0.0314054553443
0.00429988499307
-0.0299915979939
-0.0330496578312
-0.0767627901854
-0.0483862244037
0.0304780535454
0.0251287074437
0.0338718829925
-0.0292279740124
-0.00237545079726
0.0669438630263
-0.0622297722353
0.0455930870534
0.0167810957687
0.0738638419698
0.0617919191075
-0.0374034471331
-0.0331548573085
-0.0431674163326
0.0588493161418
0.0425177025886
0.0529379104885
-0.000576918840026
-0.0751717494895
-0.062077454685
-0.0573837487441
0.0121506482683
0.0455206216137
-0.00837192797498
-0.0663110062092
0.0073145512939
-0.000911965728013
0.0134721719245
-0.00905303360876
-0.0589566491519
-0.0724917115507
-0.0588164409164
0.0437118898327
-0.00449550112346
0.0324110600885
0.0282320739815
0.0539213168865
-0.00955795026698
-0.0379985177262
-0.0595791001461
0.039954369003
0.0698742653001
-0.0345292755818
0.0776698712462
-0.0418515424517
0.0314190014283
0.0671885214038
-0.0123417885615
-0.0264161392371
0.0113821565114
0.0770614404599
0.052938573019
-0.0339414460374
-0.0126271435544
-0.0168927598682
0.0372384812943
0.0612937095128
-0.0365516280153
0.0273726113318
0.0121516846217
0.037845655213
0.0639320385748
-0.030767336579
-0.0508172768774
-0.0302524534334
0.00955510634737
0.0601140187725
0.0253998814475
-0.0390026646956
0.0651099781977
-0.0421066294047
-0.0241657562743
0.039771088471
0.0495685286479
-0.022308940298
0.0683109862684
0.0754213174726
0.0251203414769
0.0487163303872
0.0332351651757
0.0719124674644
0.0365859554014
0.0287645611415
0.0665496768161
-0.0470195951823
0.0380113534985
-0.00896102234439
-0.0575711512853
-0.0712567892489
0.0347941881545
-0.0421989689687
-0.0327977398362
0.0523177637092
-0.0486055574232
-0.0773829970705
-0.0423767861229
-0.0251271211501
0.044958524881
-0.0654813880504
0.0137372750115
0.0624815560716
0.0179988000042
-0.0161309725066
0.0108663693237
0.0576597627073
0.0136141902464
-0.0209363134975
0.0247518044874
-0.0476356824465
-0.0320680443913
0.0194913407793
-0.0368245617848
-0.0728139768513
-0.0398031330302
-0.065632045177
0.0313594172649
0.0553708226706
0.069070726777
-0.0112250112053
0.0712516675494
0.00670588222723
-0.0561053586165
-0.0110925360487
0.0142613803002
-0.0169897056009
0.00839620509556
-0.0306990740431
-0.0257440695062
-0.0588022753777
-0.0560576613607
0.0632547783468
-0.0295908447166
0.0629405040362
-0.00545150152432
-0.0602831096549
-0.00472928195881
0.0370405455172
-0.0468012612525
-0.00823471725471
-0.023106695652
-0.049064935309
0.0210153102733
0.0113193497182
0.0291883304206
0.0361442715114
-0.0590309499069
-0.0122359608748
0.0681568688465
0.0159363824779
-0.00151933688089
0.0272928570287
0.0488459132807
-0.0723103248934
0.0397068544959
0.00261452486161
0.0769421470781
0.0501360117923
-0.0263284707573
0.00519620276609
-0.068963969789
-0.0495809546609
0.0511158026611
-0.0276892214544
-0.0477722362515
0.0223448328548
0.00897404958818
0.0142490364333
0.0303004562852
-0.011426219656
0.0380373315088
0.0702534632188
0.0242800007463
-0.0227352589349
0.0363247263761
0.0447265310896
0.0131477435533
-0.0763425834091
0.009161202819
0.0712104480876
0.0131004971743
0.0722126689576
0.0715555078099
0.0430270223963
0.0546463887354
-0.0699356470156
-0.0159554695796
0.022962979929
-0.00949993511584
0.0109838466174
-0.00581284930763
0.0184299787716
-0.0175524586889
0.00991947753689
0.0241163598482
0.00807681904418
-0.101204793382
0.118019993791
-0.200898372709
-0.0692253913996
-0.0552063920125
0.048932607298
-0.12137678176
-0.134507463886
-0.131213880648
-0.193592015585
-0.154592337793
-0.0388183545179
0.105906195929
-0.17314133851
-0.120133876475
-0.213035372151
-0.103406312288
-0.0604213585322
0.0530704749721
-0.00217577032572
-0.146525513413
-0.130842772729
-0.232391706516
-0.0518497473997
-0.064218772176
-0.140193310546
-0.0863459227139
-0.0267848763139
0.0327481710302
-0.138322407174
0.0343259844586
-0.157737985455
-0.0740185799348
0.167747745134
0.086421968741
-0.0808933467447
0.138060315944
0.029863817464
-0.121129119893
-0.0458333844687
0.108436163417
-0.131816234835
0.0369686280929
-0.181837213858
0.0736148043287
-0.111999609479
-0.0799188994844
-0.0176983771816
-0.13143030868
-0.126923954779
-0.173615269976
-0.0951107622866
-0.0515768073545
-0.237646425993
-0.199368673937
-0.022281320677
0.0690422724942
-0.0530418775562
-0.0607811683015
-0.204514620213
-0.00979745361869
-0.0221211322742
-0.0820261268912
0.137302915857
0.0348547240607
-0.168797174967
-0.173115042331
-0.0873410698654
-0.234596165037
-0.00217306669429
0.039164998117
-0.185061895796
0.182744377161
-0.204344785448
-0.0404531093472
-0.219196080632
-0.015221285244
-0.0841402650704
-0.0636568472502
-0.156930430546
0.12500511939
-0.0758427192468
0.0867643967848
-0.228637527203
-0.163274832991
0.177069600696
0.0247682201738
-0.198399596174
-0.284094401254
0.0777143368968
-0.110746085443
-0.200509080315
-0.114124516472
-0.0827625756204
0.0921786005636
0.121126291946
-0.259005231451
-0.0835169886854
0.0384167504353
-0.0316616500677
-0.0840568038098
0.0364810549045
-0.0444647653258
0.0322037111161
-0.019363790611
-0.0185781568604
0.115732514664
-0.151096576056
-0.129825632662
-0.177361836052
0.0061451508647
-0.280195540743
-0.0158108064848
-0.0259195069271
-0.0275816999768
-0.211069539842
-0.152819959452
-0.191925159016
0.0747723078925
-0.214818171168
-0.1160695455
-0.0232801393178
-0.0922029153222
-0.0239599059533
0.0602229749927
-0.0942649248876
-0.146689958414
-0.0960793932609
-0.0304373763476
0.041143077061
-0.140339750422
-0.202545766769
-0.109837824243
0.0117326768886
0.0561019634372
0.00170871373278
-0.0217298128733
0.00662887261185
-0.0198023322438
-0.0595295492604
-0.0672084934264
-0.0185196807914
-0.058799482938
0.114277225034
-0.0447342384892
0.192240423786
-0.241058627029
-0.188089499653
-0.207747625707
-0.0804442457714
-0.140070198317
-0.112747052751
-0.0321987426429
0.00238885080958
0.0640432266065
-0.0554208290085
0.12394281069
0.0615027616969
-0.207967231011
0.0418259407596
-0.0358346180975
-0.149041498773
-0.0835571104288
-0.0296785522073
0.120891873594
-0.112183188492
-0.0381187434974
0.00519541715494
0.119621800758
-0.0683825823099
-0.117008433622
-0.0364784368353
-0.122490734595
-0.0964505802274
0.0349008766108
-0.0988592437516
0.147546003611
-0.0429863137558
-0.0961167281563
-0.0210621293201
0.0902176900046
-0.172192219958
0.0701005998842
0.0535526308958
-0.356506891836
0.0379701894308
-0.0323169153485
0.0447043428791
-0.0621763257986
0.118362252562
-0.160099263889
-0.03962023282
-0.0475168203864
-0.0858697838841
-0.0331532956912
0.0190604151018
-0.16253362226
0.0955733764596
-0.212116452045
-0.0959092384192
0.0371332501792
-0.00562415935246
-0.135021681808
-0.0709584892354
-0.155305837347
-0.253266355214
-0.147721696671
-0.055562540671
0.063396548229
-0.185490049396
-0.142383542505
-0.292419601755
-0.105348670545
-0.125355982827
0.063053434844
-0.0981017024944
-0.0925112103446
-0.144390109738
-0.289502149735
-0.0781755503682
0.0141561526453
0.00852104494257
-0.2085538596
-0.0646066771909
-0.055554602509
-0.233415333547
0.0218356464561
-0.23513078036
-0.0672546381647
0.101725855352
-0.0224008680088
0.057548275922
0.242945990256
0.0710179377233
-0.193285111116
0.0344063516907
0.145474977256
-0.0362215748937
0.148780661025
-0.14135987621
0.184770438728
-0.0236955755992
-0.107495271284
-0.106599730103
0.0294789196506
-0.0807167288379
-0.271298540554
-0.173265092784
-0.0701936451937
-0.169608520827
-0.115650623912
-0.175765231658
-0.0363715947727
-0.0184296411204
-0.0410701641219
-0.086971468444
-0.122446134157
-0.0459344405285
0.02589775181
0.13966252448
0.0357002114337
-0.237735306411
-0.102459654095
-0.120635491878
-0.181831844669
-0.0976913308338
0.0944481456956
-0.249508108423
0.201670319309
-0.130480786149
-0.0202803464516
-0.209148661574
-0.146715443321
-0.113488008524
-0.176634139813
-0.189442285646
0.0995925637117
-0.0206352993069
0.0562788321452
-0.288418009081
-0.0962904988798
0.137911480734
0.0865015547022
-0.159084417954
-0.198479814988
-0.0128848632736
-0.0512002634247
-0.0530759853118
-0.135552156559
-0.154414839075
0.021629175266
0.120984732368
-0.187313790977
-0.0620917102339
0.0971433161068
-0.0911636499729
-0.177142914289
-0.0386812792889
-0.0117431748452
0.134272180255
-0.0637176483
-0.0374594374623
0.131005173933
-0.224428490975
-0.100714683465
-0.108088211489
0.0588079533002
-0.195636242322
-0.0684014652533
-0.0236337021832
-0.193864773746
-0.348840939625
-0.112500866742
-0.064955844463
0.034291846601
-0.109404107466
-0.0846161698241
-0.125922881186
-0.114552693677
-0.0406681950883
0.0936641112832
-0.163690803336
-0.122948727767
-0.0426615423038
-0.0791688190614
-0.110644025101
-0.224506519722
-0.189607792909
-0.0587505195023
-0.0191308210484
0.0888372048584
0.107705322058
0.0394893391637
0.0415038644636
-0.195564616159
0.0141105884978
0.0349700906165
-0.0302371333624
-0.141955316207
0.0434282319327
0.0244464183036
0.0809509607918
-0.314350961275
-0.249002370697
-0.334040440252
-0.135486987369
-0.190911529752
-0.0443312379357
-0.073679775839
0.0141404622972
0.0535384904498
-0.0621021837846
0.25549371823
0.0736741260091
-0.32688363272
-0.0250570826837
-0.0903403816957
-0.193545539633
-0.0839394007466
0.036376147926
0.162114795312
-0.0933526703653
-0.150620854925
-0.135697617168
0.0275114581833
0.0189554837102
-0.178927416528
-0.0294201214565
-0.0646530079806
-0.00577479982936
0.00485177175907
-0.0892174208835
0.014631829045
-0.0868145143389
-0.0114971391106
-0.170003205575
0.0301657301561
-0.140387366368
0.0181880206003
-0.0316223148893
-0.250686005023
-0.0459445667866
0.0867701534447
-0.0650511274544
-0.158214671368
0.112350467825
-0.174386679354
-0.13185281721
-0.163013464268
0.0925052777511
0.023263274974
0.0209583950075
-0.0308352097433
0.224650855865
-0.0888538976774
-0.192265621498
0.000165105114838
0.088166124972
0.0358974342939
-0.064723202937
0.0314262313011
-0.0326573148526
-0.190583557534
0.100756208022
-0.0519849190222
-0.141304559292
-0.141617311752
0.0767655114696
-0.0670978581248
-0.1702228364
-0.0217535800685
-0.123004608654
0.0672982236715
-0.142168364868
-0.131320696076
-0.0831933826048
0.0301809873351
0.0690875236053
-0.26375214939
-0.031854965534
-0.0127529283143
-0.142129288626
-0.0474530339724
-0.226432315433
-0.0668160240911
0.030306436987
-0.152833820181
0.0985160905818
0.156295545422
0.20845076257
-0.135528500281
0.0641796120896
0.217071454404
0.177972653798
0.271898946992
0.0911390950545
-0.0249440517662
0.0581974451914
-0.037567779981
0.0103046415139
0.150357789636
-0.0714247179843
-0.152223502363
-0.0861433975164
-0.00221232347592
-0.142121108487
0.0634459150169
-0.136930790329
0.0435113121154
0.0231257066582
0.0455219317231
-0.0791660243618
-0.138083385465
-0.0216865119854
-0.00414495782466
0.00876313397257
-0.009159190972
0.0111694431297
0.0145543931232
-0.140019130867
-0.050391659252
-0.0170338408696
0.125992738057
-0.206076066504
0.205359821804
-0.177870336943
0.0810318718686
-0.178221852242
-0.0157116024809
-0.208724330947
0.0259024758604
-0.0676810566912
-0.0544050738422
-0.0206672254321
0.0453625823005
-0.222909172554
-0.0975790070935
0.109577343472
0.142475331619
0.0574397594962
-0.161129016791
0.019364139546
-0.0681825921071
-0.00425106424181
0.108731314604
-0.142541659148
-0.0278512430981
-0.0216938781922
-0.197221192984
0.00232711032225
0.121404231922
-0.121731913619
-0.157158461739
0.0390118080299
-0.159488254146
0.0518846471945
-0.0315957291224
0.122451603346
0.131578483189
-0.143291984355
-0.00032617067227
-0.118413097098
0.164962657724
-0.239693550207
-0.00862370356524
0.0747873916674
-0.013697918216
-0.147875577233
-0.0417882813909
0.252299577775
-0.0273138679796
-0.0847722577822
0.0775014144006
-0.0109347180976
0.0518474518248
0.0877590932672
0.110617306745
-0.0146172605429
-0.109910463389
0.00942368067953
0.03104894347
-0.171722236722
-0.0353810362487
0.0140502872108
-0.145754572283
-0.177753609262
0.150173073073
0.00916536715675
0.129487760104
0.0193049024348
-0.245292438175
-0.0245178399866
-0.101285556739
-0.186163623365
0.0250178540893
0.0801246673058
-0.00373178641126
-0.0274475518915
-0.205842202782
-0.150917827784
-0.139892574392
0.0111697346369
0.0224004318704
-0.00182003852758
-0.0567833886641
0.0464807182182
-0.121515793298
0.0780062026849
0.141702701104
-0.00788809493675
-0.248982840575
0.168703634578
-0.140059564938
-0.250533095574
-0.154951226581
-0.0475375542917
0.101399318184
0.00965983932918
-0.180038209483
-0.0575908255508
-0.0653839517137
0.0694648383888
-0.196683799391
0.115859839506
-0.0987838538877
-0.0151395781013
0.102152434324
0.00366965284271
-0.125987462679
-0.208950833985
0.00529534702216
-0.253670737939
-0.0485201197092
-0.139087937182
-0.0760773408974
-0.195699207743
-0.188092809739
-0.0689081690289
0.113358106786
-0.0728818785111
-0.119154053353
0.0587960192552
-0.158178232909
-0.229560017244
-0.208476719263
0.201197299999
0.0977246254091
0.17761220457
-0.0792976336012
0.244865445508
-0.0468887775201
-0.242345109993
0.0218039288914
0.055704760128
0.00844701762672
-0.0414867135993
-0.0707817713054
-0.0746719132927
-0.224686942024
0.20517398246
-0.119626623248
-0.0313783367158
-0.198743500902
-0.0682721932203
0.00910300933773
-0.121376226535
0.0648524104351
-0.101290728934
-0.00931580276716
-0.0644893076165
-0.213385946753
-0.0928791888998
0.0779928350702
0.0653745476049
-0.0934165253922
-0.137500295209
-0.0170735257028
-0.104609710103
-0.00975086105246
-0.0917162196912
-0.0366593720655
0.050566009751
-0.153498510078
0.128006694925
0.0365844377948
0.11572992067
-0.200857848791
0.100360798068
0.148878258508
0.026083503035
0.253546500201
0.124409619954
0.0283452910307
0.0405055602192
0.0517764980007
-0.0487615586829
0.213527217333
0.0386903371176
-0.0815444058514
0.0692636902617
-0.0946817717742
-0.171933481727
0.0990057267555
-0.182419313867
-0.0894435806045
0.149921755751
0.0444387933432
0.0468818051873
-0.0461837605012
0.0458144912181
0.0807525119558
-0.0168974540324
0.0173837720356
0.0289052131164
0.0859735089572
-0.0627284510294
-0.071072546117
-0.0213077545487
0.127017718432
-0.0970248779477
0.0874875117656
-0.188079134586
0.131984407963
-0.106705255714
-0.0479361639763
-0.0855556812598
-0.0315122660891
-0.159133230658
-0.0245652419326
-0.023072949599
0.0295887417954
-0.102864920307
0.0103385478026
0.221096712244
0.137678461894
0.00997138487113
-0.135237213149
-0.0960830918451
0.0398654146884
0.0171559965777
0.0919828658603
-0.129387748709
-0.137060260851
-0.0196199397936
-0.139163958515
0.0472153728207
0.0530390720172
-0.153410852318
-0.059336677857
0.0876890947494
-0.124675956929
0.0631933920699
-0.0874317454798
0.138058047447
0.0600782867251
-0.0668113385386
0.072737352659
-0.132453361144
0.206543060622
-0.10598846949
-0.0690320642409
0.0972748024681
0.0574391119813
-0.175365526037
-0.0307947456637
0.208785340093
-0.0792268719388
-0.110581232517
-0.0565536541606
0.0320971239692
0.120725148597
0.0934381542878
0.0108863528417
0.0114459072297
-0.048331677862
-0.0591727931254
-0.0303747099761
-0.207596005987
0.00726091696508
-0.0263891512376
-0.125408243093
-0.0477109587012
0.0658965667423
0.0502519765603
0.110789324707
0.0804030013875
-0.118849625589
0.00889399128786
-0.11984855108
-0.0772752811502
-0.00508979802696
0.0972988485601
0.130094139795
-0.0115551924616
-0.121087936521
-0.0943594926016
-0.193477305742
-0.0330972935912
-0.0502102804664
0.132771504689
-0.112244782975
0.0999578319916
-0.101671651197
0.127392252832
0.0784497986516
0.109077816567
-0.253376658545
0.0468972263324
-0.0826032877651
-0.187704374388
-0.190778457396
0.0163454277522
0.128295573276
0.106604234916
-0.0928322082581
-0.102570794518
-0.0615779888829
0.04971806867
-0.119779439865
0.106230813859
-0.16144995809
-0.072854898038
0.0946664639355
0.0930573574257
-0.0106452403863
-0.0420489295726
-0.0538619866778
-0.156850875008
-0.0488810768084
-0.0543442195584
-0.0634101104848
-0.183306831665
-0.181554425039
-0.0685236629414
0.140692825489
0.00199158530979
-0.0144823405636
0.178573959351
-0.156621733079
-0.127056202936
-0.0744723845595
0.181644372542
-0.031596750517
0.134767481257
-0.0117075589231
-0.041495015377
-0.0368376139794
0.0381462805714
-0.0448141469724
0.0597596769545
0.0755840901762
-0.0473088306928
-0.0429534306865
-0.00787156030704
-0.0497428841998
0.00235388628829
0.0179328485951
-0.0679709524872
-0.0163476905082
0.021759853504
0.0249911548385
0.0424024751489
-0.0317956248262
-0.0605469151275
-0.0468024595321
0.0371397367777
0.0655438502116
-0.0220576992859
0.0681718465628
0.061683600908
0.00742806596443
-0.0679908419699
-0.0576148027793
0.0566871807619
-0.0234282889558
-0.0378666093822
0.027009876277
-0.0664761252274
-0.0145723234407
0.0490465679612
0.0560150907788
-0.00233596863841
-0.0647587125558
-0.0209859379248
-0.0397040394581
-0.060001684671
-0.0760351270048
-0.00257572133866
0.0769151702279
0.0173278301608
-0.0251418955428
-0.0727847637096
0.0215343937552
-0.0684482046148
0.017429552399
0.00579530915564
0.0234292586584
-0.0024470556313
0.0362008445596
-0.0417780216762
-0.0206771958625
0.0353609041431
-0.0364897900585
-0.0434432476946
-0.0588074587891
0.0440266004561
-0.0648468349606
0.0444037813899
0.0340998416456
0.0135824179198
0.0512676223471
-0.0734300670312
-0.0316910508838
-0.068130604979
-0.0761035970809
0.0465309142748
-0.00301946029276
0.0233118835572
0.0366568690241
0.0343172400139
0.0289587633597
0.0564011233697
0.043939551334
-0.0214790338233
0.0487956629784
-0.041100545449
-0.0710729159274
-0.0506151151916
-0.00576971250767
-0.0198193809142
0.0232590892569
0.0435654345395
0.0734588814863
-0.00531225990703
0.0668516466545
0.00564305434991
-0.0207354585033
0.0552245986695
-0.0685552231
0.0209793226674
-0.0692412807517
0.0590515335439
0.0144094212808
-0.0410200765809
0.00804327831163
-0.0269986206913
-0.000515366985238
-0.0557076408624
-0.0256344265121
-0.0297596318118
-0.0322669115165
0.0265563092825
-0.0238114811202
0.0553407245806
0.0226414561013
-0.0102922508485
0.0715784367629
-0.0524234665388
0.0386795054872
-0.0160303705281
0.0229799669519
-0.05355888331
0.0011553436412
-0.000321211051164
-0.0158526159438
0.0376189071499
0.0326895023336
-0.0516142885423
-0.0593024806813
-0.000741926175616
0.0447868291285
0.0473238454354
-0.065719731688
-0.0233260157547
0.0290320903034
-0.0160314624789
-0.0395555581146
-0.0551046685065
-0.00529767049159
-0.0528844088248
0.0685309555586
-0.0473718667565
-0.0125257368939
-0.0781804834216
-0.0155176912463
0.0181339540108
0.0694849571603
0.00882776968442
0.0764449613947
0.0353346740134
-0.0748289285075
-0.0344384024643
-0.0199273243374
0.0052550501445
-0.0229067706156
0.0763968485072
-0.0536415412539
0.0107940839143
0.0453332776233
-0.0355182657929
0.00254685593228
-0.0480177972781
-0.038856845789
0.0159511999159
0.0442902225079
0.0211710876585
-0.0374506034291
0.0620533963613
0.0702829644093
-0.0612373414992
-0.018067334378
0.0663573670609
-0.0486107557957
0.00979375690805
-0.0611078724343
0.0535202033258
-0.0681778120292
0.00867441271478
-0.0775936934063
0.051263057214
0.0324143573929
0.0640607623661
0.0631559219328
0.00183120686337
-0.0257165838755
-0.0367355860197
-0.0114224676502
-0.0626837986611
0.0270375777327
0.00340233757417
-0.0725855660242
-0.0325428963167
-0.0526357602661
0.0500198935385
0.0104085158673
0.042271966346
0.061964865092
-0.0217307471806
-0.0594338180964
-0.0605843522816
-0.0442272044939
-0.0750257667318
-0.00907946956191
0.000734438234809
-0.0150457427164
-0.0278596451295
0.0391951887617
-0.00557996836387
-0.0590823306226
0.0479077323156
0.026060895886
-0.0532636607569
0.0715654010818
-0.00499189604207
0.0363906750547
-0.0709502509856
-0.0141063545796
0.061667876724
-0.0141741547169
-0.0392995420605
0.0328316866412
-0.0506769967434
-0.0348709637935
-0.0609047278221
0.0774972345052
0.0279143374163
-0.0717557270049
-0.0470009755776
0.00671492744605
-0.0294285091368
0.02576752902
0.0659933897243
-0.0718548519185
-0.0227521844049
0.0776970295555
0.0189100967444
-0.0160523191764
-0.0160170869503
-0.0413470461598
-0.0113388297942
-0.0533913728415
0.0682606390528
0.00608339910184
0.00822231221602
-0.0763204144956
-0.0480754335735
-0.0716887350024
0.0143927722293
0.0373401910455
-0.0600069785333
0.063949048813
0.0395087105039
0.00504180110925
0.0122905406819
0.0294785772362
0.0575146549221
-0.00196247744387
-0.026560886658
-0.0702628654902
0.0394703235183
-0.0587787925215
0.0461273661315
-0.077944448707
0.0116720947684
-0.0720141137543
-0.0276973117219
-0.0437401268105
-0.0488487302543
-0.0513756564531
0.0434638289685
0.0599569476814
-0.0237350960295
-0.034363987451
-0.0532412614451
-0.0636969477491
0.0714291382908
-0.0371553161481
-0.0240874207874
0.0749846803739
0.0309566076282
0.00924261413874
-0.00592251858814
-0.0290712664126
-0.013246245028
0.054875471862
-0.0310306936259
-0.0655340139191
-0.00710935269616
0.0653427925883
-0.031134439793
0.0473726507289
0.0229030277098
-0.0173432013706
0.049123265715
0.0221255068991
-0.0646277936113
0.0649801081657
-0.0358588454604
-0.0414903966792
-0.00832738859884
-0.0400125669592
0.0272001185967
0.0491824146392
-0.00221192494239
0.0622789191828
-0.00163065934948
-0.0603416677888
-0.0480137944792
0.0155285487411
-0.0760008073263
0.0368311151847
0.0155143572332
0.0370846524161
-0.0661114788662
-0.0668878198402
0.0641515160795
0.0543357116072
-0.018357557173
-0.0662608593574
-0.0294756696822
0.0220289993726
-0.073245758109
-0.0284285037342
0.0136585756702
-0.074628949599
-0.0536954216224
-0.0117331541923
-0.0386641855376
-0.0199657446045
-0.0742753155556
-0.0439647613828
-0.0316926769293
-0.036891406259
-0.0395468026565
-0.0705360114497
0.00229259978657
-0.0288166887962
0.0555043794988
-0.0351789712385
-0.0063108274831
0.0366275132302
-0.0281944246647
0.0276625476184
-0.0686368274181
-0.0438289004498
0.0239938947199
0.068681825691
0.0590045642076
-0.0313981233378
-0.0159650888351
-0.0266613311678
0.0182175577759
0.0444496615931
0.0645102135526
-0.0620601844059
0.0126024082117
-0.0550006808628
0.00525158716702
0.0548966796332
-0.00971544188758
0.0291324805945
0.0218969811359
-0.0753932081576
0.0210411010767
0.0572925629655
-0.0717683017733
-0.0316915263996
0.0362585581734
0.0480588968418
-0.0240659839526
-0.029989576195
-0.0416904085445
-0.0106491797558
0.020855999214
-0.0197764815401
0.0314372060532
0.0267486059729
0.0158283835166
0.00918555235112
0.0310936553914
-0.00404363984667
0.0062267487941
0.0191472574488
0.0348921023401
-0.0400901494497
-0.047578956587
-0.045536431129
-0.0553772670948
-0.0686112282867
0.0583530446886
-0.0770871096781
0.0409276879492
0.0426286986984
0.0360773381034
0.00754082495169
-0.0366694027055
-0.0277297189023
-0.0044802866253
-0.0607304034808
0.058178243074
-0.000663852848459
0.0156452716014
-0.0542247012151
0.062597677889
0.00386722134499
0.00452144011411
0.0770426441242
-0.0580126778668
-0.00892286515313
0.0671395160595
0.0428433753451
-0.0178214362864
-0.0530261408547
-0.0522364253449
0.017387299268
-0.0327283675824
-0.0252634028985
-0.022708119139
-0.0686693816852
-0.036610583845
0.018613664923
-0.0206610597299
-0.0334860516315
-0.0139419727134
0.0523855214217
0.0116756132003
0.00361728881342
0.00753561209663
-0.0708578124063
-0.0643910577754
0.0696137376699
-0.040262989681
0.0397432506107
0.0416008125119
-0.0449349535576
0.0286095374416
-0.0157157137332
-0.0433864904548
-0.0594881854229
-0.0290408112816
-0.0534223174119
-0.0333830239339
-0.0720738836319
0.0212560965696
-0.0378610144672
0.0618110769931
-0.0678992596414
0.0131453095278
-0.0747367146487
-0.0530820694864
0.0112912274037
-0.0702512269975
0.00286051250987
-0.0531237752056
-0.022657946546
0.0534584665782
0.063880681491
-0.0305675833092
0.0212733464663
0.00423243473818
-0.0437092017463
0.0366633730521
0.0565854013943
0.0410277527014
-0.0414715013916
-0.0607942050955
-0.0332477559204
-0.0689552307223
-0.0174283882014
-0.0720447428131
-0.0698682359245
0.0675699672764
0.0455291797544
0.0668263577958
-0.0636409683184
0.0292409509191
0.0713046677503
0.0478546702098
-0.0468479583986
-0.0480924203526
-0.0700307567216
-0.0198506282444
-0.0635655380166
0.0394724337943
0.000339860859597
0.0179334285331
0.0101257466007
-0.0353598669556
0.0144119941856
-0.0281082158075
-0.00835584880874
0.0289713001827
-0.013400831567
0.0188437536152
-0.0536170063143
-0.0256760940997
0.0664939617309
-0.0502332600076
-0.0566541224818
0.0267424288607
0.0533726383573
0.0464311854682
-0.0108264556138
-0.00647290662803
0.060275490483
-0.0123997293888
-0.0473876086508
0.0400551225232
-0.0531532356024
0.0735429845647
-0.00569112489053
0.0479302742036
0.0072449746007
-0.0612389344164
-0.0110086519259
-0.049372575419
-0.0192974853525
0.0605230511796
0.0137967143312
-0.0543325370061
-0.0293416386153
0.0431445308153
0.0594057304612
-0.0768677468354
0.0569876050009
-0.0210146286962
-0.0172161326301
0.00550256478091
0.0337377348912
0.0544523058337
-0.0413490267733
0.0734359863615
0.00667999899429
-0.0114141215809
0.0649100415627
0.0309950209366
0.011887461924
0.0278545114207
-0.0130525787388
0.0118581051613
-0.0108673170371
0.0283133266291
-0.0657161754233
-0.0696430619702
0.0080784535891
0.0634442946773
0.0259586335548
-0.0774646453404
0.0242252700634
-0.056650652824
-0.0525049434288
-0.0657831653597
0.0018067574309
0.006892459858
0.0335432037847
0.037299707697
0.0365476280106
-0.0325187885308
0.0122796923189
0.0192908550201
0.0116834691344
0.0520876785788
0.0183559048258
-0.0190197545067
-0.011073489759
-0.0670084914247
-0.0227621207304
0.039269237085
-0.00142585154005
-0.0431498025594
0.0275442658688
-0.0295429112104
-0.0165323652223
-0.0502285378205
-0.0228617842171
0.0755426594274
-0.0627642733228
0.0759631342105
-0.0451293240128
0.0580630423699
-0.00281454725752
-0.0266651143772
-0.0613995779262
-0.0632908738752
0.0659466731938
-0.0668493669214
-0.0375880609913
0.0447235018807
-0.0698646570172
-0.057124539831
0.0693189797802
-0.00833303549842
-0.0372590393387
0.00216089066282
0.00671646034887
0.0335079917348
0.0665738229422
-0.0151907169751
-0.0562723325627
0.0515859327539
0.0164896441426
-0.0264703392234
-0.0667741539892
-0.0462541252108
-0.0232928934022
-0.0207943757013
0.0625438063453
-0.0511953272455
0.00294157694532
-0.0251552724048
0.0515388643297
0.0134845088703
0.0338103521463
0.0572909652568
-0.0337787714983
-0.0370676848715
0.00566507472846
-0.0758289030945
0.0705235475414
0.0741133118128
-0.0428938226261
-0.0572748630241
-0.0155430212018
-0.0696978675477
0.0174389253953
0.0189451594141
0.0271589451555
0.00314436580619
-0.0360329215726
0.0402723422602
0.00294848475546
0.0500932485071
0.0339129707615
-0.0684814938255
0.0528607318392
0.0650302180233
0.00183093192626
-0.0241846815366
-0.0590632269329
-0.0769571825716
-0.021187316487
-0.000220202716326
0.0710780998704
0.00595102693734
0.0111686918277
0.0717908257327
0.00495385259121
0.0261069994108
-0.0121789975324
0.0153279259378
-0.0588564993755
-0.0772545616088
0.00901261257512
0.0697709893088
0.00374465112133
-0.0616715121289
-0.0463637249626
-0.072194741126
-0.0674840697133
-0.014352767411
0.0308761965089
-0.0182109786407
0.0278058632165
0.0602344141551
0.00835964927444
0.0461582417226
0.0419321754234
0.0201282999471
-0.0221170340498
0.0124858870927
0.00312824524886
0.050620372928
0.0247507940729
-0.0561747212468
0.011973330256
0.0408716071833
0.0252044247108
-0.0244179036659
0.0423431841092
0.0492475878397
-0.0642767170716
-0.0727202693685
-0.0150889917485
0.0389723894206
0.00688738920063
-0.00207380901215
0.00648633846969
0.0651390568492
0.0278263222991
-0.0488269337759
0.0569923252267
0.000418546882752
0.0478549403056
-0.0346541109943
0.016145899435
0.0639598556225
-0.0275337766457
0.0199808974468
-0.0731405546301
0.0249256084167
-0.0234977828796
-0.00708628438931
0.0191217039575
-0.0773653264077
0.0542721039771
-0.0598021479653
-0.0290282841704
0.0030099595507
-0.057038360784
0.0719358565521
-0.0594744416129
0.0175134408178
-0.00494734333294
-0.0460665898844
0.0311798774656
-0.0709114109126
-0.0106499928007
0.0515498867379
-0.0692056045776
0.0729320738621
0.0386697905589
-0.0745574981472
-0.0175166336245
-0.069672926453
-0.0220675420086
0.0607420948622
0.0120876313422
-0.0756346282094
0.0346835598565
0.070781199098
0.00255679420546
-0.00289056527431
-0.0294784440731
-0.0591083222549
0.0521066093476
0.0146664236371
0.0145593170313
-0.0172546700548
-0.0744562807607
-0.00125644470595
0.0206192564982
-0.038428086559
0.0519723026409
-0.00599548995895
0.0635739022402
-0.0485744552957
0.0220907257962
-0.0390403626289
0.0192114541396
0.0296539216164
-0.0767437705229
0.0195534615964
0.0554007980606
-0.0665369372157
-0.0116528882097
-0.0532077248757
-0.00577708586047
0.0104883539875
0.00478885287718
0.0424195077118
0.00257955187353
0.0409508294002
-0.0719164869413
0.0522338339369
0.00723536547784
-0.0555269392873
-0.0638966455676
-0.0579833774903
0.0562559007162
0.0494791017955
0.0443556444807
0.0038463632684
-0.0738016767087
-0.0205627551514
-0.004741032678
-0.063195002712
-0.0646851421995
0.00752711009915
-0.00276317921312
0.0230503489395
0.00638977988615
0.00317812113699
-0.023824434071
0.00594061088309
-0.0554288314703
0.0542816050228
-0.0220108281494
-0.0377586437658
0.00411025179507
0.0289685211453
0.0177469216981
-0.0176256593819
0.0434844544769
0.0470666275915
0.0318939425747
-0.0642178853871
0.0243513332153
0.0627465916235
0.0697567805832
-0.0429820651458
0.0107284633006
-0.00413968218041
0.0411340844278
-0.0380662008619
-0.0600036728653
-0.0536312673596
-0.0154605507193
0.0624883070335
0.0656155584629
0.0605069355233
-0.0247681992215
0.0281510481493
-0.0591536287791
-0.0574282062909
-0.0642563738162
0.043470342089
-0.00301745672436
-0.0203566461558
-0.00549016787571
-0.0039932609165
0.0557587764155
-0.0170447244477
0.0105709198396
0.0382325148615
-0.0458564429834
0.00991666906319
-0.00178504617679
-0.0501369068183
-0.0349825487735
0.0355255981004
0.0490279600039
0.00722875538657
0.0682344387197
0.0169413682271
0.044865000075
-0.0226470676593
-0.00338354588887
0.0657811954745
0.0745554723967
0.0576741156901
-0.027363887974
-0.0330066346614
0.0139494313811
-0.0646004837723
0.0671437982335
0.0217691673374
0.0481546766269
0.0406503044542
0.0589934810952
0.0652859953517
0.0379614619631
-0.018789644109
-0.0598124657203
-0.00190214471917
-0.0710120498609
-0.032812338357
0.0581391489006
-0.0287058000149
0.0645130961868
0.0350224157178
0.0029977481074
-0.0613064821868
-0.00074379054104
-0.0205069995348
-0.0508700850685
-0.0292266710761
-0.0359267185207
-0.0174181787323
0.0171631895487
0.0490607385364
-0.057409218818
-0.0739877688581
0.0578457238822
0.0282287509844
0.0098447158973
-0.0425441818626
0.0106250769615
-0.0206934231472
-0.0404999545698
0.0144668916207
0.038485140361
0.0217972805384
-0.0313470036348
0.0504194585635
0.0095209584775
0.0494008888728
-0.0547374293536
0.0603265229391
-0.0364036834649
-0.0677730508664
-0.013109798298
-0.0239175101077
0.0716496188738
-0.0233527670366
-0.0472428995264
-0.0136401086556
-0.0218965426377
-0.029739770068
-0.0267284268271
0.0495188334522
-0.00503978462226
-0.0398029412635
0.0736887647077
-0.00594905367406
0.0153633187902
0.0248594578699
0.00393582807516
0.0159609388325
0.0563780079659
-0.0228955738765
0.0719174896181
0.0307103041239
0.0372618446581
0.0288586988029
0.0188543053931
0.0668973162612
-0.0193231646478
0.0613562943318
-0.0527231628081
0.059137422253
-0.0452253804554
0.0310219682835
0.0716564898552
0.0512622622456
0.0570605164815
-0.0775281726399
-0.0202589041063
-0.0297883614891
0.0491657054087
-0.0562021816256
0.0686568206235
-0.0351585304799
-0.0010652262846
0.0272993162067
-0.0294923016637
0.00155335608427
0.0489876851918
-0.0626004593317
-0.0453782089485
-0.0160302045954
-0.0736611563844
-0.0482148267328
0.0385514373822
0.0463772198829
0.00443206989934
-0.0527369204119
0.031793098947
0.0686155756749
-0.00889437259606
0.0352711460959
0.0620123529273
0.0139422103024
0.0288717093595
-0.00691909085511
-0.055808658264
0.0411188455535
-0.013728896383
-0.0588972418086
-0.00600063115398
-0.00569510202055
0.0292800553167
0.00984075046746
-0.0725691901643
-0.0345661478704
-0.04263330429
-0.0730177768969
-0.067834635191
0.0641639866811
-0.0597303260138
-0.0593088752358
0.0344193780465
-0.00025535754654
0.0382177500257
-0.0697033766782
0.0541730960509
0.0697969013624
0.0558162421546
-0.0359294767834
0.0263776752487
0.0165815426177
0.00450012444814
-0.0344060967914
-0.0100872523872
0.0346240674139
0.0259064534164
0.0774522085966
0.0175607839937
-0.035714887995
0.00545141597491
0.0447341102136
-0.0129328479334
0.0556364151942
-0.0244881686062
-0.0515731048301
0.0388649710626
0.0459589415647
0.0451977685176
0.00424707596808
-0.00657622063709
-0.0162662886464
0.0246781300806
-0.042959020204
-0.0413100482467
-0.0752203083501
-0.0514017684216
0.028584138364
0.0644662476638
-0.0614543030929
-0.0778737759173
0.0676489641104
0.0030074192261
0.0231539451001
0.0454722192151
0.0338120297297
0.0536723446365
-0.0139388066683
-0.018662596691
0.0128404122321
-0.0578508420003
0.0342098601587
-0.0572346396588
0.0422267347948
0.0281666978516
-0.0628744400479
-0.0215004220536
0.00125510786019
0.021271555552
-0.0173190789068
-0.0189611048317
-0.0510123431353
-0.0458726933178
0.061102397835
-0.0637002958523
-0.0229492667205
-0.0754743110846
-0.000484571129178
0.0259881502986
-0.00475165402413
0.0397129465322
-0.00749522425244
0.0128992826336
-0.0198047733552
-0.00697858618593
-0.0354941162344
0.0469003963766
0.0263672984634
-0.0580589462339
-0.0145932104202
-0.0371706897533
0.0289801126504
-0.0284588805265
0.0015048811199
-0.0387164786168
0.0281324291367
0.00883568227053
0.0312220759854
0.0601194106789
-0.0559070850331
-0.00318797379334
0.032674665619
-0.0680833318081
-0.00952691602592
0.0328843598067
-0.0677568388687
0.0632260617373
-0.0146132791145
0.0726876387917
0.0630187868716
0.0162672624478
0.0107160821084
0.0401095726938
0.0462734149402
-0.0355660810733
-0.00351419874308
-0.0161260734254
-0.0480019451722
-0.0743879776058
0.00826596535669
0.0207684235046
0.00443311048216
-0.0769922388249
-0.0276451767862
0.00243089403449
-0.0268394609687
-0.0587566696996
-0.0121832523437
-0.0293640132529
0.0696389030024
-0.0540161981508
-0.0438471303364
0.0179455893047
0.0548416528623
-0.0626467641912
2.45358604333e-05
-0.0233271983756
0.03783325832
-0.0553490076152
0.0671536265977
0.067857048212
-0.0513345991128
-0.0560565269715
-0.0524971271939
-0.0395109194378
0.00559186657203
-0.0545236289816
-0.0334197647327
-0.0130254090619
0.0640680690728
0.0488850739456
0.00889216786353
-0.0598222315087
0.0775111040299
-0.0448301890075
0.07440374132
0.00206407171042
-0.015915296609
0.0131878023838
0.0665781787264
-0.0232387002609
0.00800893234008
-0.0612430663871
0.0444609282146
0.054802554516
-0.0487222567174
0.0137621592965
-0.0636659641854
-0.0761396538957
-0.0222218060598
-0.0205482443771
0.012834233031
0.0353754442811
0.0265129295638
0.0093561325571
-0.0216780540013
0.0560172511235
0.00356024711119
0.0472905537511
0.0680572791013
0.0580880180302
-0.0284845440867
-0.00754630264104
-0.0670793707586
-0.00234371263408
0.0759412124773
0.0248491453951
-0.0504843237573
-0.0770139133119
0.0606318148036
0.0669613609463
-0.0221343746464
0.0247507926795
-0.0263650006631
-0.0220306541897
-0.0503042724356
0.0457621842258
-0.00916383070472
-0.0351392505555
-0.0444394235283
0.0119187333042
0.0781558935188
-0.0478711559845
0.0470225890723
0.0435466410017
0.0249658090545
-0.0302673921121
0.0228330737534
0.0143565623366
0.0724803771423
0.0476448016148
-0.00527485023404
-0.0484534842723
0.073971549269
-0.0562227882562
-0.0492025192773
0.0422190917272
-0.0245513720656
-0.0374010100381
-0.00365603973512
-0.0349469424112
0.0304281124637
-0.0302891332281
0.00318744695604
-0.00422410543461
0.0324623269589
-0.03137267163
0.0716096316772
0.044600625276
0.0767572206019
-0.0304735856306
-0.0389922277306
0.0115573548741
0.0359538004031
-0.0176798706346
0.0050653343357
0.00286853782541
-0.076733500056
0.0398399420284
-0.0530672431197
0.0260263624047
0.0753345571447
0.00768209422847
-0.0438442764157
0.0209262045976
-0.0418147978328
-0.0645615439901
-0.00216853801418
-0.0410145071925
0.00965028400122
-0.064986087861
0.0140270083166
-0.042169676545
-0.0452883553231
0.0434206215578
-0.0596539684464
0.0109933489278
-0.0750509452879
0.0392943821386
0.0320464325755
0.0384638206847
-0.00720241543097
-0.0100272987733
0.0356889851923
-0.0454085242808
0.00977582906487
-0.0451094553236
0.0584176880304
-0.0502801271375
0.0439895107353
0.0319510729258
-0.0290982831553
-0.0781359907469
-0.00179373147296
0.0373297223805
0.0091763998308
-0.0312205338067
0.0203921336593
0.0509943505798
0.00151923254635
-0.0580395328579
-0.0468238783074
0.0392332405226
0.0311943493069
0.00812896700973
0.0258743102093
0.00819314793984
-0.0524986569373
0.0299241684717
0.00238385971607
0.0514522049435
-0.0155811121747
-0.0517672666297
-0.0104569930469
-0.0476464863459
0.0179241283061
0.0579026612842
0.00806585604336
-0.0646542213304
-0.0526640536511
-0.0482648154867
0.0321238894406
0.0170971521456
0.0621839252116
0.0271933913736
0.0741087521188
-0.0769308047099
0.0488362336253
-0.0128915417686
-0.0386962118619
0.0738797913161
0.0319344948336
-0.0743099404077
0.033619054338
-0.0576994251666
-0.0630158398259
0.0712284791101
-0.0249025563721
-8.96997124107e-05
-0.0172062590669
0.0505812757451
-0.00202855778137
-0.0630914207718
-0.0230965754792
0.0171423646842
0.0354805844433
0.0377488695216
0.0230786946661
-0.0390242203033
0.0213610698016
0.0116844733496
0.0145062899071
-0.0285015658042
0.0608885800716
0.0483703366233
-0.0432291106015
0.0427186593575
-0.055458647112
0.0623466525512
-0.0512269714218
0.0520756152293
0.0153492749869
0.00732394157157
-0.0288411807853
-0.00155197742649
0.036684272193
0.0279813997046
0.0327500178957
0.0425721444462
-0.0260143670279
0.0170061278074
-0.0779749588505
-0.0263119508831
-0.048451204772
0.0769658130677
0.0427867961336
-0.0722427593584
0.0280711748586
0.0544876395737
0.0134618450518
-0.0327009937468
0.0285448237461
-0.0316453943975
-0.0190667653428
-0.0442879607487
-0.052195175447
0.0249571758971
0.00938361881216
0.0395307447205
0.0166116717722
0.0259686186771
0.0199392126023
0.0597034412276
0.040910156651
0.0550227879021
-0.0440101369964
0.0365837700389
-0.0217369056941
0.00594720757805
0.0781528457648
-0.0270138027696
-0.0361289300434
-0.0596700113406
-0.0249699322451
0.0627331452873
0.0710374876593
0.0302969963514
-0.0400468811982
-0.0413608040403
-0.0238767372044
0.068299768895
0.0478713555152
-0.0192434450702
0.0643156870606
-0.0388248494031
0.0343516489195
0.0583507792747
0.0410129719317
0.0240624197995
0.0761164620092
0.0401214250601
-0.0508398690504
0.0531308081527
-0.00943044571952
-0.0387301654038
0.054912529067
-0.00760392628244
-0.0608877288723
0.0576490609574
0.0314760743804
0.0514443139905
-0.0164705872244
-0.0515357412918
-0.0532054014944
0.0302873694781
0.0644192762472
-0.033283761632
-0.0635415840708
0.0406035893983
-0.0417116198607
-0.0495807384313
-0.0623115707396
-0.0703987850902
0.0405005085078
0.0460928350711
-0.0670508057784
-0.0519995077158
0.0410733748814
0.024021566501
0.00926797936453
-0.0664766594768
-0.00287474120837
0.0225790485215
-0.0406338024108
0.0713187641441
-0.0467117056371
-0.0496991873
-0.00550778224626
0.0611703026363
-0.076162064267
0.0758139524411
-0.0378756154235
0.0441902503668
0.0260449685372
-0.00966704559134
-0.000183130171424
0.00704563157616
-0.00102326386232
0.0208644924996
-0.00612352683782
0.0296735413753
0.0171944348164
0.0683052348278
0.0681395079601
-0.0466946541879
-0.0429210880023
-0.0606000160807
-0.0637387778802
-0.00723389544768
0.0369305259025
-0.0363900129722
-0.0125034757472
-0.0505381623599
-0.0362875799345
-0.0480827870935
-0.00547509909289
-0.0133267982957
-0.0754404393546
0.0741609761587
0.0526896786026
-0.0059870047585
-0.0299493326202
-0.040430987153
-0.0119170866159
-0.0566464797517
-0.0172866892126
-0.033895503317
-0.0197471142321
-0.00720583213659
-0.0242400984266
0.00686017483407
0.0128899464279
0.02726355604
0.0110591976892
0.0276692188658
-0.0466902582133
-0.0458295610569
-0.00630771681045
0.0302660351681
-0.076104101368
-0.0308779008613
-0.0759974762862
0.0755300511068
0.0331989142911
-0.0397145898332
0.0589536792353
0.0647874401863
0.0516882110713
0.0644200212725
-0.0329716707821
-0.0526060384672
-0.00600517231524
0.0126627300608
-0.00957545933519
-0.0687160457566
0.0519077243347
-0.0313837617472
-0.0650485078041
-0.0596024161713
-0.0170924506329
0.00145790020589
-0.000960485116472
-0.074978894202
-0.0114657417874
-0.0544938215833
0.0701543291859
-0.00224275059441
-0.06426776242
-0.0010997091625
0.0158363801733
0.0669839985842
0.0515258335438
0.0357397798616
0.0101278084157
-0.0736662669188
0.0574877213498
0.0132127484019
-0.0399939784301
-0.00537119921422
0.0121670930998
0.0393332090787
0.0136586223608
0.0733472077492
-0.0561640684265
-0.0499678839236
0.0332125071909
-0.0508899459475
-0.013429166347
-0.0511715390581
-0.00947326553116
-0.0423484093888
0.0263120809364
-0.0345003187088
-0.0766902953598
-0.0112747423433
0.0772766720782
-0.00735358767089
-0.0555639813979
-0.0706098154758
-0.0530261335308
0.0332677763265
0.0191534378309
0.0769989132236
-0.0186514216948
0.0724955517562
0.0535482109927
-0.016909568844
-0.0257429744783
-0.0697270228999
0.0604975731249
-0.00328646335146
0.0350036058025
0.0218656849576
-0.0226348281964
-0.0218169163055
0.0742452051674
0.0440309253596
-0.0669201049417
-0.0398692423869
-0.00397605828114
-0.0632675303723
0.043591387582
0.0191307337632
-0.0566912987499
0.0712099858363
-0.062959697642
-0.0421282926665
0.011610537569
-0.00461185170039
0.00927679586374
-0.0551153946867
0.0152582876163
0.0714660312223
-0.0209701109119
-0.0601628402446
0.0272154926831
-0.0208277089072
-0.0428050300627
0.0650446591955
-0.0105172865538
-0.0755174003669
-0.0171388273399
-0.0780745234463
-0.0189034626591
0.0774072016863
-0.0329721389758
-0.0774495118494
-0.0398067063283
0.0299166267168
-0.0193194242606
-0.0051507825707
-0.0170426629811
-0.0715930051151
0.070713267012
-0.0518535221552
-0.0101835874277
0.0257783068819
0.0413728435486
-0.00244704423951
-0.0531745836161
-0.00735675532594
-0.00591749883403
0.0436336110114
0.00845354909766
-0.0557425043548
-0.0564927438093
0.0717906893209
0.0430097913647
-0.018136762244
0.0437347802588
0.0133785966364
-0.0665701351079
-0.0250787106537
-0.059128001485
-0.0765519963453
0.0664120495635
-0.0134388540172
0.0655838361678
-0.00474318532998
-0.0726313114636
-0.0689006073904
0.0353038068766
0.0141698137277
0.00851321723545
0.0118266116241
-0.0041712249517
-0.0764023948869
-0.014711039179
-0.0513942525759
0.0367124280282
-0.0382127553632
-0.0614237656831
-0.0759944727625
0.00784302644399
-0.00225486092838
-0.0012918652432
-0.0629663149202
0.0715957730122
0.0112632098643
0.0690828146859
-0.0429157053656
-0.0746396838917
0.0466564140227
-0.0133661673396
-0.00718766162124
0.0121340664429
0.00744902013016
0.0627353261426
0.0543962040234
-0.0652373858721
0.0743964116696
0.0341141666702
0.0459341615502
0.0723888784323
0.0259709542622
-0.00421152482389
-0.0142543139135
-0.0589698101551
0.0479799874919
-0.0618057753372
0.0242434497359
-0.0190444312421
-0.0198435182344
0.0621093340859
-0.0359423696345
-0.0144525691259
0.0306246346622
0.0116412755192
0.0542529693333
0.0453114469811
-0.0316532829564
0.00224988757723
0.0425722197376
-0.0388056164938
-0.0504291844253
-0.00205556068529
-0.00107967342256
-0.0357772403
-0.0685345712412
0.0745406818747
-0.0173036584032
-0.0525758254696
0.00747419483098
-0.05889807118
-0.0148551969274
0.0132255739515
-0.0505366887746
-0.0312691835363
-0.050106343026
0.0529282226639
0.00644676655404
0.0316711003491
0.00477963618747
-0.0630011615701
-0.0723259130559
0.0243130589246
-0.001964501928
-0.0350029699405
-0.0761675838116
-0.0173814363171
-0.0309496928838
0.0706616729855
-0.0288245901691
0.0702246991093
-0.0286128938156
-0.0388762306784
0.0290475728574
-0.0710005896909
-0.0172536959234
-0.0611890056982
-0.055690121191
-0.0576764525151
-0.0315659923829
-0.02455823776
-0.0319556833518
0.0294747022459
0.0177961374612
-0.0270313645272
0.0396421943022
-0.0549096095587
0.0585799794636
-0.0244450616863
-0.0173241536605
-0.00672652788349
-0.0262730042131
-0.0658469621162
-0.0692680074125
0.0509677160839
-0.0646363084212
-0.0303306063357
-0.0499956605352
-0.0628397751397
0.00191989040086
-0.0153499035436
-0.0392197381663
-0.0478086730985
-0.0498709971907
-0.0608625879579
-0.00175631573691
0.010087717546
0.0121653627301
-0.0748684048707
0.00521608119019
0.0279114726931
-0.0764955079005
-0.0155899721726
-0.0433061160676
-0.0694664674823
0.056785445111
0.0298042934793
0.062430124921
-0.0223779395995
-0.041745395435
0.0681475495356
-0.0493083356736
0.0105406247144
0.0613494316645
-0.00568944426955
-0.0444499129659
-0.0197422873939
-0.0122142881854
-0.066617026542
-0.0201406921785
-0.0150293307998
0.012549103893
-0.0640102078483
0.00460697933335
0.0692322439908
0.0691160423548
0.0731666369656
0.0473927274642
-0.0712093104935
-0.0034680919021
0.0487678072467
-0.0439942434864
0.0245463572281
-0.0139167174618
-0.0573990791629
-0.0122029748132
0.019202718296
-0.0554180386676
-0.0639130957406
0.0205178780355
0.00182749329398
0.00471762130865
0.0356452033331
-0.06132585707
0.0097184260872
-0.0190805336083
-0.0306412588739
0.0513414651169
-0.0504580537973
-0.0142938622044
-0.00547036661246
0.0278104664262
0.0699983708212
0.0421378313333
0.0264723655059
0.0732574173683
-0.000145521085361
0.0536382025534
0.0530233894313
0.0347599871935
-0.0737260870711
0.0745206422427
0.0397538991493
0.0625294462523
0.0203545353114
-0.0632788273101
0.0344450221332
-0.0322488407364
0.0028992812324
0.0712663068183
0.0537750365202
0.0310422974187
0.060548178546
-0.0511447979517
-0.0143594601958
0.070209200963
-0.00343140019015
0.063897637609
-0.0188739119
-0.014807929533
0.0192892357865
0.0118796797739
-0.0267551232345
-0.0545921243271
-0.05447071587
-0.00658501113677
-0.0137145862991
0.0264380697841
0.053093932003
-0.00651891192034
-0.0651671799805
-0.0139351425695
0.02418114138
0.000603116464971
0.0130564879515
0.0604200585452
-0.0266372308619
0.0231665065841
0.0508395001874
-0.0284750221237
0.00661301338992
-0.0608889721623
-0.000972615739592
0.0238718826271
0.0699369603046
-0.0719729135979
0.0351432169705
-0.0510676011958
-0.0413181907956
-0.00961467525256
-0.00137840902597
0.0301544565444
-0.0162732715848
-0.0379830044894
0.0539564826063
-0.0164810536213
-0.0197672983831
0.0248692485918
0.0471527686886
0.0671328491415
0.0288380580139
0.0596696680376
0.0326093070313
-0.0251627082043
-0.03106942448
-0.0100055144591
-0.0714852878033
0.0697717165488
0.0740346516519
0.0645993039899
-0.0523681296113
-0.0576866986218
-0.0471685843519
0.0628011892056
0.0598782002871
6.90545959251e-05
0.0094193355427
0.0201395788818
-0.0440527983315
-0.003301993415
-0.0564120308865
-0.0518524485322
-0.01367498172
0.0477886648162
0.0641995369303
0.0475506791269
0.0752955507458
-0.0525563296617
-0.0693374353648
-0.0329936122405
-0.0328299967552
0.047105005785
0.0241216667077
-0.00675515656543
0.0651004876756
-0.0279638441865
-0.0149367690758
-0.000871745214815
0.0681215614669
-0.0374611226997
-0.0345091958727
0.00126378079088
0.0129005576772
-0.0474163414547
0.0764187797545
0.0113080267328
0.0152371449719
0.0430062904331
0.0610561347543
-0.0467497662418
-0.00483002906005
-0.0366853828208
-0.0251017676409
0.00809679913935
-0.033866005532
0.00999031883166
0.0608770572108
0.0611922768127
-0.00702449041819
0.0680281034182
0.0714320180255
-0.00150279403875
-0.0771353474364
0.0350497242444
0.0190961723769
0.0212849129031
-0.0144872816597
-0.0210670047125
0.00460509540163
-0.0384265079791
0.0736827209193
-0.0395460781012
-0.043118225149
0.0197397377128
0.0280693600663
0.00991117624219
-0.00437119007037
-0.0541830465416
-0.0069194129163
0.0410798575282
-0.0448824282425
0.0629142927059
-0.0478020860923
0.0515049759009
-0.0353711066333
-0.0191639940256
-0.0250392777731
-0.0365863963772
-0.00356553381648
0.0132304579873
-0.029788888569
0.0588989418097
-0.0776201781335
-0.0421719417917
0.0587621998436
-0.033293074331
0.0633232389618
0.0764323321389
0.0139957134568
0.0280981043859
0.0209517555305
0.0538916165803
-0.0513155669437
0.0461310022037
0.0300232782995
-0.000283064341913
-0.0608882853705
-0.068030461602
0.0763910625565
-0.0745856038182
0.0659674345105
0.058152665428
0.0425323829921
0.00852980247514
0.0553645270224
-0.0494617148214
-0.0645988843148
0.0421798179715
0.0458490386982
-0.0712041229968
-0.0780255022159
0.0673754311861
0.0526402605972
-0.0219844533257
0.0273190737311
-0.0432732361838
0.0097063838003
0.00737738246401
-0.0328228369574
0.073424961781
-0.0364954123448
0.0179033259611
-0.078094673528
0.064046789477
-0.0590278898737
0.00309507908364
0.0447642075973
0.0496874622199
-0.027340014841
0.0414224509459
0.00248377849752
0.0228042551764
-0.0024905611765
-0.0464434014377
0.0369218940419
-0.000957911897968
-0.0264862212868
0.0311076738099
0.0763051104576
0.0528473686759
-0.0632195746892
0.0389228878688
0.00698033737359
0.0379715410587
0.07418014439
-0.0218956600066
0.0507716387984
-0.0663922513421
0.0534452698469
0.0365866890914
0.0622137928265
0.00260240875734
0.074748539404
0.0591904415815
-0.0734223144177
0.0399338483692
-0.0479641328259
-0.0437165604778
-0.0733195683406
-0.0426969429999
0.0138931818442
0.0440881594128
0.0160753866271
0.0152603563075
-0.0460379969743
0.050625736285
-0.0139276560753
0.075565556982
-0.0730681661014
0.0606052234938
-0.054533565422
-0.0223727203088
0.0342559743818
-0.0764177232245
0.0310216302409
-0.0536587729952
0.0148665897797
-0.0191963102949
0.00723847485744
-0.0571384294184
-0.0150023222832
-0.0374306278039
-0.0538148169461
0.0381478495658
0.0324557480146
0.0476086302482
0.0393598014126
-0.0488342015365
-0.000120554278511
0.00588246139258
0.0754255305252
-0.0152510706182
0.0257413412452
-0.0567735011867
-0.0748945230459
-0.0431978380791
0.0143509414417
0.0687080805299
-0.0672484777583
0.0469918642842
-0.0519284100707
0.0610537566082
0.00115568766358
-0.00203846949921
-0.0399901180302
-0.0377590586172
0.073357473498
-0.0600286318772
-0.0148343146223
0.0406809323316
-0.0581673584101
0.0626475775085
0.0652231135756
-0.0309330926356
0.0263737138491
0.0513309193581
0.0225989688503
0.0247439074542
0.0300455637842
0.0107352987119
0.00842124289298
0.0651805508804
0.071140660746
0.0110544778392
0.0700539233374
-0.0468141136192
0.0475106423775
0.0540889672923
0.0418198414711
0.0258088329831
-0.0336136872104
0.0734911431818
-0.0566469690268
-0.0359658282891
-0.0389151692654
-0.0678503400128
-0.0569743727742
0.0667426820883
-0.0194774061384
0.0079881244705
0.0593219498292
-0.0626673108845
0.0598185926691
0.0444789589426
-0.0603254732768
0.0464022192646
0.05374379155
0.0244710002125
-0.0371794238202
-0.00265989362272
-0.0751342021038
0.0728646067757
0.0397125621409
0.0260725305938
-0.0137783557189
-0.0520482888661
-0.0636324128594
-0.0187611928852
0.0100444000183
-0.00655532776917
0.0315556413751
-0.0669336868538
-0.0627620324849
0.00298108677545
0.0221436459419
-0.0483799168181
0.0662410276374
0.0669115540777
0.0471637884759
-0.0113654398188
0.0225143195745
-0.0132414279426
-0.0347605066218
0.0752268772262
-0.0197209493696
0.00715486262879
-0.0147418796208
0.0333195180076
0.0212136856369
-0.00582281917705
-0.00820607147573
0.0431946247255
-0.00977780849312
-0.0699130625752
0.0384505256805
0.0341724510906
-0.0731573436665
0.00874243514549
0.0185926461386
-0.0141216008655
-0.0651353226652
0.00320359255149
0.0387282832133
0.0602138374896
-0.0345159471937
0.0625367952623
0.0423625955503
0.0601728658454
-0.0561997397691
0.00610809863057
-0.0726775958166
-0.057286415245
0.00521232070548
-0.0209917990699
0.0411651601566
0.0629000438342
-0.0450094740954
-0.0576818357248
0.02331579722
-0.0314126302773
0.0569526988675
0.0178892127317
0.0777706082537
0.0767852965597
0.0708334352773
0.0129608207417
-0.0363585616886
-0.0206632949932
-0.0757589866715
0.0423126221893
-0.0579281235234
0.00138774302673
0.0164709352762
0.00466716501102
0.0666708251178
0.0283036490327
0.0288395424723
0.0582019374224
-0.0736088190556
-0.0649460031369
-0.0133042917087
0.00743170094394
-0.000821020645713
0.0230864181019
-0.0326730923011
-0.0113615078757
0.0184632202534
0.039359172812
0.0587670369621
-0.00886203128364
0.0705283019657
-0.0287703508328
0.0224818317048
0.0453291495802
0.0559817007696
-0.0523422838022
0.044269389375
-0.00211910482719
-0.0569476259167
0.0443372995664
0.0487901464483
-0.0594734340365
0.0404942465688
-0.0491388591263
0.0202517537487
0.0150148574561
0.0427408877816
0.0662667749514
0.00949745805536
-0.00614028291134
0.043634685964
0.069445975642
-0.00209064824214
0.0521485748793
-0.00408418350857
0.0718995542724
-0.0624390947092
0.0348203727276
0.0395753701927
-0.0525057207897
-0.049820821064
0.0116926390651
0.0678715368565
0.0679757579943
0.025001019757
0.0554725418053
0.0243114950272
0.0439157095465
-0.0701168176264
0.0110285388056
-0.0696495942134
0.0764102775301
-0.0647417948952
-0.0477599085106
-0.00486109171499
0.0581641661808
0.0571386829824
-0.00631694990658
0.00216699079746
-0.00743703959438
-0.0551810034552
0.0475269467684
-0.0426664586063
0.0264365895365
-0.0661253749615
-0.0720141955965
0.0693338103272
0.0433592313466
-0.025846113558
0.0715049238195
-0.0714948921777
-0.00658278445339
-0.0355252639249
-0.0730870292573
0.0130305215387
-0.030400665545
0.0362230508066
-0.0205967707427
-0.0580644255907
-0.00229225691206
-0.0493066406823
0.0650430200364
0.0545876549274
-0.0408309666416
-8.08509941115e-05
0.0641049724047
0.0537155689374
0.0549200312454
0.0396068397868
-0.00290825113507
-0.00411116120974
-0.0288976320915
0.0520273395901
0.0274340799057
0.0454676199072
-0.00508480583069
0.0269408375642
0.0626583631911
-0.00487733695536
0.0466015163308
0.0473469360623
-0.0620983063207
-0.0370436768922
0.016050314337
-0.0390165706744
-0.0358874372744
-0.00665581878158
0.0139302011008
0.040393430535
-0.0521844800527
0.0144616780456
-0.0186693596631
-0.00167074171492
0.0727532507036
0.0479811275274
-0.04820739042
-0.0702471131013
0.0287829262157
0.021219863497
0.051176673878
-0.0380192384841
0.0482406437188
0.00744060737479
-0.00551748662587
0.0744865556215
-0.0386834437795
0.0178098385953
-0.0550205060582
-0.0225986956135
-0.0180095110983
-0.0399401574804
-0.0165389567291
0.0308217922087
0.0651980968295
-0.0526859178311
-0.03089395157
-0.0487073375068
0.0527131669612
0.0748467699814
-0.05772608087
-0.04068385474
0.0765070878851
-0.0582334365996
-0.0704473383718
0.0640000646535
0.0404113457495
-0.0290970068946
-0.0546415305768
0.0367009854829
0.00635025131987
0.0486109506166
0.0213085053908
0.0135623535599
0.0361558475651
-0.0335016577563
-0.0563466195272
0.0494281366387
-0.0353612416641
-0.0760914422165
-0.00785476094859
0.0221839484149
0.0489973348203
0.0672149878624
0.0171987822068
-0.0180770918725
-0.0445329661297
-0.0687472769668
-0.0368822941132
-0.0383718328535
-0.00153361912194
0.0730598680384
0.0681079302511
0.00548616109321
-0.0131090750243
-0.0650393550789
-0.0487517032142
-0.00278950029125
-0.0131168887872
0.0422057846135
-0.000468794824598
-0.0431497511843
0.0366390722019
-0.00512673322522
0.00697281026606
-0.0551707465121
0.0663679549238
-0.0102991727326
-0.0364842920689
0.0531353649823
0.0323197275693
-0.0506880136624
-0.0458207308128
0.0679373222786
-0.0578334779285
0.0542854672054
-0.0489341319256
0.0225371831442
-0.0472525006963
-0.0596454240019
-0.0588760825045
0.0695397337955
-0.0263389332009
-0.00246909583434
0.072415107816
0.0320548263751
0.00646716201021
0.058700205628
-0.0654395527736
0.0612638724895
0.0127585949464
0.0662729828312
-0.0250430114711
-0.0557527685015
-0.0151164859956
0.0450406354199
0.0217632350555
0.000433128384258
0.0351855563429
0.0612576170944
0.0606491531874
-0.0130789262559
-0.0603796838108
-0.0183647479584
0.037087184978
-0.0291453483545
0.0446887401309
-0.0513691510916
0.041623453447
-0.0569147641118
-0.0601397412585
-0.0473386575283
0.0641344718865
0.0211914893742
-0.0429725233459
0.00216998355912
0.0313676522727
-0.0537352928967
-0.0214890196259
0.0611968945134
-0.00479454559989
0.00203178173868
-0.0143347161
-0.028982465522
-0.0603090867312
-0.0137859593595
0.0152779094883
-0.0651916844364
0.0726069303445
-0.030207212633
-0.0279112410797
0.0378946510086
-0.00847525463396
-0.0599328969677
0.0665256288052
0.0751211070554
-0.0225193256853
-0.0333198240873
0.0124973562468
0.0182317102237
-0.0585441752159
0.0310741875697
-0.0647154251074
-0.0155096212831
0.0350705433832
0.0086431414
-0.0463105821871
0.0616477522654
0.0199174874329
0.0230161795071
-0.0601097286841
0.0496942458686
0.0359691464856
-0.0530034426856
0.0388647522466
0.00862526929855
-0.00037864351159
-0.0701754274331
0.028775697962
0.0383876437949
0.0779349932666
0.0564905270652
0.0354569542068
0.0638711338662
-0.0641702393912
0.0736520068422
0.0530303289705
0.0288732317075
1.47234946866e-05
-0.0474871484848
0.0708908768505
0.0257210605366
-0.0381757646764
-0.0313686291864
0.0594634532209
-0.0339657821822
0.0609469452337
-0.00915394593435
0.0173393507959
0.0762887746107
-0.0761599777553
0.0779117459769
-0.072234845657
0.0445849403265
0.0326227096877
-0.0606282539918
-0.0628134013587
0.04398069026
0.0408395501539
-0.0720482338742
-0.0672370610954
-0.0757488796307
0.00338075339485
-0.028478313133
-0.000776357430909
-0.0423151627042
0.0580654099707
-0.00163062175035
-0.0563081016523
-0.0266383676962
0.0105870081815
-0.02700296329
0.0650967924067
0.0064832395975
0.042235565943
-0.0212014606989
-0.0640936493162
-0.00578496158735
0.0737146237995
0.0699722371848
0.0607805019217
0.0621218106509
0.024314336372
-0.0330472527982
0.0263348633966
0.0399769726837
-0.0327509759516
0.0486539113961
-0.0291582498453
0.0656815667012
0.0455485949282
-0.0590909410036
0.0526131021977
-0.00997710929115
-0.00109179464408
-0.0190469780664
-0.0417484350857
-0.0742068620375
-0.00814981802697
0.0652608626058
-0.0682536084258
-0.0621268171486
0.038866632738
0.0334943813543
0.0628032648455
0.0675459886356
0.0498056852659
-0.0322060874354
0.049041529526
0.0268058281919
0.00745573390775
-0.0100328397644
-0.0514040799293
0.0162530772061
-0.0757257220769
0.0150607890883
-0.0230076413864
-0.0206655062667
0.0779906075351
0.0760567335323
0.00309753597327
-0.0266865099641
0.0238142503143
-0.0291442927407
0.0727673116533
-0.0670767803369
-0.0313631554358
0.00695713411546
-0.0284932683881
-0.0332969176539
0.0702321863984
0.0120912310102
0.00188136538632
-0.0703805322689
0.0499457727222
-0.000962729604442
0.0387892642626
-0.00160103773768
-0.00735111192342
0.0610032544127
-0.0634785338589
0.0710474036021
0.0320251525054
-0.0135416907718
-0.0594686955954
-0.00457403684731
0.0622829017946
-0.0343326435048
0.0425655412296
0.0500544988309
-0.0284472627428
-0.0720912682649
0.0578670796691
-0.0240497883866
0.0194965983568
-0.0252784892037
0.0430617855013
-0.0286866825407
0.0559227092804
-0.00143564303275
0.0033554932242
0.0524226778171
0.0494954886014
0.0611656120588
0.0269871493782
-0.0305336807099
-0.0326446425022
0.0266157091075
-0.0135070934078
0.0364820789164
-0.0421660229544
0.00213055581912
0.0536036286994
-0.0472002706523
-0.0459000423707
0.0548661762906
-0.0117808178842
-0.0172128746061
-0.0478760433432
-0.0319778524109
-0.0320330353261
0.0101001441098
0.0424809344657
0.00716912130961
0.00703741909087
-0.00556799072754
0.00267843413412
0.0639639315842
0.0329907966394
0.00819003618107
0.0332759858059
-0.0269109523097
-0.0460430397964
0.0440699948143
-0.0637603347779
-0.0224191520239
0.0674502951663
-0.041831768552
-0.0457164526827
-0.0406173323936
-0.00717481930538
0.014937917646
-0.0594041335384
0.00124424178276
-0.0575056865071
0.034487583022
0.0424123743846
-0.0211919150199
-0.00550673521958
0.0329606083243
0.0515520613721
-0.0769886835989
0.0680045016582
-0.0471142821797
-0.0769146190262
0.0129339209271
-0.00914810974207
0.0100240957248
0.0598003157393
0.0338942706067
-0.0250270356385
0.0163450981016
-0.0223844067518
0.0473440464842
0.0674037927778
0.0492973089076
0.0727202592068
0.0681913894543
0.0648190977283
0.0766537189399
-0.0717051264824
0.0571849572309
0.0603723615692
0.0700660973615
0.00867870555235
-0.0616640561383
0.00708317523219
0.00199840724979
0.00899088522955
-0.0550236057474
0.06999778252
0.0599618598845
-0.0344776120054
-0.0347924766721
0.0393837715542
0.0355033262968
0.0552443916176
0.0486238602868
0.0311078853743
0.0259730864117
0.0324660699181
-3.32525266204e-05
0.0324063517352
-0.0611428639484
-0.0477342403266
-0.050349373611
0.0159150378901
-0.0207061438512
0.0145673764723
0.0637374141776
-0.0261096823387
-0.00977695814744
-0.0524608794235
0.0732593789288
-0.00315089963324
0.0629175702733
-0.0335379067733
-0.0387249056679
-0.0765893159541
0.00374027170479
-0.0605445018892
-0.0369497787746
0.0663796705606
0.0372931083634
-0.0552158706497
-0.0577907673697
-0.0585399277253
-0.0755596097885
-0.039675682195
-0.0156106084894
-0.0226202028286
-0.0556155606155
0.0776632954781
0.0491336106132
0.0433325116035
-0.0284260883856
0.0307360717476
0.0325616951785
-0.000366321763268
0.0310215763525
-0.0684124439267
0.0397985173282
0.0102346644171
-0.0248255588017
0.0606444752547
-0.047643964915
0.0621012062104
0.0752933680507
-0.0680404721306
-0.0291111567304
-0.0185274954199
0.0536320579591
-0.0495559405831
-0.0638155494627
-0.00612983481759
-0.017805978725
-0.0709428822512
-0.0170113502226
0.057379954264
0.0228358982928
-0.0456246692228
0.0650769205681
0.0207187926821
0.0194496489339
0.0567338763341
0.0625203306512
0.0299209088792
-0.0275935131445
-0.051642011744
-0.0153033088571
0.0344751897125
0.0649941530775
-0.0606463415496
0.068941357413
-0.0289865533377
-0.0209601626255
0.0621538938081
0.0322332743483
-0.0597323998073
-0.0250322701121
