-0.000267124167065
-0.00124161263725
-0.000449112749017
-0.000553737212494
-0.000497333621136
-0.00049803496669
-0.000505401420303
-0.000190981646437
-0.000627194661096
0.000571720427364
0.000745872197107
0.000232992793684
0.000691105161604
0.00146539309348
0.00108016159929
0.000548740992221
0.000727675599254
0.000860093265629
-0.0008717245712
7.35108141007e-05
0.000881825980317
-0.000670298437217
-0.000642004732131
-0.000414921629062
0.000613968941975
-0.000594711260999
-0.000278656438306
0.000538781795929
-0.000512668762212
0.000356521252821
-0.00034930945546
0.000657425916109
-0.000935812288672
0.000116075304633
0.00106338879796
0.000705049122042
0.00275097354709
0.00403407192531
0.00523648545995
0.00694070938892
0.00815092756447
0.00756702548327
0.00708387492088
0.00690907078522
0.00623647852714
0.00514600004629
0.0030821633367
0.00180710263625
0.00175041367124
-0.000437995149125
0.000883629345472
0.00092842971041
0.00107664492405
0.000711998488628
-0.000483443197008
0.000624606363602
-0.000319894032981
-0.000497574940483
0.000821481113242
0.000429060068519
-0.000526275429187
0.000900989731498
0.00221082535426
0.00453399906992
0.00862656756925
0.00960833049209
0.0163459961684
0.0227905752228
0.029043464104
0.034609698321
0.0348961289295
0.0320812793514
0.0268540768397
0.0174806785946
0.0129399585373
0.0140747643941
0.0135326026313
0.00958037952985
0.00901673007195
0.00606077772179
0.000960545684104
0.000700032060347
0.000571167128518
0.000651280709171
-0.000856488615832
-0.000817449156909
-0.000866227850095
-0.000794177455629
0.000789092418586
0.00214314923275
0.00586527278958
0.00894493155849
0.00713781654793
0.00356016722483
0.00882859101215
0.0233695048499
0.0503412089346
0.0742185377601
0.0821075880824
0.0858623904317
0.0817053415154
0.0649488279852
0.0400326027075
0.0247094347196
0.0146416116367
0.0123696787121
0.0135549446822
0.0116739075447
0.00479980214324
0.000907932028755
-0.000927059343434
0.000577395100212
-0.00103714121548
0.000261708168646
0.00103401612047
-0.000801320749528
0.00158186657455
0.00576557544133
0.0117673311814
0.0170779908544
0.0170574072173
0.0174941093059
0.04017705854
0.0977007910357
0.183623686615
0.236511459689
0.26041278603
0.288626049183
0.298064201147
0.258890248451
0.201898549424
0.155782960974
0.109703547807
0.0614596919821
0.0339828707149
0.0222048825584
0.0143511490271
0.00566254862242
0.00225874358866
-0.000596590277976
0.000582094178836
0.000666045813581
0.000754074273418
0.00218513932573
0.00555852698501
0.0149175316717
0.0306918178407
0.049477419304
0.0653252565275
0.0980396939847
0.179201577824
0.303061222282
0.428384353903
0.506339299596
0.548409413555
0.590542305274
0.588210953814
0.545993311782
0.462752093978
0.368700703471
0.281286751585
0.178477232211
0.0937035175977
0.0523602249279
0.0405587901609
0.0216296431144
0.00593502440207
-0.000252954110682
-0.000909389667381
0.000871064640816
6.0801519789e-05
0.00783547472017
0.0146415634494
0.0257316299803
0.046027263329
0.0867156295224
0.139707598391
0.217747137142
0.336336839122
0.454890639683
0.550649714042
0.619314673924
0.665907159451
0.682280908137
0.679164265998
0.657666333959
0.583296980509
0.496649008705
0.389112263579
0.254251356498
0.133032530054
0.0784429975228
0.0641298879725
0.0367458547941
0.0091961648349
0.0016972067322
-0.000885550876181
0.000802958299944
0.00349598456083
0.0132835516562
0.016542706444
0.0206141961182
0.0530905882292
0.124407340555
0.223348783291
0.344362859088
0.457391613729
0.546321143148
0.617698491091
0.692274726585
0.740035404655
0.726811409277
0.705920462266
0.697245298749
0.632291568245
0.53025848709
0.439681642383
0.288962144206
0.142925160288
0.0830067413883
0.0667197168301
0.0359338536847
0.0117104943445
0.00141709144965
0.000271656943928
0.0026479574789
0.011513081226
0.0211872213224
0.0239348934624
0.0219591523255
0.0610684379265
0.147249122502
0.253916904542
0.404626823826
0.536283703851
0.596756380735
0.652847281684
0.698379405096
0.716442217215
0.684594981077
0.684308308326
0.707645854252
0.644121951997
0.533384211852
0.435008367631
0.292963520502
0.148005671662
0.077724855842
0.0660609942681
0.0400316144246
0.011259457389
-0.000336821184024
0.000683195400518
0.00289999291924
0.00966183984689
0.0188619101525
0.0188105388307
0.0196747973102
0.0709770640174
0.166997986604
0.300908860631
0.467102329852
0.579413039449
0.60603937584
0.63256704414
0.60422189089
0.585028098696
0.591929157073
0.613405330513
0.670376917619
0.645833713892
0.54582874449
0.440767334296
0.309493167605
0.159265858801
0.0880880327764
0.0676603283993
0.0361615122988
0.0068776705011
0.000646249197101
0.000834430565478
0.00346526607224
0.00956154300927
0.0149182932786
0.0193147683247
0.0294327759201
0.0864351221333
0.172300207757
0.333172259418
0.489575238901
0.575461796842
0.59613915861
0.553252769493
0.485002663789
0.504826182594
0.557148759705
0.577482696045
0.631588466544
0.623277249765
0.523009412662
0.412145218307
0.292736582759
0.153279873374
0.0794072075442
0.0524539950721
0.022913865977
0.00436489129686
0.00127133561053
-0.000656867107014
0.00450897069652
0.0109468451287
0.0193211843255
0.0232789199166
0.0466753060412
0.101404361121
0.187733448582
0.347469454928
0.505425949789
0.59979845444
0.606874610785
0.513233253125
0.466937130166
0.552801448188
0.597211371032
0.599171302365
0.638983800073
0.605485202999
0.466152097678
0.358893599852
0.243737260241
0.131354953767
0.0721425784605
0.0415617619737
0.0113500572362
0.00268203607562
0.000668026847583
0.000768561167505
0.00385337560657
0.011035495638
0.0209181878623
0.0259034916377
0.0600668371972
0.121526391942
0.22906947403
0.380325433711
0.526600633809
0.640617375062
0.625562828002
0.513661233322
0.54214079944
0.644931730085
0.688149573223
0.662227117074
0.690982062249
0.604789352423
0.430589046919
0.318006486422
0.21433903078
0.122277390189
0.0804959041771
0.049569535949
0.00856651113775
0.00150781998491
0.000631927652067
-0.000701278625467
0.00184153791427
0.00706970062612
0.0176220074559
0.0242170502701
0.0674151358976
0.146056906694
0.275264376828
0.405459531437
0.544303484264
0.651213412445
0.604864209464
0.530581953373
0.64465865571
0.761007080181
0.767501710902
0.708898239193
0.747528698537
0.634316002363
0.420986808656
0.308016585734
0.210014775523
0.116309259239
0.0776759215164
0.0547810601183
0.00903711025576
0.00104857033577
0.000817286008345
-0.00100884419044
0.00134072241818
0.00173155510216
0.0111615636081
0.0219553397185
0.0695746840723
0.167151444778
0.305504017412
0.421161327866
0.555465842285
0.625281940631
0.568659931266
0.571629740683
0.763491169593
0.863038995911
0.797500098581
0.711053649071
0.75472575031
0.638347725274
0.441248342186
0.327186073846
0.220499404533
0.108760379349
0.0695835202868
0.0580459640651
0.0109493333697
0.00132978936598
-0.000617243913913
0.000945247383933
0.00100051933134
0.00136398370237
0.00816718598386
0.0156196833989
0.0675342794577
0.179606177451
0.309632698847
0.421879879154
0.558539110391
0.609873018309
0.571747192914
0.639831191345
0.84707237236
0.895235618732
0.764152662656
0.689412511804
0.721714099702
0.599540761352
0.454287191325
0.34792907477
0.22511296464
0.106596030782
0.0691411130123
0.058098229719
0.0136898576303
0.00253218884052
0.000663934961495
1.00394708484e-05
-0.000273175909488
0.00289735788437
0.00812935747965
0.00773006339238
0.0721582138568
0.174186237891
0.276112375326
0.392141343851
0.525267265491
0.571874855498
0.562523388164
0.641432092048
0.811785367448
0.849900172119
0.718995290062
0.662277881799
0.665856831499
0.568549887895
0.463922227456
0.348431875702
0.210927748267
0.115158110245
0.0873969876046
0.0622670553971
0.023651197523
0.0060403104109
0.000511596732535
0.000743209634671
0.000555838945711
0.0023230775901
0.0109365806333
0.0138559571929
0.0939231019961
0.179594073255
0.255505003596
0.344665445576
0.44119275503
0.490773391382
0.518705100695
0.590786417453
0.730799219863
0.766980683405
0.685886058275
0.641819653098
0.632332697447
0.563559162127
0.477869676977
0.346462484979
0.210880524562
0.135125735428
0.100324202719
0.0697273118699
0.0334411753555
0.00847758243039
-0.000133830446999
0.000594946592058
-0.000344102742438
0.00487187609679
0.0171074487655
0.0279392410024
0.111520520869
0.191906889686
0.265500428768
0.331523155431
0.389887810506
0.45655008989
0.502867004583
0.554555243805
0.648869549847
0.684066249925
0.63289343698
0.621973282236
0.628225556886
0.565397315816
0.458121599347
0.316215938312
0.20410169966
0.133856883237
0.0844785749172
0.0575162099669
0.0254108555085
0.00593640040385
-0.000124880058572
0.00072387203877
-0.000297665717941
0.00978380707291
0.0308498853862
0.040657431828
0.115570139784
0.210176583622
0.308068038428
0.366846878677
0.422811260749
0.478006373203
0.533589301177
0.575509604088
0.612284831499
0.642097886842
0.618911509496
0.621180344123
0.623584002117
0.537175598958
0.398838487951
0.271263374194
0.166427442401
0.0942028472604
0.0646362740519
0.0473380553629
0.0222773174049
0.00571888370898
0.000902351418824
0.000705141638464
0.000666959373456
0.0110473273909
0.0384505321081
0.0524963330074
0.108363691566
0.199964036006
0.3198284938
0.410653789258
0.481843566005
0.542083046069
0.591418560497
0.63189809935
0.665917475086
0.675071238995
0.65197884877
0.647653736332
0.605725840613
0.472657789846
0.331428644385
0.21041562494
0.114315038573
0.0652819203956
0.0477646421609
0.0386669061791
0.0180725984235
0.0041753710337
-0.0010169127496
-0.000904445163578
0.000950618738122
0.00687946937734
0.027259678137
0.0412115195359
0.0853165497989
0.167272471361
0.280799493597
0.40304935061
0.520454380906
0.590722635347
0.639744347022
0.660011407488
0.68834650768
0.700913363222
0.685717915555
0.649232460331
0.538910132399
0.389736147955
0.254170122629
0.143477244264
0.0678385658367
0.042543933582
0.0350663437504
0.0277219358842
0.0102326424198
0.00148107542545
-0.000863900528385
-0.000979332230923
0.000497504014915
0.00312975539313
0.0119031877518
0.0253138842311
0.0573873301031
0.137021145279
0.238149827989
0.366078212155
0.510079736337
0.634884682739
0.682283001316
0.680477925882
0.702994814709
0.714690442449
0.658394064576
0.572731339135
0.428906896242
0.277094431198
0.165740635282
0.0930733015854
0.0509986645823
0.0355236280411
0.0277662483732
0.019236996005
0.00620816358706
-0.000152767522777
0.000506579736557
-0.000215464484088
0.00111377711875
0.00175837590211
0.00485401213217
0.0156271565663
0.0452158895703
0.101808066089
0.178601922996
0.269511620321
0.39611612683
0.531083933016
0.60203020321
0.623860955825
0.63448700958
0.610118669808
0.516782113266
0.386558804796
0.253526982273
0.160838259595
0.11399004065
0.0801809705299
0.0434641375174
0.0273204241483
0.0214225044907
0.0102809040458
0.00121463453153
0.00070049007172
-0.000462885533281
-0.000832693387163
0.00078125730642
-0.000428537590154
0.00129302744638
0.0100016454224
0.0277194254412
0.0445487039193
0.0584165801541
0.0824113575743
0.150593023077
0.239625850576
0.298847779167
0.32423986735
0.325472645903
0.286239502225
0.212745011571
0.144183876006
0.107110500379
0.0917794973415
0.0839219096849
0.0542617545888
0.023367291175
0.0159137925628
0.0116102323871
0.00420768982741
0.000535707396619
0.0011047916467
0.000322963323409
-0.000644126259637
-0.000470231986642
0.000787528353716
0.000187845189395
0.00603444398262
0.0178268632592
0.0251880792639
0.0275271551238
0.0369783256913
0.0535674974073
0.0631934741298
0.0564215456952
0.0586244279723
0.0585234152828
0.0523714286214
0.0585473672893
0.0444902140044
0.046887756089
0.0515738476777
0.0421334040637
0.0250706652086
0.0119982346084
0.00783225235201
0.00636228705724
0.00207697983069
0.000982443495448
-0.000605168408337
0.000440872230153
-0.000809354289418
0.000570582048073
-0.00108476043562
-0.000552533523789
0.00247633494636
0.00683006720993
0.0167345783029
0.0277471993943
0.0435779670183
0.0477662606031
0.0515141481631
0.0555037945691
0.0594893563883
0.0562634967394
0.0547950135819
0.0638701316722
0.0519039322024
0.0396107792926
0.0295624381615
0.0206275442797
0.0114833950207
0.00465818754707
0.00212719783149
0.00123870399353
0.000367257187679
0.000482077146271
-0.000542825959293
-0.000793169402354
-0.000515634295793
0.000630474482395
-0.000912936097804
0.00105814118517
0.000692146065191
0.000796970406235
0.000655603025862
0.00278664611658
0.00382235994834
0.00333977517765
0.00821449007798
0.0114567238173
0.0167703428529
0.0193470900876
0.0286890666692
0.029013299676
0.0251774315917
0.0175415466041
0.00940130669746
0.00332644868501
0.00111101138505
0.00206632281473
-0.00103530783409
0.000630682314159
0.000933065172283
-0.000766602583762
0.00119722727613
-0.000809622516103
6.88357680184e-05
-0.00085598381457
-0.000498499045846
-0.00129034205801
-0.00146689014819
-0.000305894520641
-0.00121965698586
-0.00193608433294
-0.00136700743445
0.00115039160027
0.00120548858736
0.00124763068074
0.000628497080155
0.000370896577725
0.000179724570673
0.0011928997363
0.00114429233688
0.00142843813044
-0.00104104519341
0.000824178207813
0.000638804001274
-0.00108690273307
-0.00159375076578
-0.000974157072213
0.000893318631173
-0.00152159363655
-0.0015572269714
0.00165881195659
-0.000790267807401
0.00157889305263
-0.00130126940552
0.001795608269
-0.00160588638375
0.000777549121567
0.000148381130154
-0.00435534847022
0.00289480444163
0.00337969198654
-0.000721496040421
-0.00460086114586
-0.0100540455078
-0.0112528155387
-0.0105366605681
-0.00845783515034
-0.00668467621303
0.00180761116068
-0.00110707806467
-0.0024785055168
0.000780462342713
-0.00108932494423
0.000554139116637
0.00175754460825
0.00120466074018
0.000731862788909
-0.00106719290616
0.00103747031562
-0.000924896909417
-0.000588319189092
0.00147464021959
0.00117738720681
-0.00146357331147
0.00236335986585
0.00355847238719
0.00393924901499
0.016187891735
0.0199117437238
0.00583141458399
-0.0114223934224
-0.042406134815
-0.0957167337291
-0.134911687698
-0.136976705875
-0.13243690466
-0.115656303747
-0.0916067259847
-0.0476536238022
-0.023494901358
-0.0146390528907
-0.00372525729321
0.00027968906024
-0.00114821355991
0.000670582227262
0.00167524766678
0.000328939547561
-0.00183966992102
-0.00149586363234
-0.00122761234461
-0.000897514722852
0.00102036679511
0.00427848232865
0.0106940488467
0.0133521287732
0.0176145409224
-0.000363421747786
-0.0218350233593
-0.0294102826088
-0.0481029134
-0.0627411852536
-0.0402454425894
-0.00435528635036
0.000111021809022
-0.0320159809124
-0.0627033890895
-0.0601861577677
-0.04545256601
-0.0197851662357
-0.00655866766803
-0.000722979355883
-0.00317640013548
0.000588909023252
-0.00107402160062
0.000959488304716
-0.00161272376091
0.000485634558149
0.00085837936148
-0.00136983937548
0.0039261217349
0.0122504864369
0.0184553700031
0.0335111170114
0.0256251368554
0.00601326905441
-0.0052385762807
-0.021005865352
-0.0935833761884
-0.0974640848524
0.0050638505458
0.0343854288192
0.0480631344691
0.0346797081638
0.0230675154072
-0.00413332899843
-0.0374271006692
-0.00714688771893
-0.00721613168029
-0.0311120217905
-0.0282762335543
-0.0098369414282
-0.00187124398184
-0.00137426271556
0.00134197187869
0.000493349787464
0.00105026330102
0.00269322493834
0.00693189564617
0.0201838287265
0.0341372372651
0.0473488607971
0.0631667350242
0.0677235523162
0.0292110238069
-0.0292143875475
-0.0621855451058
0.0386518094321
0.0808482374481
0.00989509219126
-0.128814381288
-0.166414061691
-0.0315268581809
0.0748513116435
0.0818513642861
0.058904909062
-0.010515752088
-0.0868729568083
-0.0780022159994
-0.034654784563
-0.00228567328116
-0.00110295594253
-0.000735277079056
0.00140252664012
-0.00147410772094
-0.00337986079897
-0.00101480343835
0.0171992478895
0.0395457160859
0.0682914310021
0.12363285044
0.10732783683
0.0245831376175
-0.0103662644506
0.0347803903601
0.12442465563
0.112569064169
0.00526512489339
-0.10598969521
-0.106442725534
-0.0375897076249
0.0224082647261
0.0420746116182
0.0823707240002
0.0587220063307
-0.0296142088311
-0.0708212813407
-0.0377325718413
-0.00499272713505
0.000676630762775
-0.00263693901826
0.000527381948734
-0.00378962824085
-0.0168928613452
-0.0318409556036
0.00842760399759
0.0420066873068
0.0992732198711
0.195645336889
0.119023662168
-0.0120236012789
0.0711432163546
0.161106810452
0.0337328589088
-0.086917577577
-0.0846182742044
-0.0235440691391
0.0210236656379
0.0497261097732
-0.01896328291
-0.0612883468668
0.0265176816248
0.140539033338
0.124749113605
0.0397299917344
0.00377474118163
0.00423134700712
0.000988548305955
0.000554610819813
0.000279094897165
-0.00666988588432
-0.0206626411925
-0.0199890742378
0.00899489904293
0.0205607034731
0.0909550158608
0.139555135964
0.0264877179281
0.0627035055171
0.154825759258
0.0766943974457
-0.0949870776273
-0.114184561731
-0.0843478481614
-0.0359342874034
0.0347123648315
-0.0147250161111
-0.132524033137
-0.13926608851
-0.0952377484813
0.092216053548
0.190017775426
0.101216134441
0.0039585932165
0.0050562644845
-0.000640254963052
0.00121010546873
-0.000239309357201
0.00236480738508
0.00497370134149
-0.000819531205321
-0.00616800663891
-0.0164291347804
0.0398051474989
0.0746493345407
0.0395016647106
0.095279602207
0.0922601556773
-0.0409318037768
-0.0316934437874
-0.0124862524593
-0.146145334799
-0.114724200712
0.0265011370834
-0.0805803424254
-0.200883036974
-0.138339097816
-0.0955308549659
-0.0329479612671
0.128575510208
0.125727941327
-0.00528661797799
0.00496609555467
0.000389071279917
0.00148848918745
0.00244929103774
0.00847458394008
0.0185736552834
0.00343495238124
-0.00848135011169
0.0222959358438
0.091658741251
0.0896465669711
0.050838113724
0.0884894847085
-0.029529362433
-0.0157772406205
0.0272215574573
-0.0575120208765
-0.198456089419
-0.0787391374441
0.0961455328294
0.0556864913183
-0.0588819254688
0.0679689869
0.122313998519
0.0521741654233
0.143423088998
0.200665882947
0.0127882122592
0.0113462635027
0.00233591070635
-0.000822875374686
0.00261700796148
0.00665997839938
0.0158711102781
-0.00184248675475
0.0386312670383
0.154438640934
0.202561970141
0.0851971171586
0.0992371996823
0.0293946138678
-0.0606141971166
-0.00625923560405
0.00754298447943
-0.0627401945754
-0.093048695594
0.0706269861036
0.202265114359
0.153594336862
0.104913106129
0.2063540888
0.32301167728
0.313254040854
0.282947745884
0.274488485885
0.0351703978583
0.0118528030958
0.00117038512552
0.000967531588854
0.000567209638864
0.000677604255887
-0.000519506853757
-0.016628043674
0.105230126635
0.279409152454
0.229358799289
0.0919082770369
0.139908536169
0.0345819105957
-0.00727884698194
0.00617120086305
-0.0164917720995
-0.00153499659188
0.0561529257754
0.153642389761
0.21181886
0.10771705869
0.0270121556439
0.0425786225486
0.259408999129
0.50574765115
0.514629228505
0.372900992337
0.0508469104552
0.0114530680844
0.00157919605608
-0.000725044221187
0.000479431090994
-0.000103069690078
-0.010902900276
-0.042794213405
0.169307553418
0.316989404366
0.1538287289
0.0160468331709
0.0462607442127
-0.006240744715
-0.0280749331968
-0.0585683316197
-0.0403969673435
0.0470677369498
0.052858199318
0.0340045468617
0.0419114889149
-0.0634212962417
-0.250568487321
-0.266392461325
0.0273665831313
0.494998594338
0.686638885561
0.460082767449
0.0680803595867
0.0058087306454
0.00214961463239
-0.00085004307231
0.000792293472501
-0.00250649985466
-0.0185224656911
-0.0989342144841
0.188578158137
0.314041285639
0.098134425668
-0.117048065404
-0.101327464992
-0.0711650760659
-0.109391199127
-0.155962662407
-0.0739580677205
-0.0200167332342
-0.0683010458159
-0.132763984246
-0.114235589614
-0.0915158886154
-0.328469681988
-0.393439757108
-0.0304443660717
0.446026090014
0.709612564327
0.462853103615
0.0803100318517
0.00471269636634
-0.00101922986999
0.00153595775441
0.000820556997219
0.000163219229016
-0.0326930013897
-0.189639204112
0.151210815608
0.378463034307
0.153013108429
-0.101472526178
-0.172860192874
-0.13480821688
-0.139954499056
-0.12745000002
-0.0424590793829
-0.0239572456593
-0.0912600488052
-0.212647799931
-0.138147701491
-0.118871733933
-0.231328540283
-0.194049061267
0.143360332366
0.418171423489
0.570045125277
0.366418245179
0.0577865401349
0.00298086981486
0.00122063636134
0.000614641903174
-0.00116512647102
0.000820691084383
-0.0339812379854
-0.286701039083
0.0624284835721
0.373853775816
0.263779799922
0.0357101345844
-0.029426605091
-0.065457162118
-0.161431059329
-0.204338161672
-0.176769506579
-0.128857880019
-0.138241473626
-0.186708379085
-0.106745302125
-0.093576352119
-0.112592995164
0.0614966147731
0.28188537797
0.405044842137
0.342457456092
0.187929712627
0.00520073093542
-0.00183392763654
0.000792156265743
0.00133311690626
0.000811694354375
-0.00111516404376
-0.0119227147886
-0.30266381099
-0.0182003564425
0.251185321003
0.353173120645
0.26956913532
0.230598521485
0.0433850441471
-0.128553759905
-0.240139416277
-0.289955424374
-0.19788961285
-0.0740682387865
-0.0544713217713
-0.0337848178207
-0.0162505412795
0.0312334496448
0.152871991251
0.271626742366
0.233116153845
0.0961376757429
-0.00966045441161
-0.0666051015869
-0.0139874145719
-0.00151135979944
0.00130265545977
-0.000410543937277
0.00601237625408
0.031369377508
-0.220447831826
-0.0946780262251
0.0916471785909
0.322293810385
0.357849074364
0.31421951006
0.195452162958
0.101538140254
0.0300288733399
-0.0789002323432
0.00141991714603
0.0555619747853
0.100242367839
0.0391116174484
0.154263618004
0.162233503528
0.154319524641
0.130162085325
0.0685678213557
-0.029200375277
-0.101889542266
-0.0798506069933
-0.0120800149443
-0.00189244098076
0.000933301461182
-0.0014722961448
0.0101849947917
0.0670888055738
-0.0791142942634
-0.13914430957
-0.0598929813633
0.15869594929
0.177493587775
0.162769739861
0.227351544559
0.291944801075
0.260140982119
0.150785359769
0.109910634472
0.035015142848
0.032416920502
0.0813052952866
0.164962496178
0.117345684462
0.0742639334023
0.112611571678
0.0906105575531
0.00620071643187
-0.0605376772225
-0.0394410453719
-0.0071923119469
0.000472819175637
0.00162813288264
0.000174313373285
0.00763925480988
0.0696116463586
0.0511405817696
-0.102371893704
-0.1548341814
-0.0245946597412
0.0209788192532
-0.0351359469484
0.00671035267181
0.130900650993
0.146744810735
0.0957092377626
-0.021610268313
-0.072621425434
-0.0289799258201
0.0626845770139
0.0968436360111
0.051541422715
0.0556863447247
0.123516208299
0.122863353374
0.0448465510234
-0.00198223799293
-0.00527859407843
0.00148458120268
-0.0015236569341
-0.00171365355182
0.00049002674543
0.000393245193068
0.0320793845518
0.0991825657222
0.0183993142028
-0.117362851223
-0.0946205297701
0.0368604203333
0.0582924803547
0.019267644349
-0.0402733921314
0.00211807910658
0.0207251412259
0.0266988685898
0.0532669499907
0.0783848073565
0.0658753580394
0.061713436294
0.0842491589963
0.0727062324689
0.098467181356
0.0768083209352
0.0537815142285
0.0259366116955
0.00977103441361
0.000857082942748
-0.00162403457781
-0.00129823488656
0.000434333060346
0.000665578330725
-0.000733987722511
0.0330358747784
0.0415839880366
-0.0386878718201
-0.0776287132491
0.0391214373104
0.124158772893
0.0584632460416
0.012655591157
0.102613317794
0.204119186427
0.204279825213
0.0884423607462
0.0588007138085
0.0568123361256
0.125430391773
0.12332256682
0.037101338966
-0.0113569373537
0.0097397688912
0.0192338187144
0.019771824176
0.00960165158075
0.000201400952957
0.000694118016199
-0.00101573166835
0.000912168087854
-1.75441676452e-05
-0.00963262067303
-0.0350826430449
-0.0481825040805
-0.047616053121
-0.016234894537
0.00720991955322
-0.0311182810139
-0.0899538649724
-0.106493141117
-0.0881095270641
-0.0389952264852
-0.0616733879627
-0.0735104517734
0.00769218987209
0.0766534066752
0.0886938407126
0.042479106551
-0.0228139941339
-0.0494743313681
-0.0216664690744
-0.000492254827083
0.00366990372211
-0.00135888396054
0.00163807143751
-0.00046396644138
-0.000576767242335
0.00139562343488
-0.00124039804457
-0.00730869279329
-0.0288011830642
-0.0678250514202
-0.0794096330805
-0.0376991272241
-0.0198121113758
-0.0322184189353
-0.0662320361529
-0.0343277514758
0.0174940538762
0.0458382236258
0.0341313713434
0.0295180206535
0.0390350375708
0.00721248187621
-0.00120953299412
-0.000218569137748
-0.0151491663865
-0.0301193888163
-0.0114186574171
-0.00263624162337
0.00236870004436
-0.000844039887906
0.000827965136737
0.000521405296535
-0.00164968551169
-0.000900642314823
0.00132491127473
-0.00193440187933
-0.00832074860392
-0.010345305459
0.00601678726369
0.0438345387695
0.0460555253453
-0.00303551279954
-0.0559883563498
-0.0686862093433
-0.0520162077718
-0.0111591204222
0.0145485063706
0.0426482828268
0.0359974387108
-0.015081295393
-0.0265153612106
-0.00636353142762
-0.00692619948165
-0.0107415477692
-0.00028078663346
0.00412008113449
0.00229975856654
0.000151852933629
-0.00176792694117
0.00189559171828
-0.00121339795557
0.00159736715224
-0.00121300077498
-0.000566480264522
0.000208639157612
0.00431037442313
0.0154422841809
0.0322382986838
0.0306875145414
0.0153328489252
0.0136983372962
-0.00404113478654
-0.0322753968435
-0.0140262492139
0.0235321693805
0.0484227121539
0.0254309337495
-0.0236106167616
-0.0364448583385
-0.0224016203159
-0.0085527183588
-0.00187872679947
-0.00101999048387
0.000441302870802
0.000897458594182
0.000563980034596
-0.000876579268722
-0.00101911353688
-0.000907386186753
0.000890169677302
-0.000809411508697
0.00113869782839
0.00135534024418
0.000936578995212
-0.00114710991487
0.000754365274279
0.000637780592714
0.00197462506578
0.00443022382582
-7.17079512179e-06
-0.00580273286638
-0.00330887042336
0.00696774880133
0.0125978488637
0.0070191742257
-0.00567439401689
-0.00775559843214
-0.00325122341353
-0.00163633838999
0.000340342680932
-0.00105955934714
0.00109187166298
0.00114303125719
-0.000591045728525
0.00136710163072
-0.00143874700323
0.00193491723696
0.000485376886164
0.000840559131505
0.00234313903062
0.0014038381186
-8.48022181784e-05
0.00257381961351
0.000461736081465
0.00142840207109
-0.000912279027992
-0.00123533995976
-0.00232675594938
0.000682203815727
0.000680795473033
0.000964573084756
-0.000163083604827
-0.00209700494146
0.000615138187056
-3.84186342006e-05
-0.00146367753851
-0.000491164733716
0.000133337519753
0.0012385055002
0.000516612681294
-0.000371558791393
0.00111795265814
0.00102210674746
-0.000633416053899
0.00221945502897
-0.00227772429959
0.000188643137162
-0.000747600223664
0.00207410591274
-0.000664741228179
-0.00274621660845
-0.00102006983532
-0.00425284912437
-0.00238726604029
-0.00244743180548
-0.00455609557526
-0.0080515049931
-0.00652171946595
-0.00660025152195
-0.00429385177635
-0.00571995329229
-0.00283733663206
-0.00426590761278
-0.00221205107592
-0.00230418396494
-0.00144213845551
0.000442046488803
-0.00259364479737
-0.00102031094411
-0.000874498137913
0.000767378586499
0.000421066632266
0.00134620754814
-0.000475239755382
-0.000902626876529
-0.00116245432103
0.000408280621769
-0.00146779893398
-0.00662918834634
-0.0104235865689
-0.0161588856752
-0.0130374821842
-0.00901139208976
-0.0349105662033
-0.0441494184801
-0.0287874717927
0.00455234370093
0.0285578517674
-0.00473797514828
-0.0375422419132
-0.0140978799569
0.0161923281671
0.00759892067612
-0.0061097175723
-0.0140936971726
-0.00987017641643
-0.00213011528228
0.000793793405842
-0.00105780320784
-0.000439410302895
0.00116921825812
0.00100032902632
-0.000458444841661
0.00112309951467
-0.000477650979953
-0.00155412014431
-0.00981456863486
-0.0248345295496
-0.0384663133794
-0.0440950543962
-0.073384002036
-0.135616049496
-0.10917245807
0.00796722609209
0.098601839368
0.101934192404
-0.0225842490431
-0.136642851931
-0.0887893878347
0.0538779918579
0.093169025021
0.0364137227932
-0.00388015178162
-0.00683586932294
0.00318624607834
0.000518656797211
-5.49386807227e-05
-0.00093054711596
0.000687647055148
-0.00148882790911
-0.000255773575949
0.00234403814767
-0.00325733896423
-0.00588801660131
-0.0283001789509
-0.0772043382963
-0.0967257829441
-0.0928754732233
-0.114445055778
-0.160777646255
-0.193422591961
-0.252568727319
-0.333987006069
-0.163479327115
0.0567649431355
0.0317333345937
0.0106169501723
0.125648755875
0.21818260643
0.161217614658
0.0850029850785
0.0319828477652
0.0150055792386
0.00680108215808
0.00059438401334
0.00106274138596
0.000254221018474
-9.49694427907e-05
-0.000116733685445
0.00184579653763
0.00431625143225
-0.00703517121865
-0.03830148516
-0.0697402546717
0.0329924928066
0.151767904601
0.304285942962
0.387473437393
0.244983110323
-0.230528691249
-0.61485235469
-0.430763665331
0.057637176001
0.273308922136
0.243106257239
0.215487982446
0.274847497035
0.351733847786
0.277415528909
0.0908730765509
-0.00314976850465
-0.00381483076332
-0.00489270179298
0.00146507008311
-2.04404497211e-05
-0.00105175079098
0.00141039305675
0.00727421698369
0.0335499521246
0.0476883193245
0.0509202313795
0.105734009916
0.283566143369
0.408533275557
0.541448159939
0.654949026452
0.516500210438
0.117764403405
-0.255681221273
-0.314519377708
-0.216795941776
-0.0329482781997
0.103348847712
0.144310234949
0.0532036038091
0.162777800481
0.254793896455
0.0814562129203
-0.0268661818422
-0.0171166393313
-0.00830658894851
-0.000854989393155
0.00225129493627
-0.000224805255954
0.000657060714935
0.0261822246922
0.0885289290102
0.113476924007
0.113977091865
0.179366299829
0.127666688566
0.00648364623539
0.0547313234188
0.121710418737
0.107476512064
0.0854344392654
0.173363088078
0.119978726264
-0.0824442406111
-0.103453690371
0.0565170580856
0.0762952410941
-0.121370989537
-0.114436544724
0.0731558315512
0.0097374046043
-0.0482251235269
-0.00664078420446
-0.00446818293781
-0.0029732199858
-0.000173210680861
0.00496360638141
0.0211838907066
0.049013886674
0.100223739767
0.0409682993904
-0.0102575817391
-0.0953692615357
-0.304086982331
-0.426559022982
-0.300130729967
-0.235195535699
-0.0595428562563
0.256470942586
0.494235344727
0.329587290207
0.0291364617226
-0.192761608359
-0.149898664267
-0.0874905477419
-0.205528722341
-0.237271245076
-0.0132753626261
0.00477640489498
-0.0326138183976
0.0054666293257
-0.00309657706717
0.000576545978107
-0.00070267399797
0.00590249434994
0.032428365473
0.0573284752148
0.0635265699047
-0.0341500636844
-0.109518894504
-0.176888475356
-0.269547266027
-0.152274957374
-0.0164570268318
0.0147428376836
0.15706938388
0.342841377379
0.208883354601
-0.123090657489
-0.316486289759
-0.460670247634
-0.380550358005
-0.207970525012
-0.0787509911639
-0.0882397275545
0.0408773783355
0.0543501250033
-0.000511738419405
0.0197797969499
-0.00237710216587
-0.000309965374189
-0.000704462604563
0.00427399223443
0.0263371541589
0.0347728730948
0.0179840705604
-0.0510740807519
-0.0586679154361
-0.0042387168891
0.0876210499145
0.239661970346
0.198223500324
0.137813015409
0.132175532599
0.00341685054152
-0.205022061332
-0.332298812886
-0.310784282736
-0.337329010984
-0.328971753521
-0.126949258788
0.140787561669
0.114424507346
0.148633110334
0.117304487748
0.0156775400331
0.0174119940733
-0.00284082543609
-0.00199614882337
0.000979500045567
7.04547449717e-05
0.0114013637749
0.0109509288575
-0.025765453703
-0.0519197483337
-0.0248506538607
0.0786176755392
0.19913155302
0.175717552579
0.0450002777781
0.00219654250579
0.00519419432486
-0.0390630703907
-0.0469810566428
0.0404102565851
0.137864182436
0.0608978569877
-0.0471269078945
0.00182966492268
0.215915990412
0.129078786101
0.197153322027
0.121147124092
-0.0170039980557
0.00874317375955
0.00203253051624
-0.00067568839293
7.75903040006e-05
-0.00129345201459
0.00327420174782
0.0010169038741
-0.043379588031
-0.032502730101
0.00146229345937
0.0239766478927
-0.0809690023279
-0.121698667947
-0.0381286397969
-0.0122628553612
0.0960144132933
-0.0103774584684
0.00134620374236
0.102185274399
0.233550800166
0.276356576303
0.120425340892
0.00366297191555
0.081018368057
0.0449359418033
0.16156396761
0.092584562543
-0.0550563699387
-4.51168195096e-05
0.000596529192544
-0.000915529176944
0.000621650477484
0.000455953895979
0.00136389253138
-0.00321969301302
-0.039410768263
0.0217744800825
0.0293978136858
-0.113055106378
-0.317786178327
-0.144239625787
0.127580585354
0.148996089069
0.0883864732167
-0.140113369972
-0.276508124935
-0.354779689938
-0.158416371105
-0.0176019125704
-0.152469483562
-0.192367867226
-0.10115275966
-0.0483212663398
0.0860640761934
0.0183216872603
-0.0881098375171
-0.00729910828141
0.0021535003135
-0.000288808867299
-0.000245480505431
-0.000927043417524
-7.36113116847e-06
-0.00142944792223
-0.00705489040952
0.0631687087103
0.03131919223
-0.0972110009609
-0.108016490973
0.230333929719
0.366688393471
0.23508332212
0.177688286044
0.0187063123059
-0.27558415123
-0.423903095444
-0.220404557694
-0.239610951528
-0.468439622066
-0.424614994922
-0.273506765634
-0.209053252105
-0.0470410230147
-0.0681297295646
-0.0944302846806
-0.0126412576471
-0.003449060105
0.00285883985833
-0.0017570854817
-0.000264203012686
0.000670971482937
0.00163020513851
0.0355203431624
0.026666810047
0.0330240542258
0.04601865842
0.19102519371
0.293305593878
0.200538480257
0.117844774983
0.320609869436
0.420749668645
0.163833847183
0.0272301234624
0.177449767923
0.0915458192816
-0.177496563897
-0.236004736645
-0.340203911828
-0.356001689627
-0.17966922488
-0.113509535747
-0.0778064923204
-0.017906364884
-0.000183331009599
0.000638363493559
-0.00103740957839
0.000919392862766
0.00751324030864
0.0133131284925
0.0716500893074
-0.045239801824
0.0216491580055
0.148089940167
0.10467700586
-0.140163808724
-0.486804187261
-0.402845041592
0.0499142000256
0.332642720279
0.201707598477
0.0952619036196
0.255768659614
0.341116413327
0.266043653185
0.228721374327
-0.00210061757155
-0.248999976827
-0.19219621471
-0.0616932663821
-0.029024448728
-0.00403123097672
0.00371423514831
0.00386525789598
2.42354590647e-05
0.000927480129095
0.00982904950085
0.0368727922
0.0586198354955
-0.146251604922
0.035307330432
0.202930503138
-0.0302314698305
-0.452647979069
-0.614522862227
-0.446864933836
-0.143917527816
0.196395080762
0.186434450637
-0.0313822908358
0.104303675628
0.120005644116
0.20990558803
0.412837803625
0.274662779314
-0.0902964050128
-0.0771850546365
0.0579459290879
0.0542429027907
0.0202532843221
-0.00160971119143
0.0017529066042
-0.00162684759828
0.000935176498622
0.00955933283876
0.0350814466532
-0.0267228586628
-0.301467972823
-0.0178759813172
0.317010580686
0.0565572324034
-0.326707758858
-0.3687228617
-0.362746320941
-0.214352434013
0.23708925894
0.231136874629
-0.149358392297
-0.198292960663
-0.316891928472
-0.2103394579
0.1671706528
0.233062753946
0.0154790472242
0.097239701012
0.213376019985
0.142958038754
0.0518940568924
0.000584364890875
0.00208629237297
-0.000416155752176
0.00347212950778
0.0110080562233
0.0152450402183
-0.0974755717617
-0.394542687189
-0.10871865792
0.319495708967
0.12361895331
-0.146580611406
-0.269697531604
-0.479773322324
-0.320619382206
0.306111065404
0.212115121278
-0.311805315345
-0.33969293364
-0.311698626961
-0.185701670623
0.105825822376
0.116532320323
-0.0334536954547
0.097473821935
0.186987267199
0.123767237923
0.0435202191619
-0.00208170517792
-0.000263622459434
-0.00195767036585
0.00126424249402
0.0134209641912
0.0162156482723
-0.0819128747075
-0.356179767874
-0.256402642786
0.123599173691
0.0559752461752
-0.127140127865
-0.293847743563
-0.447877546579
-0.027663368545
0.442513151127
0.079502593511
-0.269427496479
0.0251379147696
0.173239906572
0.168822265761
0.147306609594
-0.0101039129989
-0.156490718433
-0.00125296805953
0.102903355265
0.0582486136888
0.0323894714973
0.00369815206413
0.000645505117463
0.0009715207583
0.00235292140605
0.0188919407035
0.0410517398498
0.0218727713634
-0.165452118383
-0.274061358453
-0.113744363728
-0.0526547928678
-0.0652037166823
-0.149217825301
-0.152346862379
0.207045142938
0.295613419266
-0.175224420257
-0.141072439644
0.256961258163
0.283949743975
0.159128370723
0.0659988656215
-0.120262724371
-0.174945051066
-0.0472128359603
0.0386709831798
0.0202852344674
0.0096287938793
0.00657134185763
0.00163151807362
0.000691363842573
0.000436037510534
0.0129888052957
0.0463056316806
0.102418847614
0.0495110009831
-0.0934620332446
-0.182996812182
-0.165215424343
-0.0974663022709
-0.158620300537
-0.0810592728971
0.0679802072633
-0.0489800626538
-0.389914481008
-0.231906253304
-0.0201939016892
-0.0536738365421
-0.0845197638065
-0.0250742428723
-0.0991020648661
-0.158979658992
-0.0497197930711
0.0191912891548
0.0158746930403
0.00802708718639
-0.00144210255715
-0.000142835201063
0.00221034925807
-0.00055793099024
0.00241158798108
0.0193450309428
0.0563488482093
0.0807771822369
0.0465213449207
-0.00898428620581
-0.0744931599659
-0.223084333933
-0.33823227155
-0.184593987082
0.0512599498802
0.0413451992025
-0.160174414257
-0.149172828042
-0.166636605767
-0.231826486249
-0.157187107964
-0.0154334042037
-0.0838951054112
-0.124765696441
-0.0558827107735
0.00790819804575
0.0111399011959
0.00334091430487
-0.000976489698103
0.00110971913062
0.000402641220795
-0.000868190844408
0.000510911038249
0.00294068398546
0.0024431412135
-0.00446721413932
-0.0297946578873
-0.0184752552932
-0.0417530175098
-0.100944220086
-0.110918576789
-0.0326088326251
0.178328486947
0.428998354858
0.36569054936
0.140608129824
-0.0222551538917
-0.0745703851002
-0.0100916886099
0.0448711533413
-0.0413889185087
-0.1078412422
-0.0489450089576
-0.0138129544623
0.00449343919647
0.00187011543735
-0.000558215677757
-0.000800429349491
0.001071973462
0.000652796634507
0.000422396001416
-0.000676086110107
-0.00144411818665
-0.000937473111061
0.0262426717039
0.0547405414978
0.0590127825869
0.0856749912429
0.0780815050224
-0.0690716565853
-0.171426478419
-0.0307883302941
0.039703020151
-0.0292619985326
-0.0360610003002
0.000546988053685
0.026838044129
0.0425075634208
-0.0160217736304
-0.059006585191
-0.0338024955059
-0.0143964020814
-0.000442782771818
-0.00031888693453
0.00107010751198
-0.00162449486092
4.58645999131e-05
-0.00293896014045
0.000737027876741
-1.52920902201e-05
0.00129187965886
0.00774417478365
0.0301938746796
0.0470617802308
0.0371213936505
0.0615033218144
0.0984792986245
0.0260775273557
-0.0870171725792
-0.0228469067647
0.01925512159
-0.00648117224186
-0.0184916328868
-0.0155758731569
-0.00518268658112
0.00631325382463
-0.0177585473072
-0.0263674092784
-0.0116491194154
-0.00445651033449
-0.000259139562404
-0.00162102926669
0.00120118623815
-0.00188223080797
0.000582127346803
-0.000554652892284
-0.000384254442548
-0.00160929573802
-0.00159276594171
-0.000738709783699
0.00175846828969
-0.00116348731871
-0.00469127296583
-0.00177988763708
-0.00392205046343
-0.015207336267
-0.0251159192741
-0.00767387935407
0.0031736778726
-0.000307968481038
-0.00530855247572
-0.000835765185184
-0.000653647063645
0.0016759827369
-0.00175211758478
-0.00218770005027
-0.00466301268276
-0.00252437305652
-0.000856042467874
0.000206874900404
-0.0003903038212
0.00104225436072
0.00106004538717
-0.000124157660139
0.000729155277555
-0.000270747670655
-0.000331965703211
0.00024378819602
-0.00182662003255
-0.00193261728244
-0.000115285917261
0.000428125185442
0.000759948888509
0.000984053304471
-0.000265451372357
-0.000869472876331
-0.000819130771947
-0.000856772212679
-0.000876240747855
-0.000225582466091
0.00011758798996
-0.000489967158567
0.000626285737834
-0.00043944486937
0.00108308043805
0.00176305002423
-0.000509798661619
-0.000159548351116
0.000723243350549
0.000688964221475
0.000476427316167
-0.00166755712924
-0.000808852497758
-0.001443016355
-8.49096978704e-05
-0.00158955065686
-0.000293369212768
-0.00126949501306
1.8587089941e-05
-0.00455318766748
-0.00624326854198
-0.00144295590228
-2.20596661511e-05
-0.00830894218742
-0.00520011157036
0.0090282865115
0.0226492358771
0.0184243380913
0.00510439677698
0.00222842069687
0.00132692555266
0.00126783660755
-0.00183933019134
-0.00116477702373
-0.000598779990939
-0.000174131318711
0.00210161451257
0.000373744806531
0.000423769901893
0.00267919020569
-0.0016018883942
-0.000336249320774
0.000472932670894
9.82859673347e-06
0.00289759755786
0.00234887742368
-0.00349025931801
-0.0227834900956
-0.0161969395608
-0.00499616097932
-0.0542857316646
-0.100757070237
-0.0295719946066
0.0937535825558
0.140881346604
0.0648139317456
-0.0300852799778
-0.0479425047681
-0.0251036077319
-0.0124654298213
-0.00179595481328
0.00193419633772
0.00123064843908
-0.00149605444097
-0.000446058313993
-0.00050492940973
-0.00022808981082
-0.00119636371339
0.00232259817607
0.00153412626163
-0.00035365011528
-0.00175359514853
0.0052461585898
0.000843113641553
-0.00894633200315
-0.0247733552908
0.0128670937914
0.0434583777969
-0.0226160610247
-0.0193325013653
0.0704599283272
0.0564430195219
-0.0404465428893
-0.0869753725936
-0.059021408548
-0.0226576040905
-0.0165343826361
-0.0176352811699
-0.0130417418186
-0.011850634101
-0.0090846753245
-0.00159574995731
0.00110533414895
-0.00144104750044
0.000481509460497
-0.000238324809067
0.00150828921426
0.0011036755061
0.0031393936243
0.0015435617505
0.00954388347851
-0.00154936377326
-0.0459612355721
-0.0794367671235
-0.0578670531717
-0.063082595849
-0.0161972528673
0.151773766336
0.22393252858
0.055952380609
-0.0630787914488
0.0561740419242
0.263526968315
0.306804751152
0.1113799712
-0.0713194228033
-0.062010261835
-0.0290705694037
-0.0201500904092
-0.00391316636841
-0.0016982174623
-6.18372177079e-05
2.99237824188e-05
-0.000433149193093
-0.000912254019906
-0.00150697163697
-0.00972554525585
-0.0254609382958
-0.00374348314298
0.00366817811302
-0.0653466372677
-0.132233713921
-0.137524396843
-0.250190223053
-0.326708766506
-0.291955281369
-0.157448700397
0.00148643658604
0.082016049953
0.123751398411
0.0620354150518
0.0802326497767
0.00828228138258
-0.0717691884122
0.06247822055
0.122927316912
0.0769957494475
0.0218311639264
0.0103533839927
0.00108513372751
0.000261435820627
6.48316560541e-07
0.000250122715268
-0.0120344947978
-0.0569678367489
-0.109918446684
-0.0842587762771
-0.0800581896291
-0.17664165198
-0.246500917653
-0.13290080976
-0.148095208924
-0.386540065697
-0.426344379706
-0.276287943254
-0.0719729597412
-0.0293158229482
-0.210266402152
-0.400905360086
-0.41361801295
-0.216587910558
-0.0079627714258
0.117632162356
0.188624139042
0.114913799408
0.0210629505501
0.00474830064476
0.000928099943716
-0.000326193193611
0.00302267304024
0.010030097473
-0.0162205783069
-0.0955345725785
-0.123821991407
0.0387915134514
0.127293234202
0.0503666148201
0.023376709489
0.280363289113
0.194903851509
-0.12675602726
-0.133404143936
-0.026689439677
-0.0301293390821
-0.167476906004
-0.207887807053
-0.200386169727
-0.187670593194
-0.109749552143
-0.0215970898809
-0.0243948305229
-0.00535098260072
-0.0446740607244
-0.0714128679753
-0.0234193270501
0.000915270431951
-0.000601164551762
0.00808417882878
0.0266186357352
-0.00332240509358
-0.0895937142383
0.00890768333164
0.311812404248
0.446276726738
0.352932333317
0.29808184317
0.396640723064
0.213759010585
0.0635313793038
0.147485394157
0.247615407291
0.201728098336
0.0320208303873
-0.0380240159778
0.0818470842711
0.0894891645191
-0.00985241409619
-0.0873279149378
-0.19232785894
-0.221296402074
-0.121032286191
-0.0764288783126
-0.0182617039746
0.00198457100308
0.00220717052909
0.0101738649054
0.0235134426379
-0.00268248307531
-0.0909468836186
-0.0175931813195
0.20700779087
0.222930512338
0.085402361133
-0.0347453862733
-0.0682411333244
-0.237296624811
-0.272480383945
-0.100408088294
0.0197613740178
0.0872249024995
0.0347843444735
-0.093678120729
0.0513390592806
0.106166728961
-0.0239218291743
-0.105346310899
-0.0547439713732
-0.0904402901504
0.056613202472
0.055172225165
0.0120045712451
0.00316657514761
0.00113392169863
0.00545792189904
0.00950448714174
-0.03127985826
-0.146556016295
-0.179887948612
-0.118852196083
-0.233242430736
-0.376905461501
-0.428471554812
-0.446204067476
-0.406890240844
-0.314758409128
-0.186830379946
-0.154538154179
-0.0660683299982
-0.0770357246947
-0.138860505103
0.0585401241323
0.158767711935
0.0557847914066
0.0840170929304
0.113484789516
0.0132198657047
0.10907341308
0.0801030405026
0.0188660640681
0.0017312297609
0.000756681825799
0.00467248998432
0.0100642186587
-0.0087687438584
-0.110162771329
-0.157416530393
-0.174006102684
-0.281997669281
-0.320207281983
-0.259255737946
-0.228610938119
-0.137953569308
0.0306535472657
0.0780824681594
-0.1372867039
-0.190167740404
-0.0739757297891
0.00886897646918
0.177258139555
0.15254060625
0.0538135297179
0.129358693745
0.0715659542736
-0.0901422234917
-0.00312816211732
0.0320805493593
0.0070520498591
-0.00126475640524
-0.00101190158862
0.00410873773105
0.0172061336005
0.0164934307963
-0.0248020935066
-0.0207298350345
-0.100191145987
-0.104980728154
0.00919926268779
0.0278197429894
-0.00218247941219
0.00556916298401
0.10333360513
0.0788195437027
-0.21574815232
-0.280906804713
-0.140585973073
0.0215559313262
0.0401222254437
-0.0436533118339
-0.0752582122159
0.0357073617635
0.00811564000521
-0.116435137384
-0.103512900162
0.000757878925867
-0.000238554473637
-0.00138793817289
0.00135002788565
0.0033231421582
0.0128205806385
0.0202182916571
0.0197971313081
0.0146643341498
-0.0967863446235
-0.0382441792162
0.0509299402962
-0.0159975203434
0.0143101036783
-0.0559240921416
-0.207227503591
-0.394553296938
-0.570472766501
-0.404342377912
-0.12560697485
-0.125883622384
-0.269229521961
-0.230633504303
-0.149943765175
-0.0488930952376
0.0231585306459
-0.0555998014488
-0.119967611097
-0.000363671953482
0.00490785316842
0.00310028063461
-0.000945216551614
0.00209051082717
0.00719509337057
0.0173030925742
0.043134424634
-0.0331350782474
-0.182128039093
-0.143926314216
-0.254152644688
-0.24375241385
0.0890179961226
0.131780233638
-0.168225588152
-0.460165490705
-0.575038368597
-0.332163052851
-0.0913217820552
-0.181481064101
-0.333727322794
-0.231669396612
0.00739465877029
0.0637521141927
0.121935345908
0.0493153028638
-0.0659524112198
0.0187706368816
0.00687578342583
-0.00131739486709
-0.0011113174514
0.00114911999355
0.00101050588372
0.0280398211288
0.0420495080333
-0.149495847356
-0.261580003155
-0.177914155565
-0.329990474181
-0.248185782716
0.153972810383
0.520286876255
0.682814917169
0.561374948967
0.204080764281
-0.0499492569805
0.0252516678046
0.104279108452
-0.0735295212449
-0.0705669685069
0.269081151045
0.355990866639
0.26252228392
0.13176666531
0.0282782483242
0.0274769983233
0.00648565762457
-0.00143261696249
-0.000783097744046
0.000745433814119
0.00798352020837
0.0457264728228
0.032347300276
-0.192791278951
-0.1954373866
-0.00461370699042
-0.055712580476
-0.223702896564
-0.196533692054
0.205048071457
0.683899769632
0.712368833997
0.277860490089
-0.0796533187412
0.206366455058
0.334808635
0.130274469826
0.0609538692541
0.360049075225
0.403264761179
0.208589090218
0.0761485616547
0.0426847210081
0.00538573042376
-0.00288390819618
0.00062429278486
-0.000248081258873
-0.00232011456912
0.010132765388
0.0569568550637
0.053734350863
-0.0693772906088
-0.025608725154
0.15926935879
0.138674803106
-0.116207607686
-0.352392293871
-0.381581388982
-0.234148330036
-0.276900316689
-0.408678701025
-0.17108714485
0.303632820469
0.261639845922
-0.070561811477
0.0186849326568
0.188815997911
0.155338087436
-0.0158958684406
-0.0361756767443
0.0212081241332
-0.0281310848685
-0.00589456322527
-0.000516897881006
-0.00140616128067
0.000908108717075
0.00335607702481
0.0426404025463
0.102063904813
0.180140024447
0.161308693664
0.129684600939
0.0589085085446
-0.0345319914272
-0.120811133657
-0.244845090178
-0.285753873923
-0.305994758461
-0.38405826159
-0.00718407895965
0.41608772441
0.0424763798461
-0.306842184262
-0.0687294422493
0.0319349441528
-0.0457404674333
-0.089334586818
-0.0126846329086
0.0120273218871
-0.028491415588
-0.00488094394297
0.00132559822718
-0.00141172495509
0.000882849867578
-0.015200412637
-0.00656307361616
0.0899502701071
0.322642209718
0.181285392776
-0.0327413683522
0.00182246787817
0.181639469685
0.244695205032
0.110124546296
0.113102490366
0.120781207182
-0.0958445093655
0.17119899987
0.335234817104
-0.108984627977
-0.265733624535
0.035450888156
-0.00850294520359
-0.122611174196
-0.00491260329315
0.089759251565
0.051349555381
-0.00593215423915
-0.00600083356881
-1.41875599987e-05
-0.000704855011817
-0.00125846507324
-0.0250335351736
-0.0551815371016
0.00228349416582
0.250653890551
0.114351619246
-0.146969280479
-0.0889158840588
0.0613230511591
0.087737559869
0.0432123340433
0.127841346137
0.0518966159075
-0.0417963062847
0.186757857059
0.222067391254
-0.180112316889
-0.0773346835791
0.175773384696
-0.038667042865
-0.119975141221
0.0325728903488
0.0933630666514
0.0688269013955
0.0061981541839
-0.00107272303946
0.000563475611659
-0.00137608683563
-0.00253929000294
-0.0269308823419
-0.0806695768154
-0.0974252562473
0.0745479645143
0.0976992859038
-0.0808330852141
-0.175984367421
-0.28219768949
-0.36410826601
-0.229031343801
-0.031439852521
-0.0810866830468
-0.0495941669291
0.195178165109
0.121279161442
-0.0992455617355
0.136486602388
0.201249097496
-0.0461043316467
-0.112972971509
-0.0520124591893
0.0137935919209
0.0159263502102
0.00523659509289
-0.000491912231526
-0.00110254032466
-0.000353107166131
0.000207134944023
-0.0147635360002
-0.0604951762518
-0.104256364033
-0.0415027528955
0.0256099730777
0.00701022327349
-0.0750635524051
-0.154921235155
-0.0228150238853
0.149694345649
0.0606818593975
-0.106195300911
-0.0239607302366
0.21317712412
0.069036312964
-0.0644853814146
0.100319355403
0.148263324228
-0.0125090766103
-0.0798402666414
-0.0752395037125
-0.0485049236143
-0.00657655146549
0.00579741663515
0.003252119884
0.000819935580433
0.00194166852703
-0.000420634694504
-0.00093562707526
-0.0241326158444
-0.0275632657101
-0.00698595168505
0.00922922847846
-0.06078340963
-0.139210290342
0.0562410522911
0.550537578619
0.605184923896
0.242494867147
0.0347960733063
0.220203829143
0.269271656421
-0.0156043776836
-0.130355488315
0.000196071606138
0.119921553472
0.0810204215283
0.0105919127117
-0.0247054092848
-0.0247245736973
-0.0013328176321
0.00365449347072
-0.00162610330384
0.00132944029597
0.00142013187354
-0.00104745919183
0.000403868191884
-0.00158362404592
0.0102821466107
0.0559511527432
0.0472303863429
-0.120136386434
-0.261020271445
0.00788934224789
0.358244133753
0.335239396243
0.00417717014271
-0.000772051824754
0.130507318228
0.0495061826848
-0.105559941022
-0.0716792514672
0.0507534390415
0.0954571603976
0.0407852052119
-0.00397374522672
-0.0120272375029
-0.00227428374561
-0.00156064634955
0.00158582251597
-0.00125058524712
0.000232554762573
-0.0015233265122
-0.0018156241957
-0.000547434043389
0.00206354008123
0.0176497399239
0.0395248349715
0.0148529466622
-0.0731920535282
-0.0731250493916
0.128587695865
0.198345616372
-0.060859109844
-0.163704595028
0.0719037191338
0.144278570562
0.0185647705377
0.038852187357
0.131765645984
0.133874490316
0.0449630304838
-0.034806160359
-0.0446238011487
-0.0147939495007
0.00193072740198
0.000359880027407
-0.00188355502394
-0.000316918597039
6.68029172372e-05
0.00139412036972
-0.000312138178432
3.18406959414e-05
0.001794059435
0.00219702655399
0.0111437167482
-0.0057090314966
-0.0146135438567
0.0673559126725
0.19225147707
0.115532131893
-0.106513399781
-0.119030847153
0.0162960510525
0.0358028813293
-0.00986314079711
0.0487304521071
0.0859761419654
0.0605584517931
0.00062779508802
-0.0365658264169
-0.0283741560637
-0.0113528834739
-0.00167324222624
0.000393914903227
0.00132780500973
0.000351273559402
0.000377113341073
0.0012070390039
-0.000221522125742
0.00111206555168
-0.00027704991371
0.000658754730741
-0.000277294417467
-0.000916983302202
-0.000246299004289
0.00247465301766
0.00692237492918
-0.00814816946991
-0.0206300257535
-0.014738577663
-0.00152718458518
-0.00337303380976
0.00104433087203
0.0160807868385
0.0240171791455
0.0115620717493
-0.00147177602204
-0.00643587651091
-0.00554454753511
-0.00449625720675
-0.00100812390448
-0.00055881793519
0.00168743227819
0.000880641112626
-0.00113351269765
-0.00440877290015
-0.00216459192389
-0.00338268239633
-0.0034121596985
-0.00359571777317
-0.00427461851262
-0.002006018617
-0.00305022392551
-0.00392093235117
0.00550218095468
0.0024782930686
0.00341679765902
0.00329151945037
0.00278399865871
0.00310320430677
0.00476310497601
0.00136276068306
0.00390376967104
-0.00290304166775
0.00298194320103
0.00290878949455
-0.00285574172605
-0.00405199415207
-0.0028575281847
0.00414160051002
-0.00389912728004
-0.00364780307113
0.00297871069427
-0.00446974611878
0.00510775427157
-0.00374729022332
0.00299682598034
-0.00341425299873
0.00442580310114
0.00166328286255
-0.0102768829195
-0.00110159412527
0.00110051853126
0.0117938727037
0.0215444557614
0.0153151440902
-0.0006130842485
-0.00894304598388
-0.00878579163992
-0.0123435008021
-0.00859753033928
-0.00705224069061
-0.00429972863863
0.00028283885639
-0.00428571942504
0.00242864117828
0.00242726878622
0.00296741422959
0.00248666312828
-0.00516749002742
0.00181150695489
-0.00259167405205
-0.0033429329367
0.00278680797132
0.00384932714159
-0.00274835350188
0.00342573543896
9.82365001453e-05
-0.0108869161658
-0.00807873275476
0.00910344889858
0.0488666091904
0.0925504728767
0.0599199657626
-0.0245215992444
-0.0827586967727
-0.0879274751419
-0.0765656163861
-0.0334674136693
0.0284783268704
0.0353833265036
0.00730263935807
-0.0130574684522
-0.00722000068612
0.000477106403898
-0.00388085807761
0.0032756393597
0.00210876817232
0.0034978788499
-0.0042019424881
-0.00146137185892
-0.0033958974149
-0.00304855819782
0.00133069039066
0.00241967519311
-0.00286120859622
-0.00493130040908
0.0119827819201
0.0714997286536
0.167397795377
0.194344682192
0.0811339645949
-0.0803132257078
-0.117691168939
-0.0930156989122
-0.0547324918939
-0.0354240287701
-0.0150835323482
-0.0422879380461
-0.0681562597271
-0.0539891127272
-0.004799515735
0.0145249484091
0.0059916870696
0.00481840042921
-0.00292860250372
0.00374199435419
-0.00264782688364
0.0047710763527
0.00285666222724
-0.00524405891087
0.0068321776792
0.0137975675373
0.0237803009885
0.0223057824517
0.0291385018343
0.0757547809242
0.119193312293
0.0330088820781
-0.131015903774
-0.0182491026278
0.206835746997
0.250249005134
0.288182911119
0.384470214122
0.363375062582
0.189322213339
0.0112873940142
-0.0657002344429
-0.0667529553247
-0.0216775806265
-0.0106472699477
-0.00435654383257
0.00201100087219
-0.00377812751106
0.00283542570345
0.00431543546886
0.00309910877326
0.00258285813963
0.0354122901719
0.0894744400645
0.118899008374
0.0813244610887
0.0421062536948
0.0896416764609
0.135659171944
0.0926799063242
0.177082146837
0.613277124268
0.718009283425
0.444538045089
0.25419371178
0.220325565033
0.176908183221
0.122411492885
0.187429273667
0.253721776474
0.157025793682
0.0307054676282
-0.0161305254829
-0.0193448657823
-6.64731439908e-05
-0.00259312672184
-0.00380854058057
0.00386523808836
-0.00170268777954
0.011219135092
0.0764889613623
0.130722787384
0.105088328923
-0.0258623867644
-0.0544935986888
0.116759271537
0.233050871233
0.231257700411
0.381675491547
0.423773190275
0.221023704516
0.0387147875463
-0.0272237018561
0.074786879479
-0.00282958514011
-0.00819460803623
0.105057476088
0.273876399127
0.265182553664
0.0660261354368
-0.0693454303202
-0.0667417422435
-0.00725040354425
0.00442730487352
-0.00293454197462
0.00381034577931
-0.0017791964278
0.000457071068464
0.0309783956662
0.0314977004291
-0.0368305950382
-0.134444066894
-0.0121110338799
0.166519336784
0.167295192215
0.170372428322
0.139669308243
-0.21581312367
-0.458585397789
-0.411781199076
-0.297418679268
-0.165940971446
0.000893546919057
0.156288993404
0.0795185255824
0.0585741552134
0.170728935331
0.00464657220234
-0.201845479235
-0.157565405318
-0.0302257797581
0.00279376998814
0.0017407132207
-0.0029968258798
-0.0101888496009
-0.0136434868612
-0.0368943504949
-0.0468463551037
-0.00132701016832
0.132560560075
0.226179755522
0.15665081256
0.0118016105446
0.249820290404
0.179896302788
-0.083550778886
-0.0286501903011
0.0934975528843
-0.0108971684857
-0.153451842634
0.0626497822085
0.285403256852
0.175509335268
-0.0650961753512
0.0126790045486
-0.00170680754135
-0.157206407887
-0.116521221771
-0.0172316681472
-0.00322392245476
0.000269446346883
-0.00871893382866
0.00147164028418
0.0103281442274
0.0148170173621
0.0346311133729
0.223894510015
0.389331991683
0.304105417945
-0.0136562442318
0.0596848459786
0.32392550416
0.179488087201
-0.052227600965
0.129176949144
0.200877830309
-0.0683189185245
-0.225545623753
-0.0898841085199
0.160237466703
0.297192434585
0.00373965571289
-0.0395351252011
0.0811924123653
0.0441167491457
0.00918852054535
0.0125069030223
-0.00112161829096
0.00333128803895
0.00107412324285
0.00812567058572
0.0200800467902
0.0397652655184
0.0811903973862
0.212444864229
0.292823205312
0.064497601938
-0.203084720314
0.133789673892
0.191243970055
-0.0866301423276
-0.257233359159
-0.149661079828
-0.116124346848
-0.0687569690712
-0.16377834387
-0.263119963208
-0.078102029256
0.255816555036
0.0180124445809
-0.163049084008
0.032948468046
0.0730709215788
0.0169533043236
0.0130959640632
0.00752655958953
-0.0017782882519
0.00203383284263
-0.000603602162168
0.000924214669605
-0.00261633432422
-0.035368621004
-0.0124136482859
-0.0110901947818
-0.168849291714
-0.0918647115184
0.151878302237
-0.0115740106725
-0.256371072755
-0.415628215578
-0.386848916188
-0.11204363767
0.187037878766
-0.0479054601697
-0.459442021873
-0.196285978311
0.180209948297
-0.100340932823
-0.200897342234
0.0125431376214
0.0816411767532
0.0127655858326
0.00678513352668
0.00364911123454
0.00323211395808
0.00317238050646
-0.00268739571279
-0.00956866497435
-0.0355816631089
-0.106910813209
-0.174990285567
-0.198247668977
-0.170132314412
0.107783061488
0.231069701943
0.052237410771
-0.132159713034
-0.211819133256
-0.11386090697
0.174896127974
0.251809146101
-0.205494928966
-0.476209969086
-0.0942270949488
0.0841404094794
-0.131867659619
-0.156807986154
0.0291283418682
0.0908556974559
0.00848395848636
0.00108627549424
0.0044413853088
-0.00405482966154
0.0037632650434
0.00137570476259
0.00204914071963
-0.014554146795
-0.0738105572314
-0.184616897617
-0.187525652692
-0.0525000313966
0.190809377537
0.248879217816
0.135610999003
0.0167781206672
-0.102101842945
-0.0359554688956
0.0566859039537
-0.014685289222
-0.319821658106
-0.309678379576
0.0851532663408
0.083290051434
-0.149870243991
-0.130057412451
0.0860597595576
0.113058004234
0.0185260156962
0.00390466102973
0.00470850139022
-0.0020725720497
0.00366379012174
-0.00250372741075
0.0146026820727
0.055840627254
0.022076931384
-0.127196019705
-0.160128954974
0.0516894215545
0.275127812779
0.189035618971
0.0141401852943
-0.0341464927019
-0.175554105901
-0.24788968152
-0.113023138186
-0.0903387771074
-0.256328318053
-0.127916443288
0.224371141569
0.194336403067
-0.12506869146
-0.144193589822
0.119297834859
0.126699493267
0.0258263154539
0.00455447996477
-0.00285647368131
0.00385333245013
0.0030014999052
0.00309939799787
0.0335363320331
0.128319389825
0.122160072769
-0.12902863771
-0.217942558394
0.0769199315266
0.374559852243
0.112702447155
-0.0837465865795
-0.163449523077
-0.296558246531
-0.219377358295
-0.120504179536
-0.136925423417
-0.234298716537
-0.128542042473
0.182719089794
0.275977317536
-0.0620419920412
-0.106693449528
0.106550171096
0.105574380169
0.0178756879978
-0.000114158670262
0.00538931500631
0.00387432691072
-0.00394160126325
-0.000222298580163
0.0387886972111
0.169738556014
0.126397430433
-0.26879537918
-0.40634561364
0.0624867755789
0.399974791658
0.0196613246315
-0.328359036436
-0.283497848569
-0.146347740489
0.030651083393
-0.163511239072
-0.303797106814
-0.233022598233
-0.10437312195
0.0355728986108
0.161914427946
-0.0548262375866
-0.0619642114448
0.043380036094
0.0438794668485
0.00547797789243
0.00165222706404
-0.0028128464377
0.00251607810009
0.0035718743535
-0.000922265700716
0.0186097411022
0.125118477499
0.0772494069949
-0.348554853141
-0.52925622781
0.0719928573738
0.469659507342
-0.000188283014056
-0.463014709217
-0.325897897064
-0.0151865896261
0.121890494206
-0.199803125263
-0.391483054286
-0.110076894605
-0.00199314256367
-0.113431857039
-0.0662815358902
-0.0896440536565
-0.066973326913
0.0179452066412
0.0243896927303
0.000771140471298
-0.00666521988109
-0.00424944146174
0.00441892574005
-0.00187555968049
-0.00537537743909
-0.00345727222565
0.0475418069653
0.0384493406073
-0.315906918772
-0.381891812024
0.113983838631
0.40810138798
-0.0789646790485
-0.450136770608
-0.322946563336
-0.101798339745
0.0797345348091
-0.0309877108605
-0.12301548412
0.00509663127283
-0.0346553983094
-0.171399737047
-0.191447715306
-0.204001847504
-0.0801279172699
0.0396165960874
0.0244559523019
-0.000474140511775
-0.00872875791508
-0.00535082311989
0.00411849458174
-0.00448635517667
-0.00657180906548
-0.0361850355483
-0.0576299456124
-0.0687565328925
-0.215402216484
-0.121362537463
0.202150833313
0.309925805414
-0.0547114287442
-0.207182738023
-0.137449367426
-0.0251140516403
0.15078344395
0.178735604809
0.00859325270472
-0.117247105773
-0.184372136341
-0.0873793098235
-0.161260371471
-0.241112663826
-0.0647115666478
0.028431809745
0.00490256120784
-0.00190357805246
-0.00266737823664
0.00293612802963
0.00404997923146
0.0022382662874
-0.00726172785512
-0.0325109351683
-0.13525838409
-0.217782204058
-0.240690192147
-0.0553729995206
0.167731710047
0.169957884907
-0.0228664568089
-0.0855119339526
0.0369167422793
0.045246804384
0.00716092681601
-0.00573472414916
-0.229334486229
-0.407262538557
-0.151302221425
0.0358038163545
-0.076671462971
-0.164931085927
0.0139525099824
0.053873632906
0.00416689214654
0.00488203032806
0.000379636844391
-0.00235807235596
-0.00296839064376
0.0043889630361
-0.00796747633737
-0.0232746780153
-0.0628372387086
-0.190883335011
-0.376547567107
-0.286949588471
-0.0727594000211
-0.0396925489657
-0.0846039895748
-0.126376287376
-0.0486140902164
-0.165127963221
-0.246491172907
-0.29659421124
-0.3494920401
-0.269712731868
-0.0299939266614
0.0140316705881
-0.135357579922
-0.0217676573099
0.0812860007913
0.0512902860454
-0.00260452753809
-0.0039286276536
-0.00363390060467
-0.00185897926062
-0.00286400638757
0.0033077883285
-0.00281041083436
-0.00190147708288
0.0531909305478
0.0549026499697
-0.141505585154
-0.276972210873
-0.133796129808
0.048379548282
-0.0455530504028
-0.107237193302
-0.0483759120878
-0.0960310424885
-0.14766834134
0.0140917604945
0.0427379670938
-0.134562104892
-0.155485103577
-0.203242787333
-0.115573234142
0.0314952226926
0.0553393705294
0.0178894405259
-0.00529621687909
-0.00356360356464
-0.00373070710503
0.00468644436531
-0.00558269891286
0.0027541791841
0.000694418122284
0.0102314810479
0.0591990762537
0.187704173925
0.249277586797
0.131725533591
0.0451643471308
0.0926896317495
0.0582943973128
0.100476100281
0.245378857283
0.0977702983277
0.0250808253614
0.20159202996
0.0242837039708
-0.199409447133
-0.159535788006
-0.0588179749348
0.00831226061301
0.0093028024789
0.00301775618271
0.00882206853815
-0.000589011061845
-0.00409684043045
0.00428414886312
-0.0057007091746
-0.00309008699536
0.00376762016971
-0.00439178163568
0.00114666659451
0.00676481185337
0.0405228039422
0.0907951266748
0.153918575221
0.167662251326
0.106587947908
0.101137849029
0.160981305469
0.212418610139
0.0280303622929
-0.0931818017412
-0.0190964141272
-0.0943650018508
-0.0564589462437
0.118406070262
0.143942928043
0.0713783623414
0.00308260469367
-0.00498697268489
-0.000286296162691
-0.00107826189356
-0.00359507217135
0.00389801239908
0.00389645613908
-0.00249206279615
-0.00143537548637
0.00267039030037
-0.00479200829704
-0.00496202955144
-0.0154750315054
-0.0246387004621
-0.0095807797522
0.00398546352614
-0.055481949693
-0.138850581607
-0.0723088691632
0.0373735850858
0.064497942126
0.0180215904183
0.0305165284794
0.000463644396287
0.0685072753905
0.164059209479
0.106230469164
0.0145330211609
-0.0244688676525
-0.0121948227075
0.000628828055078
0.00431732678921
0.00233065237083
-0.00203545226236
0.00404554988827
-0.00324384522919
0.00462319760756
-0.00283997572957
-0.00346778563607
0.00688937937444
0.000238375870486
0.00624740032556
0.0232269241551
0.0207026703477
-0.0431294488148
-0.134897861807
-0.118675243876
-0.0200489618627
0.0503674225815
0.070752549281
0.0365963398245
-0.0180148922732
0.0133683573352
0.0701557592492
0.049176720467
0.00745898522533
-0.00425495456982
-0.0059252369959
0.00322754967163
0.00313280463465
0.00262336236233
-0.00414088320278
-0.0028519314257
-0.00361390623371
0.00419949716726
-0.00335830161726
0.00512366972644
0.00268329624267
0.00237839011431
-0.00273837773227
0.00619574807664
0.00229518781628
0.000362479317243
-0.00238067149353
0.00186953230056
0.01705532244
0.0415105424267
0.0486199126787
0.0316832261056
0.0105974909984
0.000678739228078
0.0037099776297
0.00219540737064
0.000869063590996
0.00396248127809
-0.000544316771252
0.00365986858216
0.00290932831331
-0.00502711176335
0.0017191607487
-0.0026261086959
0.00111840472231
-0.00192746961448
-0.000314789153106
-0.000292865666958
-0.00220616964969
-0.000867410016009
-8.84771910679e-05
0.000488592802255
-0.00171454526484
0.000493831427029
0.00217399415024
0.00202410058702
0.000861899902991
0.00286976028055
0.0021208370841
0.00193935321352
0.00203481639498
0.001393396155
-0.00117645070026
0.00122946549763
0.0015693677045
-0.00148627317414
-0.000996336132316
-0.00136853866647
0.00141202912758
-0.00202175893031
-0.00111129691697
0.0005459665998
-0.000986905781277
0.00108982283351
-0.00170549877804
0.00262443408879
-0.00112161200764
0.00103440726936
0.00107548799523
-0.00124641374351
0.00251916031091
0.000398485620158
-0.00423064971611
-0.00201832639341
-0.0029626844781
-0.00226790043855
0.000444119003234
-0.00391104851332
0.00111136777585
0.00622894211476
0.00407230611983
-0.00085955793605
-0.000847684458544
-0.00256871713614
0.000582794934245
0.00181256481553
0.000915796375877
0.00115631545144
-0.00147713897545
0.0029615656862
0.000325380576229
-0.00188425501596
0.00112933414161
0.000908669224685
-0.00117232497964
0.00309429723195
0.00197178690453
0.00223222869111
0.00938405689275
0.0215586249948
0.000102528756671
-0.0167293518491
-0.00944514812517
-0.000809822781376
-0.0448455140864
-0.0869675704037
-0.0289976190346
0.0143802471571
-0.0157651716906
-0.0409104879847
-0.028040945666
-0.00783382326841
0.00217505779064
0.0032450265904
-0.00137666144723
0.000770825787581
0.000542061573758
0.000970566177245
-0.00173527024593
-0.000433077813164
-0.00255785052375
-0.00141835027289
0.000502018293838
0.00184764515198
0.00225866808999
0.00546612705088
0.0189140297387
0.0321212530774
0.0101546266544
-0.00313125746293
0.000486368479164
-0.0400825707486
-0.152748695017
-0.203067545363
-0.11621540053
-0.0185716375546
-0.0052480417173
-0.00576106133409
-0.0110910256476
0.0090813713409
0.0228853699023
0.0145683806468
0.00383882878843
0.00268392302911
-0.00201941057605
0.00116510397973
-0.00133262078046
0.00174809210663
0.00154964939838
-0.00163362068059
-0.00261257683529
-0.01626210016
-0.0351470732901
-0.0391970799743
-0.0212042508619
-0.0448242765908
-0.101593626143
-0.134004306797
-0.0522469144904
-0.0729094743716
-0.0164044526123
0.0457100210984
-0.021105110341
-0.134096716006
-0.117999020832
-0.0889298981516
-0.134022479638
-0.0753862737581
0.0190348787931
0.0380358489561
0.019248178835
0.00320615947917
0.000736986306615
-0.00147833793156
0.00186956197933
0.00114396765212
0.00115142646918
0.00181094935571
-0.0132313938984
-0.0440375470521
-0.0203985475666
0.0605629284083
0.0830723877575
-0.0138235280526
-0.179219389739
-0.194095091058
-0.125513363469
-0.0678335516481
0.0623968278981
0.161684357075
0.0805321711418
0.0301890846926
0.155455624476
0.217758439581
0.0718961316481
-0.247118807513
-0.222092776105
-0.0759321050679
-0.00283377321139
0.00775717577256
0.00182593555012
-0.000514452835754
-0.00183770072426
0.000936930121491
-0.000400835947777
0.0195930935132
0.0129910888509
0.0170650978564
0.135909926449
0.262056750968
0.252454333785
0.116059347397
-0.0610010470179
-0.0219417579314
0.00273917296003
0.0213977745007
0.0534133814776
0.0437979450758
-0.075556758644
-0.109264094424
0.0769426513747
0.384268643753
0.435004736924
0.0419240144425
-0.218997242866
-0.0926101745695
0.029748602763
0.0435342951431
0.00872766208355
0.00165255777532
-0.0020992446201
0.00137278290401
0.00311637604127
0.0381290480183
0.0496124307668
0.0982582583132
0.23565836765
0.278894218533
0.190276786169
0.0315976123793
-0.0415693213316
-0.0186328236663
0.0971015709936
0.0287222018969
-0.0791165333802
-0.0957859905955
-0.165299781493
-0.187488459526
0.00611715682708
0.274464198916
0.455058349571
0.320820456011
0.0546378746007
0.0115185931767
0.095788459547
0.0758078480971
0.0134802135782
0.00174556280881
0.000910901451555
0.00220490006328
0.013624705208
0.0638298187005
0.0867972989658
0.09252569601
0.156094422434
0.102628463263
-0.0589685697892
-0.205061285324
-0.204414671215
-0.1252631162
-0.0400474543152
-0.125783461332
-0.215962596698
-0.12959283568
-0.0885037031802
-0.101618064288
-0.100757450566
0.035216257236
0.234208243645
0.318969698323
0.132592488009
-0.0314260733135
0.0381532184421
0.0170020729055
0.00739622842415
-0.0023866962712
0.00165300847617
0.00262880413271
0.0148941174376
0.0549335520699
0.0231601034134
5.31523376525e-05
0.0365335716452
-0.0416407221865
-0.195874939433
-0.222872770229
-0.302022604401
-0.283448682583
-0.115122336291
-0.198921031592
-0.337366791343
-0.284203881064
-0.0586428723482
-0.0306125550037
-0.111518075269
-0.125652496622
0.127607949787
0.209083795374
0.0207898001449
-0.127696379789
0.0260770578216
0.00532729911543
0.00297625491666
-0.000947256847861
0.00177792237044
0.00265730367898
0.00412827380555
0.0136993559714
-0.0417981726876
-0.0929782530476
-0.0557385911915
-0.072184902193
-0.133066403002
-0.14072087837
-0.290559484135
-0.282111465108
-0.12240067852
-0.214354419096
-0.243072716178
-0.183692107774
-0.046076079938
0.101569617957
0.0734399147785
0.0335905335715
0.28923665832
0.282042493311
-0.0682161728846
-0.144125515391
0.088041136913
0.0455538688696
0.0106537505143
0.0022914696931
-0.00226069013867
0.00179951135192
-8.43007949657e-05
0.00141978414484
-0.0282964434773
-0.0800184114531
-0.050642292314
-0.0290184832696
-0.0878834294755
-0.119398432415
-0.217775664491
-0.201088452668
-0.0414915052955
-0.0264702375259
-0.0170202534606
-0.00587629242673
0.0496388041492
0.0467427942086
0.0341938461443
0.220912161074
0.47310530793
0.330367999439
-0.0877462168111
-0.171867849355
0.0613306265406
0.0438020206044
0.0121864031782
0.00317639913242
0.0019474927784
0.00104085074313
0.00515522321161
0.0210345710888
0.0491509234968
-0.0390242015213
-0.0714307261889
-0.0803210037516
-0.180750441236
-0.129915442569
-0.0619056989009
0.0138579706565
0.141675924186
0.254593310453
0.203889489342
0.14090638783
0.0238013127907
-0.17817315278
-0.136237674174
0.239945867324
0.409965885041
0.255012268649
-0.00816427091185
-0.185298615791
-0.0441228950671
0.0223709853611
0.00593940649697
0.000497637481109
-0.00194788103167
0.000723516009578
0.00486205130147
0.0478323814746
0.121726603741
-0.0432236903135
-0.11733408455
-0.143876220124
-0.192565939462
-0.0566027834414
0.0958810218798
0.196919757721
0.260387012435
0.325703816023
0.221167810686
0.176944703436
0.104064816035
-0.0557741819835
-0.008331973577
0.0825844486563
0.0947467896107
0.1263194164
0.0982013519405
-0.159147159886
-0.133251345114
0.0174431290869
0.0021427412553
0.00220736473068
-0.00199989640541
0.00145630093932
-0.000564618207157
0.0754315155199
0.203062220042
0.0571667514424
-0.0661072337622
-0.0204349654008
-0.00357268537516
0.181424854594
0.26400774671
0.163239794867
0.070331785106
0.0412257452351
0.0361209247921
0.152032025877
0.181445530245
0.234572484699
0.307781981586
0.0356996104901
-0.104082684351
0.148289140691
0.17584818453
-0.125386660408
-0.157441438694
0.0301028785778
0.00802342810446
-0.000707488481111
0.00272957343759
0.000934714067305
0.00382050909007
0.130033309
0.318946582447
0.256223766182
0.167902852137
0.189192554161
0.209529214779
0.273785395663
0.188395769277
-0.0503569386042
-0.159189075346
-0.0827423297787
0.0274583902757
0.0774266161013
0.0380740235549
0.182402521692
0.171289925487
-0.117872858568
-0.0614342424984
0.238028758337
0.162123627718
-0.136753761679
-0.106792748239
0.0548245015961
0.0118923842182
0.00211324103952
0.00136203139939
-0.00137165111904
0.0069880332612
0.168545790252
0.388072860382
0.348550636784
0.264571757677
0.104292415307
-0.0173667847506
-0.0404821651746
-0.138560511386
-0.224811115997
-0.112058622355
0.101828036658
0.173696839035
0.190217550686
0.0446016738801
-0.0643718483196
-0.200179564537
-0.235769601488
-0.0369452477898
0.220765443036
0.0940275807863
-0.123857916668
-0.0331452047473
0.0663539897126
0.0107331932374
0.00139900129972
0.000689370305862
0.0017947416982
0.00786774034647
0.203282423074
0.362235253719
0.252963048929
0.0880491222388
-0.152536311326
-0.300950719608
-0.288749497089
-0.279303752526
-0.245876501909
-0.0837454562401
0.121559068421
0.153582262269
0.174319494092
-0.0267904986971
-0.240376029727
-0.231832310605
-0.140172354674
-0.0177590262284
0.163055002717
0.0604623714197
-0.0490565182249
0.014092164734
0.0310343243275
0.00102571317651
-0.00118280489998
0.000572810828946
-0.000679427406979
-0.000175132000961
0.201585106078
0.22941155868
0.144562080263
0.0193395698198
-0.0844311081992
-0.180753973903
-0.106490914828
0.0349662374937
0.144687442795
0.186149003788
0.0887787672648
-0.0727347201027
-0.0518125192351
-0.180140330238
-0.209884515243
-0.0844283751382
-0.0526279740378
0.0894995474434
0.183629621541
0.107760474155
-0.0323332348353
-0.0410903991872
-0.0117081228286
-0.00377899444808
-4.58164296022e-05
0.00268874178203
-0.00140952548564
-0.019250010386
0.135914402316
0.0673551584864
0.113643751888
0.148950400207
0.0945793897614
-0.0303830931866
-0.0451411602224
0.0953214899504
0.100179427175
0.00181587927858
-0.214974541979
-0.350095162136
-0.203971170651
-0.213469766844
-0.181315469765
0.0319775961132
0.148164063803
0.308502224477
0.342004976118
0.104171288276
-0.147714667417
-0.11502881014
-0.0379759321214
-0.0110176073077
0.000773704311777
0.00137209498801
-6.72237461982e-05
-0.0267538841614
0.0362554676
-0.0042675207375
0.124038075632
0.261498042638
0.11781185139
-0.0929858003427
-0.223958396069
-0.279564568898
-0.369667721667
-0.345077425444
-0.37735208719
-0.319382446171
-0.0936386769362
-0.110819310807
-0.100863486596
0.131688597365
0.343617069487
0.398950693063
0.281364906627
-0.0201027338028
-0.135057717236
-0.0773461733218
-0.0221052037437
-0.00476784883122
-0.00162305779844
-0.00228132343548
0.0018297022348
-0.0267576375849
-0.0635780643349
-0.0758977339518
0.0672478028255
0.210743762854
0.0639755248093
-0.111934719083
-0.189664928754
-0.253148972027
-0.297788322189
-0.187320663313
-0.144694751134
-0.0565978497807
0.0112825641583
0.0723321470006
0.160903419302
0.26450943611
0.23778500952
0.106053125325
-0.0110901157155
-0.0613773968364
-0.0438774416363
-0.0140600200023
-0.00254867762239
-0.000842553924463
-0.00181217994599
-0.00216015953141
0.00182563807399
-0.017146788311
-0.0773412689267
-0.114942025449
-0.0120540299106
0.107743438153
0.0086218027307
-0.0307740750821
0.0424472178999
0.0126750941143
-0.00937503115318
0.0481534936132
0.0173128113311
0.000113818839329
0.0453399692306
0.166853389484
0.211287188621
0.0802893300771
-0.161796254296
-0.258909005501
-0.107025076187
-0.00606800924205
-0.000478188958361
0.00652227506568
0.00625150293648
-0.0013667276403
0.00248307109701
-0.000800135105374
0.00111352568178
-0.00337271072941
-0.0418450824172
-0.106262242828
-0.091147565112
-0.00398292896955
0.000981344019483
0.050364476604
0.143195662094
0.116924259872
0.015619524402
-0.0310217833397
-0.0952606402304
-0.149140972145
-0.00699722571599
0.123153556225
0.00747204642585
-0.17421231631
-0.236818650039
-0.139538088885
-0.0335653768419
0.00181998280443
-0.00725251125963
-0.000756964186691
0.00217302516078
0.00063895297843
-0.00162197595184
-0.00124824026909
0.00234400571719
-0.00224688205792
-0.00989540182313
-0.0454062974722
-0.0986589288694
-0.128955214449
-0.0984713541314
-0.0397982927589
0.0619395071135
0.141504179251
0.213657535125
0.190251323286
0.125960251684
0.0319010558119
0.0225923662606
-0.0261372927469
-0.107396859411
-0.0843250926481
-0.024949156167
0.0105237617345
-0.00513759277424
-0.00961212030272
-0.018052349554
-0.0087995922172
0.000174695828568
0.000926488655364
-0.000343861644812
-0.00154823163842
-0.0012555622157
0.00141181006461
-0.00277108566429
-0.00525538619328
-0.0195924047607
-0.0275838911981
0.00934671052111
0.0516256389124
0.0325053787449
-0.0202846021695
-0.00379730120061
0.0875208905289
0.126459844553
0.0673800402143
0.0282246009798
-0.017896983578
-0.0344360207406
-0.0015989743552
0.0531642499622
0.0651663102596
0.0279559736174
0.00856229308764
-0.00667433572184
-0.00207490524594
0.00165089462352
-0.0028220518027
0.00159931139893
-0.00159242567271
-0.000569280964651
-0.00178010310032
-0.000684108322751
7.53362377891e-05
-0.0037034918109
0.00797920694931
0.0368300896229
0.079250542553
0.064700779538
0.0153990545258
-0.0170175040382
-0.00985643947893
-0.00264054357307
-0.0154467033557
-0.0180612615819
-0.03374205959
-0.0250806255565
0.00300275236286
0.0318388698013
0.0383076547736
0.0192880429869
0.00471673714736
0.00168842129122
0.000912165364502
0.000549557143819
-0.000262828390337
-0.00196536144504
-0.000611210949495
0.00143836538717
-0.00195156467883
0.00239095371604
0.000129823995591
-4.29198343658e-05
-0.00028725729499
0.00400811235294
0.00372339036163
0.00423831174998
0.00177403317989
-0.00485569347367
-0.00548199721902
-0.00304539818135
0.00592578310124
0.0173076398903
0.0169731280682
0.00898644323461
0.0022597410104
0.00324674124443
0.00245233833256
0.00524161932275
-0.00119632689198
0.00237325692427
0.00251063964987
-0.000791694192375
0.00241555029018
-0.00200784441739
-0.000538197260724
-0.000391779554992
-0.000417604263403
-0.000897819209859
-0.00095952013595
-0.000871759030672
-0.00133940845086
-0.000563652703736
-0.000292972719058
7.85785738929e-05
0.0014640269957
0.000993102721953
0.000291472155033
-0.000387716428982
-0.00061273074312
0.000581143445837
0.00129671869963
0.000569765360276
-0.000388355543518
-1.20975215416e-05
0.000640536084119
-0.000360636668509
-0.000339958646314
-0.000650728986893
0.00015619407383
-0.000598299715464
-0.000507889479584
0.000462613236678
-0.000532151624039
0.00045900216286
-0.00114836540822
0.00035288854268
-0.000594570620698
0.000194101966222
-0.000802542602558
-0.00565882955886
-0.00198148382495
0.00146647232543
0.00687073566992
0.0064776269518
-0.00304728099035
-0.00846071388033
-0.0130047710767
-0.00202266713247
0.00693229010704
0.00376323940399
-0.00265135818971
-0.00317803403955
-0.00332017201159
-0.0017028773791
-0.00113744811704
0.000626782713639
-0.000219121475367
0.000597628872738
-0.000172134571231
0.000299404880586
-0.000647192535408
-0.000458958236921
0.00107005544121
0.000276266918861
-0.00127156954645
-0.000587119072893
-0.00577619572417
-0.018618748563
-0.0197180507373
-0.00103060847479
0.0200236572874
-0.00351914878572
-0.0729449984273
-0.140669757498
-0.111160424643
0.0360830552667
0.194931255122
0.161965072296
-0.020764819903
-0.102901646114
-0.0720960701366
-0.0293880638459
-0.0168511488703
-0.00428208341467
-0.00263747087879
-0.00023153523726
7.30204296861e-05
0.000460115910559
-0.00125490429617
-0.000379700620023
0.00136591023317
-0.000751835944529
-0.000489527996075
-0.0104928549579
-0.0292607103584
-0.0541291773665
-0.0622888416035
-0.0566034964543
-0.074831886284
-0.16342312795
-0.271632798145
-0.217697398918
0.117913095653
0.649062693647
1.03664280271
0.937625030362
0.468905598904
0.110521909689
-0.0456552778099
-0.0774213986069
-0.0570156305081
-0.0271683865676
-0.0141544354276
-2.07944622396e-05
0.00016093689753
0.000377038886965
-6.67100826275e-05
0.00092225510834
0.000258241168133
0.000271858413994
-0.00523928644765
-0.0295246309725
-0.0619867235773
-0.10016227335
-0.113353173186
-0.116413907859
-0.16885835602
-0.285078216491
-0.287666893949
-0.0348341865082
0.328511097587
0.611500858375
0.682053333165
0.647270214685
0.432243767965
0.193748047477
0.0699823283521
-0.0288592322676
-0.0725370082934
-0.0444161061985
-0.0232911459621
-0.00102429737789
0.00018281332362
-0.000947478356794
0.00044632483402
0.000411776389051
0.00085084047825
-0.000815866829907
-0.0132116975984
-0.037373956825
-0.0744495913502
-0.0719958402681
-0.0671217409341
-0.118646691903
-0.278877316364
-0.340275609416
-0.141363226621
0.219279575253
0.433095946443
0.406680107423
0.232138528976
0.2307285384
0.238471942967
0.0949081041428
0.0147698769945
-0.0616710561917
-0.124972182006
-0.082206572921
-0.0076931328541
0.016102486779
0.00111583372047
-0.00130851239651
-0.00131369264767
0.000387184212707
-0.00137710870342
-0.00300764248563
-0.0197410253873
-0.0316289015288
-0.0373591631785
-0.0105898662402
-0.0431773504989
-0.164916801857
-0.295502470346
-0.171910648
0.0687461389638
0.247594227335
0.225971919598
0.0292553771669
-0.0913917059231
-0.0188266100556
0.0354865548063
-0.0279829857394
-0.0598286418355
-0.109408286572
-0.156707765302
-0.0862484439184
0.0154953355781
0.0344833924016
0.00394912826662
-3.91458502949e-05
-0.000762344547007
0.000358723728894
0.000668149069834
-0.00344178774478
-0.0327399383664
-0.0237387402947
0.019313182714
0.0168607512194
-0.0870739904756
-0.225525372069
-0.182525622291
0.0690886987197
0.265516309667
0.271844978335
0.107379732913
-0.0791952462663
-0.162503696099
-0.225010664582
-0.190729454484
-0.145842882052
-0.139554282622
-0.105623230572
-0.102209366364
-0.0425746607757
0.00924643124086
0.0115048359552
-0.00531517906182
0.000188709305485
0.00056553883275
0.00070287460362
0.00030515280611
-0.0138835101868
-0.0541625082461
-0.0254499304229
0.0156776471726
-0.0148482142035
-0.122180977772
-0.168963985113
-0.030810197266
0.21686241285
0.324373789866
0.159864883483
-0.0361090323993
-0.123983803218
-0.205701864547
-0.282552205838
-0.260158242088
-0.0911474428282
-0.0929475614276
-0.106046099003
-0.0394744397395
0.0151285255557
0.022080708156
0.0045216632141
-0.0054529620445
-0.000625793521423
7.54709480767e-05
0.0022222660559
-0.000979726911791
-0.0232836447298
-0.060810333774
-0.0310823622876
-0.000299280072769
-0.0411170952587
-0.0845369146073
-0.0451996638709
0.132097350036
0.280799975825
0.211291998913
-0.0288962950319
-0.202694361281
-0.211594054454
-0.145615655361
-0.134820286064
-0.122986689091
-0.0098362314989
-0.072623664699
-0.107736771082
-0.0265158117371
0.0268410059287
0.0185251118679
-0.00970028439907
-0.00826243866252
-0.000773718320691
5.03295291601e-05
0.00210618923158
0.00129772332997
-0.0145660293018
-0.0278958109472
-0.021118149135
-0.00412387779243
-0.043634153956
0.0113061475408
0.100745604009
0.211848867993
0.216504145889
0.0302714707502
-0.134269943738
-0.149033525352
-0.131223627715
-0.11670173261
-0.061419915742
-0.0860973683626
-0.0515486921886
-0.1247422063
-0.133980703729
-0.061868601873
-0.00525533449274
0.00560007654532
-0.0031237374379
-0.00353949252466
0.000136327741098
-0.000345340308779
0.00197621986878
0.00191556407533
-0.00234010468023
0.00341266954437
0.0122220712889
-0.00403884397833
-0.0119899958297
0.130230691477
0.187688948449
0.202131409875
0.0387936410791
-0.151796326232
-0.102909771001
-0.100352929855
-0.16671233545
-0.164177191834
-0.0893685337079
-0.0639787216604
0.00255708347417
-0.0279872384754
-0.0857384414372
-0.0668916636999
0.0100655299693
0.030167227429
0.00647504005184
-0.000548881066185
0.000923050367656
0.000327933349291
0.00140376477005
0.00268219686108
0.00298988435199
0.0225014675531
0.0177634600435
-0.0134353764452
0.0595021156187
0.212595476932
0.208054180854
0.0643864187039
-0.181038164654
-0.238036716828
-0.0360790717268
-0.0885353644555
-0.172834607595
-0.180005042124
-0.131459047749
-0.0646951067504
0.0797950090295
0.0749123600425
-0.0214083421129
-0.0573102333968
0.0162542578062
0.0297400582389
0.0108618925356
0.00108744516969
0.000887413779787
-0.000810654007988
0.000419384921972
0.0022212700092
0.00712036541586
0.0173626647666
-0.00932035520882
-0.0104118986067
0.10236095596
0.235574417297
0.147938027173
-0.100371290291
-0.268892522384
-0.115950318553
0.0591621051324
0.0131431834998
-0.0318202509913
-0.0590626669394
-0.157874406337
-0.160858338225
0.00754796445875
0.0442118289669
-0.0456077755562
-0.0742215466455
0.0109749574203
0.036725942275
0.0137239477636
-0.00133650503016
0.000765524294114
-0.00116232632881
0.000388605272144
6.19171589198e-07
0.00352641299387
0.00882811015409
-0.019263903088
0.0320320037222
0.144013625202
0.202649916945
0.0878438171715
-0.132576824694
-0.090103743346
0.104622682012
0.135729456942
0.0483789244643
0.0630531305951
0.108327082673
0.121254115435
0.0577846142147
0.0120340719902
-0.00393191669934
-0.0783164260896
-0.0930741858488
-0.0107062298842
0.0287762670182
0.0158060208341
0.000244616230825
-0.000921501657083
0.000578568939523
0.000180063152334
0.00205209459066
0.00928663411854
0.0111142671981
-0.0272937145148
0.0643381052821
0.114026709417
0.0864079248197
-0.0183595567116
-0.0583252161354
0.0893956370256
0.123371969289
-0.0103086512624
-0.0818189365397
0.00892616011264
0.119274567946
0.220106864301
0.243911510624
0.145697682216
0.062821008732
-0.0546701780448
-0.105911977063
-0.041280019618
0.0231618994973
0.00517782069569
-0.00505330213819
-0.00039069851069
0.000783743237148
-0.000497422405381
0.00270154000905
0.0145950830668
-0.0151153373042
-0.0636266789945
0.0387727522345
0.0259835712676
-0.0214234602267
-0.078403370454
0.010559115131
0.080576324952
-0.0503200233304
-0.16045229606
-0.0943636158755
0.0286093788808
0.121562054592
0.1935042138
0.224311362778
0.146781919878
0.126796552903
0.00634937329788
-0.0812149476526
-0.0582966600312
-0.00404844009812
-0.0125283263099
-0.0079871541506
-0.00259991817795
0.000719426840524
0.000567359337215
0.000565266711199
-0.0014491106672
-0.081285684572
-0.112092836073
0.043162125145
0.0453043724808
-0.00499020104009
-0.0349526669207
-0.00927133316367
-0.0640519123911
-0.154847412746
-0.062194037018
0.0489690605367
0.084007651488
0.0708938265418
0.0713293981266
0.0681973774903
0.129304494802
0.217624014457
0.102633523162
-0.0351082279316
-0.0631936043462
-0.0330626147427
-0.0323918057709
-0.0102632541937
-0.00134795665985
0.000586932614409
-0.000462763934795
-0.00512914337016
-0.0292576103741
-0.14409538861
-0.109781850782
0.139033984563
0.181569733621
0.1206813014
0.0753410403113
-0.0243248233128
-0.142281484665
-0.154511618664
0.00754927557877
0.0123517710288
-0.0153361785888
-0.0710111046968
-0.0162738466555
0.0740224553988
0.205434087007
0.274987099846
0.113206592669
-0.0425209467706
-0.0824600175122
-0.0682100547882
-0.0529179302084
-0.0115141921383
-0.00130139179662
0.000270265970194
-0.00216620170016
-0.00927472158483
-0.0485738132209
-0.169663796495
-0.0780237529535
0.1544744707
0.213083564082
0.195104460174
0.135945015875
0.0706260576723
-0.0568996281943
-0.063408079555
0.0395309383932
-0.0139121501782
0.0389432237425
0.0382170728485
0.0587955849559
0.175956615524
0.259957495299
0.203351794974
0.0935722657454
0.028733307862
-0.027472516583
-0.0543893328488
-0.0421220251562
-0.00828814058043
0.000917700023075
0.000592285810283
0.00067660711267
-0.00229734212831
-0.0257892875043
-0.11690658984
-0.0910321437054
0.0666506906702
0.0377983782473
0.0759423265166
0.240083301099
0.326877513113
0.222714770801
0.158194366644
0.193170193855
0.197417821279
0.257860290822
0.252745148928
0.253987721203
0.259218798444
0.208146028029
0.114672188696
0.10917112919
0.112044338243
0.0476969387984
0.00159165266129
-0.0168909995552
-0.00526909489744
-0.000784088332467
-0.000950423076994
7.21914243415e-06
0.00981490412251
0.0212176595373
-0.0118247981019
-0.0870577821102
-0.0418891416641
-0.065576117831
-0.0712254246792
0.108442303092
0.249865886651
0.124080993185
0.0783521221128
0.149759479996
0.206876866196
0.245318438519
0.30927368443
0.280311131551
0.188432541224
0.0892487998651
0.0518207533478
0.0897206209907
0.0972680101249
0.0587052806244
0.0218995719474
0.00272267385864
-0.00328870174
-0.00031517093715
-0.00040360794959
0.000386860393086
0.00941249051834
0.0461328537085
0.0536473132412
-0.019366201405
-0.0541522783221
-0.0893571409347
-0.147450533193
-0.132858456778
-0.0387874755848
-0.0691596416233
-0.074105923282
0.00118030479541
0.00248552180695
0.0203939392535
0.0715693231425
0.0439862745023
0.0409381031482
0.0327683860041
0.0208741303845
0.0286249963465
0.0119565097461
0.0116393255437
0.0123103762305
0.00629227079393
-0.00185582983424
0.000124408644798
-0.000639494014745
0.000232431568112
0.00093505969134
0.014744805759
0.0227010024914
-0.0127441771095
-0.0854617444875
-0.168386920459
-0.232261201788
-0.227799233564
-0.197483383534
-0.210324781824
-0.204034248592
-0.199533195171
-0.234914189137
-0.172689426755
-0.0768339526612
-0.0379300364262
-0.00961436762909
0.00664061996729
0.000659787161764
-0.00788209678888
-0.0143827493854
-0.00460498370934
0.00359188262148
0.0011936352153
0.000213173324001
-0.000732574565065
3.42425728869e-05
0.000333912520332
-0.000814099284886
-0.000244378019358
-0.000459531892779
-0.00865149797346
-0.028419681711
-0.0263737424773
-0.00881598541892
0.00752417003057
0.00738521672851
0.0130187598402
0.0230493327919
-0.000731469184723
-0.0129427546537
0.00329498525619
0.0133119558002
-0.0244182212138
-0.0228378607781
0.0225804064714
0.0338080108101
0.0216173426118
-0.00420897195485
-0.00886020869474
-0.00436735984641
-0.00170908489794
0.000491493708977
0.000300350732403
-0.000344249787027
-0.00125920834585
1.06859065937e-05
-0.00106633038227
-0.00381385533628
-0.0117610048359
-0.0296897759456
-0.0326435337324
-0.0183446783927
-0.00813486959389
0.00532885949878
0.00822919896169
-0.0131324410904
-0.0442269569799
-0.0238043747962
0.0129864274859
-0.0137813272012
-0.0366465776252
-0.00540351410993
0.0394544216996
0.0477214058715
0.0216514541514
0.00254051651595
-0.00115919314602
-0.000789624507299
0.000773151392699
-0.000796721388511
0.000524725869646
-0.000395519285465
0.000718242639206
6.17731816226e-05
-0.000620186446141
0.000785684535869
-0.00212615462353
-0.0115711081456
-0.0162289803779
-0.00970373196361
0.00130448370629
-0.00527722104847
-0.0182945631534
-0.0292240017746
-0.0326385466522
-0.0172424421926
0.00405538472068
-0.000144254623115
-0.00394576196343
0.0105271854925
0.021467271839
0.0219605308494
0.0098098530853
2.3688905548e-05
-0.000510576321869
0.00104489189846
0.00048029833229
-0.000291926998315
-0.000508549196762
-0.000216959893017
0.000805525489228
-0.000434542751256
0.000695898631868
0.000664164260535
5.31690776076e-05
-0.00112289555805
-0.000889220725047
-0.00174357058094
-0.00203768600032
-0.0104527978185
-0.0160025094435
-0.0150460749651
-0.0105462463015
-0.0110667933204
-0.00734173883155
-0.00122600517267
0.00242929239047
0.00434733434932
0.00246424886314
0.00195687312333
0.000950348503346
-0.00031676830022
0.000337351573037
0.000329674405322
-0.000302185854206
0.000757790197584
-0.000484065076018
-0.000915137068095
0.000453310535608
-0.00128625746593
0.000531601579248
-0.000228008228311
-0.000879024896468
-0.000601713530113
-0.000510719268533
-0.000373714264425
0.000814225546238
-0.000262822702329
-4.69149012228e-05
0.00208795853662
0.002194843076
0.00199311047807
0.00181595767815
-0.000607628156557
0.00220685977516
-0.00029568859124
-0.000783419431107
-0.00029214448619
-0.000949097891932
-0.000593562469302
-0.000512711821368
0.000374108572434
-0.00200869849857
-0.000889654947872
0.00204684117656
0.000278000422187
7.47593881913e-05
-0.00156667907841
-0.000264487584979
-1.01697693295e-05
0.000251129335697
-0.00129682353987
-0.00324044700065
-0.00399564067982
-0.00199387466396
0.00522213273856
0.00650166267983
0.0031575931276
0.00301657163119
0.0016820123137
0.000992939153608
0.00355844340858
0.00378748164736
-0.000573908716087
-0.00216192588668
-0.00258279529927
-0.00191329936344
0.000392750859428
-0.000120140634923
-0.00157052378898
-0.000635322765463
-0.00110612180314
0.000730545582225
-0.00180861657375
-0.000812826434318
0.000389637547242
-0.000446824781086
0.000170227729212
-0.00134776362989
-0.00292079341591
-0.00440070866697
-0.0114178893832
-0.00788872631302
0.018924206961
0.0295287212933
0.0137511872971
0.00816737484891
-0.00499190627889
0.0374455948223
0.0644459093061
0.0329934848659
-0.0245370987663
-0.0508552812756
-0.0453515983294
-0.0260898448864
-0.015983559492
-0.0091565952903
-0.00140003319699
0.00055048175547
-0.0004782478221
0.00123109743725
-0.00124855166165
-0.00108992647622
-0.000179600964411
0.000325261588266
0.000850162897114
-0.00442702663899
-0.00869458352178
-0.017938173031
-0.0341971299148
-0.0382475221155
-0.00556546710274
0.0191202197257
-0.00258293943839
-0.0310019214161
-0.0639842615943
-0.0558490526238
-0.034050960592
-0.00501596358551
0.0216001412324
0.0612779005752
0.0571050297002
0.0309918602143
0.0113311430037
0.00487529356913
0.00219031123068
0.00129947337949
-0.000311461817335
0.000418433403098
-0.000332160365123
0.000785505420891
0.000439304155903
0.000128634529485
-0.00365640295086
-0.0183249267198
-0.0251012838934
-0.0476192062243
-0.0671540200809
-0.0366718706792
0.0125717388973
0.0238966048631
0.00310672508401
0.021509231066
-0.0114137530179
-0.102999957875
-0.105740137562
-0.00956862967961
0.0565397842738
0.105143040999
0.13970099214
0.115953786101
0.0846260678528
0.0466975080912
0.0181356771165
0.00370717492874
0.000707056471067
-0.000183571407983
0.00080355361991
-0.000262623101063
-0.000837040255624
0.000132516633201
-0.00353877869084
-0.0048830701115
0.0120813892556
-0.0263399944298
-0.0204458052343
0.070952380262
0.118819501624
0.082269329721
-0.00262440978903
0.027877763907
0.159092214983
0.273492217838
0.345077276363
0.263742804248
0.0254156147591
-0.085259758905
-0.0160765892345
0.0293344575464
0.0340570049129
0.0265080376059
0.00406439351451
-0.00615393671423
-0.00342638409905
-3.88780629096e-05
2.25290473856e-05
-0.00025414572287
0.00184966680487
0.00386113345981
0.0270207420079
0.0589171606442
0.0379572011064
-0.112256265692
-0.175027063767
-0.0638531800032
-0.0538220376449
-0.141138215093
-0.341863870786
-0.318804189756
-0.218909107586
-0.110340757833
0.058582281192
0.0739163651667
-0.199143858557
-0.289177595914
-0.0839849441415
-0.0254977100335
-0.00756233094703
-0.0071872417123
-0.037983958622
-0.0461872084493
-0.0164166973006
0.000433851852757
0.000162468874163
0.00639426383658
0.0327417708073
0.0896355252223
0.204685084155
0.201507763804
0.0050523907634
-0.277378862186
-0.392438718413
-0.233052911257
-0.184891497134
-0.234594879242
-0.411844980363
-0.38956510941
-0.317371132086
-0.0793676139034
0.177561847648
0.158937091428
-0.211922987798
-0.372772927043
-0.10596539474
0.0753888325765
0.0590258280156
0.0166393997032
-0.0139426221283
-0.0236701191463
-0.0159715276304
0.00101977221289
0.000756598156465
0.0247198800381
0.128616994373
0.310511610901
0.434391069878
0.426192540958
0.226188632727
-0.0110316456844
-0.126796699922
-0.0199274385059
0.172071714123
0.232537905015
0.0859753337074
-0.0128382881708
-0.0471246965067
0.240693429156
0.517706703207
0.461396682156
0.173780593622
-0.120574693421
-0.0403965695568
0.113044025858
0.155508853101
0.126733500565
0.0654957936737
0.00422731987751
-0.00872781492136
-0.000294486007962
0.0032168926062
0.0276366512619
0.150670585733
0.322149687671
0.418267313671
0.395369385514
0.3500032757
0.218918538789
0.0631330178667
0.186814982176
0.445771690875
0.377757995207
0.0475101608997
-0.116392273364
-0.25222520936
-0.0956526781038
0.16004947435
0.262920041427
0.291155395939
0.0250099934676
-0.18778367235
-0.0995424092189
0.102591042825
0.138242445003
0.0538423079768
-0.00638861665502
-0.00834283621447
-0.00119540873762
0.00445038303871
0.0128184088373
0.0455953704776
0.053885046427
0.020453440252
0.0600806295627
0.0975071333057
-0.062778945645
-0.108000861451
0.0398355676363
0.156464653148
-0.00914347585236
-0.234977422387
-0.221368262937
-0.33358020951
-0.285633401152
-0.30374613083
-0.0232785473887
0.311763010899
0.124836034875
-0.236439925815
-0.187537052596
0.0709477194324
0.106524251765
0.00706979143959
-0.0247688179582
-0.00950320986924
0.00153194835102
0.000377144067189
-0.00596297588855
-0.0337913320268
-0.125661788759
-0.263498186166
-0.233398939607
-0.232328111721
-0.389223097903
-0.299257060941
-0.154196707949
-0.144790602108
-0.273539369441
-0.240640985899
-0.161822967146
-0.302492069816
-0.364580012588
-0.450967268073
-0.11528217315
0.359015541136
0.143020399476
-0.100384069205
-0.0311636353875
0.0810971923751
0.0553201879765
-0.00822792837111
-0.0230121605615
-0.00737393628151
-0.000286511453797
-0.000949096690145
-0.00668011604327
-0.0344860586996
-0.124155671557
-0.230082944825
-0.194058981555
-0.272422031293
-0.37798256916
-0.214520731486
0.0267284738091
0.0282256534123
-0.126185364887
-0.181260054278
-0.193205280665
-0.307274637941
-0.320417132261
-0.345139624117
-0.106134789957
0.355246512757
0.101962411856
-0.000344444111716
0.145971476183
0.0779198136139
-0.00478670672786
-0.0398846281892
-0.0278849603878
-0.00841089484089
-0.00062595599361
-0.000654483506128
-0.00121334683845
-0.0150883005691
-0.0713379745054
-0.132655009347
-0.0402951535469
-0.108792378014
-0.277006485897
-0.149353455632
0.19919753319
0.282310998537
0.106874739621
-0.0795200428364
-0.130601934023
-0.0916596008707
-0.0192147172594
-0.193031556528
-0.0620111171274
0.300854003076
-0.031340419461
-0.0945543390274
0.133570784518
0.0678850985615
-0.0543730715595
-0.0646680338474
-0.0401791308681
-0.00764442631409
-0.00199663830231
-0.000745399763011
0.000814476814505
-0.00559226015634
-0.0369565079424
-0.0612572367096
0.0885005126449
0.0469783938603
-0.193048964453
-0.300425608317
-0.0608812245185
0.274128912599
0.284673262492
0.129481642104
0.11863575975
0.0395085708511
-0.0953424475091
-0.313405449016
-0.137211001603
0.201670512349
-0.160430954325
-0.22064344251
0.0651779360481
0.0372315810102
-0.0650472545088
-0.0678103950961
-0.0404421486732
-0.00567390253374
6.72174739232e-05
0.000637657365564
0.000453932236675
0.000259290646736
-0.00931583902048
-0.00521689345226
0.144825796445
0.171403123787
-0.0872771461604
-0.347953695827
-0.314937209802
0.0481648968882
0.157583103271
-0.00224002906461
-0.135338289105
-0.356235063876
-0.441350757184
-0.458661205126
-0.187147651457
0.0724426615005
-0.189558229305
-0.189737430804
0.0783411269034
0.0178553964996
-0.0832231584198
-0.0513204569838
-0.0374597441619
-0.00346681442968
0.00074195114006
0.00121944952732
3.72801989919e-07
-0.000389671544122
0.00574959774085
0.016241914183
0.0723766171511
0.148533929344
0.021178423256
-0.201143350878
-0.248176098
0.00021998258789
-0.00523340993695
-0.261941895604
-0.372608240797
-0.454417701396
-0.291025887521
-0.209072095925
-0.078159883753
0.160110875398
-0.0174213156597
0.0248976791114
0.16427116956
0.00772131355338
-0.0623463506943
-0.020209606901
-0.0311859972107
-0.0104594842259
-0.0027625693921
9.64779212996e-05
0.000357052122466
-0.00184472021608
0.0211998219265
0.0148430157908
-0.0723470290696
0.0547464615892
-0.0087091613465
-0.223749525083
-0.262476922278
-0.0106930725596
0.0478412210776
-0.0254125462228
-0.0485663364512
-0.0489171112157
0.0563120543683
-0.0638499789171
-0.0676893404451
0.167791112719
0.00916504944574
0.0911656947498
0.193364653838
0.0371733968397
0.0440815863448
0.0498619005422
0.0150681003398
-0.00237859424552
-0.000488862429021
0.00152320277008
-0.000691158241721
-0.00480183947827
0.0267120146475
0.0268455861763
-0.0984859229515
0.00205757056923
0.0284479295257
-0.199993227955
-0.320539785901
-0.0763716068405
0.0934659220927
0.144185811999
0.138821767707
0.048652302091
0.0458452408679
-0.107553956076
0.00498992252345
0.17647500372
-0.0659820077607
-0.0010947472473
0.139073519374
0.0996560454527
0.137090890424
0.0796285620787
0.0210860593656
-0.0061998646149
-0.00055739280362
0.000200343666586
-0.00136397579586
-0.0136421108668
0.0104762747949
0.0561172486746
-0.0466787460663
0.0306945346044
0.13016626727
0.00834663868343
-0.188423720005
-0.0292553537951
0.0810118262145
-0.0145981119449
-0.157457132192
-0.241863285993
-0.152319626602
-0.0290659954483
0.321941161399
0.308554547552
-0.139210680374
-0.180398345222
-0.0170562935541
0.0588866143799
0.0760475072509
-0.00998517402622
-0.0302871845165
-0.0127084807152
-0.000134118613178
0.000652706447236
0.0006647740588
-0.0153959329967
-0.0221788424995
0.0448231915886
0.0035703933175
-0.0029887534009
0.102758443252
0.0967459680976
